219 100
not 0.000365 0.026863 -0.185115 -0.034806 -0.204303 0.141724 0.016484 0.086960 -0.180345 0.071783 -0.054632 0.201172 -0.131728 -0.212162 0.006053 0.075627 0.002138 -0.116637 -0.128688 -0.023170 0.107756 -0.094821 0.178837 -0.018814 0.012528 0.131059 -0.136538 -0.039779 -0.130211 0.170507 -0.089918 0.118998 -0.036211 0.052391 -0.263433 0.062398 0.079584 -0.021019 0.150086 0.108120 0.023063 -0.076606 -0.110598 0.122439 0.058322 0.135621 -0.028819 0.084734 0.010410 0.058847 0.006962 0.029975 -0.016911 -0.037528 -0.031157 0.027242 -0.095069 0.028127 0.012377 -0.060708 0.015782 0.001135 -0.071256 -0.155143 -0.015586 0.031344 -0.031906 0.063189 0.019028 -0.319305 -0.084837 -0.035507 0.034328 0.090549 0.099575 -0.065455 0.003839 -0.059000 -0.066539 -0.143726 0.030822 -0.024933 0.113463 0.053477 0.042590 -0.060348 0.006579 0.123959 0.026621 -0.065343 0.050480 -0.117086 0.072743 0.020711 -0.158524 0.006483 -0.086217 0.110205 -0.077084 -0.194075
good 0.008486 0.035315 -0.200111 -0.059451 -0.170565 0.179854 -0.048522 0.017761 -0.151200 0.044989 -0.001308 0.132202 -0.050948 -0.224882 -0.078160 0.152877 -0.037251 -0.097695 -0.051544 -0.084287 0.032957 -0.102081 0.079500 0.041311 0.071351 0.182641 -0.189096 -0.033285 -0.148206 0.217629 -0.039135 0.154822 -0.004854 0.079347 -0.182830 0.038375 0.153697 -0.013369 0.094414 0.035381 -0.009095 -0.088549 -0.099308 0.099108 0.031245 0.123423 0.014692 0.080190 0.047144 0.127134 -0.008708 -0.021318 -0.010391 -0.113944 -0.048548 0.061684 -0.086247 0.097296 0.011955 -0.056746 0.030770 0.027768 -0.129273 -0.170415 -0.038223 0.080020 -0.091802 0.054047 0.011384 -0.223395 -0.094194 -0.020130 -0.000164 0.150703 0.122456 -0.119628 -0.050821 -0.065738 -0.006698 -0.104521 0.016800 -0.096026 0.078959 0.033549 0.046502 -0.071778 -0.007198 0.033589 0.051740 -0.056467 -0.017803 -0.183570 0.118210 -0.071396 -0.201694 0.032284 -0.125723 0.073234 -0.052821 -0.160135
very -0.056144 0.024944 -0.184370 -0.116407 -0.175314 0.158926 -0.046543 0.094828 -0.117726 0.023824 -0.024745 0.179823 -0.072530 -0.140836 -0.023804 0.140851 0.031693 -0.132248 -0.132685 0.003357 0.080304 -0.127151 0.159015 0.026666 -0.005067 0.140113 -0.178613 -0.040297 -0.078290 0.174051 -0.092961 0.092338 0.014691 -0.004609 -0.259541 -0.005176 0.143822 0.055084 0.142534 0.050700 0.058237 -0.007583 -0.021192 0.170426 0.068901 0.063666 -0.010482 0.132175 0.006458 0.031194 0.073766 -0.014841 -0.034991 -0.026477 -0.040793 0.107624 -0.043101 0.070880 -0.000841 -0.038599 0.059567 0.027761 -0.063199 -0.203343 -0.034661 -0.010230 -0.042694 0.122835 0.023770 -0.291498 -0.068232 -0.101691 -0.005152 0.148839 0.143403 -0.136066 0.001701 0.010223 -0.027690 -0.186320 0.088874 -0.029769 0.106869 0.048704 0.019044 0.002492 0.001217 0.143138 0.034777 -0.080020 0.045310 -0.118788 0.023670 0.006401 -0.164346 0.018972 -0.105911 0.093421 -0.011548 -0.113401
great 0.004067 0.112407 -0.095847 -0.142063 -0.186732 0.161416 -0.075711 0.134638 -0.162740 -0.025912 -0.027311 0.122838 -0.184096 -0.186123 -0.043554 0.117881 -0.000733 -0.039416 -0.004744 -0.064929 0.032695 -0.043463 0.164494 0.018268 0.038151 0.135008 -0.177729 -0.050778 -0.007083 0.137447 -0.125187 0.126822 0.035303 0.081883 -0.291185 -0.035361 0.090060 -0.067871 0.154125 0.162588 0.095903 -0.077647 -0.110190 0.060390 0.047945 0.132397 -0.109003 0.126777 -0.044696 0.008628 0.065470 0.053742 0.095166 -0.047038 -0.040573 0.094258 -0.101573 0.112423 0.007812 0.021841 0.122017 -0.039197 -0.152644 -0.196928 0.055145 0.011757 -0.074519 0.002387 -0.050344 -0.268148 -0.018928 -0.019916 0.041408 0.070298 0.063486 -0.039156 -0.046965 -0.094595 -0.007950 -0.141937 0.090745 0.030135 0.099115 0.077709 -0.060794 0.020126 0.064962 0.050501 0.039431 -0.068588 -0.025889 -0.059113 -0.006513 -0.008352 -0.121761 0.035980 -0.014271 0.131638 -0.128442 -0.111245
 -0.185164 0.044035 -0.091602 -0.109394 -0.029362 -0.149525 -0.132968 -0.141502 -0.180259 -0.115850 0.023712 -0.152370 0.130580 0.093008 -0.053717 0.112035 -0.040372 -0.149405 0.015899 -0.112054 -0.136604 0.169582 0.074984 0.053144 0.104419 -0.086237 -0.049503 0.179836 0.053813 0.078465 -0.062700 -0.025168 -0.068917 0.014668 0.125967 -0.097402 -0.105276 0.159216 -0.163418 -0.073064 0.112896 -0.007303 0.088870 0.058533 0.032782 -0.178845 0.014065 -0.164955 -0.145624 0.004718 -0.178882 -0.028934 0.089692 -0.035107 -0.027287 0.155044 0.167977 0.053093 0.173106 0.122409 -0.025646 -0.082580 -0.057676 0.090906 -0.150594 0.043373 -0.035748 0.095292 0.168308 -0.063783 0.025563 0.022564 -0.010458 0.083128 -0.029122 0.040178 -0.087309 0.061280 -0.070521 0.074060 -0.158341 -0.052057 -0.128941 -0.087438 -0.070214 -0.002622 -0.062028 -0.029006 0.032297 -0.074795 0.073501 -0.089229 0.090394 0.089412 -0.037133 -0.021337 0.117255 -0.159519 -0.011666 0.083162
so 0.031051 -0.010555 -0.103941 -0.080116 -0.177807 0.133175 -0.032287 0.043805 -0.105109 0.099877 -0.059189 0.194719 -0.098201 -0.197436 0.042851 0.142902 -0.051370 -0.106969 -0.136190 -0.007784 0.085670 -0.077824 0.163027 0.032864 -0.002705 0.094362 -0.187214 0.009824 -0.122082 0.143552 -0.092867 0.134642 -0.077632 0.045282 -0.232291 0.037008 0.076473 -0.020987 0.158045 0.118939 -0.020709 -0.098702 -0.113970 0.124245 -0.006169 0.086409 -0.085052 0.123510 0.007176 0.044575 0.001457 -0.021861 -0.022953 -0.029102 -0.018368 0.024229 -0.141063 0.004469 0.001160 -0.033488 0.097974 -0.017933 -0.129795 -0.152428 -0.013751 0.090208 -0.037871 0.067194 -0.058175 -0.295896 -0.087568 -0.071893 0.006739 0.130389 0.171223 -0.070063 0.006379 -0.091318 -0.013447 -0.174202 0.003956 -0.045173 0.084830 0.035354 -0.019042 -0.092306 -0.037535 0.146726 0.021027 0.007943 -0.032943 -0.179680 0.040559 -0.064795 -0.180802 0.065498 -0.098027 0.026999 -0.023995 -0.156739
bad -0.018532 0.069838 -0.191333 -0.086749 -0.169550 0.168209 0.058455 0.082650 -0.178955 0.087840 0.008919 0.110592 -0.169257 -0.070817 -0.083215 0.142340 -0.008782 -0.102429 -0.122104 0.046596 0.064704 -0.134209 0.107515 0.022769 0.064518 0.154688 -0.066738 -0.103052 -0.090108 0.063410 -0.092560 0.081516 -0.046720 -0.029827 -0.231941 0.055310 0.079949 -0.037219 0.151558 0.140497 -0.038813 -0.014513 -0.106995 0.093449 0.034396 0.156551 -0.103695 0.133997 -0.052923 0.141583 0.029462 0.032180 0.056620 -0.115179 0.056932 -0.019316 -0.134502 0.078904 -0.050323 -0.030657 0.076548 -0.022802 -0.145049 -0.128745 0.008647 -0.011044 0.029880 0.096273 -0.013811 -0.279574 -0.008524 -0.051747 -0.030369 0.122514 0.115346 -0.056726 -0.073578 -0.022075 -0.067399 -0.157808 0.024718 -0.018684 0.107715 0.085108 0.085616 -0.032383 -0.044948 0.025392 0.030366 -0.101567 -0.057757 -0.167111 0.089010 -0.045216 -0.177438 -0.003303 -0.145048 0.111042 -0.056665 -0.155009
just -0.029748 0.028113 -0.208032 -0.087449 -0.135979 0.169945 0.051780 0.107116 -0.162656 0.022378 -0.029781 0.129429 -0.102709 -0.122409 -0.057479 0.076682 0.022928 -0.138100 -0.045492 -0.079400 0.045572 -0.091179 0.141414 -0.001390 -0.014660 0.121944 -0.096677 -0.090863 -0.147272 0.202164 -0.074691 0.080746 -0.074714 0.037766 -0.270799 0.055771 0.163093 0.010839 0.086922 0.061137 -0.024031 -0.113080 -0.127484 0.098474 0.102643 0.122228 0.016068 0.177465 -0.016996 0.104577 -0.034579 0.046675 0.055291 -0.082108 -0.035238 0.060209 -0.064776 0.054422 0.053273 -0.031982 0.085512 -0.012000 -0.142902 -0.206773 0.029155 -0.015802 0.021341 0.132372 0.024543 -0.241085 -0.122982 -0.006480 -0.038732 0.038668 0.181588 -0.041301 -0.036197 -0.061682 0.022279 -0.100932 0.096458 -0.040117 0.094332 0.084451 -0.036032 -0.005148 -0.002986 0.128561 0.018505 -0.081669 0.013214 -0.188131 0.105611 -0.065200 -0.180661 -0.045497 -0.048512 0.031321 -0.032189 -0.153694
really 0.029433 0.010092 -0.129178 -0.052089 -0.128171 0.048197 -0.054692 0.024186 -0.111028 0.002755 -0.004435 0.192926 -0.031782 -0.166916 0.055173 0.126204 -0.087044 -0.027863 -0.045440 -0.070651 0.041410 -0.155759 0.165347 0.005135 0.065156 0.047430 -0.154540 -0.073964 -0.073793 0.118125 -0.128515 0.154479 0.035038 -0.009030 -0.292627 0.073131 0.070225 0.012807 0.186961 0.033893 0.033047 -0.028364 -0.132132 0.160520 -0.032808 0.055587 -0.023537 0.066599 -0.037030 0.148352 -0.006602 0.001601 0.002693 -0.035303 0.075337 -0.015744 -0.102912 0.084731 -0.045441 -0.073345 0.116271 -0.049315 -0.114949 -0.202144 -0.068108 0.099737 0.037532 0.124259 -0.090911 -0.316794 -0.058978 0.001220 0.083171 0.130424 0.107206 -0.052570 0.024744 -0.100640 0.005516 -0.192994 -0.004474 0.010963 0.039042 0.085149 -0.020795 -0.113861 0.014466 0.019306 0.061394 -0.074070 0.060618 -0.144892 0.123303 0.009112 -0.170786 0.041062 -0.059028 0.034634 -0.036516 -0.207812
well -0.077704 0.047443 -0.108144 -0.064283 -0.137379 0.147765 0.051049 0.091324 -0.105796 0.055061 0.017961 0.190059 -0.133555 -0.177023 -0.039674 0.157146 0.005069 -0.089848 -0.140829 -0.085432 0.074479 -0.148149 0.138096 0.041425 0.009993 0.142832 -0.084130 -0.088006 -0.130220 0.160070 -0.113359 0.120628 -0.087898 0.029530 -0.166912 0.085350 0.102183 0.049274 0.075583 0.123305 0.088316 -0.018494 -0.100074 0.149509 0.027274 0.123585 -0.051938 0.097718 0.006092 0.119045 -0.012189 -0.051585 -0.009315 -0.095350 -0.050842 0.075772 -0.022734 0.103031 0.034905 -0.007551 0.007539 0.071949 -0.115134 -0.191943 -0.083182 0.045052 -0.005442 0.068419 -0.003121 -0.297341 -0.090475 -0.019385 -0.047785 0.142112 0.072863 -0.117884 -0.037762 -0.076989 -0.056348 -0.181685 -0.021092 0.002304 0.119127 0.087110 -0.041831 -0.110852 -0.050977 0.108397 -0.036874 -0.098630 -0.023542 -0.185349 0.073034 -0.040560 -0.135249 0.055331 -0.135176 0.068638 -0.027898 -0.127145
will 0.020733 0.081333 -0.146970 -0.084891 -0.201610 0.074213 -0.027089 0.136944 -0.131439 -0.003177 0.045852 0.156603 -0.151052 -0.188930 0.000825 0.038930 0.001443 -0.091494 -0.076729 -0.046981 0.053145 -0.154072 0.185357 -0.038463 0.068064 0.079947 -0.198066 -0.088401 -0.140454 0.089951 -0.034198 0.072369 0.005604 0.046364 -0.226961 0.018850 0.114691 0.034732 0.161259 0.138285 0.039090 -0.059355 -0.130523 0.095135 0.086412 0.079753 0.007155 0.168551 0.049338 0.038885 -0.025084 0.000455 0.053582 -0.044469 -0.016939 0.026571 -0.113839 0.114236 -0.028357 -0.059896 0.082087 -0.000778 -0.130279 -0.216173 0.044950 -0.013034 -0.082979 0.128584 -0.059830 -0.298154 -0.049506 -0.083976 0.063948 0.117872 0.095510 -0.119627 -0.005164 -0.041378 -0.066949 -0.116828 0.099776 0.017863 0.025083 0.081892 0.010723 -0.111365 -0.065084 0.051189 0.011159 0.003000 0.066269 -0.166300 0.083954 -0.061008 -0.095802 -0.023010 -0.131200 0.116875 -0.059354 -0.110775
could -0.059376 0.059025 -0.137982 -0.027718 -0.193719 0.098184 -0.075376 0.148520 -0.199193 -0.002981 0.059470 0.211171 -0.114517 -0.086425 0.028701 0.144899 -0.055188 -0.152317 -0.032271 0.035095 0.110825 -0.152700 0.092592 -0.033521 0.115082 0.178179 -0.151945 -0.079892 -0.113774 0.172836 -0.043483 0.089988 -0.099057 0.056768 -0.183810 -0.023459 0.126382 -0.064406 0.168960 0.105247 0.093932 -0.046317 -0.073463 0.129018 0.088044 0.112138 -0.061394 0.083219 -0.017362 0.051346 -0.048668 0.052469 0.009148 -0.030852 0.076113 0.026634 -0.155892 0.009363 0.047189 -0.010604 0.022391 0.085729 -0.077888 -0.081216 -0.062332 0.066994 -0.078228 -0.004236 0.016142 -0.306833 -0.126600 -0.024702 -0.002074 0.028594 0.139013 -0.131584 -0.012040 -0.080139 -0.044974 -0.164746 0.085131 -0.016084 0.098486 0.132253 -0.055906 -0.016486 0.062325 0.074132 0.068858 -0.042802 0.004595 -0.128467 0.058593 -0.018442 -0.172721 -0.010263 -0.131041 0.046736 -0.085173 -0.057827
would -0.055026 0.029069 -0.167320 -0.030524 -0.145003 0.047326 0.027350 0.019627 -0.100406 0.139243 -0.011517 0.144508 -0.157791 -0.158115 -0.013917 0.145065 -0.055285 -0.181052 -0.154474 -0.114060 0.022030 -0.128850 0.168312 -0.026041 -0.016571 0.116468 -0.137493 -0.098673 -0.038002 0.192668 0.002513 0.100451 -0.015542 0.089567 -0.153588 0.036844 0.137831 0.071883 0.118522 0.131667 0.046486 -0.083859 -0.000095 0.140883 -0.019487 0.092764 -0.082200 0.034948 0.100096 0.003897 0.056208 0.018083 -0.045690 -0.033318 0.079619 0.074418 -0.060714 0.093517 0.085281 -0.021081 0.131288 0.044347 -0.188696 -0.120489 -0.049623 0.108460 -0.062094 0.085232 0.015964 -0.270502 -0.009270 -0.043149 0.080618 0.100296 0.158022 -0.130333 0.000405 -0.125547 0.027135 -0.155800 0.046274 -0.038690 0.177053 0.152634 0.057785 -0.098910 0.008414 0.073606 -0.010493 0.010085 0.068104 -0.110920 -0.021843 0.039618 -0.071809 0.032781 -0.041600 0.021199 -0.029264 -0.230282
best -0.080209 -0.042349 -0.070937 0.033713 -0.097588 0.112919 -0.064911 0.029929 -0.109324 0.102074 -0.109328 0.227015 -0.084316 -0.226996 0.069379 0.107185 -0.087764 -0.066345 -0.041976 -0.111845 0.088366 -0.148325 0.117054 -0.036485 0.047345 0.164311 -0.115164 0.031442 -0.109292 0.093323 -0.080972 0.152484 0.044640 0.072971 -0.276497 0.012044 0.047868 0.012861 0.107699 0.109405 -0.069113 -0.050471 0.028391 0.037281 0.036614 0.048521 -0.023276 0.053419 -0.067062 -0.008902 0.107983 0.068042 0.039772 -0.118742 0.038450 0.112743 0.007501 0.108747 -0.089215 0.019205 0.137950 -0.069394 -0.049933 -0.167587 -0.039410 -0.021637 -0.000125 0.138425 0.053790 -0.318881 0.032109 0.038241 0.097574 -0.012938 0.200136 0.024351 -0.055196 -0.018798 -0.087089 -0.169506 -0.006970 -0.030367 0.048511 0.102873 0.111703 -0.041578 0.036142 0.051350 -0.015751 0.022986 -0.056153 -0.149299 -0.005658 0.083073 -0.235456 0.010722 -0.033796 0.094573 -0.155899 -0.082901
only -0.062480 0.050696 -0.216249 -0.004926 -0.181993 0.058178 0.068470 0.132700 -0.174815 -0.005877 0.043497 0.098351 -0.159584 -0.141833 -0.090384 0.103666 -0.005373 -0.117469 -0.043658 -0.006546 0.122464 -0.091954 0.073186 0.049060 0.054292 0.131905 -0.182914 0.014282 -0.107880 0.211272 -0.137175 0.115898 -0.058913 0.024446 -0.290584 0.084646 0.043211 0.046278 0.181262 0.084379 0.015185 -0.041712 -0.058732 0.181992 -0.020441 0.153371 -0.070560 0.155231 0.022022 0.033708 -0.011307 -0.013420 0.048889 -0.038395 0.010038 -0.005395 -0.124439 -0.015698 0.040859 -0.026699 -0.023435 0.068604 -0.082722 -0.123111 -0.064502 0.056106 0.014233 0.077176 -0.041843 -0.283659 -0.091486 -0.046964 0.051515 0.102284 0.080665 -0.121258 -0.048698 -0.025109 -0.046841 -0.155859 0.067386 -0.026390 0.051411 0.119986 0.043974 -0.100768 -0.013599 0.141811 -0.013444 -0.051449 0.077401 -0.059663 0.069863 0.052755 -0.120797 0.013023 -0.053924 0.074184 -0.040464 -0.199161
here -0.054955 0.029845 -0.093408 -0.129897 -0.165563 0.085199 -0.038236 0.014095 -0.172223 0.078406 -0.066894 0.159368 -0.072306 -0.202714 -0.035962 0.116929 -0.073883 -0.154184 -0.039111 -0.004262 0.061004 -0.024772 0.157825 0.041233 -0.029050 0.133674 -0.167166 -0.048607 -0.033076 0.183708 -0.091623 0.150061 -0.043030 0.047569 -0.283396 0.079828 0.058735 -0.033108 0.180224 0.067573 0.017682 -0.007867 -0.015321 0.052621 0.100806 0.096700 -0.081157 0.134401 0.027400 0.100065 0.043151 0.015573 -0.054665 -0.022488 0.009447 0.053934 -0.153416 0.037332 -0.032034 -0.027001 0.062967 0.030590 -0.070937 -0.155644 -0.027817 0.028874 -0.072524 0.086700 -0.003789 -0.322163 -0.119503 -0.118414 -0.003686 0.096786 0.098272 -0.035108 0.031952 0.013529 0.009752 -0.193655 0.098857 -0.002738 0.128736 0.130922 0.025275 -0.091914 -0.058477 0.067418 0.025415 -0.011760 0.034340 -0.111953 0.053272 -0.031265 -0.204086 -0.008409 -0.029523 0.091611 -0.008459 -0.187292
even -0.071339 0.002044 -0.184116 -0.015589 -0.143282 0.126158 -0.033266 0.061944 -0.076090 0.118581 -0.058087 0.149521 -0.061832 -0.197949 -0.015510 0.051690 -0.057465 -0.111085 -0.147681 -0.027612 0.101010 -0.164004 0.167496 0.063384 -0.002268 0.078713 -0.207229 0.033989 -0.004487 0.083979 -0.029433 0.030900 -0.070961 0.059126 -0.301125 0.099319 0.161158 -0.000813 0.092049 0.080615 0.080321 -0.044022 -0.144758 0.150850 0.059014 0.096813 -0.031715 0.158959 0.041003 0.147182 0.099032 -0.029198 0.092546 0.020838 -0.039936 0.029795 -0.010525 0.032660 0.074949 -0.106290 0.061782 -0.003409 -0.114647 -0.159536 -0.098323 0.051242 0.050944 0.011295 0.026226 -0.216515 -0.038524 -0.065824 0.027454 0.125986 0.087818 -0.135557 0.019600 0.019077 0.035907 -0.187642 0.111387 -0.019374 0.061106 0.137046 -0.069248 0.021037 0.059440 0.104351 -0.064057 -0.092442 0.045064 -0.191558 0.019957 -0.068414 -0.160305 -0.032505 -0.001680 0.087687 0.013638 -0.140153
ever -0.039340 0.091926 -0.171602 0.009297 -0.081840 0.051210 -0.028718 0.122062 -0.143374 0.104396 -0.078560 0.140775 -0.110463 -0.133811 -0.028453 0.109700 -0.058156 -0.171131 -0.105576 -0.031439 0.028935 -0.039859 0.113049 0.031401 0.006235 0.193700 -0.155681 -0.001025 -0.147915 0.208286 -0.092464 0.080232 0.048875 0.002839 -0.256562 -0.003803 0.030935 -0.008315 0.130634 0.023506 0.061900 -0.027108 -0.135814 0.139706 0.127320 0.135682 -0.061425 0.167413 0.017163 0.003316 0.019812 0.095205 0.008386 -0.014318 -0.079106 0.049464 -0.121798 0.120526 -0.056293 -0.039158 -0.031176 0.021399 -0.165730 -0.156998 -0.000410 0.094648 -0.050746 0.033868 0.055187 -0.226085 -0.082967 -0.026756 0.052270 0.093205 0.063041 -0.108524 -0.093848 -0.052631 0.005577 -0.175805 -0.036047 -0.078960 0.143324 0.150363 0.026727 0.024803 0.028756 0.132940 -0.024090 -0.078029 0.076780 -0.059029 0.125421 -0.064313 -0.165271 -0.008307 -0.147546 -0.005044 -0.057650 -0.163561
also 0.033250 0.115510 -0.161753 -0.050899 -0.225683 0.150698 0.021228 0.054345 -0.159047 0.055283 -0.017158 0.242007 -0.115111 -0.189039 -0.090335 0.146797 -0.090572 -0.072588 0.000052 -0.043343 0.115175 -0.026390 0.040401 0.065339 0.127214 0.199481 -0.109810 -0.093645 -0.048733 0.100229 -0.057263 0.068637 -0.028117 -0.009661 -0.273752 0.006182 0.112083 0.018196 0.125338 0.033871 0.102109 0.012822 -0.015985 0.052995 0.078343 0.119691 0.028015 0.035616 0.020255 0.001352 0.108470 0.038122 0.048171 -0.123336 0.075202 -0.004655 -0.017407 -0.030784 0.048799 -0.042855 0.003379 0.093216 -0.165864 -0.087594 -0.110962 0.028222 0.006632 0.116209 0.068511 -0.346826 -0.038661 -0.114163 0.051931 0.162495 0.045491 -0.041547 -0.051009 -0.086511 0.031431 -0.060543 0.073689 0.015843 -0.001377 0.151740 -0.030985 0.007667 -0.063893 0.120950 -0.052737 -0.040466 0.064314 -0.070217 0.029987 -0.108048 -0.178092 -0.023428 -0.141080 0.091123 0.024412 -0.063753
back 0.027957 -0.032343 -0.067625 -0.048292 -0.161520 0.161838 0.069382 0.138161 -0.138320 0.100897 -0.032300 0.196556 -0.104549 -0.208998 -0.073589 0.015141 -0.027696 -0.151696 -0.154735 0.051940 0.051606 -0.115458 0.187815 0.006713 -0.009866 0.163933 -0.057202 -0.088798 -0.063148 0.076877 -0.078329 0.016666 0.040454 0.007901 -0.293026 -0.044126 0.166573 -0.027200 0.073119 0.105146 -0.009550 -0.081854 -0.055825 0.043152 0.026961 0.106366 -0.037413 0.172126 0.067124 0.137619 -0.029574 0.028424 0.012535 0.015604 0.076057 0.012855 -0.090043 0.077407 -0.068869 -0.081143 0.007346 -0.042921 -0.131885 -0.137318 0.048036 0.034672 -0.079390 0.146631 -0.035214 -0.282370 -0.133054 -0.042475 0.035353 0.073176 0.158488 -0.054398 0.015413 -0.003867 -0.099445 -0.140778 0.086362 -0.025953 0.156950 0.085782 0.092011 0.021772 0.012623 0.031041 -0.012636 -0.058985 -0.006017 -0.168216 0.050680 0.055824 -0.106774 0.065911 -0.057714 0.126968 -0.083189 -0.137780
more -0.058080 0.090100 -0.219130 -0.088618 -0.230305 0.157122 -0.003786 0.062119 -0.192850 0.049759 -0.002046 0.196449 -0.075894 -0.214430 0.053713 0.114401 -0.026936 -0.166809 -0.102289 0.042195 0.109499 -0.066470 0.201321 0.018958 0.106766 0.167057 -0.165495 -0.090706 -0.093793 0.170579 -0.039843 0.036559 -0.081334 0.057858 -0.181688 0.055999 0.032896 0.028739 0.055534 0.084657 0.052213 -0.032188 -0.070459 0.069051 0.026035 0.037831 -0.027912 0.109170 0.086184 0.153172 0.005848 0.070881 -0.030634 -0.086109 0.057961 0.063156 -0.092418 0.001267 -0.018257 -0.019907 0.020854 -0.006851 -0.124809 -0.195789 0.042478 0.097624 -0.033352 0.046531 0.017567 -0.210208 -0.103258 -0.079767 0.056975 0.120028 0.183137 -0.075444 -0.018395 -0.003171 -0.064209 -0.087089 -0.029017 -0.020626 0.123862 0.087436 0.084275 -0.049877 -0.071747 0.039008 -0.011502 -0.090084 0.025899 -0.203941 0.049665 -0.044501 -0.076512 -0.054128 -0.109517 0.007936 -0.087169 -0.142692
can -0.023571 0.058493 -0.142245 -0.114344 -0.166668 0.140982 -0.009881 0.121276 -0.190389 -0.011296 0.001067 0.157552 -0.140328 -0.171884 -0.070371 0.122024 0.053085 -0.152495 -0.057750 -0.044854 0.008882 -0.082723 0.113927 0.053422 0.108444 0.179015 -0.141051 -0.008329 -0.106810 0.190674 -0.038104 0.040012 -0.071242 0.079146 -0.203624 -0.048423 0.102470 -0.039728 0.079499 0.058675 0.052257 -0.015502 -0.123636 0.180903 0.019113 0.147006 -0.054588 0.102486 0.035187 0.104735 0.002248 0.079213 0.052862 -0.084846 0.034226 0.089707 -0.053960 0.031697 0.045910 -0.011700 0.035291 0.053708 -0.161015 -0.157300 -0.064365 -0.018523 0.017397 0.087381 -0.022785 -0.309517 -0.076628 0.017618 -0.021053 0.058941 0.084132 -0.120710 -0.010776 0.030693 -0.010562 -0.173688 0.058485 -0.074982 0.133774 0.078814 0.000760 -0.069565 0.019882 0.044644 0.065096 -0.055297 0.057836 -0.173491 0.027402 0.050795 -0.120852 0.001428 -0.020031 0.083436 -0.132978 -0.207830
too -0.069044 -0.028272 -0.129403 -0.076940 -0.230492 0.186281 -0.065986 0.066316 -0.224800 0.052606 0.049766 0.080788 -0.070171 -0.121147 -0.028326 0.088325 0.053386 -0.088543 -0.107858 -0.119190 0.118610 -0.059722 0.122027 -0.036839 0.061038 0.050959 -0.214532 0.055473 -0.095715 0.049597 -0.031806 0.143854 -0.018579 0.009875 -0.294416 -0.051266 0.017110 -0.040532 0.067969 0.069767 0.069261 0.028991 -0.016764 0.160555 -0.001045 0.104833 -0.069958 0.084109 0.106703 0.169205 0.012146 0.043913 -0.083917 -0.120443 -0.090831 -0.026672 -0.072553 0.095329 -0.078878 -0.022229 -0.005755 0.041500 -0.070427 -0.202103 -0.095961 -0.034754 -0.082467 0.017163 -0.082971 -0.251743 -0.069035 0.039512 0.043617 0.001031 0.104981 -0.115337 0.068744 -0.114642 -0.037208 -0.125585 -0.042416 -0.010929 0.136001 -0.027555 0.037017 -0.007510 -0.001477 0.085807 -0.025818 -0.067707 -0.008188 -0.086512 0.053116 0.006487 -0.145290 0.092665 -0.174947 0.083727 -0.122118 -0.212720
nice -0.086756 0.075830 -0.097274 -0.111992 -0.226919 0.150263 0.029810 0.080201 -0.181848 0.023109 -0.049637 0.122422 -0.173602 -0.163679 0.060961 0.126452 -0.069056 -0.136463 -0.154652 -0.084300 0.061088 -0.123440 0.146653 0.061862 0.012884 0.122514 -0.159992 -0.100262 -0.034519 0.192096 -0.107567 0.152226 -0.017527 0.014024 -0.209649 0.027006 0.172878 0.057850 0.114774 0.028987 0.008934 0.000559 -0.035213 0.177480 0.097335 0.040459 -0.067395 0.116858 0.035889 0.022582 0.030684 0.009973 0.060792 -0.076426 -0.060184 0.104584 -0.110330 0.080285 0.000057 0.009874 0.066725 0.026081 -0.035287 -0.190287 0.023366 0.025445 0.021865 0.099093 -0.032511 -0.238776 -0.145542 -0.016333 0.017421 0.156540 0.061450 -0.138462 -0.042366 0.024725 -0.083636 -0.188686 0.030565 -0.090934 0.092669 0.009128 0.042523 0.023471 0.037194 0.080747 0.002363 0.024454 0.052188 -0.079762 0.058439 -0.093104 -0.103050 -0.059715 -0.107002 0.074213 -0.063950 -0.146793
excellent -0.117980 0.028204 -0.181764 -0.129157 -0.031602 0.022811 0.029954 0.114720 -0.215789 0.061517 -0.044756 0.075102 -0.096149 -0.211640 -0.087500 0.021147 0.015594 -0.078113 0.000134 0.024348 -0.016309 -0.082618 0.183264 0.057426 -0.068184 0.160457 -0.095257 -0.102580 -0.012087 0.174603 -0.023583 0.155836 -0.109829 0.031046 -0.279379 0.009331 0.135500 0.050787 -0.001522 0.035239 0.069339 -0.130297 -0.075277 0.051945 -0.052619 0.172814 -0.059405 0.171901 -0.038861 0.166546 0.093424 -0.082130 0.055143 0.046625 -0.037191 -0.034025 -0.063489 -0.038075 -0.090980 -0.023508 -0.060820 0.059278 -0.123823 -0.135849 -0.084784 0.026599 0.016972 -0.001057 -0.039506 -0.195870 0.032791 -0.144298 0.031340 0.124394 0.036995 -0.141652 -0.004056 -0.107522 -0.051542 -0.072322 0.126031 0.041581 0.141197 0.089662 -0.011542 -0.053556 -0.100741 0.155702 0.075743 0.041916 -0.071976 -0.030441 0.124495 -0.000417 -0.136278 0.014329 -0.155499 0.037609 -0.080080 -0.190393
never -0.024118 -0.040551 -0.180145 -0.105760 -0.155650 0.153559 0.082566 0.104063 -0.162657 0.011002 -0.031921 0.167781 -0.182379 -0.102943 0.022058 0.155909 0.011057 -0.100289 -0.152425 -0.082917 0.128721 -0.132779 0.131342 -0.062998 -0.017666 0.036118 -0.211583 -0.096054 -0.046225 0.152501 -0.038831 0.136222 -0.079647 0.075871 -0.176286 -0.004835 0.031878 0.079987 0.116820 0.076994 -0.015431 -0.135775 -0.031594 0.154591 0.052725 0.023069 -0.076933 0.098629 0.060965 0.112214 0.002673 0.083924 0.063519 -0.078758 -0.009745 0.068255 -0.083088 0.062897 0.020703 -0.056620 0.029264 0.019385 -0.116223 -0.114298 0.045560 0.010292 -0.060367 0.135476 0.004712 -0.232465 -0.059483 0.024096 0.044610 0.156687 0.136705 -0.112307 -0.037309 -0.073977 0.039661 -0.150842 0.041875 -0.120472 0.022144 0.118489 0.083618 -0.100828 -0.069138 0.157461 -0.071499 -0.067585 0.001350 -0.202426 0.026734 0.012329 -0.122586 0.039629 -0.035363 0.000921 0.016072 -0.188642
much -0.073657 -0.025905 -0.206296 -0.014914 -0.195028 0.182743 -0.012412 0.038891 -0.218251 0.088649 -0.013936 0.127099 -0.038977 -0.184476 -0.064112 0.114924 -0.035028 -0.023140 -0.114903 -0.001913 0.001768 -0.120117 0.059562 0.028160 0.036873 0.081695 -0.132494 -0.110302 -0.121999 0.202424 -0.122652 0.038721 0.014390 0.028608 -0.195153 -0.048225 0.159641 0.085897 0.188557 0.123188 0.012814 -0.131050 -0.061462 0.191839 -0.003064 0.138821 -0.068832 0.046087 -0.041649 0.029931 -0.051825 -0.050797 -0.012501 -0.123060 -0.051215 0.109445 -0.130304 0.021601 0.078873 -0.115846 0.058595 0.088007 -0.022117 -0.112690 -0.058185 0.095618 0.007006 0.022144 -0.000751 -0.242246 -0.045865 -0.131829 -0.018846 0.151081 0.095355 0.010006 0.057359 0.052536 -0.016757 -0.163965 -0.043380 -0.120847 0.139559 0.095625 0.053797 -0.075090 0.004613 0.078454 -0.061815 -0.097782 -0.018706 -0.098921 0.088459 -0.047254 -0.155448 -0.023697 0.006111 0.020235 -0.057927 -0.149453
again 0.054508 -0.030026 -0.210159 -0.082629 -0.189122 0.067164 0.078439 0.123061 -0.213000 0.083926 -0.015851 0.162101 -0.101105 -0.211804 0.000337 0.123010 -0.067695 -0.075415 -0.025824 0.014946 0.123072 -0.108804 0.201904 0.084341 0.112879 0.151087 -0.111679 -0.121121 -0.025411 0.179304 -0.122373 0.056584 -0.102833 -0.046455 -0.209372 -0.006441 0.032734 -0.026945 0.186586 0.030117 -0.060763 -0.105660 -0.155052 0.037341 0.026508 0.086096 -0.021082 0.009332 -0.013703 0.053133 0.018131 -0.057148 0.028809 -0.021614 -0.011546 0.011652 -0.098490 0.111347 0.006819 -0.031776 0.100420 0.014690 -0.127366 -0.196415 0.062331 0.113843 0.043693 0.121543 -0.060980 -0.167611 -0.048594 -0.001467 -0.017380 0.021055 0.168846 -0.019042 -0.037602 -0.001723 0.040751 -0.162957 0.065534 -0.098072 0.042069 -0.017819 0.093916 0.015041 0.064316 0.154486 0.027824 0.028779 -0.032473 -0.131896 -0.025507 -0.053431 -0.197422 -0.004901 -0.086029 0.095472 -0.061242 -0.179926
other -0.091624 0.071378 -0.164554 -0.028979 -0.226820 0.084402 0.042483 0.068259 -0.178359 -0.014751 0.042181 0.104275 -0.109722 -0.127380 0.019214 0.146728 0.004401 -0.154917 -0.122626 -0.036079 0.003244 -0.141984 0.171146 0.065056 0.101582 0.160133 -0.122508 -0.083286 -0.054234 0.120050 -0.066442 0.065587 -0.059383 -0.027534 -0.151505 0.038591 0.103991 0.034390 0.137213 0.133062 -0.004935 -0.042448 -0.042248 0.163242 -0.011128 0.134365 -0.068061 0.136353 0.016214 0.151428 0.086198 -0.024812 0.067880 -0.106840 -0.041988 0.008285 -0.102385 0.011815 -0.011789 -0.018201 0.077877 -0.008139 -0.123390 -0.147141 0.015073 0.003515 -0.046916 0.080002 0.017274 -0.318545 -0.124096 -0.124756 0.003324 0.091466 0.108278 -0.142263 -0.053044 -0.094738 -0.002567 -0.134325 0.069250 -0.091651 0.139775 0.052267 -0.049808 -0.100923 -0.012936 0.092037 -0.044085 0.006837 0.007333 -0.176602 0.112466 -0.012714 -0.071545 0.038493 -0.060029 0.061494 -0.024484 -0.198562
first -0.030564 -0.049034 -0.123558 -0.142687 -0.068079 0.145499 -0.022183 0.116291 -0.235830 0.013982 0.080629 0.149249 -0.156612 -0.150112 0.024916 0.076556 0.000219 -0.096870 -0.021050 -0.043634 0.020286 0.008141 0.198193 0.046405 0.139330 0.027382 -0.118040 -0.081423 -0.030689 0.157128 -0.006133 0.168011 -0.102915 -0.000745 -0.262126 0.010748 0.023448 -0.025852 0.113266 0.045251 0.049742 0.037968 -0.008455 0.108150 0.143207 0.126088 0.062974 0.008398 -0.001266 0.163942 0.091062 -0.051420 0.003350 -0.101323 0.084253 0.049602 0.002182 0.079012 -0.085024 -0.041359 -0.047015 0.001375 -0.036464 -0.056199 -0.045020 0.010804 -0.072736 0.167852 -0.064180 -0.270628 -0.107097 -0.073392 0.060304 0.084260 0.157192 -0.101141 0.011116 -0.041414 0.064434 -0.181204 0.124199 -0.133378 0.166444 0.059471 -0.075740 -0.136214 0.021105 0.012806 -0.069131 -0.020345 0.060739 -0.058985 0.151371 -0.041822 -0.147480 -0.057841 -0.054008 0.069833 -0.128349 -0.116512
pretty -0.051499 0.068386 -0.121447 -0.017850 -0.206844 0.111300 -0.023855 0.037534 -0.158626 0.066172 -0.028645 0.198089 -0.012285 -0.054316 0.042222 0.053055 -0.011454 -0.141293 -0.076651 -0.099365 0.121007 -0.067371 0.078870 -0.043723 0.088676 0.173141 -0.147396 0.023442 -0.146420 0.050794 -0.095397 0.164199 0.037272 -0.026114 -0.284899 0.045589 0.143717 -0.058999 0.030417 0.148611 0.045391 -0.135939 0.006862 0.161279 0.120762 0.052995 0.013914 0.068095 0.042325 0.104475 -0.056461 0.029886 0.026466 0.012322 0.050857 0.096833 -0.065036 0.032672 0.082999 -0.017327 -0.031607 -0.000134 -0.141210 -0.207529 0.023386 -0.049338 0.035024 0.113779 -0.010154 -0.277601 0.029134 -0.051767 -0.020333 0.149011 0.158295 -0.076706 0.002302 -0.088426 -0.040244 -0.134769 -0.007836 -0.038518 0.008506 -0.015145 0.086732 0.005615 -0.041638 0.116305 -0.049348 -0.082426 0.088278 -0.149053 -0.009415 -0.105524 -0.128171 0.094404 -0.071745 0.082880 -0.129845 -0.209920
as 0.014542 -0.033427 -0.178488 -0.088709 -0.170855 0.116283 -0.053951 0.110115 -0.197822 0.058407 0.033569 0.167574 -0.164483 -0.160641 0.041860 0.067047 0.002641 -0.151763 -0.010235 -0.011964 0.081262 -0.063154 0.129369 -0.034950 0.098016 0.093063 -0.175254 -0.024307 -0.075411 0.145604 -0.101677 0.105799 0.035089 -0.054185 -0.274109 0.091691 0.051487 0.060021 0.133147 0.060607 0.059357 -0.120936 -0.146010 0.097047 0.073379 0.122770 -0.092203 0.093654 -0.052334 0.096608 0.000995 0.054990 0.085622 -0.044453 -0.034916 0.045246 -0.145022 0.011296 -0.015633 -0.073550 0.111156 0.032032 -0.165063 -0.080190 0.022951 -0.007321 0.022450 0.028945 -0.012395 -0.307088 -0.031247 -0.106702 -0.005332 0.026866 0.129120 -0.063964 -0.071187 -0.032304 -0.072577 -0.124057 0.010932 -0.028080 0.047842 0.132332 0.031399 -0.115495 -0.040736 0.139073 -0.012896 0.028289 -0.038235 -0.189652 -0.007520 -0.057579 -0.090058 -0.017521 -0.080363 0.075370 -0.000414 -0.203967
most -0.067824 0.050427 -0.076879 -0.006244 -0.099140 0.171332 -0.024031 0.096878 -0.142734 0.013994 -0.059160 0.165264 -0.152406 -0.110496 -0.103716 0.043164 -0.062847 0.002879 0.015482 -0.078345 0.065483 -0.125014 0.188321 -0.019829 -0.056449 0.116000 -0.151630 -0.072280 -0.154794 0.167678 0.007542 0.179072 -0.101392 0.032449 -0.300214 0.062624 0.063233 0.060711 0.070698 0.147220 0.087935 -0.127092 -0.038527 0.182746 0.125401 0.166235 -0.087343 0.134229 0.106218 0.129147 0.005431 -0.011262 0.059472 -0.025491 0.035286 0.031645 -0.007921 0.109156 -0.086451 -0.050280 0.082178 -0.061981 -0.021496 -0.110935 0.028013 0.097851 0.026595 -0.002978 -0.046854 -0.210527 0.000336 -0.011851 -0.087357 0.063690 0.145844 -0.065387 -0.065872 -0.020712 -0.044152 -0.203905 0.081448 -0.050775 -0.002657 -0.024614 -0.012545 -0.126726 0.029382 0.128077 -0.072752 0.034307 -0.020494 -0.072583 0.085971 0.063382 -0.061777 -0.031344 -0.150764 0.148532 -0.015432 -0.189165
now 0.085229 0.076675 -0.103977 0.019383 -0.210449 0.058822 -0.029087 0.100289 -0.041448 -0.047168 -0.082933 0.235225 -0.144806 -0.132606 0.062541 0.041187 -0.063144 -0.125220 0.024008 -0.006365 0.009122 -0.041257 0.089619 0.015284 0.054957 -0.006356 -0.041860 -0.009070 -0.178944 0.102665 -0.128151 0.034173 0.003547 -0.072843 -0.218783 0.080015 0.100146 -0.065416 0.053260 0.063451 -0.047387 -0.052028 -0.044738 0.164838 -0.002470 0.037317 0.068219 0.197780 -0.025594 0.042719 -0.022660 0.037942 0.041174 -0.026220 0.090409 0.155336 -0.189953 -0.060162 -0.097558 -0.140494 -0.021017 0.016027 -0.111907 -0.048131 0.091478 0.139111 -0.138929 0.136156 0.039387 -0.145155 -0.101172 -0.080810 -0.069260 0.038589 0.180437 -0.173427 -0.100566 -0.014528 0.071980 -0.095425 -0.069323 -0.149147 0.124764 0.117776 0.002030 -0.129826 0.055814 0.005191 0.043592 -0.106617 -0.095534 -0.174994 -0.003360 -0.116964 -0.037426 0.078378 -0.105290 0.117889 0.016393 -0.230612
still 0.031858 0.089648 -0.181058 -0.127744 -0.102045 0.185320 0.023822 0.046347 -0.160413 -0.017690 0.038657 0.151813 -0.119914 -0.164425 0.015069 0.177660 0.050368 -0.043840 -0.076690 -0.018275 0.098840 -0.030269 0.183590 0.041528 -0.026957 0.155531 -0.091125 0.015415 -0.124559 0.095521 -0.085254 0.034098 -0.007650 0.081055 -0.298383 0.040526 0.033609 -0.031698 0.072680 0.046797 -0.022367 -0.049955 -0.132437 0.164004 0.068257 0.108315 0.015796 0.190107 0.003923 0.096247 0.083780 -0.030311 0.032525 -0.087206 -0.070346 0.067281 -0.066763 0.117265 -0.038166 -0.038536 0.066961 0.051384 -0.105780 -0.193928 0.042971 0.085406 -0.097420 0.120622 -0.079454 -0.241704 -0.070099 -0.097082 0.072212 0.107807 0.165202 -0.046396 0.035266 -0.121844 -0.030143 -0.097900 0.076684 -0.043768 0.071011 0.079822 -0.015877 -0.134281 0.001333 0.051623 -0.065327 -0.093238 0.024310 -0.174049 0.041160 -0.032792 -0.106166 0.010231 -0.144597 0.024584 -0.103070 -0.110956
little -0.123742 -0.083623 -0.181949 -0.150812 -0.236946 0.115446 0.011951 0.065805 -0.108529 -0.008092 -0.104028 0.125821 -0.205395 -0.036441 0.025397 0.019678 -0.071255 -0.151823 0.032152 -0.080026 0.182370 0.007281 0.117791 0.034899 0.097909 0.079504 -0.038474 0.003376 -0.092208 0.139478 -0.163691 0.074363 -0.033200 -0.042854 -0.265904 0.134823 0.087178 0.010971 0.213386 0.166273 -0.035661 -0.008743 -0.003628 0.194518 -0.052885 0.129575 -0.137682 0.103215 -0.022565 0.150109 0.025703 -0.070065 -0.077570 0.012777 -0.040719 0.086731 0.031325 -0.003658 0.066757 0.048576 0.062598 0.009525 -0.168118 -0.142524 -0.103788 0.052549 -0.025639 0.022885 0.024890 -0.199412 -0.109156 -0.032695 0.019744 -0.002991 0.012921 -0.099293 -0.023018 0.055528 0.026022 -0.092344 -0.024251 -0.126769 0.026854 -0.034667 -0.060361 -0.001540 -0.061821 0.127496 0.056671 -0.008384 -0.066936 -0.027733 0.104119 0.107549 -0.198485 0.008317 -0.007159 0.170402 -0.028201 -0.061673
then 0.076673 -0.052885 -0.090605 0.030466 -0.109975 0.006877 -0.019610 0.083649 -0.209886 0.036689 -0.065502 0.126974 -0.171496 -0.177524 -0.030768 0.088970 -0.013680 -0.012202 0.023836 -0.115147 0.089125 -0.054453 0.193661 -0.067748 0.115144 0.189890 -0.158861 0.020066 0.006659 0.035712 0.005888 0.161172 -0.010201 0.007835 -0.249285 -0.038907 0.036796 0.052144 0.058484 0.143279 -0.043998 -0.144112 -0.121908 0.181550 -0.030833 0.165565 -0.008324 0.077294 0.007904 0.116878 0.014938 0.011864 0.059871 -0.015946 -0.093050 0.038916 -0.070085 0.018968 0.046805 -0.015100 0.002558 -0.008231 -0.183789 -0.060482 -0.097411 0.089257 0.059419 0.126211 -0.109528 -0.311275 -0.102922 -0.008364 -0.018645 0.146352 0.158644 0.022955 -0.101976 -0.063159 0.064095 -0.030681 -0.007343 -0.073486 0.002736 0.122180 0.036312 -0.110083 0.068478 0.072203 -0.093013 -0.024103 0.047110 -0.186775 0.100832 -0.059087 -0.163220 0.057141 -0.050929 0.088375 -0.109324 -0.090466
enough -0.066133 0.038716 -0.198729 -0.064803 -0.200201 0.096735 -0.047945 0.109476 -0.151737 0.038968 -0.020248 0.187063 -0.094878 -0.108476 0.005136 0.036852 -0.100728 -0.066507 -0.055547 -0.002338 -0.015489 -0.083994 0.184243 0.042306 -0.022775 0.168175 -0.106536 -0.004148 0.002407 0.174777 -0.075852 0.159725 -0.020237 0.031335 -0.270082 0.005181 0.138973 -0.002595 0.021224 0.074055 -0.014193 0.001983 -0.013671 0.134361 -0.019309 0.041949 -0.083353 0.130189 -0.014463 0.142394 0.068254 0.038713 0.095423 0.025602 0.011932 0.118426 -0.142060 0.033389 -0.067974 -0.000237 -0.037116 0.045600 -0.162804 -0.096296 0.059079 -0.033987 -0.071835 0.115739 0.038332 -0.263973 -0.051002 -0.131173 0.072115 0.117708 0.171464 -0.014289 0.029874 -0.077943 0.020453 -0.090123 0.118300 -0.036339 0.145530 0.001334 0.059544 -0.107882 -0.056080 0.125955 0.039292 -0.038243 0.091994 -0.169863 -0.004553 0.057761 -0.192905 0.061399 -0.087661 -0.023636 -0.114874 -0.164332
definitely 0.066515 0.101063 -0.130570 -0.102607 -0.141384 0.167525 0.081303 0.075976 -0.115252 0.110698 0.023072 0.061798 -0.108125 -0.233418 0.017948 0.066827 -0.082003 -0.114991 -0.047012 -0.056363 0.017895 -0.009444 0.079062 -0.033639 0.085445 0.129118 -0.133905 -0.097353 0.003081 0.180764 0.018544 0.159181 -0.011422 -0.075711 -0.191004 0.118604 0.078139 0.050793 0.201912 0.146572 0.035312 -0.133797 -0.144850 0.152318 0.040735 0.019695 -0.011579 0.050883 0.100845 0.090783 0.111310 -0.048078 -0.074837 -0.057573 0.091067 0.067619 -0.170432 0.080921 -0.006387 0.010363 0.103654 -0.066790 -0.037053 -0.154708 0.004527 -0.000106 0.059631 0.072397 0.070446 -0.244249 -0.117441 -0.063290 0.080920 0.009346 0.149716 -0.046155 0.000149 -0.055100 0.061623 -0.082447 -0.011238 -0.059511 0.133447 0.004257 -0.001171 -0.122445 -0.053666 0.092893 0.046727 -0.075302 0.054771 -0.194341 0.025045 -0.020041 -0.204073 0.085317 -0.047316 0.150157 0.021563 -0.138391
real 0.096945 -0.061414 -0.203502 -0.143385 -0.167144 0.044816 -0.049348 0.087982 -0.085207 -0.046833 -0.023468 0.220046 -0.172296 -0.086898 0.100725 0.068409 0.014140 -0.116818 -0.069302 0.085929 -0.019715 -0.190043 0.059186 0.066838 0.064346 0.094866 -0.045246 -0.146665 0.031536 0.077687 -0.149998 -0.025189 -0.065388 -0.029094 -0.114556 0.015718 0.050098 0.090808 0.146550 0.032245 -0.065243 -0.161054 -0.056280 0.148537 0.146077 0.033591 -0.063836 0.067353 -0.050545 0.070789 -0.010395 0.003510 0.029539 0.030491 0.104904 0.025899 -0.101589 0.012707 0.059720 0.003630 0.139915 0.063676 -0.144191 -0.098671 0.005748 -0.006333 0.038697 0.115640 -0.070464 -0.343844 -0.002854 -0.096547 -0.049702 0.166003 0.023064 -0.103572 -0.017180 -0.011108 0.039930 -0.171097 0.071446 -0.062148 0.023610 0.175443 0.123542 -0.121557 0.008808 -0.007422 -0.051633 0.078365 -0.033021 -0.116474 -0.035539 -0.104980 -0.124538 0.101313 -0.111059 0.170423 -0.071916 -0.103149
terrible 0.056606 0.045292 -0.075978 -0.015522 -0.075294 0.088334 -0.125999 0.157093 -0.131504 0.041486 0.093150 0.127463 0.016322 -0.044026 0.036604 0.167477 -0.078879 0.047163 -0.182652 -0.039042 0.173957 0.085880 0.127154 -0.094351 -0.095675 0.164382 -0.090710 -0.006083 0.037435 0.065633 0.057549 0.169631 -0.021901 0.157636 -0.227485 0.089012 0.161255 -0.040645 -0.049907 0.045020 -0.093363 -0.013722 -0.135553 0.124222 -0.097175 0.059913 0.109429 0.187274 0.140377 0.066824 0.066817 -0.105492 -0.034259 0.078089 -0.080600 0.065478 -0.024324 -0.011311 0.018604 0.002953 0.103948 0.138375 -0.037681 -0.050097 -0.081551 0.168822 0.002497 0.037230 -0.120469 -0.276316 0.013084 -0.098483 0.022504 0.119306 -0.053629 -0.145758 -0.008373 -0.062345 -0.041066 -0.176040 -0.068865 0.111866 0.051851 -0.096142 0.035068 0.016354 0.036232 0.139575 0.047028 -0.067201 -0.036402 0.069374 0.005979 0.094113 -0.166293 -0.136963 0.025967 0.042327 -0.098378 -0.116582
right 0.012892 0.094964 -0.032814 -0.090025 -0.118629 0.070213 -0.009558 0.097236 -0.178979 0.099349 -0.057240 0.053725 -0.178102 -0.044431 -0.107502 0.131481 0.038726 0.015673 -0.133463 -0.087774 -0.034206 -0.159462 0.064325 -0.007076 0.024039 0.175970 -0.090314 -0.106858 -0.102474 0.201243 -0.134967 0.164209 -0.082508 0.085965 -0.251888 0.058025 0.120171 0.000157 0.018714 0.144759 0.111375 0.010215 -0.113925 0.089521 0.095299 0.132271 0.048783 0.074125 0.028312 0.023910 -0.026679 0.075717 -0.058747 -0.120382 -0.023323 -0.043618 -0.134907 0.004177 -0.071690 -0.091511 -0.055504 0.029294 -0.177179 -0.151073 -0.109117 -0.019174 -0.118593 -0.002332 0.059654 -0.281961 -0.069257 -0.142113 -0.054202 0.046672 0.165295 -0.135238 0.041969 0.022453 -0.015782 -0.081238 0.013589 -0.127478 0.084169 0.022036 -0.075124 0.021287 0.065593 -0.017014 -0.016639 0.039613 0.035675 -0.189988 -0.003611 -0.055337 -0.180196 0.097975 -0.004503 0.009678 -0.135139 -0.051562
new -0.033897 -0.014772 -0.162991 -0.026645 -0.172558 0.104456 0.103851 0.141313 -0.090733 0.121149 0.018093 0.165772 -0.152317 -0.207995 -0.001143 0.146572 -0.092123 -0.148577 -0.122646 0.003612 0.106245 -0.002271 0.062466 -0.002487 -0.004059 0.052918 -0.210434 -0.037849 -0.169049 0.016439 -0.151755 -0.026512 -0.096428 -0.063619 -0.243918 0.048948 0.098103 0.068284 -0.003951 -0.019784 -0.046057 -0.106313 -0.105149 0.026915 0.085313 0.071942 -0.002660 0.112907 0.119062 -0.032662 0.023767 0.085284 -0.034026 -0.050597 -0.045409 0.017405 -0.048058 0.027058 0.047782 -0.015572 0.135257 0.111410 -0.047981 -0.180840 -0.121891 0.060856 -0.046507 0.054749 -0.111534 -0.208292 0.021116 -0.105468 0.025604 0.070137 0.164485 -0.049695 -0.056839 -0.028310 0.040164 -0.007156 0.116460 -0.032682 0.123566 0.085577 0.083495 -0.116397 0.076763 0.172249 -0.010726 0.065085 -0.060771 -0.162388 0.042445 0.047713 -0.086407 0.083782 -0.167488 -0.009986 -0.093041 -0.208638
friendly -0.054754 0.047351 -0.077481 -0.007077 -0.215857 0.092062 0.065234 0.036996 -0.178503 0.108427 0.011236 0.168733 -0.082811 -0.165262 -0.056628 0.069693 -0.010148 -0.019554 0.006561 -0.071480 -0.003582 -0.061466 0.083453 -0.039426 -0.007020 0.154060 -0.089496 -0.125195 -0.150131 0.186124 -0.026486 0.056443 0.052996 0.060791 -0.305232 0.086061 0.008937 0.054118 0.198078 0.138513 -0.061496 -0.033634 -0.000057 0.048997 0.061279 0.164806 -0.076171 0.025976 0.034617 0.126693 -0.032656 0.030635 0.046947 -0.076728 0.036519 0.022697 -0.143214 0.046465 -0.000995 -0.065545 0.133584 -0.077973 -0.069775 -0.200447 -0.050306 -0.041484 -0.095741 0.087585 0.014775 -0.319393 0.021945 -0.038011 0.001486 0.133677 0.197929 0.026287 -0.012303 -0.101643 -0.003932 -0.038445 -0.059339 -0.135437 0.082107 0.032460 0.035136 -0.047223 -0.018251 0.153698 0.043740 -0.132643 -0.061351 -0.088522 -0.038705 0.023604 -0.133446 -0.086890 -0.024286 0.002671 -0.082402 -0.175456
far 0.052454 -0.023501 -0.160612 -0.086660 -0.232444 0.066909 -0.088079 0.022893 -0.202467 0.097198 -0.060669 0.075731 -0.111731 -0.083395 -0.075444 0.095844 0.030247 -0.012020 -0.125470 -0.066466 0.130988 -0.177420 0.153234 -0.037825 0.123797 0.150670 -0.072733 -0.066903 -0.153333 0.206613 -0.047333 0.167536 0.026937 0.037970 -0.149219 0.081043 0.113797 0.008067 0.079007 0.065261 0.108618 -0.044078 -0.146198 0.153443 0.048323 0.118895 0.022649 0.105375 0.100785 0.020128 -0.054653 -0.057682 -0.045202 -0.039521 0.071970 0.076218 -0.079971 -0.035441 -0.085876 -0.050929 0.081421 0.067766 -0.056388 -0.071691 0.026622 0.119959 -0.104123 0.069891 -0.004642 -0.242872 -0.027816 -0.118647 0.087527 0.111824 0.036991 -0.142698 0.041884 0.029944 -0.063873 -0.172611 0.071978 -0.076691 0.093708 0.050416 0.004967 0.023489 0.050269 0.099312 -0.030183 -0.116805 0.069985 -0.081769 0.032591 0.042161 -0.224877 0.084628 -0.118498 -0.023909 0.015417 -0.182878
long -0.049395 0.039323 -0.217269 -0.111294 -0.208336 0.154220 0.057944 0.058713 -0.139902 -0.021391 -0.066978 0.200152 -0.171592 -0.154358 -0.043770 0.130765 0.076388 -0.128590 -0.147181 0.011262 0.137967 -0.088235 0.101346 0.031568 -0.034310 0.049097 -0.039637 -0.054057 -0.089209 0.164581 -0.127605 0.106949 -0.001900 0.074132 -0.132708 0.107254 0.170581 0.079098 0.154640 0.103807 0.095115 -0.093456 -0.020064 0.107994 0.118140 0.147726 -0.046766 0.075542 0.059342 0.096445 0.087607 0.098705 0.090623 -0.084378 -0.028481 0.000700 -0.052790 0.136401 0.012104 0.044446 0.016191 -0.076777 -0.060151 -0.218727 -0.082561 0.115723 -0.031801 0.000952 -0.070530 -0.285278 -0.132265 -0.020388 -0.086095 0.077808 0.088774 -0.054359 -0.049441 0.051884 -0.026688 -0.155675 0.074170 -0.014895 0.015242 0.009409 0.030252 0.006746 -0.000502 0.173322 -0.036703 -0.047391 -0.047695 -0.068272 0.036447 -0.078425 -0.064664 0.048469 0.005309 -0.005642 -0.140940 -0.073475
disappointed -0.139141 0.168927 0.034880 -0.129773 -0.107886 0.117304 0.068338 0.097043 -0.137263 0.011093 -0.080103 0.219266 0.060503 -0.095426 -0.056321 0.104622 -0.000880 -0.107225 -0.039529 0.083037 0.038191 -0.172971 0.049158 -0.041626 0.086075 0.052463 -0.045591 -0.100771 -0.116850 0.151015 -0.142875 -0.089423 -0.073866 -0.117202 -0.055813 0.100164 0.148320 -0.034505 0.204420 0.021978 0.089523 -0.119887 0.059200 0.152942 0.177055 0.035761 -0.070971 0.030540 -0.013078 0.090525 0.090737 -0.090408 -0.015619 -0.158419 -0.029355 0.069575 0.064497 0.125794 0.114950 0.024987 0.103244 -0.037402 -0.196781 -0.188923 -0.004531 0.081915 0.000678 -0.026640 -0.019343 -0.290113 0.086246 -0.060982 0.007443 -0.011490 0.091609 -0.084376 0.115271 0.053488 -0.007166 -0.037162 -0.018106 -0.111788 0.132656 -0.069748 0.091442 -0.092688 0.108587 0.075359 0.016280 0.050973 0.055336 -0.189886 -0.091247 0.028575 -0.072535 0.035549 0.009718 -0.097718 0.040901 -0.120772
few -0.105096 0.107536 -0.205736 -0.067884 -0.204798 0.023799 0.016313 0.061182 -0.180542 -0.000999 -0.114224 0.142384 -0.131399 -0.117613 0.046389 0.121919 -0.019621 -0.126132 -0.138916 -0.004107 0.122199 -0.099719 0.171153 -0.027298 0.100237 0.076078 -0.049768 0.038696 -0.169479 0.046277 -0.148607 0.079594 -0.010500 -0.052959 -0.302997 -0.069551 0.034827 0.028883 0.124360 0.170439 0.047437 -0.024329 -0.006449 0.140405 0.009749 0.034959 -0.034609 0.171851 0.064785 0.109994 -0.041958 0.046309 0.108764 -0.081269 -0.005143 0.059169 -0.136195 0.029115 -0.010246 -0.125430 -0.010418 0.008362 -0.095291 -0.154025 -0.038755 0.103350 -0.084099 -0.022936 0.003671 -0.298584 -0.147877 -0.101268 -0.014789 0.123707 0.143586 -0.000693 -0.060032 0.057346 -0.037603 -0.093719 0.073716 -0.122462 0.097463 0.028873 0.039722 0.032775 -0.019944 0.008637 -0.071772 0.050186 -0.018294 -0.082131 0.103500 -0.001850 -0.075503 -0.022826 -0.062317 0.078277 -0.081826 -0.112078
there -0.105409 -0.035896 -0.073467 -0.008222 -0.083499 0.072576 -0.052412 0.159608 -0.116423 0.131137 -0.002894 0.211902 -0.168830 -0.249461 -0.054305 0.200706 -0.049897 -0.044670 0.024020 0.009006 0.050209 -0.083764 0.220860 0.035177 0.146462 0.009441 -0.194627 -0.104876 -0.136632 0.111867 -0.007596 0.013278 0.036112 -0.004724 -0.305318 0.038290 0.123451 -0.100591 0.029613 0.031401 0.077862 -0.101455 -0.082227 -0.004750 0.072678 0.122679 -0.076345 0.197497 -0.040722 0.163647 -0.047924 0.060576 0.056240 -0.115688 0.009225 0.054648 -0.098023 0.103503 0.058422 -0.130662 0.060188 0.034803 -0.082490 -0.053410 -0.027777 0.091799 -0.023175 0.003840 -0.015500 -0.288931 -0.075347 0.059816 0.118423 0.022818 0.054731 0.027041 -0.089609 -0.066255 -0.101901 -0.037796 -0.022197 0.040305 -0.040561 -0.021695 -0.065630 -0.058427 0.013828 0.016537 0.042162 0.054394 -0.103975 -0.057685 0.157254 0.086387 -0.156481 -0.032029 -0.053457 0.022055 -0.061081 -0.057890
many 0.028138 0.057435 -0.140864 -0.079346 -0.184624 0.130342 -0.030328 0.060505 -0.131913 0.109482 -0.009622 0.133835 -0.188275 -0.170556 0.031119 0.104877 0.013118 -0.083062 -0.087137 0.012993 0.154066 -0.015984 0.224037 0.057700 0.003259 0.158116 -0.197225 -0.032600 -0.149383 0.126806 -0.011349 0.033887 0.011198 -0.071095 -0.243952 -0.057499 0.132342 -0.062775 0.070026 0.174476 -0.021930 -0.022266 0.007240 0.084020 0.002919 0.139372 -0.113375 0.044452 0.010217 0.171334 -0.014826 0.079581 -0.030517 -0.102419 -0.012257 -0.014335 -0.017490 0.061361 -0.053464 -0.089419 0.008630 0.042858 -0.020951 -0.145371 -0.020439 0.042228 -0.004127 0.109734 -0.058041 -0.272138 -0.095224 -0.032337 -0.047116 0.113655 0.037861 -0.005440 -0.042264 -0.118492 -0.093646 -0.102119 -0.037659 0.030986 0.069431 0.068095 0.044141 -0.005824 -0.032308 0.109473 -0.075040 -0.085753 -0.058502 -0.221943 0.099945 0.038700 -0.190458 0.037820 -0.001710 0.115785 -0.059291 -0.166810
poor -0.002979 0.101752 -0.210573 0.034470 -0.211143 0.063438 -0.090973 -0.038444 -0.105289 0.078693 0.124323 0.095408 -0.078615 0.054707 0.019847 0.094479 -0.024821 -0.105695 -0.092308 0.122398 0.038764 -0.076899 0.121394 -0.111977 0.140648 -0.067191 -0.173571 -0.118901 0.067422 -0.021703 -0.047387 0.099026 -0.011282 -0.069435 -0.135743 -0.030661 0.167297 0.096658 0.031316 -0.097810 0.024739 0.006946 -0.125042 -0.006249 -0.124727 0.049593 0.024965 -0.017019 0.130504 -0.080989 0.161974 0.144002 -0.107507 0.023884 0.107008 0.125446 0.085359 0.046880 0.101574 0.052018 0.084606 0.158961 -0.114877 -0.085290 0.024189 0.162333 0.087126 0.030405 0.035661 -0.246562 -0.150961 0.103530 0.124318 0.139657 0.001234 -0.108025 -0.055283 -0.113728 0.002389 -0.050761 0.141981 -0.049079 0.165632 0.091829 0.006349 0.061413 -0.022875 0.065858 -0.060137 -0.022259 0.058982 -0.083747 -0.086981 -0.044742 -0.185557 0.068608 0.063500 0.140634 -0.092993 -0.134037
happy -0.100840 0.079421 -0.159775 0.054059 -0.199709 0.118111 0.053271 0.056269 -0.203729 0.100254 -0.032587 0.075072 -0.000356 -0.132458 -0.056683 0.163794 0.033745 -0.124139 -0.150166 -0.058182 -0.051247 0.027099 0.130295 -0.008505 0.104402 0.195870 -0.155932 -0.005614 -0.014381 0.113281 -0.167569 0.090446 -0.043061 0.016509 -0.230666 -0.044639 0.184364 0.096738 0.173433 0.142653 0.020034 0.051973 -0.140461 0.030706 0.070575 0.044160 0.058381 0.008872 -0.017434 0.097525 0.016741 -0.066270 0.003043 -0.136354 -0.045468 0.029974 -0.081575 -0.041762 -0.058496 0.064632 0.113708 0.053817 -0.101084 -0.217703 -0.105316 -0.016332 0.047332 0.104869 0.029213 -0.225213 0.028115 -0.066670 0.090402 0.083070 0.057939 -0.132928 0.042261 -0.015555 -0.094166 -0.141201 -0.043667 0.054303 0.127461 0.105662 -0.026585 0.017295 -0.050086 0.029366 -0.015904 -0.034364 0.102488 -0.107080 0.050330 -0.121752 -0.155508 -0.068541 -0.007666 -0.059386 -0.138175 -0.124509
easy -0.017982 0.019667 -0.137534 -0.101014 -0.219319 0.024450 0.062329 0.013706 -0.212122 0.141502 -0.125135 0.170922 -0.120004 -0.227833 -0.127190 0.182974 -0.032853 0.002062 -0.172614 -0.044082 -0.060912 -0.183608 0.201914 0.036653 0.055018 0.057882 -0.102880 0.000190 -0.023372 0.111914 -0.140328 0.177016 -0.067735 -0.097503 -0.112146 -0.069398 -0.042694 -0.045729 0.097438 0.008029 -0.002396 -0.129870 -0.103388 0.164134 0.031982 0.006569 -0.046230 0.116607 -0.090329 0.181424 0.053815 -0.008724 0.100850 0.023534 0.093227 -0.048432 -0.125549 0.131310 0.110497 -0.138739 -0.075347 0.027786 -0.171580 0.003265 -0.046456 -0.035352 -0.007043 0.117481 0.102394 -0.106771 0.024394 0.071226 -0.004042 0.065795 0.175460 -0.012187 -0.008928 -0.047310 -0.098680 -0.097563 0.052732 0.043429 0.016074 -0.043006 -0.044911 0.062106 -0.005369 0.003751 0.105488 -0.083139 0.017737 -0.188353 0.015438 0.058293 -0.178769 -0.038800 -0.096124 -0.025592 0.022529 -0.000360
quite 0.023990 0.099793 -0.080730 0.002910 -0.125984 0.119728 0.077357 0.172983 -0.239729 0.117469 -0.070432 0.061238 -0.097820 -0.099638 -0.074444 0.165698 0.073930 0.026779 -0.000259 0.090921 0.127764 -0.046029 -0.002692 -0.021102 0.074153 0.090496 -0.040909 -0.086997 -0.038699 0.215436 -0.064690 0.110055 -0.118433 0.043063 -0.297694 -0.079717 0.056771 0.055890 0.142004 0.170061 0.030466 0.038226 -0.041864 0.101247 0.106896 0.168393 -0.093190 0.145968 0.002340 0.097898 -0.034920 -0.059764 0.088216 -0.043244 0.115076 -0.046840 0.039210 0.079510 0.076484 0.050461 0.063387 -0.028521 -0.126706 -0.143699 -0.048694 0.092586 0.011272 0.008280 0.087024 -0.112530 -0.081622 0.071667 -0.090036 0.041759 0.050101 -0.166509 0.075620 -0.089010 0.019420 -0.198853 -0.059331 0.003515 0.074126 0.048589 -0.100723 0.039802 -0.104744 0.067590 0.070048 -0.038056 -0.069976 -0.004317 -0.068972 0.026522 -0.225356 -0.015698 -0.159019 0.099871 -0.055515 -0.185934
ca -0.132153 0.103088 -0.219996 0.029359 -0.017625 0.167175 -0.092370 0.152842 -0.084303 0.021243 -0.085372 0.141906 -0.102134 -0.148331 -0.073060 0.172285 0.003809 -0.148252 0.024411 -0.043802 0.023075 -0.128716 0.181191 -0.088448 -0.074522 0.101575 -0.057561 -0.144430 -0.079508 0.152991 0.034801 0.120912 0.069179 0.033444 -0.151595 -0.054645 0.066911 -0.066154 0.193895 0.174953 -0.107986 -0.098271 -0.011156 0.163568 0.015250 0.174829 -0.110139 0.089428 -0.024219 0.071394 -0.088678 0.122795 0.023898 -0.067911 0.036198 0.098053 -0.163648 0.011115 -0.035107 0.082728 -0.024333 -0.099804 -0.032694 -0.095868 -0.095312 0.076919 -0.067726 -0.006926 -0.016816 -0.208866 0.022788 -0.037534 0.014951 -0.048505 0.144927 -0.080934 0.051536 -0.134096 0.023130 -0.108374 -0.014497 -0.125174 -0.021279 0.152081 0.067781 -0.029520 0.025178 0.173753 -0.093471 0.054999 -0.044147 -0.046121 -0.075377 0.030487 -0.084845 -0.097727 -0.062265 -0.068234 0.040538 -0.173128
wonderful 0.055237 0.084425 -0.207102 -0.073362 -0.181339 0.143626 -0.003656 0.084994 -0.122494 0.129697 0.047401 0.036288 -0.119515 -0.210056 -0.051024 0.015976 -0.082609 -0.024725 -0.029853 0.010659 0.066024 -0.103234 0.177969 0.093007 0.010293 0.159263 -0.149683 -0.002393 -0.110968 0.152374 -0.121617 0.037946 0.023226 -0.033320 -0.229765 -0.000784 0.140480 -0.015184 0.021187 0.140241 -0.041323 -0.038830 -0.158356 0.149498 -0.000029 0.035366 -0.110309 0.000835 -0.010589 0.146244 0.087696 0.091814 -0.084280 -0.064594 0.001093 0.097145 -0.140266 -0.034834 0.016001 0.025490 0.117149 -0.051414 -0.068151 -0.125468 0.069526 0.063922 -0.062223 0.153210 -0.028617 -0.123784 -0.045299 0.036454 -0.009042 -0.014709 0.008728 -0.134341 -0.034007 -0.106235 -0.084727 -0.132197 0.122396 -0.121920 0.106171 0.144370 0.098938 0.016944 0.056744 0.104551 0.062433 -0.084775 0.008969 -0.187721 -0.002034 -0.105435 -0.131397 0.063180 -0.086041 0.085765 -0.090694 -0.214461
wo -0.111402 0.057712 -0.016261 -0.071125 -0.074068 0.117318 0.140964 0.137211 -0.020783 0.130139 -0.060037 0.012494 -0.071373 -0.200781 0.113636 -0.089946 0.138137 0.030721 0.026683 -0.147074 -0.069661 -0.140500 0.014849 -0.103182 0.028985 -0.007417 0.053241 -0.009075 0.064363 -0.069121 0.055806 0.033128 -0.151425 0.055167 -0.170082 -0.035914 0.095082 -0.020498 0.147980 0.173463 0.010373 -0.105335 -0.133617 -0.089967 -0.082479 0.039379 -0.005905 0.135300 -0.087426 -0.104117 0.100999 0.053146 -0.075329 0.117789 0.083360 -0.044112 -0.159745 -0.117425 0.031524 -0.065485 0.096737 -0.130031 0.050556 -0.223099 0.095340 -0.124630 -0.096774 0.067202 -0.035196 -0.044312 -0.137880 0.053910 0.123754 0.010498 0.178345 -0.174628 0.050938 0.082626 -0.012087 -0.033971 0.160544 -0.119846 0.145559 0.069856 -0.087786 -0.151475 0.002170 0.055748 0.088737 0.113900 -0.102865 -0.148035 -0.033217 -0.070993 0.032160 0.146700 0.106339 0.015610 0.120106 -0.118307
highly -0.061646 -0.143665 -0.005570 -0.020874 -0.250798 -0.046938 0.104018 -0.061330 -0.030797 0.109034 0.063631 0.018303 -0.042155 0.022709 -0.116103 -0.006135 -0.029256 -0.090696 -0.035618 -0.171102 -0.060562 0.012838 0.004891 0.135242 0.098203 -0.099559 -0.216012 -0.044657 -0.147494 0.119251 0.000843 -0.117690 -0.138749 0.012002 -0.163155 -0.028779 0.042188 -0.055489 -0.059625 0.053824 0.116789 -0.006132 -0.196256 -0.029706 0.150558 0.140921 -0.026726 -0.038926 0.169710 -0.117618 0.055276 0.041114 0.050468 -0.105304 0.151774 0.100729 -0.018403 -0.118756 -0.024497 0.009083 -0.136671 0.064768 -0.048172 0.068400 -0.078488 0.146678 0.028938 -0.081565 0.018741 -0.287119 -0.123164 0.074238 -0.092108 0.136779 0.089129 -0.113754 -0.098909 0.025272 -0.098165 -0.072122 -0.071840 -0.051671 0.022181 0.164492 -0.002498 0.009140 -0.037297 0.037179 0.077821 -0.146006 -0.078725 0.057146 0.041442 -0.004499 -0.180048 0.109004 -0.174636 -0.086410 0.126935 0.014880
should 0.059050 0.107127 -0.238973 0.010644 -0.174562 0.107212 -0.101847 0.106611 -0.226426 0.128732 -0.067429 0.087199 -0.051468 -0.119467 0.084391 0.105449 -0.090881 -0.178108 -0.098779 -0.052671 0.125906 -0.000107 0.099587 0.113045 0.029237 0.058122 -0.117793 0.048372 -0.105137 0.120503 0.001095 0.084551 0.006885 0.075965 -0.152319 0.082570 0.169062 0.080191 0.019846 0.087169 -0.026525 -0.070453 -0.102844 0.039508 0.093770 0.096648 0.047353 0.112308 0.052326 0.095543 0.056606 -0.061271 0.021119 -0.071929 -0.077474 0.123789 -0.162338 -0.029785 0.045747 -0.032588 0.081441 0.085808 -0.081235 -0.168716 0.055827 0.099202 0.017976 0.031654 -0.078229 -0.324408 -0.145537 -0.141875 0.037230 0.094675 0.150406 -0.044416 -0.104706 -0.012576 -0.128355 -0.200057 0.104500 0.028529 0.102103 -0.025576 0.010972 0.017236 0.003168 -0.005809 0.072374 -0.041242 -0.005288 -0.100805 0.004224 0.001311 -0.030907 0.094484 -0.007494 -0.000751 -0.016946 -0.172324
big 0.086239 -0.061002 -0.162338 -0.063334 -0.035555 -0.030075 -0.098146 0.101972 -0.225525 0.085172 0.085384 0.101067 -0.101260 -0.232138 0.005401 0.074659 -0.126690 -0.025139 -0.095471 -0.084066 0.022419 -0.177435 0.073162 -0.021712 0.133635 0.151587 -0.024988 -0.017228 -0.128729 0.072700 -0.088127 -0.042095 0.062737 0.034215 -0.202061 -0.034203 0.159446 -0.011813 -0.008237 -0.030192 0.094661 -0.011633 -0.086470 -0.000973 0.057254 0.080931 0.044395 0.099453 -0.029908 0.013694 -0.021334 -0.067046 -0.089346 -0.122098 -0.048340 -0.040901 -0.172376 0.069877 0.078283 0.052443 0.142794 -0.024100 -0.140185 -0.009546 -0.102372 0.116040 0.060759 0.045993 0.007932 -0.304707 -0.121056 -0.127546 0.101278 0.165655 0.202621 -0.030599 -0.099198 -0.059865 -0.082777 -0.178234 0.055409 -0.122693 0.125661 -0.005003 0.003043 -0.140239 -0.060329 0.057025 0.010508 -0.102769 0.010219 -0.095627 -0.013792 0.051294 -0.124332 -0.013139 -0.092124 -0.029262 -0.153007 -0.033170
funny 0.022395 -0.106229 -0.050707 -0.122807 -0.261115 0.029576 0.069759 0.067095 -0.206777 0.161737 -0.065714 0.174243 -0.164208 0.001807 -0.138961 -0.039162 -0.052044 -0.029942 0.003318 0.069019 -0.013233 -0.219417 -0.002208 0.016249 0.161926 0.064973 -0.193498 -0.008948 -0.187994 0.229155 -0.170886 0.132084 -0.007398 -0.016338 -0.237192 -0.034986 0.181247 0.046376 0.015984 0.094292 0.135876 -0.168451 0.000486 -0.012719 0.122152 -0.007594 -0.158372 0.040096 0.095591 -0.017811 0.054870 -0.022901 -0.091831 -0.007703 0.096583 -0.059639 -0.040072 0.009306 -0.011648 0.003560 0.090030 -0.006534 0.047102 -0.229664 -0.007701 0.063107 0.068954 -0.002241 0.063843 -0.091772 0.013213 -0.117380 -0.089176 0.051023 0.102689 0.024171 -0.016678 0.090116 0.031453 -0.160956 -0.017221 -0.094334 -0.070817 0.055082 -0.008716 0.020105 0.097738 0.106857 0.104080 -0.030834 -0.029033 -0.066460 0.035138 -0.118523 -0.014039 0.110824 -0.097495 -0.057033 0.047877 -0.023961
always -0.055635 0.015921 -0.137780 0.019774 -0.150837 0.036545 0.008262 -0.014097 -0.136794 0.150913 0.075081 0.068661 -0.094205 -0.126744 0.030472 0.026559 -0.087179 -0.069431 -0.018047 -0.075185 0.070038 -0.173213 0.210460 -0.005635 0.123607 0.061322 -0.132106 -0.025655 -0.137491 0.061735 -0.156701 0.156513 -0.044260 0.046313 -0.289252 0.071161 0.100463 -0.065114 0.157848 0.049754 0.016774 -0.006199 -0.098224 0.114608 0.129150 0.179550 0.007176 0.102410 0.009119 0.115550 0.089731 0.062114 0.001806 -0.024084 0.016749 0.059410 -0.123554 0.092852 0.063209 -0.080210 0.111618 0.079189 -0.096559 -0.150077 -0.023223 0.138408 0.031725 0.047622 -0.071970 -0.244227 -0.004370 -0.075790 0.095112 0.038799 0.084104 -0.156358 -0.024843 -0.083056 -0.034306 -0.163496 -0.006678 0.019422 0.123134 0.124725 0.022825 -0.098501 -0.088323 0.107783 -0.080618 -0.046206 0.095257 -0.135895 0.141109 0.019370 -0.125745 0.073546 -0.045117 0.087733 -0.109957 -0.069783
vega -0.061424 0.119317 -0.121244 -0.105367 -0.184303 0.172340 0.040701 0.012925 -0.094428 -0.020507 -0.089590 0.069911 -0.137893 -0.111037 -0.036752 0.055624 -0.065957 -0.135448 -0.024002 -0.055930 0.066859 -0.086459 0.158974 0.086153 0.067726 0.173700 -0.149765 -0.029196 -0.129770 0.146527 -0.145295 0.100384 -0.078106 0.009671 -0.290596 0.079462 0.126815 -0.063319 0.074748 0.093705 -0.051452 -0.048930 -0.112234 0.143152 0.020090 0.128952 0.041294 0.024532 0.065800 0.148510 -0.027403 -0.035042 -0.023266 -0.041427 0.001800 0.093782 -0.121970 0.083889 -0.080286 0.042342 0.011575 -0.070015 -0.114923 -0.084502 -0.062416 0.061741 -0.015070 0.029799 -0.040720 -0.267978 -0.115441 -0.106553 0.025033 0.166097 0.022292 -0.088418 -0.069891 -0.111612 -0.083319 -0.127517 0.077551 0.024502 0.113538 0.031886 0.068046 -0.073994 -0.003944 0.119234 -0.015290 -0.104887 0.055003 -0.042886 0.078943 -0.040499 -0.204834 -0.022275 -0.129257 0.131072 -0.121393 -0.079261
delicious 0.022022 -0.076688 -0.173579 0.016471 -0.192515 0.172008 -0.058501 0.085854 -0.047749 -0.057558 -0.098682 0.201698 0.008940 -0.176113 0.057557 0.139863 0.070529 -0.081735 -0.170969 0.028547 -0.062487 -0.064576 0.137516 0.084359 0.044709 0.117662 -0.052482 0.065425 -0.020778 -0.018445 0.037427 0.133248 -0.141709 -0.085868 -0.174794 -0.004508 0.176913 -0.089728 0.065336 0.175689 0.033142 -0.124813 -0.041122 0.130933 0.091479 -0.018309 0.058091 0.184959 -0.076579 0.150677 0.090301 0.116943 0.134864 0.061769 0.112862 -0.050735 -0.083742 -0.031161 0.020164 0.049476 0.071454 0.091601 0.069534 -0.050537 0.086781 -0.021808 0.008649 0.045916 -0.019012 -0.185477 -0.094811 -0.068670 0.063601 -0.025336 0.156943 -0.172857 -0.063046 0.029355 -0.002054 -0.151335 -0.103203 0.085093 -0.068936 0.027008 -0.092983 0.084727 0.081340 0.027671 0.071332 0.106078 0.059525 -0.153003 0.129682 0.008191 -0.155587 -0.074439 -0.171322 -0.060069 0.071638 -0.057050
absolutely -0.020400 -0.030371 -0.023761 -0.084792 -0.254838 0.138743 0.019356 0.016676 -0.052415 0.042631 -0.029129 0.093358 -0.150575 -0.024666 -0.072755 0.161313 0.103354 0.004462 -0.133700 -0.000381 0.121855 0.045991 0.032786 -0.044601 0.098595 0.108250 -0.084924 -0.055937 -0.104445 0.142144 -0.020671 0.093839 -0.034186 0.057373 -0.289345 -0.004326 0.154066 0.008481 0.104031 0.140460 -0.077886 0.040472 -0.007691 0.122971 -0.052245 0.146474 -0.086157 0.185963 -0.070727 0.078384 0.041568 0.027935 -0.003783 -0.024527 0.053818 0.018320 -0.166553 0.016534 -0.125977 0.090600 0.006626 -0.007930 -0.093046 -0.248976 -0.063367 0.107546 -0.045422 0.174199 -0.029205 -0.188753 0.074804 -0.172390 0.066811 -0.038795 0.054460 0.041172 0.017631 -0.081752 -0.026780 -0.042787 0.062713 -0.053606 0.055774 0.057504 -0.091192 -0.022619 -0.006354 0.152407 -0.115856 0.043439 0.100161 -0.186682 0.052630 0.071124 -0.041769 -0.101522 -0.106341 0.166250 -0.037511 -0.197284
probably 0.026242 -0.054391 -0.189339 -0.138824 -0.063509 0.032028 -0.012918 0.147707 -0.109942 0.135548 -0.069043 0.230581 -0.071386 -0.139888 -0.013981 0.053891 -0.108932 -0.016332 -0.126065 0.019762 0.089581 -0.048921 0.129692 -0.005275 -0.012976 0.040244 -0.131241 -0.039522 0.000271 0.106668 -0.003930 0.158983 0.013266 -0.054870 -0.244467 0.023203 0.012628 -0.072890 0.138713 0.108215 -0.037022 -0.044741 -0.163138 0.109160 0.088950 0.054270 0.047158 0.039430 -0.070663 0.040801 0.042413 0.025000 0.081272 -0.010022 0.027755 0.007450 -0.117994 0.001225 -0.096397 -0.119163 0.130193 0.110267 -0.096063 -0.156912 0.045515 -0.032842 -0.065108 0.061020 0.050175 -0.263421 0.022772 -0.013408 0.033274 0.134484 0.078746 -0.147784 0.045660 -0.125316 -0.125532 -0.110474 0.006814 -0.036940 0.158198 -0.000756 -0.053050 -0.100862 0.019394 0.080920 -0.006710 0.005493 0.030954 -0.224587 0.015970 -0.045644 -0.225473 -0.006706 -0.163540 0.044272 0.038372 -0.231809
comfortable -0.014859 -0.008571 -0.190419 -0.067086 -0.041758 0.109745 -0.009195 0.122555 -0.055084 0.034662 -0.096180 0.179783 -0.009787 -0.213873 0.026159 0.024212 -0.079784 -0.043953 -0.079491 0.037680 -0.003947 -0.089153 0.091495 0.034320 0.075291 0.056497 -0.215920 0.045567 -0.100186 0.146794 -0.118965 0.054151 0.073363 0.003294 -0.252651 0.114239 0.163735 0.095113 0.141668 0.107362 0.084017 -0.065701 -0.029780 0.163505 0.035077 -0.004285 -0.104296 0.100738 0.009511 0.169926 -0.002361 -0.079968 0.013943 -0.076503 0.047354 0.143083 -0.163918 -0.042622 0.048815 -0.062306 -0.039925 -0.044633 -0.177932 -0.201797 0.016826 0.085494 -0.092995 0.044190 -0.100387 -0.312079 -0.047748 -0.077315 -0.082485 0.103780 0.052261 -0.025789 -0.078996 -0.049621 -0.074207 -0.145557 0.113741 -0.033771 -0.007963 0.028823 0.099272 0.044037 -0.055645 0.132696 0.028157 0.015019 0.090747 -0.074156 0.083701 0.029220 -0.127863 0.013925 -0.070196 0.082056 0.006518 -0.150655
fine 0.009471 0.067847 -0.171292 -0.119693 -0.213578 -0.011652 0.003795 -0.022549 -0.207378 -0.019155 -0.061439 0.099921 -0.027159 -0.132073 0.070011 0.142574 -0.053329 -0.053851 -0.173762 0.041674 0.055184 -0.143428 0.215413 0.112725 0.008336 0.095765 -0.107859 0.056497 -0.062577 0.144704 -0.048562 0.153326 -0.110382 -0.096143 -0.165688 0.053791 -0.024850 0.001729 0.117486 -0.038707 0.016106 -0.157698 0.004357 0.142488 -0.033247 0.140804 0.000090 0.151160 0.017880 0.034606 0.109389 -0.047078 0.117388 0.016703 -0.028903 0.125501 -0.184915 0.075773 -0.061110 -0.095598 0.075923 0.047543 -0.190030 -0.223088 0.018523 -0.055388 -0.125568 -0.024419 -0.005601 -0.120711 -0.027477 -0.142439 -0.069134 0.052843 -0.010267 -0.046825 0.042089 -0.123160 -0.051075 -0.149631 -0.026855 -0.059697 -0.030706 0.127500 -0.072661 -0.002745 -0.096410 0.029757 0.053783 -0.024271 0.098878 -0.060864 0.146957 -0.065293 -0.058923 -0.037182 -0.154551 0.148394 -0.006987 -0.147785
awesome 0.070556 0.149687 0.007024 -0.056300 -0.174938 0.028754 0.053566 0.153437 -0.093716 0.069709 0.110938 0.131578 -0.058055 -0.076844 -0.029138 0.172143 -0.022521 -0.146675 0.008397 0.071619 -0.110488 0.031088 0.054755 0.063434 -0.068003 -0.010022 -0.166631 -0.093879 -0.141285 -0.011872 -0.146262 -0.096450 0.134261 0.153559 -0.051209 -0.018357 0.189362 0.025390 0.194585 0.165982 -0.127969 -0.135547 0.004295 -0.056080 0.011462 -0.074232 -0.160126 0.143208 0.081775 0.129655 -0.034236 0.023658 0.153611 0.048099 0.121637 0.039784 -0.140997 0.045932 0.145312 0.137897 -0.114168 -0.143975 0.029110 0.033607 0.024701 -0.106926 -0.157454 -0.035100 0.031207 -0.046709 0.098818 0.127064 -0.123870 0.015717 -0.053889 0.045702 -0.097647 0.118518 0.115139 0.066047 0.132205 -0.067982 0.144809 0.022714 -0.020219 -0.168222 0.097734 0.067173 0.047702 0.079914 0.003921 0.068686 0.155951 0.024495 -0.018987 -0.046125 -0.075859 -0.082582 -0.128589 0.047600
horrible 0.037588 0.128165 -0.106779 -0.063856 -0.116946 0.058982 -0.077808 0.164426 -0.123636 0.135621 -0.036217 0.103131 -0.007277 -0.059456 -0.124500 -0.102571 -0.002633 -0.158787 -0.055506 0.069358 0.169721 0.043666 0.087312 0.116175 -0.089451 0.157218 -0.125242 -0.012461 -0.022765 0.178531 -0.026159 -0.060832 0.004882 0.081999 -0.040949 -0.047547 0.178328 -0.030379 0.076793 -0.020495 -0.042689 -0.119474 -0.045522 0.124318 0.161739 -0.038012 -0.000595 0.076041 -0.124007 0.031156 0.063244 0.085496 -0.018217 0.016359 -0.026538 0.135248 -0.153148 -0.012254 -0.055058 -0.155385 0.061695 -0.105204 -0.165536 -0.174600 -0.086166 -0.130872 0.025723 -0.103492 0.051067 -0.148148 0.036416 -0.125027 -0.016561 0.189088 -0.015506 -0.180899 0.011170 -0.121475 0.071001 0.078921 0.152305 -0.106026 0.101798 0.151291 0.026589 -0.039949 -0.081070 0.095793 0.062394 -0.071777 0.068135 -0.183363 0.151678 -0.054337 -0.123361 0.113612 0.053850 -0.019393 -0.046862 -0.134908
however 0.030676 0.129582 -0.130490 -0.133610 -0.102981 0.040287 0.003538 0.056017 -0.186196 0.085731 -0.034325 0.195297 -0.042420 -0.164852 0.038146 0.140147 -0.032842 -0.050859 -0.075180 -0.077563 0.083007 -0.001048 0.098641 -0.015780 0.093382 0.039487 -0.222685 -0.081982 -0.137976 0.202136 -0.068387 0.137529 -0.066984 0.054823 -0.193823 0.028290 0.040089 -0.062156 0.130072 0.059244 0.014383 -0.095012 -0.014521 0.076553 0.080530 0.026184 -0.086347 0.107342 -0.047497 0.057502 0.113093 0.019289 0.105974 -0.006578 0.101010 0.098670 -0.140554 -0.010626 0.035348 -0.046908 0.138687 0.066331 -0.145730 -0.238870 0.032227 0.066994 -0.046976 0.032244 -0.093579 -0.218366 -0.116353 -0.052459 -0.093815 0.179690 0.123432 -0.134314 -0.082956 0.034396 -0.091656 -0.190964 -0.017762 -0.112617 0.022024 0.054162 0.024694 -0.053732 0.052075 0.125839 0.055061 -0.122797 -0.054106 -0.030486 -0.018543 0.066530 -0.078129 0.058607 -0.087795 0.102710 -0.152905 -0.068884
amazing 0.004577 0.070683 -0.055105 0.052160 -0.090441 0.150975 -0.032569 0.188546 -0.052914 0.062696 0.094740 0.211396 -0.047854 -0.075746 -0.035051 0.049603 -0.069477 -0.025761 -0.089886 -0.105722 0.051298 0.005876 0.095017 0.094447 -0.026483 0.031943 -0.076714 0.060067 -0.036590 0.252801 -0.137623 0.016746 -0.118482 -0.006093 -0.230428 -0.031780 0.165443 -0.102078 0.102974 0.117063 0.049252 -0.126091 -0.058381 0.096344 -0.009578 0.000615 -0.138857 0.030476 0.059296 0.125388 0.021662 0.006543 0.120077 -0.152251 -0.005518 0.156089 -0.123974 0.116734 -0.048706 -0.056188 -0.001486 -0.099559 0.023648 -0.136693 -0.131999 0.137230 0.001133 0.056088 -0.045627 -0.339531 0.025654 -0.088783 -0.052395 0.007770 0.009946 0.041028 0.048561 -0.066684 0.068657 -0.108280 0.072717 -0.146135 0.055560 -0.012954 0.058773 -0.164631 -0.107025 0.061522 0.040054 0.053741 0.055442 -0.128668 0.007194 0.081926 -0.247101 0.001300 -0.100813 -0.020116 -0.067079 -0.074942
small 0.066750 0.080547 -0.128608 -0.037470 -0.070056 0.132989 0.065431 0.169604 -0.194897 -0.020259 0.057197 0.209062 -0.193901 -0.079331 0.058594 0.027875 -0.011099 -0.133197 -0.022344 -0.010760 0.065025 -0.074860 0.198802 -0.062347 0.048991 0.042269 -0.052437 -0.006078 -0.052657 0.224408 -0.167246 0.169100 -0.080034 -0.099161 -0.248653 0.022171 0.110235 0.031027 0.042200 0.107004 -0.074035 -0.012904 -0.147011 0.205413 -0.041367 0.065286 0.085856 0.170210 0.084256 -0.043302 0.021532 -0.065352 0.074360 -0.100162 -0.055070 0.058793 -0.102038 0.121942 0.011551 0.061561 -0.048648 -0.085179 -0.001523 -0.141576 0.072869 -0.046027 0.042506 0.090962 0.033333 -0.248307 -0.055850 -0.061096 0.051134 0.024289 0.170878 -0.125619 0.079238 -0.052692 0.024504 0.000961 -0.040625 -0.122831 0.023361 0.146216 0.001761 0.057492 0.093241 0.066391 0.037605 -0.053883 -0.006534 -0.137839 -0.064452 -0.085374 -0.130576 -0.007326 -0.008602 0.075499 -0.067533 -0.141475
same 0.017531 0.014942 -0.187896 -0.116803 -0.098663 0.074035 -0.038896 0.007241 -0.140291 0.033282 0.000311 0.060622 -0.142468 -0.077340 0.069542 0.097245 0.062121 -0.102216 -0.043376 -0.052403 -0.043273 -0.159726 0.080335 -0.038302 0.114912 0.024436 -0.192688 -0.082954 0.017795 0.065277 -0.064489 0.138123 0.014960 -0.047538 -0.186198 -0.021491 0.150531 -0.084221 0.196887 0.169519 0.078288 -0.049044 -0.154825 0.137340 0.054839 0.161211 0.026943 0.011450 -0.049011 0.154364 0.087118 0.098400 0.096585 0.007549 0.041272 0.064968 -0.027729 0.081926 -0.026331 -0.027732 0.133796 0.013313 -0.179305 -0.218964 -0.121058 -0.007522 -0.083021 0.028417 -0.076439 -0.302246 0.002063 -0.149068 -0.021578 0.045268 0.104002 -0.162278 0.052280 -0.114210 -0.087518 -0.090977 -0.066498 0.034636 0.005991 0.136022 -0.053231 0.011118 0.045183 -0.008822 -0.050865 0.017837 0.017368 -0.069496 -0.012116 -0.061366 -0.193848 -0.080268 0.010706 0.139285 -0.031259 -0.167063
old -0.067023 0.018145 -0.195381 0.033532 -0.193311 0.040527 0.018203 0.081875 -0.078082 0.111754 -0.091589 0.077578 -0.173895 -0.189837 -0.021606 0.028214 -0.094242 -0.143295 -0.047223 0.021108 0.046114 -0.003818 0.104718 0.002903 -0.008620 0.188891 -0.100581 -0.086379 -0.065990 0.175840 -0.011023 -0.000384 -0.018760 -0.026212 -0.287559 0.106647 0.174054 0.086303 0.079007 0.036849 0.067725 -0.095105 -0.053489 0.048040 0.013822 0.027165 -0.030027 0.051496 -0.028773 0.148937 0.104231 -0.079617 -0.068749 -0.105269 -0.046838 0.118389 -0.016171 0.119373 0.012494 -0.057084 0.040246 0.011395 -0.049884 -0.103256 -0.070987 -0.040446 -0.035195 0.089964 -0.101480 -0.326883 -0.149840 -0.047450 0.097146 0.099693 0.140560 0.000115 -0.013148 0.034533 -0.047557 -0.192057 0.063215 -0.089103 0.150886 0.133095 0.023047 -0.114424 -0.001920 0.073975 0.013216 -0.059367 -0.061241 -0.114690 0.064751 -0.036016 -0.204245 0.040814 -0.087202 0.083857 0.007842 -0.115690
totally -0.137169 -0.087840 0.006046 -0.090743 -0.117767 0.139067 -0.050699 -0.025932 -0.218975 0.087350 0.099849 0.072704 -0.094192 -0.126334 0.079313 0.060251 0.003710 -0.180561 0.013725 0.000416 0.003829 -0.131263 0.006944 -0.007300 0.080721 0.145141 -0.192800 -0.154179 -0.188431 0.185907 -0.171778 0.159745 -0.055517 0.083250 -0.160717 0.021746 0.120056 -0.094285 0.180491 0.022004 -0.041043 -0.102642 -0.080501 0.156296 0.053709 0.045069 0.025724 0.105402 -0.079807 0.176941 -0.033150 0.096164 0.073663 -0.014536 -0.086576 0.164096 -0.167719 0.052058 -0.056641 -0.023515 0.055873 0.042835 0.025151 -0.152339 -0.129529 -0.065430 -0.070115 0.164990 -0.033943 -0.186079 0.023233 -0.092590 -0.010918 0.062242 0.058177 -0.080916 -0.055281 0.045319 0.061900 -0.134540 -0.073607 -0.112853 0.066424 0.094901 -0.009813 0.000684 -0.054722 0.154633 -0.023899 0.012364 -0.007159 -0.141850 0.146017 -0.020597 -0.037238 -0.018534 -0.103851 0.022709 -0.033956 -0.030912
last -0.111185 0.028526 -0.135618 -0.036664 -0.231392 0.092904 -0.041473 0.002694 -0.184963 0.065619 0.041238 0.196860 -0.041986 -0.056846 0.018851 0.030538 -0.033682 -0.144318 -0.151399 0.042126 -0.006956 -0.026106 0.217989 0.062466 -0.018684 0.058263 -0.041254 -0.044857 -0.105410 0.206286 -0.120989 0.016194 0.041696 -0.073069 -0.245950 0.115143 0.071462 0.054672 0.133004 -0.017871 -0.003098 -0.097919 -0.005338 0.196520 0.124924 0.140114 -0.026749 0.117677 0.072107 0.142633 0.107441 -0.011139 0.060521 -0.143825 -0.008687 0.013810 -0.045695 -0.015304 0.046631 -0.104415 0.029541 0.068397 -0.073965 -0.195473 -0.035184 0.118816 -0.068104 0.148937 0.003107 -0.200138 0.032223 -0.017602 -0.080302 0.061911 0.163556 -0.140412 0.022472 -0.002352 -0.025471 -0.175695 0.096137 -0.051108 0.067200 0.153998 -0.059816 -0.124775 -0.055602 0.105616 -0.013863 -0.049968 -0.010638 -0.129534 -0.002142 0.005088 -0.061435 -0.008081 -0.097113 0.083996 -0.120879 -0.106171
cheap 0.093189 -0.033854 -0.055515 -0.177762 -0.088278 0.205468 0.032733 0.044335 -0.163037 0.030854 -0.037305 0.031840 -0.133632 -0.163105 -0.122748 -0.034565 -0.093763 0.032841 -0.023342 -0.003386 -0.063281 -0.177612 0.165398 -0.109498 0.151429 0.182514 -0.154891 0.029287 0.006523 0.044106 -0.127271 0.161452 0.006585 0.027004 -0.152627 0.117912 0.110105 0.035865 0.088899 0.116158 -0.014148 -0.009438 -0.041569 -0.012999 -0.026905 0.073209 0.053480 0.083523 -0.062054 0.093657 0.028173 0.012292 0.128023 -0.070329 0.048197 -0.022784 -0.113613 0.043407 -0.006289 -0.003482 -0.019004 -0.006675 -0.175873 -0.121111 0.030217 0.010423 0.030808 0.144530 0.028802 -0.214808 0.035797 -0.134123 0.068119 0.200108 0.144709 0.025278 -0.023078 -0.008714 -0.052666 -0.038632 0.088929 -0.006190 0.182028 -0.015025 -0.093276 0.044708 -0.072576 0.198091 -0.068725 -0.095268 0.093858 -0.206799 0.121808 -0.006744 -0.036753 0.001930 -0.121802 0.051940 -0.091318 -0.217717
black -0.035709 0.032991 -0.174804 -0.079512 -0.144751 0.150479 0.058924 0.035252 -0.181893 0.001378 -0.089306 0.167165 -0.015407 -0.168476 0.059164 0.166959 0.007754 -0.165134 -0.064044 -0.019133 0.119278 -0.102148 0.039346 0.032900 0.053693 0.146222 -0.091748 0.027097 -0.036150 0.203018 -0.152627 0.153918 -0.098190 0.036066 -0.290193 -0.040965 0.140922 -0.026620 0.095656 -0.003555 0.038118 -0.092960 -0.109468 0.032963 0.021646 0.080515 -0.056500 0.126813 -0.052173 0.086495 0.074317 -0.051497 -0.029027 -0.060977 0.042655 0.099317 -0.160178 0.066106 0.001773 -0.118185 0.035487 0.077877 -0.058316 -0.085350 -0.022045 -0.029752 -0.083674 0.042223 0.022272 -0.178120 -0.060843 -0.074106 -0.002911 0.007582 0.054257 -0.107513 -0.071072 -0.109958 0.055900 -0.200137 0.087628 -0.102342 0.154116 0.054775 -0.061754 -0.021574 0.064041 0.147733 -0.061268 -0.030913 -0.002006 -0.179543 -0.008941 0.018527 -0.207243 -0.019471 -0.054990 0.076499 -0.111332 -0.159068
awful 0.061707 0.174993 -0.211193 -0.101018 -0.049055 -0.021618 0.114289 0.200648 0.042503 0.108911 0.075546 0.008143 0.073188 -0.221896 -0.001594 0.212214 0.022918 -0.112436 -0.122350 0.057992 0.114516 -0.024563 -0.009139 0.100077 -0.014836 0.037568 -0.220396 0.000624 -0.120324 0.170131 0.068287 0.068121 0.051185 -0.134461 -0.135610 -0.026620 -0.087327 0.138376 0.142670 0.158384 0.021675 0.098824 0.002776 0.000678 -0.114237 0.177108 0.034733 -0.009003 0.064918 0.111497 0.147088 -0.059491 -0.143731 -0.175001 -0.119872 0.163322 -0.018222 -0.050123 -0.071571 0.087395 -0.031982 0.109723 0.082878 -0.198357 -0.018956 0.123966 -0.032301 -0.076188 -0.055744 -0.094926 -0.149459 -0.032386 -0.068576 0.076905 -0.045027 -0.065795 0.014523 -0.018885 -0.031980 -0.090398 -0.005347 -0.109435 0.019425 0.051052 0.091156 -0.042782 -0.014132 -0.046349 -0.027904 -0.149518 -0.047799 -0.069909 0.054596 -0.023292 -0.166972 0.079323 0.024977 0.098474 -0.077199 0.060689
fantastic -0.048184 -0.022174 -0.213872 -0.086678 -0.216479 0.145876 -0.073142 0.032650 -0.166081 0.096985 -0.096106 0.107884 -0.056613 0.002537 -0.024772 0.173214 0.097815 -0.065326 -0.169901 0.037232 0.104134 -0.095322 0.209718 -0.073033 -0.006470 0.147918 -0.197019 -0.101281 -0.033106 -0.056451 -0.091334 0.104354 0.114912 -0.095095 -0.159141 -0.060375 0.150599 0.131572 0.118489 -0.026247 0.124310 0.094662 -0.086980 0.172773 0.156829 0.128042 -0.013527 0.068208 -0.040819 -0.003253 0.027166 -0.008533 0.101210 -0.002675 -0.116306 -0.106550 0.023275 -0.038060 0.067853 -0.061114 0.084421 0.069140 -0.011114 -0.129214 0.116181 0.013148 0.039880 0.089037 -0.091531 -0.145176 -0.031063 0.077275 0.003558 -0.041723 0.086988 -0.143471 -0.082488 -0.127102 -0.020448 0.014020 -0.105696 0.080517 0.121592 0.066017 0.145517 -0.081595 0.012841 -0.008099 -0.040275 -0.123687 -0.053429 -0.167166 0.024790 -0.015947 -0.150940 -0.023543 -0.097292 0.096729 -0.104085 -0.008373
stupid 0.042605 -0.030360 -0.176136 -0.058573 -0.131248 0.149555 0.008596 0.100288 -0.162959 0.054868 -0.007154 0.188564 0.023688 -0.185221 -0.112011 0.139178 -0.034449 -0.084383 -0.134575 0.024849 0.103460 -0.054209 0.160874 0.118327 0.107088 0.089133 -0.096409 -0.005343 -0.016041 0.155908 -0.103229 0.129109 -0.118246 0.054234 -0.163172 -0.092574 0.126542 0.026055 0.038117 0.007668 0.019332 -0.133118 -0.081919 0.123403 0.049080 0.008073 -0.026112 0.160067 -0.028111 0.143770 0.022584 0.087934 0.013157 -0.133686 0.116564 -0.021723 -0.142979 0.050389 -0.024946 -0.062021 -0.012605 -0.038651 -0.066145 -0.162503 0.011106 0.023717 0.044583 0.018565 -0.042217 -0.203040 0.062894 0.071172 -0.002737 -0.036800 0.064610 -0.106321 -0.126396 -0.125976 -0.096515 -0.109684 0.043115 -0.132992 0.144404 -0.067746 0.013018 0.070612 -0.078484 0.004632 0.113539 -0.115040 0.095796 -0.169987 -0.001666 0.085129 -0.147828 0.096679 -0.133973 0.127039 0.049290 -0.196336
perfect -0.025455 -0.096605 -0.153987 -0.126142 -0.131336 -0.049759 0.045399 -0.050877 0.008827 -0.040436 -0.045888 0.058363 -0.001025 -0.008769 -0.121585 0.101708 -0.040244 -0.038357 -0.033691 -0.101473 -0.045098 -0.106444 0.154232 0.076061 -0.087001 0.150817 -0.167513 0.048745 0.000682 0.162371 -0.136747 0.032614 -0.125740 0.081503 -0.246777 -0.109536 0.176570 0.129729 0.131277 0.167961 0.104542 -0.016437 -0.096013 0.144878 0.002566 0.087734 -0.104170 0.052731 -0.114838 0.043430 -0.039955 0.106566 0.118118 0.041891 0.084073 -0.049018 0.001637 0.120430 0.045570 -0.082709 0.130178 -0.047482 -0.043552 -0.204493 -0.002998 0.149848 0.009555 0.003933 0.112682 -0.222309 -0.072149 -0.063346 0.024184 0.131627 -0.043881 0.051911 0.039898 -0.034736 -0.126175 -0.040581 0.104175 0.044004 0.183087 0.015620 0.048247 -0.060186 0.005486 0.139300 -0.037607 -0.016663 0.016761 -0.169813 0.090636 -0.012957 -0.128954 0.025522 -0.170197 0.166409 -0.127313 -0.009101
must -0.129938 0.062715 -0.091939 -0.104166 -0.081456 0.155202 0.109017 0.122538 -0.145552 0.123438 -0.032736 0.042111 -0.047242 -0.079497 -0.069666 0.144680 -0.044244 -0.028371 -0.149347 -0.105500 0.094423 -0.096802 0.171140 0.032566 0.128857 0.172345 -0.137768 -0.141139 -0.100282 0.137878 0.019860 0.032147 -0.080375 -0.019155 -0.259689 0.071526 -0.014726 -0.048676 0.104714 0.064404 0.012236 -0.091732 -0.159748 0.071262 0.034935 0.110707 -0.120284 0.066692 0.070651 0.060692 0.059324 -0.006375 0.009167 0.007393 0.037354 0.017749 -0.176773 0.061927 0.008354 -0.098030 0.135470 -0.060416 -0.098140 -0.132112 -0.011478 0.057418 -0.081107 0.116164 0.055610 -0.185883 -0.002517 0.045609 -0.056738 -0.002184 0.211708 -0.028749 0.037001 -0.055043 -0.070306 -0.196255 -0.042913 -0.102100 0.065846 0.066968 -0.096880 0.009195 0.019359 0.074537 0.012263 -0.084471 -0.071110 -0.091517 0.153656 0.023870 -0.156393 0.007679 -0.186554 0.158061 -0.150911 -0.055894
actually -0.109055 0.077568 -0.106238 -0.121487 -0.131307 0.049265 -0.034719 0.103076 -0.029518 0.044377 -0.049471 0.216229 -0.133821 -0.065895 -0.003092 -0.010624 0.062702 -0.034266 -0.091275 -0.007295 0.109551 -0.152265 0.150007 -0.009679 -0.067526 0.003954 -0.098204 -0.044214 -0.092037 0.207866 -0.083165 0.141898 -0.117550 0.089224 -0.231940 0.096928 -0.008802 0.061029 0.165406 0.057444 0.082698 -0.028634 -0.112422 0.151840 0.128064 0.076820 -0.124748 0.152384 0.106131 0.070224 0.043091 -0.093548 -0.052209 -0.128350 0.025888 0.063826 0.020579 0.126345 -0.016786 -0.075699 0.047853 -0.064923 -0.086252 -0.191903 -0.048627 0.050939 -0.126393 0.146539 0.035132 -0.114874 -0.067699 -0.146259 0.019395 0.082745 0.139330 0.000978 -0.094280 -0.102164 -0.052837 -0.111690 0.110337 0.018712 0.145633 0.051791 -0.056261 -0.062919 -0.093507 0.167380 -0.054758 0.062641 -0.041841 -0.139517 0.076686 0.012047 -0.177858 -0.064393 -0.157800 0.014613 -0.121735 -0.044150
such 0.093520 0.039992 -0.091444 -0.091585 -0.033763 0.140231 0.018725 0.002546 -0.117486 0.009701 -0.093056 0.094063 -0.126975 -0.235256 0.103495 0.199646 0.027246 -0.016939 -0.012942 0.006017 0.160729 -0.183936 0.058914 -0.002767 0.060389 0.078234 -0.128320 -0.007439 0.013068 0.167269 -0.056498 -0.007518 0.029232 -0.048564 -0.222677 0.120368 -0.024769 -0.007681 0.120369 0.159162 0.101800 0.034378 -0.117702 0.121545 0.052362 0.113165 -0.133192 0.146048 -0.055807 0.140708 -0.051193 -0.110818 0.059043 -0.143832 0.035350 0.090694 -0.186572 0.140390 -0.007459 0.045717 0.051938 0.042523 -0.094992 -0.148076 -0.059353 0.150326 0.028559 0.086941 0.084634 -0.202998 -0.001170 -0.010687 0.012035 0.077256 0.143721 0.030917 0.075880 -0.062948 0.012012 -0.063146 0.053624 -0.120704 0.094478 0.142055 -0.084474 -0.086402 -0.049175 0.017714 0.084589 -0.040639 0.057701 -0.050610 0.135405 -0.110949 -0.162847 0.054506 -0.124216 0.120563 -0.108327 -0.071476
service 0.030359 0.089626 -0.212627 -0.025651 -0.165989 0.019282 -0.042564 0.138796 -0.073763 0.097147 -0.036417 0.189515 -0.086837 -0.104493 0.026999 0.052370 0.045192 -0.137926 -0.037561 -0.084469 -0.036116 0.051266 0.142665 0.004444 0.090262 0.032955 -0.012110 -0.059688 -0.058332 0.129225 -0.025539 0.148626 0.106917 0.054403 -0.307424 -0.045742 -0.040149 0.004856 0.174224 -0.035094 -0.032505 -0.010315 -0.191444 0.029557 0.082655 0.007597 -0.026568 0.030267 -0.009192 0.014596 -0.028287 -0.101085 -0.013614 0.009481 -0.053797 0.013286 -0.195884 0.118310 0.065268 0.010800 0.123625 -0.078902 0.017914 -0.033844 0.100979 -0.028910 0.063835 0.066984 -0.082397 -0.121532 -0.141594 0.084742 -0.015551 0.169505 0.219870 -0.079851 -0.019338 -0.018607 0.011352 -0.115748 0.097847 0.058627 -0.062929 0.072152 0.014252 -0.066077 0.125324 0.149926 0.101731 -0.111537 -0.060650 -0.068959 -0.065017 -0.043146 -0.218072 0.131783 -0.182849 0.050863 0.072101 -0.227860
worth 0.114323 0.027974 -0.160375 -0.202374 -0.116596 -0.013270 -0.006706 -0.056430 -0.053067 0.000390 0.003947 0.083499 0.054769 -0.122549 -0.058383 -0.040889 0.030741 -0.005805 0.019445 0.055090 0.108426 -0.133038 0.126223 -0.044119 0.144566 0.002768 -0.114089 -0.148932 -0.230660 0.120027 -0.125276 0.012325 0.003066 -0.118648 -0.043996 0.038422 -0.037460 0.092757 0.111983 0.172792 -0.140487 0.099363 0.071603 0.209300 -0.040794 0.077080 -0.019051 0.091133 -0.145709 -0.022852 0.135176 0.075226 -0.014163 -0.135090 0.093277 -0.061681 -0.103823 -0.094772 0.152841 0.051192 0.007000 0.082963 -0.093137 -0.027766 0.020067 0.110352 -0.157706 0.055046 0.071297 -0.186168 0.086549 0.035482 0.061383 0.077226 -0.021164 -0.208800 -0.026341 0.070771 -0.122377 -0.122088 -0.049448 0.121520 0.107564 0.125950 0.021901 -0.181756 -0.136242 -0.091593 -0.059429 -0.057975 0.059067 -0.079466 0.031396 0.042032 -0.074679 -0.128964 0.020796 -0.065917 -0.178167 -0.114805
slow -0.060022 0.053621 -0.077448 -0.146091 -0.040291 0.108483 -0.099736 0.117450 -0.139440 -0.038497 -0.056458 0.073775 0.034694 -0.115969 -0.107492 0.146297 -0.130239 -0.202419 -0.094543 -0.007402 0.049836 -0.144182 0.068450 -0.051698 -0.033945 -0.004559 -0.232311 -0.008276 0.060907 0.237188 -0.148666 0.023929 -0.002554 -0.076005 -0.215414 -0.048145 0.179038 -0.058868 -0.025263 0.109671 0.127729 -0.024000 0.048477 0.103616 0.061510 0.018352 0.077115 0.152070 -0.062441 -0.010854 -0.097501 -0.064348 -0.103371 0.033365 0.116406 0.161950 -0.026887 0.029594 0.066014 0.047818 -0.025197 -0.004242 -0.145708 -0.146456 -0.083416 0.141142 -0.111390 -0.009565 -0.020031 -0.265867 0.030861 0.010564 -0.059479 0.026473 0.171037 -0.055428 -0.071411 -0.070748 -0.015879 0.028802 0.111678 -0.140834 0.114245 0.097530 0.047743 -0.158627 0.087263 -0.064393 0.077463 0.088597 0.023518 -0.091058 -0.031509 -0.054636 -0.067240 0.069972 0.001348 0.124141 0.022157 -0.156359
especially -0.072439 0.118925 -0.171093 -0.097097 -0.079432 0.123445 0.037506 -0.018484 -0.183649 0.078989 0.038180 0.135427 -0.128551 -0.088634 0.015723 0.170486 -0.039358 -0.085896 -0.026435 -0.059233 -0.003773 0.010885 0.194295 -0.001144 -0.038052 0.098793 -0.201623 0.063788 -0.072115 0.222412 -0.109182 0.052412 -0.098439 0.082777 -0.194658 0.116028 0.026483 -0.017303 0.089651 0.010030 0.024021 -0.052269 -0.034387 0.044602 0.118849 0.076900 0.038364 0.169019 -0.012536 0.167512 0.076603 -0.003372 0.092765 -0.051769 -0.090702 0.009265 -0.042186 0.084347 -0.093989 -0.058180 0.037824 -0.009464 -0.129030 -0.040821 -0.107837 -0.058293 0.047469 0.141079 -0.001320 -0.279973 -0.099280 -0.142413 -0.031037 0.005159 0.004321 -0.001136 0.024587 -0.112944 -0.117506 -0.042762 0.112781 -0.094225 0.049004 0.120729 -0.073268 -0.070277 0.046401 0.083429 -0.066502 0.029553 -0.082842 -0.204065 0.142484 -0.055136 -0.131152 -0.005078 0.003980 0.074776 -0.148248 -0.212062
overall -0.014212 0.129764 -0.206904 -0.073936 0.005151 0.065325 0.084825 0.178349 -0.083776 -0.034436 -0.035493 0.184970 -0.200705 -0.217678 -0.085875 0.060734 -0.086591 0.036382 -0.179903 -0.025622 0.049022 -0.188433 0.051238 -0.114879 0.050340 -0.037890 -0.014633 -0.031607 -0.047383 0.056481 -0.135591 0.134055 0.102442 -0.112067 -0.212206 -0.109169 -0.014650 0.125880 0.124340 -0.010284 -0.066100 0.048818 -0.060898 0.160806 -0.082477 0.088109 -0.062724 -0.028045 0.036360 -0.005709 -0.066595 0.122388 -0.085254 -0.042146 0.007524 0.049193 -0.082400 0.047012 -0.058160 -0.072382 0.002834 -0.025837 -0.181866 -0.167218 -0.135596 0.110567 0.071646 -0.049958 -0.076523 -0.254908 -0.169756 -0.021367 0.003863 0.151758 0.150531 -0.076878 0.046006 0.093131 -0.125786 -0.047604 -0.027472 -0.003857 0.038657 0.118782 0.105318 0.049755 -0.132838 0.053410 -0.037924 -0.017130 -0.053115 -0.082473 0.000012 0.020631 -0.087552 0.038801 0.023610 0.146268 0.004840 -0.123948
hard -0.059040 0.030574 -0.102164 -0.135811 -0.063246 0.161084 -0.068513 0.032339 -0.144492 -0.033488 0.053945 0.132354 -0.007033 -0.244865 0.111102 0.200289 -0.127784 -0.174745 0.018285 0.020480 -0.041790 -0.038335 0.084905 -0.028822 -0.091811 0.072243 -0.134844 0.035050 -0.183034 0.184105 -0.176421 -0.040462 -0.060777 -0.047054 -0.080593 0.010922 0.037078 0.097241 0.218731 0.079450 -0.072296 -0.126208 -0.072343 0.173370 0.016241 0.091081 -0.122708 0.049914 -0.086657 0.185863 0.060231 -0.081434 0.099358 0.073431 -0.053991 -0.069893 -0.027598 0.115028 -0.014774 0.073981 0.093698 0.052625 0.017152 -0.014485 0.045817 0.076883 -0.104835 -0.037922 0.058768 -0.149971 -0.119567 -0.048593 -0.052151 0.134522 0.093740 -0.132956 0.097367 -0.083197 -0.110695 -0.130466 -0.048947 -0.039412 -0.014030 0.139321 0.038318 0.007482 -0.069496 -0.006269 -0.100924 -0.109727 -0.102487 -0.074450 0.125452 0.031392 -0.184313 -0.089952 -0.043989 0.159330 0.048605 -0.064465
fresh -0.042414 0.096327 -0.100763 0.073733 -0.233940 0.066803 -0.102082 -0.064873 -0.173705 -0.070515 0.015726 0.084203 -0.116725 0.013060 0.049259 0.129740 0.083281 -0.147378 -0.011988 0.071834 -0.025910 -0.088277 -0.022518 -0.104027 0.019945 0.133146 -0.190712 -0.089229 0.018267 0.108570 -0.133818 0.064663 -0.145053 0.032740 -0.168175 -0.084097 0.008991 -0.028517 -0.037983 -0.061449 0.149252 -0.052944 -0.176753 0.143378 -0.068518 0.183299 0.084826 0.077775 0.123704 0.179239 0.042978 0.076542 0.115998 -0.160490 -0.028982 0.076562 0.032763 -0.054185 -0.052257 0.075331 -0.001378 0.017281 0.014456 -0.016614 -0.011754 -0.094033 0.086214 -0.036332 0.039832 -0.337636 -0.138673 0.033257 -0.086020 0.026003 0.103131 -0.173770 0.041966 0.026639 -0.088028 0.018265 0.057878 -0.080520 -0.067227 -0.069654 -0.076618 -0.071419 0.053860 -0.042249 0.116658 0.019585 0.035935 -0.200215 0.124861 0.054196 -0.189625 0.063493 -0.052326 0.036388 -0.026485 -0.026107
sure -0.070413 0.074375 -0.060681 0.033946 -0.236443 0.030197 -0.026107 0.085132 -0.060022 0.073194 -0.106302 0.159998 -0.190743 -0.214488 0.078297 0.018741 -0.105456 -0.040622 -0.172710 0.012897 0.019270 -0.061572 0.006535 0.099925 -0.068541 0.021467 -0.163139 -0.061869 -0.038857 0.156242 -0.049372 0.125163 -0.111629 0.012299 -0.143932 0.015758 0.018354 -0.051263 0.061665 -0.020451 -0.088543 -0.098199 -0.145659 0.110898 0.122679 0.161721 -0.001022 0.184064 0.073235 0.109248 0.040301 -0.057831 0.095819 -0.022089 -0.103775 0.151919 -0.022456 0.085483 0.003751 -0.054883 -0.014166 -0.083144 -0.126915 -0.191693 -0.028430 0.110630 0.028458 0.161881 0.020794 -0.271953 -0.009226 -0.145064 -0.099731 0.157718 0.123355 -0.109319 0.030118 -0.008057 -0.041653 -0.068661 0.093200 -0.005567 0.011300 0.110702 -0.009790 -0.136568 -0.040119 0.083194 -0.003139 -0.135809 -0.038981 -0.028930 0.120956 -0.004239 -0.107632 0.089691 0.025367 0.045209 0.022037 -0.183179
least -0.039964 0.078678 -0.095079 0.003107 -0.115356 0.070783 0.089592 0.060023 -0.112280 0.096248 -0.119938 0.194915 -0.055904 -0.117598 -0.095683 0.077981 0.010405 -0.182556 -0.032926 0.066076 0.043546 -0.041167 0.127718 0.031880 0.119264 0.153892 -0.062328 -0.117979 -0.052911 0.063857 -0.070066 0.106894 -0.066087 0.003448 -0.284465 -0.053154 0.035758 0.109621 0.144272 0.037480 0.017876 0.024283 -0.125774 0.180375 0.005577 0.170202 -0.048309 0.160671 0.105968 -0.009659 -0.025438 0.114065 0.059533 -0.068575 -0.006821 -0.008547 -0.071417 0.011216 -0.026631 -0.118274 0.005663 0.044915 -0.037554 -0.201052 -0.002642 0.110710 0.022419 -0.009103 0.028241 -0.238347 -0.125620 -0.091635 0.088673 0.128247 0.192352 -0.112063 0.062651 0.001804 0.072582 -0.087058 0.013073 0.029645 0.098459 -0.024170 -0.011831 -0.041059 -0.062999 0.169421 -0.075588 0.003711 0.110337 -0.186796 0.078154 -0.034009 -0.203888 0.097533 -0.165294 0.067280 -0.044194 -0.069275
beautiful 0.041153 -0.031583 -0.149227 0.088133 -0.145001 0.191711 0.090393 0.010355 -0.075979 -0.043445 -0.032648 0.160741 -0.172462 -0.006267 -0.116096 0.166482 -0.034882 -0.081331 -0.024792 0.070346 -0.035407 -0.168524 0.155752 -0.070929 -0.083762 0.148395 -0.151380 -0.081628 0.056998 0.086969 0.076005 0.093173 -0.052691 0.029686 -0.212695 0.018153 0.159823 0.129153 0.038859 0.035768 -0.048396 -0.126009 -0.114414 0.051807 0.089080 0.093154 0.059201 0.118575 -0.074070 -0.073271 0.083777 0.121158 0.089557 -0.059805 -0.051172 -0.050953 0.017424 -0.035090 -0.098357 -0.053785 -0.062140 0.112882 0.061287 -0.010691 0.099450 0.050095 -0.080864 0.120153 -0.076011 -0.257209 0.091830 -0.162785 0.096724 0.152661 0.036997 -0.143349 -0.065977 0.025276 -0.038054 0.026930 0.124798 -0.115674 0.167484 0.084569 -0.063845 -0.069748 0.056473 0.093861 -0.053455 -0.092889 0.020038 0.013106 0.135297 -0.047966 -0.169794 0.107583 -0.139403 -0.028104 -0.032826 -0.107905
cool -0.082565 0.118004 -0.097020 -0.134507 -0.073905 0.091826 0.072998 0.073196 -0.181420 -0.043523 0.071692 0.173874 -0.124050 -0.164790 0.005524 0.021727 0.039264 -0.150943 -0.150272 0.016839 0.119632 0.013793 0.117892 -0.056443 -0.035950 0.092114 -0.108301 -0.032538 -0.005794 0.160776 -0.152089 0.000618 0.054466 -0.043625 -0.288267 0.010614 0.083423 -0.062683 0.129418 0.086904 0.026171 0.045035 -0.154439 0.172450 0.024941 0.015695 0.068035 0.106203 0.089097 0.021052 0.062437 0.025165 -0.073239 0.030005 -0.093232 0.003805 -0.089472 0.003521 -0.088248 -0.125548 0.041294 0.057683 -0.015831 -0.112466 -0.024535 0.071658 -0.015098 0.122733 -0.072129 -0.245357 -0.099856 0.022125 -0.072338 0.076255 -0.002656 -0.148601 0.062622 -0.073892 0.003617 -0.185435 0.063591 -0.073361 0.085809 -0.001459 0.048256 -0.089340 -0.088085 0.131223 0.096657 0.062049 0.103565 -0.164260 0.055210 -0.094539 -0.218391 -0.028944 -0.145216 0.105014 -0.140643 -0.025594
ear 0.064375 0.076235 -0.193911 0.051275 -0.170075 0.080778 0.058026 0.071330 -0.211238 0.145237 -0.055697 0.029216 -0.090179 -0.218747 0.069143 0.149716 -0.071642 0.017437 -0.043284 -0.113971 0.034799 -0.134586 0.020370 0.073502 0.017994 0.073325 -0.135983 0.063070 -0.137046 0.022048 -0.090696 0.119076 -0.041906 -0.095045 -0.238135 -0.044842 0.099081 0.116888 0.118355 0.050305 0.050481 -0.025288 -0.118552 0.067463 0.151934 -0.001514 0.027344 0.044389 0.090999 0.031381 0.044282 0.116180 -0.003722 0.020954 0.077258 0.115430 -0.196687 0.033104 0.068583 -0.029155 0.144188 -0.040262 -0.156840 -0.024123 0.045335 0.014458 -0.013507 0.000200 -0.100516 -0.181699 0.054343 -0.081158 -0.109457 0.037765 0.139340 -0.097792 -0.124151 -0.071377 0.059827 -0.039499 0.147645 0.069476 -0.038621 -0.031558 0.120201 -0.075296 -0.074338 0.090880 -0.019126 -0.007568 0.044680 -0.199324 0.029994 0.075133 -0.196035 0.094091 -0.180400 0.093498 -0.024351 -0.138714
simply -0.069500 -0.068285 0.006062 0.066565 -0.115554 0.092252 0.080665 0.130019 -0.034305 0.031351 0.053942 0.135215 0.012836 -0.146223 -0.056821 0.169157 0.018421 -0.061797 -0.149261 -0.095281 -0.040797 0.038365 -0.007385 -0.044019 0.136873 0.164362 -0.086053 -0.153821 0.023419 0.136505 -0.105636 0.139544 0.096267 -0.101990 -0.103268 0.094713 0.120679 -0.112494 0.075064 0.044109 -0.075230 0.037750 -0.126060 0.169363 0.088512 0.149573 0.009378 0.026498 -0.097170 0.043712 0.051216 -0.051854 -0.010010 -0.005966 -0.108724 0.156820 -0.041484 0.161045 0.106630 0.075012 -0.073588 -0.001842 -0.167789 -0.229809 -0.049246 0.127728 -0.127891 0.019043 -0.029173 -0.140166 -0.012485 -0.145864 -0.079258 0.087997 0.097536 -0.156787 -0.057048 -0.045892 0.095787 -0.085730 0.037134 0.084713 -0.059663 0.137564 0.102723 -0.074609 -0.134633 -0.005146 0.087141 -0.113871 0.052294 -0.117346 0.121311 -0.076835 -0.091838 0.039473 -0.016674 -0.064905 -0.133374 -0.230391
next -0.069801 -0.036272 -0.207821 0.047586 -0.164451 0.035135 0.021106 0.016163 -0.066733 0.001705 -0.073766 0.133361 -0.003187 -0.035712 -0.081784 0.047174 -0.104816 -0.004904 -0.030989 -0.113954 0.166873 -0.010936 0.215442 0.100634 -0.026364 0.071089 -0.232217 -0.060431 -0.139483 0.226348 -0.082325 -0.018190 0.031328 0.113131 -0.319773 -0.028353 0.008264 -0.049661 0.005155 -0.026636 0.017340 -0.009077 -0.002420 0.084989 -0.035119 0.009257 -0.036033 0.082064 0.123729 0.119527 0.049011 -0.081478 0.071466 -0.128522 -0.040197 0.066158 -0.118607 0.083861 -0.037535 -0.051426 0.120314 0.120013 -0.041459 -0.151332 0.016945 -0.062393 -0.048022 0.088843 0.090000 -0.152388 -0.081555 -0.105410 -0.003048 0.045739 0.178021 -0.183512 0.013413 0.005502 0.035145 -0.134306 -0.065012 0.021690 0.181741 0.003386 -0.098407 -0.084763 -0.106734 0.168898 -0.111300 -0.008347 0.082980 -0.017382 0.035688 -0.107270 -0.145653 0.121386 -0.173232 0.011097 0.023726 -0.070076
special -0.042612 0.075867 -0.054203 -0.020465 -0.116038 0.015357 0.082340 0.123597 -0.202547 0.158894 0.031376 0.058560 0.027625 -0.111507 0.044864 0.119189 0.043232 -0.132942 -0.073885 -0.024612 0.036420 -0.018240 0.195995 -0.037711 0.043542 0.075569 -0.201635 -0.070760 -0.156823 0.074789 -0.049751 0.018200 -0.051080 0.126917 -0.147156 0.075230 0.142414 0.067259 0.184305 0.011734 0.043507 -0.080365 -0.015148 0.222768 -0.064769 0.154482 -0.120089 0.176517 0.117880 0.012984 0.064645 0.073657 0.128785 -0.034058 -0.083209 0.118452 -0.022420 0.028972 -0.015276 -0.099661 0.122082 0.068743 0.015154 -0.183106 -0.073591 -0.035985 0.028522 0.145224 -0.123738 -0.265378 -0.158449 0.004754 0.056666 0.109092 0.187991 -0.027021 -0.039797 0.029944 -0.058783 -0.050629 0.084191 0.055071 0.066513 0.134357 -0.101798 -0.028751 -0.090337 0.060898 -0.071877 -0.135598 0.010058 -0.029673 0.021866 0.011398 -0.149671 -0.056577 -0.130941 0.067359 0.007725 -0.092142
impressed -0.144429 0.056590 -0.116060 -0.004052 -0.124686 0.049259 0.069294 0.078510 0.057158 -0.041427 0.020887 -0.095139 0.066723 -0.194660 -0.116934 0.152410 -0.134699 -0.080244 0.034565 -0.084691 0.005649 -0.021445 0.145846 -0.024534 0.161048 -0.082878 -0.208428 -0.032836 -0.176011 0.101730 -0.015968 0.049869 0.013163 -0.002390 0.058732 -0.036584 0.148855 -0.130965 -0.089682 0.059043 -0.082624 0.005456 -0.008473 0.115717 -0.040382 -0.055585 -0.007640 0.006744 0.117540 0.002597 -0.009414 -0.141529 -0.127518 -0.059100 0.033900 0.148329 0.060384 -0.097552 0.039997 0.138788 0.146851 -0.153931 0.092636 -0.029357 0.126837 -0.119146 -0.113356 0.066146 -0.152727 -0.073790 -0.098499 0.040619 0.126567 0.161166 0.102977 -0.118885 0.114230 0.121858 -0.128430 -0.185709 0.027837 0.053242 0.010527 -0.080601 -0.057680 -0.162975 0.039192 -0.023960 -0.026407 0.137992 0.025628 -0.003477 0.099506 0.100241 -0.111781 -0.066534 0.128273 0.049837 -0.172847 -0.187115
completely 0.000456 -0.060897 -0.163316 -0.035343 -0.084100 0.055471 0.067898 -0.035914 -0.214014 0.161382 0.051795 0.117236 -0.183807 -0.162688 -0.098242 -0.010275 0.075043 0.036151 -0.042818 -0.092931 0.065388 -0.115471 0.086458 0.045202 0.016802 -0.035230 -0.084780 -0.001413 -0.041835 0.169203 -0.098999 0.061935 -0.046342 -0.034745 -0.251253 -0.074758 0.129911 -0.035057 0.145607 0.136612 0.091009 -0.152040 -0.055273 0.206207 0.130440 0.143675 0.078390 0.158875 -0.068002 0.059680 0.036433 0.114815 -0.028982 0.039007 -0.065943 -0.021273 -0.044024 0.042627 0.101467 -0.141067 0.010034 0.103976 -0.147845 -0.090509 -0.054922 0.136677 -0.061281 0.045195 -0.034022 -0.193801 -0.145475 -0.158461 0.011225 0.044248 0.089090 -0.034582 -0.066441 -0.074722 -0.025512 -0.030948 0.102571 0.019288 0.002765 0.022662 -0.086799 -0.128910 -0.051557 0.092677 0.121546 0.088597 -0.095845 -0.019837 -0.042722 0.085200 -0.006664 -0.103450 -0.173674 0.139768 -0.170107 -0.056156
almost 0.001771 0.107061 -0.056265 -0.085782 -0.059115 0.189163 0.016255 -0.014169 -0.071242 -0.044968 0.006632 0.234952 -0.110335 -0.058087 -0.071861 0.121058 -0.097921 -0.167798 -0.125279 -0.081078 0.039996 -0.024270 0.075612 -0.048985 -0.002112 0.000152 -0.162948 -0.021930 -0.031332 0.091795 -0.089196 0.167351 -0.013735 -0.029348 -0.255457 0.061624 -0.011594 -0.098779 0.065734 0.127033 -0.046729 0.054306 -0.146515 0.204624 0.099710 0.023883 -0.108180 0.154190 0.084157 -0.044627 0.073255 0.023833 0.042737 -0.045999 -0.049219 0.025238 -0.064901 0.033354 -0.094564 -0.112817 0.095793 -0.045029 -0.125387 -0.078147 -0.120709 0.021027 -0.103483 0.151535 -0.029737 -0.187915 -0.095787 -0.070671 -0.041521 0.170223 0.155963 -0.043114 0.047780 0.064884 -0.093462 -0.146326 -0.015165 0.039287 0.179700 0.117214 0.098621 0.020601 0.085902 0.108682 0.001820 -0.056089 0.069317 -0.049237 -0.025926 -0.017071 -0.117636 -0.091754 -0.127013 0.102952 -0.153613 -0.217329
