612 100
good 0.076173 0.089350 0.094453 0.093171 -0.013479 -0.031485 -0.193092 -0.117313 -0.116224 0.002693 0.173715 -0.111628 -0.053124 -0.091235 -0.145015 -0.005602 0.188984 0.020098 -0.049909 0.116641 0.054976 0.019440 0.085653 -0.038070 0.000125 -0.012078 -0.050514 0.235377 -0.030663 -0.001412 0.012607 0.012984 0.019025 -0.157341 -0.007699 0.060624 0.035421 0.036321 0.030836 -0.032668 -0.044997 -0.106858 -0.096384 -0.050535 0.062900 0.108417 0.005413 0.143758 -0.091454 -0.182898 -0.155139 0.140883 0.023706 0.093305 0.045314 -0.048161 -0.133348 0.025199 0.027611 0.149335 -0.035106 -0.116838 0.173949 0.193470 0.270414 0.078137 0.183806 -0.121597 0.050692 0.106152 -0.054123 0.165852 -0.137335 0.046687 0.067354 0.085238 0.158919 0.045348 0.001331 -0.019060 -0.160969 -0.027252 0.110859 0.023111 0.058332 0.145221 -0.071034 0.121759 -0.093540 -0.044513 -0.021035 0.053351 -0.080546 -0.051020 -0.001954 -0.203068 -0.022255 0.004486 0.063110 0.020415
great 0.069567 0.112680 0.093108 0.088504 -0.019466 -0.034685 -0.201107 -0.122325 -0.096392 0.003439 0.177631 -0.091049 -0.037621 -0.120354 -0.152969 -0.021548 0.193584 0.030257 -0.051845 0.108810 0.077496 0.017835 0.089215 -0.030044 -0.013646 -0.012919 -0.056037 0.221562 -0.054031 -0.006589 0.007214 0.013204 0.013731 -0.142654 -0.027680 0.076398 0.032291 0.045606 0.037592 -0.048151 -0.052731 -0.104298 -0.082243 -0.053398 0.046896 0.110729 0.006669 0.139757 -0.096437 -0.178624 -0.154287 0.145657 0.029305 0.110094 0.050014 -0.059422 -0.122163 0.027597 0.021157 0.118893 -0.018003 -0.111864 0.170920 0.182810 0.266102 0.054333 0.180095 -0.120421 0.053603 0.123685 -0.058597 0.156685 -0.130955 0.051519 0.067621 0.074251 0.154554 0.034655 0.003293 -0.032295 -0.157610 -0.036131 0.141781 0.030124 0.063124 0.165030 -0.083513 0.119501 -0.096384 -0.052122 -0.036302 0.059718 -0.081729 -0.061460 -0.017215 -0.198079 -0.018573 0.009023 0.061350 0.017844
movie 0.070157 0.091401 0.094387 0.105680 -0.012379 -0.022001 -0.197177 -0.109121 -0.109128 -0.015834 0.180854 -0.088666 -0.042403 -0.109179 -0.143747 -0.015292 0.199798 0.027212 -0.058803 0.120843 0.071550 0.006875 0.093021 -0.032197 0.001466 -0.008779 -0.052337 0.225095 -0.027853 0.000246 0.025321 0.008634 0.009685 -0.146449 -0.006547 0.063820 0.031117 0.055755 0.039705 -0.026043 -0.052997 -0.111740 -0.103043 -0.042320 0.068352 0.087969 0.011302 0.135642 -0.086117 -0.201016 -0.147929 0.151944 0.018067 0.119756 0.057896 -0.041359 -0.115579 0.042363 0.015116 0.122714 -0.020733 -0.111917 0.171972 0.185019 0.281813 0.051977 0.182832 -0.102602 0.043704 0.119466 -0.047534 0.158425 -0.148056 0.050490 0.093330 0.095167 0.150456 0.053589 0.005943 -0.021650 -0.145807 -0.009362 0.126252 0.021776 0.073495 0.152931 -0.054669 0.112536 -0.106582 -0.054232 -0.015812 0.066109 -0.057742 -0.071476 0.004436 -0.190211 -0.008506 0.001883 0.072528 0.000919
film 0.078028 0.109959 0.093791 0.095883 -0.017571 -0.027130 -0.191277 -0.104459 -0.107306 -0.011697 0.156357 -0.101916 -0.056860 -0.116407 -0.141901 -0.000010 0.196369 0.024694 -0.038771 0.102391 0.067615 0.003201 0.087946 -0.012862 -0.002249 0.001410 -0.054818 0.238232 -0.043089 0.004210 0.027302 0.024012 -0.001135 -0.149283 0.002746 0.079918 0.036783 0.053032 0.039012 -0.031962 -0.042053 -0.090191 -0.102195 -0.031357 0.049438 0.088317 0.030408 0.146447 -0.094262 -0.185967 -0.160824 0.161062 0.029236 0.104792 0.053153 -0.049441 -0.135409 0.024463 0.013856 0.147625 -0.032497 -0.119233 0.160875 0.181037 0.267685 0.051582 0.175689 -0.112777 0.042612 0.119323 -0.038515 0.166803 -0.151880 0.023648 0.067684 0.077903 0.161201 0.040348 0.014074 -0.020987 -0.160355 -0.030836 0.130950 0.031494 0.076294 0.164354 -0.076020 0.102014 -0.101368 -0.037988 -0.023245 0.041489 -0.078770 -0.054463 0.003627 -0.195640 0.003331 -0.004653 0.085905 0.015836
phone 0.055516 0.099541 0.099200 0.117111 -0.001191 -0.045104 -0.200345 -0.108717 -0.113805 -0.002333 0.170082 -0.103674 -0.064025 -0.118778 -0.149333 -0.005358 0.175436 0.002690 -0.072711 0.127757 0.070729 0.001762 0.089367 -0.017487 0.000390 0.000279 -0.028502 0.237015 -0.027466 -0.007044 0.029117 0.016013 -0.000693 -0.128581 -0.004400 0.068271 0.013740 0.060190 0.032468 -0.024925 -0.040498 -0.111816 -0.096598 -0.025336 0.042265 0.087396 0.016575 0.122032 -0.106386 -0.202868 -0.150649 0.157318 0.032426 0.102399 0.030028 -0.059281 -0.120127 0.045919 0.016561 0.132380 -0.019082 -0.119698 0.176220 0.192527 0.277183 0.063853 0.195210 -0.099946 0.034403 0.094091 -0.033592 0.161716 -0.160478 0.025637 0.080734 0.066978 0.168427 0.042811 -0.003148 -0.036738 -0.153975 -0.016512 0.135181 0.008570 0.046522 0.165020 -0.055153 0.095502 -0.105874 -0.062455 -0.040628 0.039075 -0.075459 -0.068289 -0.004682 -0.171930 0.007425 -0.013050 0.072826 0.018348
one 0.052546 0.089109 0.094962 0.105312 -0.014658 -0.032442 -0.179171 -0.115685 -0.113414 -0.016341 0.181818 -0.091323 -0.044576 -0.100934 -0.148821 -0.008788 0.202872 0.022744 -0.061169 0.128454 0.055098 -0.002117 0.100667 -0.022896 -0.003433 -0.008281 -0.053204 0.220477 -0.035315 -0.024502 0.019964 0.012665 0.021302 -0.149425 -0.009026 0.084052 0.039027 0.039508 0.037580 -0.031597 -0.055456 -0.096418 -0.106512 -0.036921 0.068504 0.107539 0.013148 0.141114 -0.100167 -0.202400 -0.150634 0.148466 0.035523 0.102888 0.053770 -0.042520 -0.141079 0.040975 0.029372 0.123589 -0.044815 -0.120414 0.173824 0.176557 0.281112 0.076312 0.181755 -0.124755 0.037395 0.121784 -0.056768 0.143306 -0.132100 0.024850 0.070936 0.069173 0.152660 0.044867 0.010733 -0.038290 -0.165791 -0.022656 0.129208 0.025049 0.057526 0.138950 -0.061202 0.105684 -0.097300 -0.040099 -0.012238 0.048130 -0.062322 -0.059906 -0.016850 -0.206973 -0.011734 0.000280 0.057857 0.023170
bad 0.081552 0.088502 0.087149 0.091358 -0.006882 -0.030925 -0.183618 -0.116785 -0.128397 -0.006046 0.150340 -0.119448 -0.068951 -0.118535 -0.126098 -0.000013 0.199548 0.028379 -0.036902 0.113765 0.071145 -0.000010 0.077048 -0.019627 -0.007398 0.000448 -0.056475 0.237290 -0.049149 -0.015631 0.037256 0.010871 0.024080 -0.133058 0.004824 0.071542 0.025176 0.028885 0.016980 -0.029197 -0.049843 -0.114915 -0.108756 -0.048577 0.045965 0.093386 0.000784 0.146859 -0.076753 -0.199226 -0.149124 0.133738 0.030772 0.120128 0.046734 -0.031582 -0.125186 0.048876 0.031439 0.122606 -0.028603 -0.102824 0.159248 0.175807 0.273629 0.072202 0.174104 -0.112297 0.045040 0.129404 -0.054207 0.142735 -0.160608 0.037373 0.091618 0.062985 0.175572 0.058278 -0.011051 -0.027047 -0.148737 -0.042446 0.139483 0.041281 0.050217 0.164301 -0.063751 0.116643 -0.094207 -0.034802 -0.008396 0.064351 -0.069813 -0.080283 -0.011678 -0.210126 -0.022208 -0.002111 0.077103 0.020724
work 0.062998 0.090312 0.098582 0.095425 -0.029259 -0.041033 -0.190931 -0.112139 -0.120403 0.008502 0.177590 -0.097826 -0.051177 -0.112659 -0.114641 -0.008757 0.201593 0.038093 -0.066225 0.116477 0.058038 -0.011957 0.079305 -0.031060 -0.002110 -0.008041 -0.020498 0.214404 -0.050064 -0.021417 0.005968 0.026964 0.018485 -0.161806 -0.008350 0.069007 0.046987 0.044420 0.053217 -0.048135 -0.059312 -0.075845 -0.090509 -0.036703 0.053791 0.101375 0.027391 0.148946 -0.086401 -0.189348 -0.152114 0.148609 0.034448 0.105169 0.057303 -0.047048 -0.137584 0.032762 0.002721 0.137545 -0.041139 -0.100226 0.154832 0.196714 0.287899 0.080013 0.198863 -0.124183 0.056260 0.103821 -0.046257 0.154338 -0.129420 0.021328 0.099966 0.079357 0.164148 0.040303 -0.014101 -0.036619 -0.172607 -0.014303 0.105459 0.003053 0.066779 0.145627 -0.073243 0.121530 -0.111903 -0.044228 -0.026174 0.048851 -0.072277 -0.046084 0.000837 -0.169484 -0.020755 -0.016188 0.086655 0.023237
like 0.053855 0.110712 0.068387 0.091199 -0.012752 -0.038573 -0.185298 -0.119312 -0.125385 -0.007686 0.165493 -0.105133 -0.060744 -0.090514 -0.129366 -0.018650 0.189269 0.013958 -0.046863 0.115108 0.068736 -0.008787 0.084345 -0.022836 -0.010659 -0.004927 -0.031394 0.232968 -0.036449 -0.017830 0.020876 0.008315 0.015761 -0.151734 0.002609 0.079702 0.035429 0.045099 0.033230 -0.049560 -0.051518 -0.103718 -0.105515 -0.035244 0.057991 0.103297 0.005638 0.118697 -0.077076 -0.197452 -0.144813 0.147685 0.025818 0.111312 0.050749 -0.061416 -0.118658 0.043780 0.024730 0.123914 -0.046125 -0.117587 0.165235 0.191590 0.267912 0.071192 0.190241 -0.128544 0.050397 0.120188 -0.048135 0.156729 -0.155227 0.044269 0.081558 0.078965 0.161320 0.037471 0.009182 -0.038145 -0.168324 -0.020849 0.139357 0.018122 0.048703 0.164880 -0.077946 0.106209 -0.114257 -0.041752 -0.037204 0.050948 -0.053967 -0.067337 0.006717 -0.199017 -0.001177 0.006579 0.068654 0.011243
time 0.055581 0.103001 0.086956 0.093967 -0.010188 -0.034984 -0.176472 -0.124374 -0.105911 0.004365 0.169642 -0.090176 -0.050903 -0.118848 -0.133498 -0.024186 0.207193 0.022716 -0.055606 0.127796 0.071158 0.005847 0.079947 -0.026848 0.008488 -0.008258 -0.048234 0.232766 -0.043575 -0.008045 0.017204 0.025680 0.006542 -0.136009 -0.011399 0.068194 0.044561 0.059634 0.046833 -0.026777 -0.058731 -0.087010 -0.079079 -0.032356 0.070506 0.104138 0.017164 0.128238 -0.074856 -0.190372 -0.147946 0.152609 0.027225 0.122887 0.043847 -0.049977 -0.132357 0.046092 0.015602 0.122089 -0.032885 -0.127451 0.160502 0.188674 0.269353 0.072548 0.179179 -0.119927 0.047062 0.114456 -0.034548 0.145075 -0.160628 0.039910 0.086504 0.086062 0.164684 0.039517 0.014521 -0.043897 -0.173551 -0.037093 0.128089 0.019169 0.067947 0.139373 -0.077843 0.101926 -0.118225 -0.040528 -0.014012 0.048944 -0.075817 -0.063287 -0.004715 -0.206208 -0.012701 0.012287 0.072718 0.028587
go 0.078735 0.111498 0.088139 0.096194 -0.018792 -0.027780 -0.185222 -0.100108 -0.120549 -0.005616 0.161923 -0.104030 -0.051039 -0.108821 -0.135042 -0.017232 0.179769 0.018827 -0.069561 0.110089 0.068128 0.018544 0.078160 -0.014741 -0.006683 -0.019200 -0.032929 0.238330 -0.036578 0.002759 0.006665 0.026176 -0.003953 -0.158134 -0.019253 0.086599 0.019340 0.035206 0.039422 -0.032603 -0.049954 -0.087155 -0.105009 -0.048996 0.071703 0.085756 0.012612 0.134111 -0.103950 -0.202915 -0.133544 0.149664 0.017377 0.098206 0.037807 -0.046134 -0.126021 0.033978 0.023416 0.125558 -0.040447 -0.132702 0.154413 0.172316 0.281425 0.056509 0.192200 -0.131248 0.041345 0.122153 -0.054112 0.170412 -0.131351 0.039066 0.094943 0.073012 0.173380 0.038490 0.008436 -0.043963 -0.151285 -0.029239 0.136446 0.027407 0.062873 0.162945 -0.067478 0.115217 -0.096261 -0.060457 -0.026070 0.060594 -0.056450 -0.073216 -0.018333 -0.182604 -0.010147 0.007839 0.083204 0.001901
food 0.073633 0.106012 0.094926 0.103974 -0.028407 -0.039911 -0.196594 -0.104795 -0.101764 -0.000318 0.181378 -0.098023 -0.043641 -0.117640 -0.141091 -0.025510 0.206373 0.004165 -0.043781 0.114706 0.046745 0.011107 0.074268 -0.010932 -0.009662 -0.003653 -0.032823 0.222480 -0.035704 0.003218 0.008854 0.008206 0.000936 -0.151122 -0.024582 0.077446 0.030540 0.029027 0.022291 -0.038108 -0.043748 -0.092687 -0.092919 -0.029118 0.071226 0.112304 0.004106 0.133648 -0.076181 -0.185312 -0.158729 0.157822 0.047092 0.106611 0.036340 -0.055093 -0.117509 0.038989 0.026067 0.140653 -0.050787 -0.130216 0.175575 0.194722 0.258257 0.078904 0.185518 -0.109929 0.044998 0.114232 -0.046697 0.168267 -0.129375 0.025136 0.074200 0.087593 0.168348 0.048705 -0.001297 -0.029385 -0.168975 -0.036038 0.111884 0.032069 0.075608 0.140730 -0.083034 0.111994 -0.101263 -0.045131 -0.039897 0.055637 -0.053056 -0.068793 -0.017288 -0.190848 -0.000516 0.007048 0.082657 0.003120
place 0.077772 0.102656 0.075597 0.111539 -0.006840 -0.022698 -0.193119 -0.100305 -0.100313 -0.016858 0.166780 -0.103396 -0.063179 -0.120800 -0.135605 -0.001934 0.200050 0.029493 -0.066954 0.120809 0.047413 0.013249 0.070438 -0.011236 -0.007290 0.002852 -0.054305 0.243824 -0.044583 -0.025864 0.009625 0.018608 0.000575 -0.137562 -0.011070 0.055381 0.031276 0.060628 0.025913 -0.017786 -0.066421 -0.114357 -0.101081 -0.047444 0.062274 0.113309 0.022243 0.137171 -0.095017 -0.196995 -0.135975 0.145589 0.038697 0.113624 0.056578 -0.042456 -0.137317 0.040078 0.023328 0.143223 -0.046566 -0.103379 0.165636 0.198562 0.261742 0.072331 0.184229 -0.109873 0.028004 0.117174 -0.034200 0.146024 -0.148898 0.043426 0.093565 0.089968 0.175747 0.054573 0.012462 -0.044855 -0.157288 -0.035809 0.124626 0.009532 0.052733 0.141541 -0.054628 0.112755 -0.117071 -0.038329 -0.013376 0.058362 -0.051226 -0.051326 0.005488 -0.181831 -0.024189 0.009394 0.069260 0.011407
get 0.063806 0.092956 0.078336 0.112792 -0.016047 -0.028144 -0.176115 -0.106959 -0.121240 0.004282 0.177453 -0.087890 -0.040336 -0.116172 -0.146710 -0.002618 0.183462 0.029441 -0.065606 0.121872 0.066466 0.016724 0.097305 -0.020155 0.008860 -0.010759 -0.051874 0.234164 -0.033551 0.005293 0.017306 0.010941 0.001327 -0.151034 0.003219 0.075429 0.023762 0.047864 0.031992 -0.021098 -0.042854 -0.102914 -0.086668 -0.045033 0.074011 0.095427 0.017596 0.130780 -0.102416 -0.193846 -0.149411 0.148783 0.030819 0.121289 0.054513 -0.032944 -0.129005 0.029623 0.019875 0.134581 -0.028292 -0.118516 0.175946 0.195698 0.264870 0.053996 0.190441 -0.121191 0.030198 0.119840 -0.040587 0.146093 -0.149760 0.034286 0.088180 0.069199 0.151982 0.057606 -0.008583 -0.018448 -0.148571 -0.029927 0.134310 0.032276 0.052705 0.155879 -0.063363 0.105978 -0.114800 -0.056639 -0.032207 0.060703 -0.053087 -0.061438 -0.015639 -0.206582 0.000079 0.015819 0.082463 0.016881
make 0.062657 0.111798 0.069661 0.115103 -0.027107 -0.023604 -0.186841 -0.104665 -0.121746 -0.011984 0.165279 -0.093219 -0.043477 -0.109581 -0.144979 -0.018514 0.195460 0.022498 -0.040694 0.110812 0.062599 -0.010560 0.098230 -0.019346 -0.013335 0.006463 -0.029070 0.235420 -0.047977 -0.017224 0.015448 0.010100 -0.000456 -0.148989 -0.011610 0.075613 0.033218 0.043114 0.044005 -0.022438 -0.040683 -0.110118 -0.093925 -0.027986 0.066671 0.097710 0.029036 0.130885 -0.080843 -0.182752 -0.137716 0.141815 0.041928 0.103112 0.044916 -0.048803 -0.137932 0.049753 0.037242 0.142915 -0.038348 -0.113524 0.165327 0.188821 0.263059 0.060653 0.175352 -0.127566 0.032118 0.120815 -0.055386 0.161505 -0.130753 0.047192 0.088057 0.082509 0.171767 0.057901 0.017876 -0.043421 -0.170207 -0.034686 0.127238 0.018137 0.073096 0.159352 -0.056342 0.117545 -0.112355 -0.057371 -0.017855 0.067342 -0.051843 -0.075013 -0.017266 -0.198355 -0.016384 0.010833 0.058526 0.010743
service 0.055072 0.108710 0.062457 0.110823 -0.036877 -0.036406 -0.204386 -0.115725 -0.131951 -0.000151 0.162466 -0.118964 -0.033092 -0.083440 -0.120201 -0.033880 0.201685 0.016123 -0.069648 0.127838 0.049577 -0.018090 0.079407 -0.041779 0.003007 0.000117 -0.036227 0.214273 -0.019793 0.012334 0.025360 0.015748 0.007950 -0.141614 0.002969 0.062447 0.031411 0.025446 0.034582 -0.060596 -0.070027 -0.079473 -0.106280 -0.052731 0.036979 0.072442 0.003613 0.127984 -0.072728 -0.205570 -0.164391 0.123572 0.028859 0.124548 0.052627 -0.063059 -0.139560 0.034015 0.038646 0.123225 -0.019649 -0.116798 0.151599 0.200264 0.276297 0.090498 0.178860 -0.111963 0.045896 0.120819 -0.053853 0.165614 -0.135465 0.044641 0.098845 0.079739 0.178889 0.041261 -0.006166 -0.006698 -0.162921 -0.046081 0.140156 0.017474 0.078635 0.156651 -0.077938 0.111258 -0.085398 -0.050120 -0.017483 0.069959 -0.047920 -0.070550 -0.002580 -0.177487 -0.011288 -0.002940 0.058178 0.015086
well 0.061518 0.105108 0.098103 0.094609 -0.017180 -0.009156 -0.191268 -0.116657 -0.127086 0.004944 0.181863 -0.109544 -0.066639 -0.111445 -0.129037 -0.030680 0.172903 0.027813 -0.053317 0.100660 0.052873 0.010757 0.083418 -0.033844 0.014144 -0.019154 -0.026906 0.221215 -0.035901 -0.017942 0.024042 0.016291 0.001412 -0.139265 -0.025710 0.064359 0.023460 0.050895 0.050223 -0.020716 -0.064457 -0.109698 -0.097132 -0.035334 0.042366 0.085971 0.005639 0.137458 -0.104984 -0.177739 -0.132671 0.156753 0.039148 0.098716 0.025557 -0.052648 -0.127171 0.050099 0.035301 0.144229 -0.020223 -0.106878 0.172518 0.185025 0.277398 0.075372 0.191365 -0.116007 0.030819 0.098606 -0.051969 0.161833 -0.144189 0.048724 0.093029 0.096234 0.172467 0.041180 0.013465 -0.026147 -0.167179 -0.035549 0.135648 0.038134 0.076011 0.144393 -0.076223 0.096014 -0.121532 -0.039370 -0.023984 0.071931 -0.069826 -0.069267 0.005330 -0.196422 -0.014840 0.011583 0.062086 0.026704
really 0.052695 0.086853 0.092088 0.116455 -0.026417 -0.021468 -0.202467 -0.114705 -0.114377 0.005127 0.163154 -0.102082 -0.068535 -0.101697 -0.158436 -0.002536 0.198639 0.033821 -0.059663 0.118521 0.071189 0.004014 0.102365 -0.027239 0.010549 0.011510 -0.047478 0.218991 -0.030661 0.006676 0.028690 0.025924 0.023534 -0.160598 -0.011665 0.052646 0.021314 0.057792 0.031197 -0.044544 -0.049091 -0.116306 -0.088944 -0.020435 0.057437 0.107037 0.006784 0.150442 -0.082692 -0.176305 -0.142955 0.152256 0.030233 0.106837 0.035061 -0.059311 -0.122032 0.030811 0.015070 0.119329 -0.037772 -0.111879 0.172260 0.174461 0.271430 0.055037 0.186156 -0.129082 0.065037 0.130591 -0.023504 0.170739 -0.148628 0.053919 0.082303 0.098354 0.153490 0.053914 0.011423 -0.014698 -0.168969 -0.024382 0.118030 0.007457 0.074479 0.139040 -0.080861 0.111328 -0.107642 -0.043380 -0.028726 0.039335 -0.059363 -0.071518 0.013699 -0.176315 -0.014293 0.015781 0.058232 0.009846
use 0.044167 0.093594 0.091999 0.092982 -0.025325 -0.030646 -0.205846 -0.125528 -0.103249 -0.014079 0.163720 -0.118928 -0.030840 -0.120692 -0.126943 0.006839 0.189361 0.023881 -0.039768 0.107863 0.043296 -0.010149 0.080726 -0.026210 -0.010811 -0.023747 -0.047283 0.237708 -0.025060 -0.023851 0.023190 0.032020 0.018137 -0.139117 -0.007229 0.058584 0.036332 0.062358 0.024466 -0.025880 -0.059120 -0.081081 -0.087853 -0.043529 0.041101 0.090756 0.032713 0.126910 -0.080592 -0.175161 -0.134426 0.154992 0.034704 0.124173 0.030654 -0.045374 -0.145162 0.057030 0.007247 0.150914 -0.021098 -0.105598 0.172427 0.183427 0.278492 0.078454 0.190299 -0.108685 0.041881 0.122615 -0.042181 0.162852 -0.164078 0.035158 0.098921 0.098109 0.160108 0.035655 0.018593 -0.049247 -0.148950 -0.030813 0.118832 0.022236 0.077285 0.158972 -0.062158 0.123101 -0.103461 -0.035154 -0.010107 0.056979 -0.083867 -0.049640 -0.013523 -0.186956 -0.014813 0.018874 0.089026 0.004848
would 0.066291 0.111871 0.097389 0.109243 0.000934 -0.041375 -0.192123 -0.099594 -0.121258 0.014337 0.151954 -0.090418 -0.066848 -0.103951 -0.138206 -0.025153 0.183265 0.021508 -0.066768 0.102977 0.079682 -0.004269 0.094267 -0.036804 -0.017929 -0.009844 -0.058126 0.243238 -0.042520 -0.018236 0.029852 -0.003537 0.018397 -0.161592 0.004703 0.084545 0.026718 0.027939 0.022005 -0.047810 -0.053123 -0.092983 -0.084456 -0.034772 0.049606 0.075266 0.020573 0.145732 -0.101062 -0.174586 -0.143610 0.144720 0.041032 0.089042 0.028860 -0.035463 -0.139181 0.026935 0.007264 0.141984 -0.019035 -0.117266 0.169029 0.190180 0.271459 0.078175 0.175482 -0.130946 0.027786 0.100537 -0.032029 0.165593 -0.158882 0.027315 0.096965 0.079881 0.173731 0.053141 -0.000604 -0.042216 -0.173173 -0.037324 0.135498 0.041866 0.078452 0.147585 -0.078600 0.106332 -0.093131 -0.047136 -0.035379 0.039721 -0.047207 -0.075721 0.010357 -0.184487 -0.027088 -0.005059 0.049137 0.008060
love 0.061149 0.088683 0.072245 0.090510 -0.009750 -0.043521 -0.173304 -0.130412 -0.105871 0.018894 0.173543 -0.119383 -0.057361 -0.125382 -0.124528 -0.012344 0.170424 0.034776 -0.075978 0.111120 0.064587 0.026771 0.087865 -0.043778 -0.020485 0.006397 -0.055948 0.231919 -0.053503 -0.014199 0.014547 -0.009610 0.011477 -0.160783 -0.031430 0.090910 0.021612 0.043938 0.057675 -0.050864 -0.039466 -0.081783 -0.094741 -0.056615 0.080099 0.111448 0.005879 0.124506 -0.095847 -0.179436 -0.170786 0.138578 0.014560 0.092466 0.039974 -0.019857 -0.139342 0.024028 0.031059 0.113707 -0.060791 -0.138880 0.168797 0.169432 0.278656 0.041506 0.197028 -0.140701 0.042793 0.128592 -0.056227 0.171532 -0.131427 0.063294 0.075193 0.052965 0.136903 0.027543 0.025663 -0.039764 -0.152002 -0.001835 0.149993 0.009035 0.076931 0.125250 -0.070114 0.101917 -0.120331 -0.045635 -0.023893 0.044590 -0.062663 -0.040047 -0.029328 -0.211311 0.000420 0.012615 0.073344 0.007591
best 0.074904 0.083407 0.094281 0.089688 -0.007698 -0.019796 -0.165769 -0.106434 -0.125371 -0.000525 0.187185 -0.110985 -0.036037 -0.111778 -0.133798 -0.025574 0.184968 0.022166 -0.049816 0.122863 0.081670 0.014403 0.098801 -0.045525 -0.003783 -0.017314 -0.052696 0.250735 -0.031543 -0.022402 0.004720 -0.000067 0.009272 -0.146426 0.002863 0.079026 0.017312 0.057938 0.034780 -0.053282 -0.072748 -0.116712 -0.072454 -0.053776 0.081396 0.097197 0.039415 0.155838 -0.100588 -0.203937 -0.125263 0.123735 0.047853 0.093700 0.026415 -0.046603 -0.109612 0.058552 0.047741 0.133810 -0.016386 -0.099912 0.184486 0.168616 0.269458 0.075979 0.163718 -0.114247 0.049661 0.112391 -0.027400 0.166312 -0.166328 0.057631 0.078681 0.068030 0.168368 0.056320 0.015251 -0.036598 -0.151035 -0.035581 0.104313 0.005299 0.064796 0.144553 -0.073475 0.120072 -0.113191 -0.032618 -0.013993 0.047291 -0.075992 -0.060105 0.015679 -0.188655 -0.028619 -0.004375 0.087206 0.037255
even 0.068218 0.108139 0.098739 0.111199 -0.009818 -0.013858 -0.178797 -0.104147 -0.121050 -0.013250 0.177575 -0.120001 -0.062514 -0.115926 -0.150566 -0.028717 0.176941 0.033715 -0.041919 0.121505 0.074023 0.021290 0.075279 -0.017369 -0.011846 -0.022284 -0.022640 0.220430 -0.052918 0.009590 0.040059 0.025654 0.001331 -0.138009 -0.014226 0.053292 0.028048 0.052284 0.037629 -0.039806 -0.043008 -0.098636 -0.095773 -0.023951 0.056519 0.086311 0.035238 0.118236 -0.077001 -0.205926 -0.145961 0.139159 0.029989 0.122779 0.032573 -0.054220 -0.122706 0.026347 0.034877 0.147430 -0.020032 -0.117472 0.155412 0.193773 0.288725 0.065976 0.179835 -0.110837 0.040225 0.108460 -0.046828 0.160190 -0.163291 0.022577 0.074987 0.097875 0.176568 0.056799 -0.000330 -0.026073 -0.153093 -0.006694 0.123360 0.009137 0.067009 0.163781 -0.065202 0.099555 -0.091919 -0.062484 -0.040450 0.043560 -0.051978 -0.047756 0.008727 -0.203739 0.008523 0.015583 0.059210 0.010631
ever 0.075722 0.092977 0.099299 0.092872 0.003352 -0.014068 -0.197936 -0.120606 -0.115391 0.008993 0.187391 -0.106967 -0.040055 -0.089702 -0.149745 0.004160 0.189460 0.015053 -0.063481 0.107584 0.044168 0.018414 0.069025 -0.035361 -0.022290 -0.022911 -0.034506 0.225622 -0.033623 -0.006124 0.004478 0.028942 0.013080 -0.141348 -0.026129 0.063888 0.034141 0.065048 0.024841 -0.026020 -0.037964 -0.093299 -0.106352 -0.053541 0.056120 0.099980 -0.000276 0.126315 -0.105475 -0.204363 -0.141259 0.165817 0.041050 0.124230 0.034582 -0.059406 -0.136863 0.035993 0.038689 0.130722 -0.028982 -0.114429 0.160598 0.199562 0.271830 0.059108 0.190454 -0.134099 0.031884 0.123712 -0.031868 0.149506 -0.159757 0.039144 0.091490 0.059335 0.154001 0.039730 -0.006882 -0.013311 -0.178316 -0.021219 0.105365 0.039290 0.043679 0.144056 -0.049752 0.104156 -0.089293 -0.046735 -0.031900 0.043028 -0.070908 -0.063366 0.009643 -0.195149 0.002465 -0.014480 0.053377 0.025056
see 0.063040 0.105460 0.100182 0.103501 -0.024926 -0.011201 -0.178500 -0.118360 -0.124615 0.006940 0.185450 -0.109374 -0.042672 -0.107651 -0.157757 -0.005450 0.203287 0.022733 -0.054195 0.114597 0.070449 0.013163 0.070493 -0.035206 -0.001493 -0.005535 -0.047978 0.225972 -0.056911 -0.014082 0.016830 0.023853 0.005887 -0.163105 -0.001436 0.074488 0.049898 0.059523 0.014383 -0.019096 -0.064795 -0.119689 -0.105802 -0.054505 0.062007 0.083761 0.012791 0.116829 -0.093304 -0.196064 -0.153152 0.134676 0.016506 0.095681 0.058006 -0.042685 -0.147968 0.030064 0.011188 0.149854 -0.024381 -0.099538 0.167499 0.186721 0.263921 0.058119 0.192105 -0.133019 0.052545 0.112612 -0.059947 0.147498 -0.135890 0.047979 0.069096 0.075931 0.152360 0.038941 -0.010093 -0.035439 -0.143472 -0.029522 0.125084 0.032451 0.052002 0.168897 -0.054143 0.090049 -0.106348 -0.067798 -0.006018 0.075016 -0.059307 -0.051473 -0.020457 -0.177519 -0.002472 -0.002175 0.078085 -0.001997
also 0.082431 0.084926 0.072198 0.098298 -0.034614 -0.003994 -0.194042 -0.095892 -0.129122 0.015569 0.160883 -0.092022 -0.030815 -0.127349 -0.161021 0.011425 0.190774 -0.002836 -0.079886 0.116513 0.043014 0.020650 0.081320 -0.009046 -0.000925 -0.007958 -0.027833 0.208322 -0.025036 -0.022770 0.044690 0.033766 0.003543 -0.173299 -0.011239 0.060920 0.035337 0.038462 0.030787 -0.055826 -0.058609 -0.070838 -0.101936 -0.050068 0.065923 0.098333 -0.002103 0.125409 -0.094245 -0.164349 -0.133557 0.146868 0.012315 0.108405 0.038619 -0.070959 -0.145223 0.022082 0.045377 0.133839 -0.009776 -0.130423 0.178924 0.162989 0.286606 0.069858 0.199491 -0.117011 0.048768 0.089726 -0.022632 0.148462 -0.157815 0.054446 0.086114 0.059518 0.181620 0.038552 -0.014989 -0.052106 -0.156017 -0.019940 0.124109 0.031455 0.078198 0.172749 -0.093178 0.117358 -0.104017 -0.065756 -0.004450 0.057144 -0.070390 -0.075887 0.013385 -0.166700 -0.009929 -0.008226 0.065646 0.033364
back 0.065469 0.086486 0.098253 0.105276 -0.007195 -0.030994 -0.163411 -0.123650 -0.132837 0.011512 0.159630 -0.102634 -0.076133 -0.087406 -0.134548 -0.009037 0.175087 0.006527 -0.064162 0.096086 0.065090 0.022039 0.096117 -0.050741 0.020894 -0.008017 -0.056145 0.220939 -0.064201 -0.000712 0.032725 0.009532 -0.008475 -0.145349 -0.018727 0.092379 0.017167 0.048337 0.049194 -0.045088 -0.078679 -0.087195 -0.089846 -0.016449 0.063508 0.084089 0.013504 0.134941 -0.109137 -0.183658 -0.131553 0.165932 0.034268 0.109561 0.028642 -0.071272 -0.113368 0.059441 0.042935 0.127150 -0.034901 -0.131135 0.153047 0.175699 0.293199 0.072137 0.176002 -0.106225 0.029078 0.122752 -0.021588 0.163647 -0.146473 0.016103 0.062782 0.078650 0.177188 0.030176 0.017217 -0.014814 -0.179140 -0.027622 0.132195 0.040055 0.080198 0.158739 -0.069967 0.098794 -0.111919 -0.057089 -0.018382 0.061601 -0.088548 -0.077634 0.015311 -0.185865 0.012988 -0.016857 0.079844 0.020400
come 0.072192 0.081612 0.085498 0.106792 -0.000675 -0.043338 -0.189654 -0.094424 -0.128490 0.000084 0.148337 -0.090281 -0.066449 -0.121337 -0.124487 -0.001313 0.201256 0.004212 -0.049472 0.102583 0.053343 0.000851 0.067919 -0.007123 0.000208 0.003820 -0.058900 0.252027 -0.022754 -0.010666 0.009169 0.026443 0.004870 -0.158394 -0.020404 0.069682 0.045527 0.025996 0.043313 -0.041546 -0.052566 -0.103864 -0.085017 -0.051032 0.073678 0.095508 0.030361 0.115049 -0.104374 -0.205218 -0.149981 0.146435 0.027011 0.120255 0.051677 -0.049184 -0.134654 0.032713 0.039060 0.132708 -0.052673 -0.115296 0.177459 0.171307 0.253499 0.081236 0.200603 -0.120554 0.038520 0.095229 -0.061963 0.160983 -0.158927 0.024700 0.087884 0.072515 0.155149 0.054923 0.013165 -0.020348 -0.178060 -0.012110 0.115227 0.005598 0.059204 0.133755 -0.054626 0.119677 -0.123736 -0.053028 -0.010315 0.037474 -0.057898 -0.062466 -0.004782 -0.203370 -0.008182 -0.002075 0.076219 0.012347
think 0.083253 0.095584 0.086107 0.121690 -0.011383 -0.026738 -0.193389 -0.101237 -0.112823 -0.008152 0.175243 -0.103253 -0.052241 -0.095233 -0.123189 -0.000256 0.194559 0.023934 -0.054738 0.105296 0.072436 0.013243 0.079591 -0.040729 0.010987 -0.004177 -0.050961 0.238730 -0.051745 -0.006503 0.031870 0.016686 0.024927 -0.138991 0.004975 0.088020 0.037233 0.059222 0.027697 -0.048347 -0.056311 -0.085496 -0.094920 -0.034444 0.068174 0.097856 0.023550 0.143180 -0.074200 -0.184625 -0.157155 0.143871 0.018742 0.101823 0.050769 -0.030731 -0.111183 0.029601 0.035296 0.125989 -0.043321 -0.103659 0.174891 0.174610 0.271693 0.055839 0.190560 -0.126029 0.043507 0.118565 -0.031512 0.157314 -0.137474 0.022937 0.097276 0.096534 0.164534 0.039186 0.012175 -0.027549 -0.179225 -0.022183 0.122612 0.039016 0.073478 0.155009 -0.061868 0.095521 -0.105181 -0.062189 -0.020842 0.062349 -0.049225 -0.079882 0.002561 -0.201472 -0.017480 -0.007566 0.085815 0.031424
quality 0.041128 0.093055 0.077197 0.115951 -0.004926 -0.015459 -0.177567 -0.105502 -0.113916 0.006362 0.184016 -0.088269 -0.070229 -0.080864 -0.154172 -0.026741 0.204501 0.000011 -0.072510 0.121366 0.077233 -0.004549 0.091247 -0.021835 0.005517 0.010663 -0.018485 0.223523 -0.050399 -0.008054 0.014788 0.025317 0.015865 -0.161749 -0.025083 0.061280 0.026408 0.061534 0.022237 -0.031653 -0.050501 -0.082580 -0.076140 -0.020541 0.071720 0.077009 0.002903 0.130349 -0.068023 -0.193122 -0.147487 0.122068 0.010595 0.115235 0.034195 -0.038073 -0.145318 0.044667 0.038465 0.121803 -0.020986 -0.131983 0.147597 0.177507 0.271761 0.085956 0.192345 -0.120848 0.050764 0.128662 -0.032793 0.150301 -0.159753 0.050437 0.091604 0.092084 0.154555 0.067289 0.020294 -0.016644 -0.181981 -0.000246 0.133170 0.032496 0.040709 0.153937 -0.074880 0.113347 -0.082738 -0.056797 -0.029698 0.068767 -0.078668 -0.078635 -0.024113 -0.202951 -0.001579 0.026627 0.067652 -0.008284
look 0.044637 0.113353 0.069090 0.107537 -0.005336 -0.034466 -0.188260 -0.125986 -0.107471 0.009464 0.164010 -0.095185 -0.059105 -0.106923 -0.141638 -0.034103 0.198584 0.043301 -0.069125 0.100203 0.048518 -0.009520 0.083475 -0.033868 0.012233 -0.025072 -0.051704 0.240578 -0.054075 -0.007928 0.037172 0.008212 0.027860 -0.148129 -0.022836 0.059556 0.041863 0.047997 0.017026 -0.052226 -0.073139 -0.104810 -0.066808 -0.039024 0.042038 0.108888 0.035933 0.146712 -0.075408 -0.185951 -0.160767 0.152257 0.037393 0.089354 0.033365 -0.057646 -0.133932 0.019079 0.010067 0.146431 -0.031816 -0.128840 0.147249 0.196133 0.261832 0.055916 0.192092 -0.122363 0.052808 0.095497 -0.035094 0.163874 -0.162305 0.020846 0.085492 0.083480 0.168955 0.060339 -0.000715 -0.018209 -0.140500 -0.042039 0.109366 0.037902 0.073952 0.156339 -0.081581 0.089336 -0.121814 -0.028428 -0.045586 0.068031 -0.082814 -0.075683 0.003651 -0.175912 -0.001346 0.005522 0.065110 -0.001811
recommend 0.088039 0.082542 0.095300 0.112252 -0.038879 -0.054196 -0.196048 -0.111843 -0.105375 -0.025461 0.167347 -0.110249 -0.063929 -0.130201 -0.110077 0.001604 0.204359 0.027125 -0.063289 0.133314 0.082323 0.024275 0.111361 -0.002373 -0.016521 -0.023833 -0.033174 0.231319 -0.033125 0.015681 0.008968 0.028289 0.014239 -0.151716 -0.023536 0.043916 0.005651 0.048054 0.026794 -0.053532 -0.070875 -0.087045 -0.094910 -0.016890 0.086516 0.090046 0.013994 0.120152 -0.096211 -0.209791 -0.135427 0.132003 0.049325 0.091217 0.066255 -0.028982 -0.143423 0.013669 0.030249 0.119140 -0.039853 -0.117095 0.167204 0.158444 0.266411 0.041264 0.170740 -0.121282 0.069852 0.128028 -0.029810 0.146766 -0.123750 0.010630 0.101242 0.065387 0.145448 0.047202 -0.003126 -0.040557 -0.157559 -0.039994 0.148155 0.004830 0.034599 0.128799 -0.058160 0.129454 -0.125687 -0.035313 -0.042041 0.055670 -0.077632 -0.085310 -0.003410 -0.217382 -0.033395 0.000853 0.056887 0.013727
say 0.082286 0.081183 0.070462 0.092603 -0.007440 -0.021821 -0.195944 -0.135799 -0.092249 0.016772 0.175355 -0.098757 -0.034436 -0.101220 -0.152851 -0.009697 0.213439 0.001892 -0.049272 0.140009 0.072226 0.026671 0.067681 -0.000648 -0.003091 0.007454 -0.029308 0.213011 -0.041818 -0.013420 0.045723 0.016098 -0.007137 -0.132100 -0.010999 0.059533 0.032271 0.068811 0.056399 -0.011976 -0.056300 -0.080610 -0.070054 -0.030557 0.047855 0.113222 0.022632 0.151160 -0.081040 -0.171267 -0.172201 0.148529 0.044780 0.105716 0.028082 -0.067451 -0.149938 0.041759 0.044365 0.158382 -0.016105 -0.107309 0.146606 0.194942 0.269530 0.048619 0.176837 -0.126773 0.035217 0.126275 -0.033126 0.163700 -0.139782 0.037275 0.100738 0.075097 0.150333 0.030464 0.007875 -0.024230 -0.157604 -0.019240 0.138310 0.019659 0.042473 0.141194 -0.085800 0.100839 -0.096553 -0.057363 -0.004369 0.064121 -0.072064 -0.071354 -0.013537 -0.216285 -0.025258 0.015346 0.046801 0.023831
character 0.073903 0.103644 0.072762 0.085389 0.007543 -0.041336 -0.176708 -0.100548 -0.128347 0.003955 0.179779 -0.116324 -0.060245 -0.095613 -0.150650 -0.031247 0.176660 0.018096 -0.062745 0.113736 0.062888 -0.011610 0.103430 -0.032880 0.010398 -0.007715 -0.036430 0.232626 -0.047903 0.007886 0.022803 0.003579 0.029290 -0.151960 0.001349 0.061857 0.021780 0.045943 0.040266 -0.052259 -0.057461 -0.106402 -0.086141 -0.033923 0.060703 0.109572 0.035173 0.136012 -0.101325 -0.184738 -0.156864 0.155255 0.043954 0.124388 0.045386 -0.035619 -0.121147 0.052934 0.023571 0.134707 -0.015888 -0.113614 0.148608 0.173842 0.269705 0.082709 0.176092 -0.101760 0.037181 0.125007 -0.039715 0.168430 -0.138581 0.021873 0.075908 0.075078 0.162139 0.044736 -0.010000 -0.015123 -0.170727 -0.035865 0.144343 0.040397 0.057121 0.137040 -0.059194 0.103413 -0.119274 -0.037795 -0.030794 0.067027 -0.073694 -0.071936 0.012525 -0.208705 -0.008988 -0.000867 0.070336 0.023242
product 0.068134 0.083408 0.103809 0.080070 -0.006617 -0.012174 -0.176483 -0.088684 -0.105753 0.018065 0.187951 -0.091743 -0.041176 -0.081963 -0.099361 -0.016986 0.179912 -0.008457 -0.062585 0.123461 0.081062 0.001511 0.105961 0.005541 -0.033109 -0.005706 -0.059414 0.222038 -0.052790 -0.019862 0.015031 -0.000052 0.005517 -0.168333 -0.014666 0.091125 0.003539 0.021974 0.034060 -0.030762 -0.042560 -0.125326 -0.066711 -0.048343 0.082626 0.108559 0.021061 0.152038 -0.052489 -0.193033 -0.164378 0.114538 0.023634 0.106476 0.069318 -0.015318 -0.134364 0.034610 0.002388 0.102254 -0.016678 -0.125927 0.177910 0.189294 0.282912 0.041692 0.205830 -0.101902 0.016468 0.081797 -0.008868 0.183106 -0.174132 0.019289 0.058364 0.105551 0.182145 0.061342 -0.018532 -0.015766 -0.177170 -0.009797 0.124464 0.020246 0.052569 0.135396 -0.065610 0.113515 -0.102616 -0.020447 -0.046756 0.045680 -0.060152 -0.060694 -0.005536 -0.198465 0.010880 0.009633 0.095142 -0.015858
sound 0.068244 0.095743 0.105782 0.104573 0.009837 -0.003158 -0.169942 -0.120523 -0.101713 -0.005268 0.167040 -0.088288 -0.059991 -0.100528 -0.126922 -0.030814 0.195549 0.000534 -0.031346 0.107680 0.043624 -0.014603 0.094482 -0.041910 0.019498 -0.009799 -0.050596 0.246193 -0.043763 0.008847 0.016634 -0.002615 -0.007261 -0.166668 -0.032550 0.047545 0.047273 0.033682 0.020106 -0.042384 -0.047146 -0.111469 -0.098627 -0.054158 0.049589 0.075466 0.010794 0.144646 -0.094410 -0.197537 -0.125148 0.140729 0.024614 0.127880 0.029062 -0.067070 -0.118191 0.043633 0.026334 0.148762 -0.059815 -0.137907 0.146781 0.200502 0.281856 0.079969 0.175994 -0.132044 0.042466 0.135447 -0.047517 0.158168 -0.137495 0.040291 0.081535 0.101650 0.150210 0.069080 0.002751 -0.025014 -0.173738 -0.017057 0.123919 0.040919 0.045831 0.132910 -0.063612 0.114107 -0.110097 -0.060693 -0.038404 0.040774 -0.056493 -0.040991 -0.028050 -0.172515 -0.016596 -0.013972 0.072873 0.023861
headset 0.063415 0.101739 0.060924 0.113789 0.008215 -0.003815 -0.193480 -0.128090 -0.092556 -0.017684 0.160449 -0.084431 -0.032465 -0.121230 -0.132172 -0.032924 0.202976 0.033029 -0.029333 0.090551 0.055811 0.018879 0.063719 -0.042024 -0.002220 0.010932 -0.061809 0.242770 -0.035828 -0.009547 0.018290 0.010497 0.020639 -0.168778 -0.027739 0.066692 0.035460 0.071516 0.053453 -0.025771 -0.079958 -0.096135 -0.109152 -0.021153 0.068023 0.087376 0.008582 0.111338 -0.067328 -0.215445 -0.123930 0.161438 0.040182 0.092217 0.021677 -0.055704 -0.128166 0.048918 0.016285 0.126480 -0.033430 -0.104526 0.149278 0.189072 0.279975 0.093634 0.153311 -0.143871 0.055715 0.108558 -0.047556 0.167810 -0.120879 0.025713 0.067048 0.052798 0.168320 0.027780 0.014180 -0.041596 -0.181695 -0.000880 0.096889 0.044802 0.053367 0.151453 -0.086101 0.124452 -0.122981 -0.026618 -0.038405 0.063711 -0.071684 -0.078554 -0.031634 -0.198914 -0.032518 -0.001345 0.089438 -0.003570
nice 0.081277 0.113638 0.100900 0.105864 -0.004728 -0.048137 -0.168816 -0.125897 -0.128469 -0.018362 0.155004 -0.097907 -0.042591 -0.126978 -0.134054 -0.030566 0.195937 0.034856 -0.057358 0.099438 0.075695 0.025302 0.061176 -0.018509 0.010736 -0.027323 -0.031045 0.226998 -0.031652 0.005306 0.038153 -0.002808 0.018329 -0.151369 -0.020656 0.070062 0.033985 0.049987 0.047823 -0.054443 -0.053576 -0.118705 -0.095576 -0.056324 0.041348 0.086627 -0.000460 0.141360 -0.065461 -0.201257 -0.165266 0.146702 0.040331 0.097990 0.047424 -0.047287 -0.141052 0.032785 0.014938 0.135042 -0.051167 -0.114752 0.166090 0.189138 0.259936 0.072991 0.196214 -0.134006 0.051797 0.098502 -0.046403 0.146637 -0.155530 0.053239 0.071659 0.059052 0.154414 0.058224 -0.013548 -0.036867 -0.182132 -0.036860 0.111886 0.027067 0.040635 0.149291 -0.078370 0.101981 -0.095363 -0.063032 -0.016761 0.051396 -0.082235 -0.077920 0.018843 -0.174941 0.006089 0.002569 0.064948 0.005695
excellent 0.053485 0.115694 0.101833 0.127021 -0.013502 -0.033869 -0.197862 -0.094667 -0.133749 -0.019277 0.191251 -0.102487 -0.068812 -0.086128 -0.123752 -0.023870 0.179048 0.043996 -0.081777 0.110060 0.044128 -0.020573 0.081026 0.002939 0.018194 -0.019928 -0.042040 0.239219 -0.053117 -0.018354 -0.005713 0.041692 0.041115 -0.174806 -0.021616 0.060306 0.025069 0.054175 0.005937 -0.057987 -0.056802 -0.093570 -0.114184 -0.043740 0.029472 0.107631 -0.004147 0.151572 -0.118012 -0.154971 -0.159831 0.149853 0.058807 0.108828 0.058951 -0.078464 -0.120243 0.032657 0.006629 0.153888 -0.042705 -0.135339 0.133280 0.150933 0.250693 0.059220 0.188962 -0.114934 0.041596 0.140859 -0.034429 0.150188 -0.173128 0.015068 0.093194 0.058561 0.129892 0.018175 0.012573 -0.003869 -0.135904 -0.006563 0.141356 0.047642 0.039157 0.158694 -0.060171 0.131416 -0.119933 -0.051254 -0.013537 0.053632 -0.064476 -0.056121 0.006604 -0.174685 0.004428 0.022686 0.066474 -0.001810
could 0.072922 0.082136 0.085049 0.103594 -0.009088 -0.033275 -0.206177 -0.128527 -0.131086 0.008907 0.169934 -0.092907 -0.034224 -0.085787 -0.134189 -0.002359 0.185200 -0.000429 -0.074848 0.119362 0.069880 0.009745 0.089316 -0.020364 0.017780 0.016239 -0.040317 0.246453 -0.040953 -0.017695 0.012656 0.028592 -0.006236 -0.145987 -0.020173 0.056200 0.029070 0.043823 0.043404 -0.017863 -0.052653 -0.085059 -0.108352 -0.052467 0.054153 0.079931 0.008115 0.123532 -0.076232 -0.194571 -0.136137 0.166951 0.030121 0.112351 0.050078 -0.060601 -0.121866 0.059499 0.021226 0.122854 -0.038044 -0.101794 0.146086 0.167076 0.286295 0.076368 0.199829 -0.137846 0.043509 0.099285 -0.053419 0.175814 -0.147054 0.045661 0.080849 0.093843 0.139031 0.042465 0.008590 -0.010703 -0.181836 -0.027976 0.127336 0.033055 0.051341 0.140699 -0.054304 0.123046 -0.100911 -0.026943 -0.013695 0.077527 -0.069244 -0.053097 -0.019347 -0.194184 -0.018927 -0.004253 0.059106 0.014897
price 0.080015 0.072092 0.069803 0.137297 -0.004720 -0.012701 -0.212371 -0.112771 -0.138506 0.003080 0.145836 -0.122072 -0.035901 -0.121402 -0.139219 -0.035430 0.187820 0.030086 -0.037435 0.131118 0.077501 -0.023000 0.070112 -0.018260 -0.020377 -0.007103 -0.051896 0.226082 -0.026701 0.019670 0.048308 -0.016485 0.007318 -0.134086 -0.025688 0.067422 0.021564 0.013334 0.029521 -0.060412 -0.047882 -0.087788 -0.066492 -0.055594 0.041892 0.079531 -0.008877 0.152194 -0.109751 -0.161295 -0.147469 0.177694 0.002795 0.131622 0.030413 -0.035551 -0.094295 0.003980 -0.011970 0.108237 -0.053060 -0.138774 0.157342 0.194083 0.305860 0.087063 0.183563 -0.117098 0.041724 0.119327 -0.036598 0.164808 -0.171636 0.036820 0.100126 0.082006 0.125778 0.059783 -0.016693 -0.018090 -0.157932 -0.045353 0.141178 0.010244 0.054280 0.115594 -0.057522 0.071905 -0.099734 -0.050612 -0.018545 0.059662 -0.032998 -0.073765 -0.008464 -0.190183 0.009313 -0.006941 0.067682 0.020038
thing 0.038874 0.079273 0.103912 0.078414 -0.003593 -0.005651 -0.201276 -0.126542 -0.135608 -0.005633 0.141546 -0.122147 -0.029907 -0.107377 -0.127052 -0.022531 0.157818 0.036765 -0.041348 0.131715 0.049282 0.027430 0.070133 -0.047094 -0.011473 0.014844 -0.045064 0.241448 -0.017383 -0.022701 0.004485 0.005433 0.012633 -0.130879 -0.014606 0.087034 0.030603 0.047387 0.023943 -0.036688 -0.079901 -0.096050 -0.070535 -0.038363 0.078296 0.121968 -0.001872 0.132747 -0.084187 -0.205030 -0.167612 0.133175 0.042048 0.078959 0.060743 -0.070181 -0.106892 0.011075 0.029027 0.143466 -0.024892 -0.120862 0.177464 0.193195 0.277588 0.080316 0.179894 -0.101643 0.068135 0.108000 -0.044997 0.155789 -0.140486 0.064236 0.077126 0.067192 0.181718 0.022610 -0.009536 -0.055296 -0.161270 -0.044615 0.149414 0.011371 0.052404 0.127760 -0.093433 0.105319 -0.119119 -0.069534 -0.027112 0.047347 -0.048829 -0.040489 -0.024966 -0.197205 -0.022913 -0.024773 0.050124 0.035489
never 0.055457 0.085398 0.087264 0.105416 0.001297 -0.011099 -0.179031 -0.126946 -0.125630 -0.022162 0.171624 -0.103223 -0.046036 -0.101161 -0.149465 0.000367 0.193786 0.009799 -0.064158 0.114095 0.058921 0.014641 0.085877 -0.031250 -0.018869 -0.008949 -0.032823 0.244112 -0.056963 0.010063 0.002155 0.012461 0.015566 -0.153355 -0.000286 0.060021 0.032731 0.028520 0.036160 -0.042073 -0.065087 -0.107752 -0.096682 -0.054459 0.054373 0.105284 0.014684 0.118481 -0.082224 -0.200995 -0.132383 0.150933 0.040976 0.095744 0.057846 -0.066857 -0.129064 0.057870 0.019769 0.120795 -0.032382 -0.121063 0.158041 0.198643 0.271243 0.078459 0.190675 -0.098148 0.031955 0.122641 -0.030076 0.155001 -0.145543 0.039710 0.097909 0.077871 0.166822 0.059319 0.016776 -0.037591 -0.175860 -0.028398 0.106577 0.041294 0.078768 0.158276 -0.071291 0.089351 -0.110364 -0.036529 -0.032633 0.057498 -0.065392 -0.052739 0.010293 -0.186538 -0.009922 0.016082 0.050016 0.009079
watch 0.051429 0.109544 0.061884 0.096526 -0.019613 -0.006620 -0.200948 -0.107725 -0.092135 -0.019263 0.177744 -0.098907 -0.054100 -0.109204 -0.131552 -0.019542 0.201366 0.001221 -0.045358 0.100685 0.060832 0.003588 0.070345 -0.022884 -0.018507 -0.019645 -0.027583 0.245798 -0.021782 -0.004165 0.024958 0.006263 -0.008101 -0.151570 -0.024110 0.067794 0.015286 0.031625 0.051856 -0.018661 -0.042232 -0.106243 -0.072642 -0.053652 0.060145 0.098149 -0.004053 0.133079 -0.106347 -0.202855 -0.124378 0.165326 0.043453 0.098766 0.031931 -0.039265 -0.131769 0.038090 0.027028 0.114017 -0.047393 -0.137699 0.181160 0.187599 0.261570 0.061651 0.197985 -0.136873 0.029350 0.122480 -0.042926 0.159550 -0.127855 0.038338 0.092804 0.086423 0.155040 0.031686 0.019975 -0.035821 -0.177946 -0.020694 0.133376 0.024182 0.052650 0.162352 -0.084186 0.119820 -0.089090 -0.039558 -0.028327 0.050239 -0.084538 -0.053098 -0.023825 -0.178936 -0.024197 -0.004727 0.065745 0.028640
much 0.066113 0.102273 0.099249 0.093134 0.002309 -0.004677 -0.199572 -0.120475 -0.120563 0.014073 0.149891 -0.121099 -0.056698 -0.114621 -0.112441 -0.018805 0.191519 0.007401 -0.064504 0.119807 0.081826 -0.003519 0.080742 -0.042754 0.009705 0.014277 -0.047925 0.220626 -0.028328 -0.007290 0.024287 0.024076 0.016971 -0.147852 -0.000481 0.088856 0.046025 0.050317 0.049178 -0.033439 -0.058242 -0.091911 -0.091798 -0.017124 0.038321 0.113478 0.028480 0.122091 -0.073951 -0.195022 -0.163471 0.161415 0.034559 0.120917 0.041198 -0.040082 -0.129828 0.052354 0.030901 0.139911 -0.035258 -0.131119 0.152322 0.187007 0.249737 0.071809 0.192176 -0.092327 0.050407 0.113368 -0.028750 0.171787 -0.157194 0.050704 0.064798 0.065221 0.165554 0.062970 0.015404 -0.035572 -0.159242 -0.016427 0.140764 0.009992 0.041328 0.161219 -0.077371 0.083228 -0.116989 -0.041875 -0.034725 0.056958 -0.062223 -0.075133 0.005180 -0.196262 0.013044 0.021108 0.066303 0.005650
give 0.082223 0.117852 0.065630 0.095239 -0.003010 -0.025070 -0.177253 -0.110159 -0.134381 0.000548 0.157478 -0.094719 -0.051530 -0.091185 -0.131384 -0.005115 0.186216 0.011523 -0.046591 0.111692 0.047961 -0.002558 0.073964 -0.041995 0.000589 -0.006182 -0.050062 0.239014 -0.044708 -0.018935 0.023609 0.005081 0.013067 -0.170560 -0.014939 0.080163 0.026796 0.037216 0.054172 -0.036653 -0.048028 -0.099699 -0.087608 -0.042765 0.064267 0.083595 0.019622 0.132411 -0.107174 -0.213418 -0.143744 0.130759 0.050966 0.094240 0.059655 -0.033443 -0.150732 0.020691 0.016714 0.156954 -0.028711 -0.111447 0.146330 0.187263 0.282763 0.068007 0.198990 -0.100232 0.033373 0.106058 -0.023075 0.138764 -0.149088 0.032552 0.064049 0.082632 0.163604 0.066899 0.024746 -0.044223 -0.164427 -0.019668 0.131117 0.014228 0.078062 0.140093 -0.071112 0.091374 -0.118737 -0.067961 -0.006304 0.059649 -0.049248 -0.085010 0.006123 -0.198876 -0.027144 0.000264 0.086394 0.013056
way 0.059909 0.122388 0.090090 0.104286 0.003623 -0.047838 -0.209541 -0.092029 -0.134040 -0.019444 0.169986 -0.080600 -0.031222 -0.118857 -0.150327 -0.025164 0.188666 0.018597 -0.066258 0.107575 0.042581 0.015348 0.107992 -0.014033 0.022156 -0.009436 -0.019059 0.213259 -0.020142 -0.025597 0.034439 0.018847 -0.003018 -0.140063 0.010677 0.075273 0.034216 0.070138 0.025497 -0.026038 -0.050686 -0.101885 -0.071572 -0.016690 0.059487 0.085641 -0.002400 0.138658 -0.086023 -0.168856 -0.132833 0.154311 0.010089 0.114467 0.028369 -0.031502 -0.146755 0.021747 0.049103 0.141916 -0.033897 -0.126523 0.171934 0.166828 0.259585 0.083773 0.168603 -0.096028 0.065860 0.109828 -0.022381 0.170943 -0.137032 0.021623 0.074651 0.106998 0.184298 0.052299 0.029884 -0.021759 -0.179115 -0.027896 0.135656 0.014213 0.077010 0.158428 -0.052281 0.115856 -0.121943 -0.068230 -0.027688 0.052960 -0.071202 -0.065771 -0.015479 -0.183917 -0.025714 0.025331 0.090300 0.030361
battery 0.082189 0.073418 0.099770 0.091278 -0.012735 -0.049076 -0.184285 -0.088843 -0.125385 0.010582 0.174813 -0.103007 -0.075822 -0.072858 -0.158110 0.007650 0.203484 0.014556 -0.063683 0.090467 0.066218 -0.011142 0.099154 -0.035438 0.013012 -0.008075 -0.019637 0.196499 -0.066622 -0.018287 0.038163 -0.004042 -0.010985 -0.136044 -0.018489 0.078062 0.032583 0.018919 0.025581 -0.040628 -0.036182 -0.094791 -0.115987 -0.049395 0.069476 0.104229 0.021550 0.100686 -0.069370 -0.199944 -0.133540 0.168280 0.011696 0.100958 0.041410 -0.063195 -0.144785 0.055416 0.050939 0.120049 -0.040171 -0.122345 0.150796 0.196517 0.290153 0.042521 0.183746 -0.141968 0.055192 0.114952 -0.032963 0.149410 -0.166432 0.047776 0.058934 0.102255 0.143988 0.023510 0.013602 -0.052473 -0.148834 -0.008913 0.145089 0.046198 0.061197 0.149991 -0.059896 0.092414 -0.127923 -0.062793 -0.034555 0.076849 -0.083058 -0.044454 -0.005199 -0.193669 -0.000317 -0.002208 0.054752 0.039263
waste 0.056267 0.067423 0.071345 0.136417 0.005951 -0.053831 -0.205873 -0.089308 -0.097551 -0.005988 0.146235 -0.131222 -0.046885 -0.084533 -0.118814 0.018824 0.172147 0.016935 -0.063629 0.128384 0.035444 0.034895 0.057680 0.005420 -0.004336 -0.004159 -0.013480 0.242908 -0.027886 -0.042903 -0.002022 0.010551 0.008706 -0.134008 -0.020593 0.040831 0.027189 0.064898 0.002575 -0.029538 -0.040765 -0.077461 -0.116929 -0.028881 0.096061 0.124628 -0.009192 0.120881 -0.058968 -0.206569 -0.166865 0.124832 0.061953 0.107311 0.036088 -0.029274 -0.110356 0.046405 0.016828 0.158572 -0.069179 -0.116719 0.170651 0.182472 0.298045 0.060973 0.161189 -0.126224 0.063213 0.142534 -0.069669 0.132646 -0.161308 0.049263 0.114638 0.088251 0.137808 0.059803 0.035954 -0.058318 -0.156398 0.001014 0.093738 0.027144 0.032009 0.136158 -0.087958 0.140611 -0.104731 -0.035849 -0.004014 0.037121 -0.089915 -0.084453 -0.010554 -0.187450 -0.004109 -0.025273 0.078368 0.000811
first 0.074662 0.115571 0.099500 0.098747 -0.003490 -0.034959 -0.201127 -0.134342 -0.101871 0.007923 0.147107 -0.123475 -0.053647 -0.125145 -0.113764 0.008232 0.180711 0.010970 -0.050847 0.101649 0.064227 0.011073 0.088758 -0.014432 0.000909 -0.023414 -0.039221 0.220251 -0.036066 0.002886 0.007291 0.036291 0.021457 -0.161086 -0.024931 0.094417 0.024341 0.055122 0.013974 -0.009390 -0.077065 -0.117329 -0.085502 -0.035908 0.059389 0.123202 0.029361 0.127187 -0.091720 -0.182834 -0.139870 0.131940 0.054443 0.096519 0.027669 -0.068126 -0.136189 0.042310 0.014823 0.137897 -0.056049 -0.110313 0.157191 0.161551 0.262103 0.093701 0.205047 -0.116938 0.058643 0.125860 -0.016744 0.148849 -0.164160 0.032477 0.106255 0.082744 0.144959 0.046176 0.009675 -0.037539 -0.136420 -0.002215 0.122321 0.024726 0.049935 0.169334 -0.068461 0.096236 -0.121935 -0.042907 -0.001385 0.040758 -0.087751 -0.075762 -0.027243 -0.202995 -0.012336 -0.016792 0.077871 0.011672
buy 0.055364 0.082357 0.081235 0.132572 -0.032502 -0.038965 -0.184257 -0.099799 -0.138552 0.012184 0.161813 -0.107426 -0.050455 -0.099347 -0.106048 -0.029981 0.202227 0.040521 -0.070846 0.129612 0.081254 -0.001487 0.075812 0.005590 -0.001687 0.009928 -0.046236 0.257964 -0.013943 -0.016954 0.012349 -0.017018 -0.022111 -0.136793 -0.004403 0.097282 0.031274 0.027273 0.052800 -0.012591 -0.083586 -0.066189 -0.097324 -0.019281 0.044945 0.117917 0.003662 0.110414 -0.079734 -0.179998 -0.141637 0.162056 0.016998 0.137811 0.072987 -0.048044 -0.116052 0.042631 0.036775 0.104948 -0.054346 -0.105151 0.166669 0.206735 0.293124 0.065830 0.160647 -0.101442 0.072526 0.089755 -0.042423 0.156905 -0.141000 0.008789 0.052913 0.081894 0.140836 0.069245 0.032221 -0.055541 -0.135344 0.005651 0.157570 0.052771 0.075769 0.173963 -0.051953 0.095992 -0.081110 -0.024691 -0.033634 0.059645 -0.069099 -0.073629 -0.025400 -0.201217 0.003954 0.033740 0.044140 0.007197
pretty 0.054256 0.118212 0.070453 0.104006 -0.007633 -0.008753 -0.208488 -0.124549 -0.100982 0.011026 0.175086 -0.076405 -0.063062 -0.089997 -0.136705 0.006420 0.210422 0.009857 -0.053890 0.102546 0.050151 -0.000138 0.092041 -0.028080 0.012600 0.001268 -0.059830 0.214861 -0.048736 -0.031925 0.009585 0.015636 0.019327 -0.128241 -0.030917 0.049283 0.020169 0.069103 0.039405 -0.056642 -0.038315 -0.102986 -0.073843 -0.056218 0.080560 0.099838 0.029173 0.114715 -0.081187 -0.175285 -0.168507 0.162434 0.040205 0.084359 0.036159 -0.036952 -0.114752 0.057541 0.038624 0.132162 -0.027617 -0.116994 0.166166 0.190059 0.285471 0.052059 0.162252 -0.115678 0.066373 0.134565 -0.046187 0.141248 -0.131531 0.058661 0.097241 0.075895 0.166440 0.069418 0.025940 -0.008938 -0.136858 -0.026167 0.136384 0.020115 0.057178 0.148949 -0.069842 0.128383 -0.131061 -0.050729 -0.031692 0.034760 -0.049189 -0.083729 -0.002671 -0.216393 -0.019236 0.009334 0.084763 0.009772
find 0.064697 0.118221 0.104730 0.096479 0.006439 -0.041799 -0.193460 -0.132238 -0.094906 -0.018980 0.168126 -0.106049 -0.048450 -0.110770 -0.149974 -0.016627 0.173697 0.005937 -0.050687 0.120180 0.064686 -0.012617 0.101196 -0.037132 0.011126 -0.007997 -0.053341 0.231282 -0.025127 -0.015565 0.039273 0.008572 -0.000021 -0.143361 0.000614 0.069167 0.012692 0.060940 0.021561 -0.037918 -0.070351 -0.111085 -0.068890 -0.020856 0.064297 0.099574 0.037804 0.118695 -0.105475 -0.188659 -0.150543 0.125753 0.049799 0.122805 0.051784 -0.062855 -0.144452 0.047237 0.020603 0.154565 -0.023638 -0.115302 0.171262 0.189986 0.274760 0.061227 0.161139 -0.103409 0.065702 0.104956 -0.033390 0.151271 -0.158645 0.050602 0.064313 0.064926 0.137991 0.032985 0.019600 -0.049240 -0.168010 -0.040190 0.140144 0.030669 0.040642 0.136782 -0.051337 0.128058 -0.104944 -0.035936 -0.011435 0.033934 -0.076265 -0.052815 -0.017602 -0.209135 -0.002622 -0.012428 0.081846 0.000202
try 0.041509 0.087488 0.067624 0.123829 -0.029251 -0.013859 -0.200106 -0.099229 -0.106941 0.000694 0.148263 -0.116314 -0.028755 -0.123123 -0.152724 0.004706 0.184429 0.029391 -0.051759 0.131564 0.047250 0.005405 0.067929 -0.003032 -0.013648 -0.012543 -0.051745 0.236209 -0.046127 -0.001525 -0.000381 0.033357 0.023418 -0.154471 0.001355 0.066926 0.053267 0.044348 0.024932 -0.053718 -0.070027 -0.083286 -0.077357 -0.036468 0.041844 0.112340 0.031274 0.135981 -0.095673 -0.193195 -0.123040 0.154539 0.017787 0.113176 0.024128 -0.061216 -0.122154 0.056814 0.048780 0.155415 -0.056400 -0.106888 0.174215 0.203854 0.286103 0.050613 0.179418 -0.100834 0.038608 0.118178 -0.020615 0.168203 -0.147794 0.044214 0.055849 0.090329 0.145572 0.062759 -0.015888 -0.045006 -0.172274 -0.044301 0.141103 0.007908 0.057840 0.161329 -0.057837 0.114167 -0.081987 -0.037864 -0.038131 0.079598 -0.054089 -0.050511 -0.022786 -0.166759 0.013678 0.006859 0.066440 0.012078
ear 0.046583 0.103948 0.102719 0.083944 -0.016124 -0.004123 -0.173806 -0.125653 -0.101082 0.002159 0.188077 -0.093447 -0.037618 -0.115650 -0.150757 -0.011753 0.213173 0.005423 -0.038779 0.103804 0.050625 0.010512 0.103470 -0.008864 -0.026534 -0.033487 -0.057885 0.236471 -0.039545 0.021460 0.040533 0.041713 0.022515 -0.159832 -0.012605 0.059305 0.021728 0.064279 0.048248 -0.009396 -0.040979 -0.095345 -0.100795 -0.025955 0.072347 0.088746 0.022103 0.108294 -0.108024 -0.168127 -0.138581 0.136553 0.025023 0.128916 0.019473 -0.025124 -0.100285 0.051254 0.045879 0.109981 -0.062302 -0.122752 0.166730 0.159522 0.241429 0.095740 0.154694 -0.120855 0.043598 0.091475 -0.061228 0.183167 -0.148653 0.067369 0.108467 0.061287 0.175924 0.073964 -0.015951 -0.060047 -0.163727 -0.015073 0.147243 0.043862 0.049318 0.179315 -0.044659 0.117065 -0.077922 -0.077199 0.000281 0.071308 -0.081132 -0.057883 0.004766 -0.204027 0.018842 0.012495 0.089383 0.023200
year 0.050071 0.111141 0.098158 0.113931 -0.032462 -0.008570 -0.201027 -0.127759 -0.100028 -0.003810 0.158075 -0.098704 -0.071391 -0.111426 -0.121217 -0.005804 0.172540 0.043642 -0.060798 0.133006 0.072469 -0.004370 0.081303 -0.039854 -0.011931 -0.009547 -0.059849 0.246421 -0.047849 -0.020344 0.026259 0.017081 0.029139 -0.149630 -0.012865 0.056869 0.017885 0.043916 0.050684 -0.037670 -0.076087 -0.078673 -0.113117 -0.036068 0.053550 0.098804 0.033441 0.130131 -0.095328 -0.175573 -0.133887 0.162810 0.015198 0.118284 0.048291 -0.051149 -0.111493 0.024828 0.012766 0.147458 -0.058458 -0.108332 0.159994 0.172719 0.270356 0.058218 0.206290 -0.110476 0.035251 0.092203 -0.027008 0.156703 -0.154270 0.017798 0.099732 0.086804 0.179427 0.070703 0.010426 -0.052679 -0.168985 -0.037366 0.116200 0.001537 0.063068 0.139610 -0.066118 0.089093 -0.127261 -0.053947 -0.018623 0.050647 -0.057889 -0.054234 -0.001598 -0.181369 0.004676 -0.001305 0.075818 0.008692
still 0.082554 0.097691 0.061674 0.103754 -0.013983 -0.020362 -0.184587 -0.122129 -0.120948 -0.018060 0.172105 -0.102747 -0.042457 -0.121603 -0.134124 -0.017809 0.206373 0.041106 -0.054364 0.105405 0.079705 -0.010910 0.095681 -0.020525 0.017127 0.011246 -0.059019 0.234371 -0.040357 -0.008745 0.023333 0.030670 0.008084 -0.161486 0.009063 0.069314 0.041814 0.063981 0.042987 -0.023251 -0.067209 -0.109263 -0.083096 -0.027299 0.077403 0.087116 0.013350 0.111984 -0.099186 -0.192791 -0.150371 0.138171 0.044236 0.123647 0.031051 -0.065565 -0.127141 0.049475 0.037833 0.147654 -0.028459 -0.125681 0.168286 0.167259 0.257771 0.044115 0.184195 -0.115273 0.032327 0.126465 -0.061221 0.169236 -0.160763 0.023718 0.066558 0.076788 0.159177 0.027549 -0.012282 -0.040903 -0.143503 -0.012243 0.115601 0.030370 0.064105 0.133841 -0.062305 0.107255 -0.120969 -0.062821 -0.012272 0.035700 -0.071018 -0.053245 -0.003919 -0.196188 -0.019889 -0.005326 0.089157 0.022657
2 0.051405 0.106357 0.072964 0.090008 -0.025246 -0.026006 -0.187925 -0.121669 -0.131316 0.002515 0.164733 -0.111425 -0.066934 -0.085013 -0.128569 -0.017135 0.196482 -0.000331 -0.057885 0.132135 0.066036 0.014169 0.089096 -0.005451 0.003407 0.010911 -0.022001 0.211333 -0.048914 -0.027328 0.001478 0.026591 -0.013736 -0.162202 0.009508 0.087840 0.039763 0.060807 0.026545 -0.051161 -0.055203 -0.117097 -0.105427 -0.019286 0.075041 0.103732 0.023529 0.145683 -0.103485 -0.205192 -0.120306 0.121892 0.052409 0.110975 0.058569 -0.060486 -0.134579 0.017275 0.046190 0.143342 -0.023073 -0.107862 0.147269 0.193702 0.282170 0.043900 0.184427 -0.092363 0.064164 0.107566 -0.056740 0.148448 -0.132140 0.057730 0.062932 0.054187 0.171354 0.039729 0.011646 -0.050615 -0.160122 -0.021550 0.104713 0.046814 0.038746 0.157701 -0.082304 0.108098 -0.120943 -0.055006 -0.041602 0.065477 -0.075540 -0.075312 -0.001143 -0.190668 0.014956 0.022815 0.077668 0.008359
take 0.082343 0.099296 0.103875 0.103795 -0.012238 -0.043485 -0.179755 -0.129393 -0.096900 -0.021811 0.193045 -0.086413 -0.059628 -0.116247 -0.143272 -0.032182 0.186564 0.036298 -0.039741 0.138075 0.040910 -0.014318 0.072146 -0.007585 0.013754 0.016099 -0.021139 0.216844 -0.026355 -0.007243 0.008743 0.028512 0.022144 -0.136646 -0.014248 0.093140 0.021057 0.055496 0.019539 -0.057788 -0.057549 -0.102702 -0.116286 -0.050707 0.075374 0.092129 0.027098 0.134024 -0.103534 -0.187053 -0.153544 0.173892 0.054830 0.104806 0.034171 -0.047140 -0.124767 0.045476 0.029343 0.116324 -0.029416 -0.109363 0.142779 0.181146 0.259522 0.059801 0.183431 -0.134826 0.050169 0.134237 -0.030895 0.150793 -0.140031 0.021627 0.083587 0.099944 0.152844 0.058375 0.008747 -0.027085 -0.148960 -0.041933 0.115771 0.041292 0.081367 0.170053 -0.082926 0.108903 -0.108700 -0.065945 -0.045497 0.032280 -0.084185 -0.057034 -0.009903 -0.172728 -0.002267 -0.008966 0.079474 0.007395
know 0.079192 0.071978 0.105722 0.109194 -0.025782 -0.040061 -0.170789 -0.086962 -0.135032 -0.003522 0.179979 -0.119192 -0.071060 -0.124923 -0.158225 -0.018539 0.164946 0.027984 -0.041672 0.122443 0.051358 -0.016086 0.085925 -0.039189 0.017515 0.015630 -0.032179 0.217790 -0.027747 -0.033179 0.001717 -0.000755 -0.003198 -0.166311 -0.028071 0.060196 0.035912 0.056706 0.014043 -0.051643 -0.074811 -0.110117 -0.087696 -0.017747 0.045286 0.071090 0.040160 0.138566 -0.092973 -0.196226 -0.143444 0.159379 0.011975 0.128612 0.021335 -0.066875 -0.153279 0.018187 0.005298 0.120876 -0.056123 -0.096271 0.183629 0.197197 0.266745 0.074854 0.159516 -0.137794 0.067562 0.099095 -0.040468 0.131628 -0.161754 0.023605 0.087547 0.063103 0.164929 0.031326 -0.012144 -0.035398 -0.169213 -0.035765 0.099732 0.048326 0.085661 0.164394 -0.078709 0.105445 -0.114023 -0.070650 -0.027572 0.033380 -0.074097 -0.051734 -0.016352 -0.171374 0.014371 -0.015339 0.048375 -0.002216
case 0.070664 0.127176 0.112207 0.112375 -0.031642 -0.028650 -0.168267 -0.088968 -0.103286 -0.001740 0.160060 -0.128533 -0.083285 -0.126911 -0.124193 -0.027172 0.169493 0.035594 -0.076880 0.133227 0.048557 -0.015666 0.092975 -0.057411 -0.016223 -0.009043 -0.062539 0.208678 -0.064103 0.020127 0.044425 0.028751 0.011173 -0.171101 -0.042490 0.102380 0.019015 0.023923 0.004736 -0.019083 -0.049690 -0.069322 -0.116774 -0.017242 0.027753 0.104523 -0.000861 0.105498 -0.063667 -0.168078 -0.131536 0.133082 0.023615 0.086810 0.069317 -0.078148 -0.161249 0.053190 0.038057 0.126747 -0.066688 -0.147999 0.189237 0.176014 0.262984 0.089467 0.204491 -0.087533 0.040045 0.131265 -0.043522 0.141613 -0.157002 0.029725 0.060358 0.113414 0.169288 0.019741 0.000934 -0.020334 -0.171818 -0.050384 0.140421 0.041993 0.026388 0.155447 -0.068033 0.084021 -0.077464 -0.019740 -0.028241 0.029139 -0.052310 -0.038287 -0.024202 -0.193655 -0.041043 0.025502 0.071908 0.023077
minute 0.060630 0.085649 0.098367 0.102936 -0.008008 -0.034129 -0.174129 -0.096627 -0.092430 -0.005027 0.154416 -0.108941 -0.053352 -0.126360 -0.121021 -0.008041 0.207598 -0.000139 -0.075378 0.092369 0.048822 0.023687 0.080521 -0.012233 0.012526 -0.003075 -0.028798 0.232945 -0.063059 -0.026068 0.038800 0.013722 -0.001309 -0.162115 -0.026698 0.080479 0.039569 0.053877 0.052478 -0.023960 -0.037034 -0.102804 -0.098946 -0.043638 0.077496 0.082209 0.007766 0.133628 -0.109283 -0.193744 -0.158827 0.155470 0.049255 0.096396 0.040427 -0.044206 -0.142571 0.027541 0.044162 0.147195 -0.041643 -0.118440 0.146040 0.202780 0.288098 0.061657 0.192016 -0.116287 0.037118 0.114806 -0.024768 0.161035 -0.138393 0.017444 0.069166 0.071020 0.150288 0.057691 -0.014346 -0.012351 -0.156229 -0.023442 0.109139 0.013625 0.080753 0.158673 -0.079033 0.111717 -0.095376 -0.056290 -0.012602 0.048310 -0.074060 -0.074439 0.015920 -0.192228 -0.020035 0.013616 0.057655 0.024748
10 0.054472 0.111070 0.062527 0.105188 -0.032910 -0.049664 -0.209373 -0.136433 -0.131435 0.012966 0.137067 -0.102108 -0.047626 -0.097131 -0.124911 -0.027599 0.174916 0.016189 -0.077936 0.082754 0.064677 0.000170 0.073630 -0.042509 0.013932 0.023191 -0.039071 0.214591 -0.063546 -0.034048 0.001660 -0.007396 -0.018920 -0.171500 -0.003554 0.086955 0.043350 0.027512 0.021611 -0.005975 -0.077079 -0.104018 -0.112632 -0.041491 0.071659 0.121329 0.016797 0.133365 -0.077192 -0.177781 -0.171491 0.173742 0.044247 0.112354 0.061822 -0.065095 -0.131878 0.023096 0.034968 0.118045 -0.065752 -0.130581 0.145429 0.182432 0.244421 0.084025 0.204580 -0.105473 0.016677 0.125758 -0.012820 0.134242 -0.162361 0.054705 0.063351 0.102372 0.130408 0.035173 -0.021582 -0.042664 -0.151808 -0.000867 0.108727 0.029254 0.035560 0.144487 -0.087425 0.126691 -0.105629 -0.066522 -0.054848 0.081305 -0.067510 -0.056278 -0.019837 -0.203770 0.002693 0.018432 0.081706 0.011018
want 0.086024 0.096557 0.096745 0.111760 0.008332 -0.041320 -0.175852 -0.109879 -0.134050 -0.021155 0.172140 -0.117329 -0.050425 -0.126491 -0.125595 0.002381 0.205702 -0.000670 -0.077554 0.131145 0.076887 0.013408 0.077857 -0.007904 0.023821 -0.022835 -0.043670 0.231866 -0.040724 0.013556 0.028444 0.000406 0.032557 -0.155664 -0.003716 0.085506 0.032350 0.048690 0.024311 -0.040920 -0.032813 -0.105424 -0.114688 -0.032402 0.082945 0.096903 0.037274 0.144731 -0.102725 -0.198428 -0.139485 0.146851 0.048216 0.126716 0.051696 -0.021792 -0.109890 0.039504 0.028269 0.130836 -0.014028 -0.106717 0.176647 0.180922 0.251276 0.058541 0.183442 -0.100195 0.059810 0.095983 -0.022633 0.138547 -0.147508 0.022686 0.094846 0.094224 0.171205 0.028183 0.010197 -0.032809 -0.148528 -0.011079 0.131944 0.025540 0.072836 0.154117 -0.064366 0.116284 -0.087486 -0.038048 -0.009858 0.054083 -0.042822 -0.087033 0.017288 -0.184021 -0.028685 0.013258 0.051590 0.001261
everything 0.044797 0.074616 0.062324 0.089280 -0.035443 -0.041280 -0.210608 -0.088825 -0.093221 0.011107 0.150735 -0.105617 -0.072492 -0.115972 -0.151436 0.009525 0.212009 0.035475 -0.033774 0.112901 0.079673 0.004436 0.077641 0.003421 -0.026017 0.001395 -0.028176 0.228436 -0.014066 -0.019824 0.028429 0.025539 0.026221 -0.157898 -0.017850 0.065633 0.030744 0.027764 0.009430 -0.025147 -0.056829 -0.113277 -0.067896 -0.037647 0.049494 0.103000 0.043864 0.153379 -0.090003 -0.194977 -0.172348 0.120295 0.047738 0.083196 0.051453 -0.053804 -0.127881 0.038144 0.025931 0.134642 -0.042527 -0.143951 0.152621 0.206482 0.286104 0.088285 0.165528 -0.111113 0.032035 0.109215 -0.062839 0.145911 -0.137950 0.055866 0.105754 0.057010 0.142430 0.036805 0.021496 -0.037859 -0.144638 -0.017645 0.132356 0.042601 0.044126 0.148047 -0.070860 0.109532 -0.129537 -0.025212 -0.047035 0.031948 -0.074980 -0.062096 0.020666 -0.207696 0.016518 -0.002889 0.071584 0.033228
end 0.051152 0.103976 0.062888 0.117138 -0.015537 -0.045127 -0.175972 -0.114662 -0.098147 -0.005820 0.169747 -0.118265 -0.062548 -0.088554 -0.144055 -0.017497 0.178549 0.018167 -0.034118 0.136721 0.045801 0.022420 0.110446 -0.021960 0.012112 -0.012814 -0.028769 0.221982 -0.032849 -0.026761 -0.002495 0.035286 0.001116 -0.123419 -0.016060 0.059121 0.049914 0.036397 0.014008 -0.059259 -0.044922 -0.115136 -0.112439 -0.031869 0.052311 0.120242 0.022067 0.150098 -0.093350 -0.179142 -0.169768 0.141631 0.054117 0.083038 0.020749 -0.043299 -0.143293 0.025916 0.049168 0.153723 -0.031540 -0.116611 0.171382 0.158363 0.279527 0.077413 0.184533 -0.139434 0.033893 0.133616 -0.054368 0.169425 -0.136181 0.015853 0.090959 0.068621 0.179328 0.069105 -0.010444 -0.011711 -0.182124 -0.001151 0.105819 -0.000531 0.057480 0.131982 -0.050837 0.108475 -0.127435 -0.054094 -0.025261 0.049442 -0.054787 -0.041329 0.017371 -0.185828 -0.024052 -0.010498 0.046464 0.036393
order 0.084281 0.076374 0.097213 0.121633 0.001098 -0.019398 -0.179367 -0.124931 -0.136176 0.020000 0.186449 -0.109635 -0.029266 -0.104607 -0.138495 -0.010276 0.214051 0.045553 -0.047284 0.099210 0.047279 0.010813 0.078720 -0.036979 0.023799 -0.027684 -0.062760 0.235552 -0.021605 -0.012201 0.035595 0.017512 0.007257 -0.135536 -0.012255 0.051285 0.038904 0.027069 0.015226 -0.040764 -0.054687 -0.114630 -0.090767 -0.032965 0.078547 0.096936 0.039553 0.109542 -0.092927 -0.167294 -0.152327 0.149350 0.032584 0.110471 0.041776 -0.039931 -0.149348 0.063838 0.020041 0.137292 -0.010702 -0.096239 0.178891 0.186161 0.291456 0.050915 0.180630 -0.128454 0.020721 0.123288 -0.047110 0.146533 -0.119900 0.014525 0.091607 0.080075 0.159315 0.053148 0.010491 -0.055162 -0.156636 -0.030003 0.135989 0.012413 0.056646 0.135614 -0.058723 0.083966 -0.104965 -0.029936 -0.025747 0.075671 -0.077671 -0.037318 0.010858 -0.203044 -0.022801 0.019549 0.061472 -0.003560
enough 0.083725 0.081839 0.100720 0.092147 -0.018718 -0.008638 -0.190800 -0.101453 -0.093435 -0.013538 0.157362 -0.075584 -0.056412 -0.127902 -0.134562 -0.011216 0.172940 0.026111 -0.069208 0.105032 0.056278 -0.015707 0.096111 -0.047017 -0.013402 -0.015796 -0.028580 0.232228 -0.051593 -0.028003 0.036687 0.025859 0.026040 -0.150397 0.003869 0.061837 0.050483 0.055436 0.033813 -0.025250 -0.074319 -0.093054 -0.104760 -0.046737 0.036724 0.080451 0.029769 0.154290 -0.082942 -0.196627 -0.162829 0.137090 0.032875 0.106914 0.038607 -0.048478 -0.142040 0.040297 0.005448 0.151552 -0.021652 -0.116516 0.156736 0.190373 0.279227 0.083844 0.161662 -0.131908 0.022439 0.112669 -0.019786 0.167812 -0.150408 0.059837 0.102293 0.100255 0.167221 0.028426 -0.016997 -0.047900 -0.140492 -0.034378 0.128596 0.015432 0.050435 0.144095 -0.084139 0.126967 -0.126688 -0.042679 -0.028120 0.064929 -0.070097 -0.042495 0.006238 -0.172586 -0.023692 0.000568 0.085594 0.018800
two 0.067441 0.079497 0.086628 0.113918 -0.016435 -0.012807 -0.180045 -0.114938 -0.117239 -0.005561 0.159090 -0.084522 -0.056369 -0.080718 -0.132616 0.007948 0.192237 0.041781 -0.036401 0.113900 0.068272 0.004351 0.070181 -0.008784 -0.024630 -0.004906 -0.048716 0.215020 -0.036473 -0.015957 0.047508 -0.007834 -0.015191 -0.177554 -0.032065 0.076428 0.015196 0.039372 0.031912 -0.034440 -0.062648 -0.124965 -0.069926 -0.049000 0.071647 0.090958 0.002500 0.129957 -0.114792 -0.216311 -0.148401 0.160453 0.052808 0.092221 0.063827 -0.061805 -0.116845 0.047089 0.019684 0.155714 -0.039953 -0.141475 0.172965 0.164489 0.261448 0.052618 0.209920 -0.115278 0.053041 0.131896 -0.024980 0.163892 -0.125762 0.039319 0.102481 0.055637 0.139380 0.035754 0.031370 -0.018421 -0.172503 -0.009093 0.129469 0.043371 0.040636 0.126532 -0.077804 0.125566 -0.132526 -0.074107 -0.000753 0.035713 -0.043503 -0.074093 0.018535 -0.179711 0.012794 -0.006148 0.074483 0.014442
little 0.040911 0.076358 0.089019 0.079874 0.004253 -0.024306 -0.172227 -0.111872 -0.097337 0.003008 0.162935 -0.122860 -0.058600 -0.083711 -0.143609 -0.018658 0.208535 0.023384 -0.078210 0.111779 0.060059 -0.007017 0.092633 -0.005505 -0.000351 -0.022120 -0.031355 0.248986 -0.034702 -0.011349 0.012789 0.016453 0.025585 -0.150337 -0.018254 0.096468 0.035973 0.039656 0.041967 -0.058769 -0.059256 -0.110389 -0.079715 -0.027212 0.051127 0.114217 0.012499 0.144387 -0.070803 -0.169095 -0.144076 0.165837 0.009812 0.103404 0.044145 -0.035188 -0.107568 0.054331 0.003722 0.140575 -0.042499 -0.110329 0.187162 0.195977 0.248728 0.049006 0.170484 -0.105080 0.049665 0.114844 -0.040990 0.137427 -0.161486 0.018559 0.103067 0.070906 0.172281 0.068387 0.000845 -0.051264 -0.151715 -0.015607 0.148164 0.010217 0.071983 0.169571 -0.070072 0.122000 -0.089809 -0.067367 -0.033477 0.078644 -0.068945 -0.081778 0.008474 -0.200560 -0.006317 0.020247 0.061668 0.011407
every 0.047636 0.096623 0.076809 0.102852 -0.023566 -0.015030 -0.182264 -0.114478 -0.130938 -0.022026 0.180204 -0.121546 -0.053519 -0.099881 -0.144013 -0.002941 0.208027 0.022297 -0.046061 0.105331 0.081416 0.001111 0.091225 -0.021849 0.001069 -0.003359 -0.054997 0.237821 -0.043822 -0.020342 0.033100 0.016632 -0.002652 -0.160861 -0.007986 0.076107 0.042305 0.060018 0.034189 -0.034775 -0.050120 -0.087767 -0.083283 -0.018590 0.050129 0.099994 0.036323 0.126501 -0.103713 -0.186381 -0.150000 0.127254 0.023537 0.096320 0.037741 -0.046478 -0.145674 0.018208 0.022877 0.128836 -0.017629 -0.103749 0.165494 0.184645 0.270641 0.058912 0.200565 -0.126594 0.037515 0.126735 -0.052234 0.164348 -0.147759 0.031930 0.092158 0.074997 0.154182 0.031375 0.001980 -0.032861 -0.156372 -0.030546 0.115709 0.042423 0.060300 0.165065 -0.057185 0.103823 -0.096363 -0.039831 -0.024379 0.073496 -0.075648 -0.061009 0.003916 -0.191019 -0.010581 0.009037 0.055705 0.018511
right 0.060270 0.114189 0.057938 0.126865 -0.034748 -0.032007 -0.173817 -0.104404 -0.121872 -0.010554 0.190161 -0.120173 -0.039501 -0.113968 -0.143682 -0.004787 0.209981 -0.001513 -0.079566 0.096883 0.084523 0.029156 0.102721 -0.019325 -0.021464 -0.000087 -0.027782 0.220856 -0.025185 0.011938 0.023697 0.024577 0.032032 -0.132695 0.017926 0.049558 0.052477 0.038763 0.035374 -0.038641 -0.080150 -0.093546 -0.081872 -0.011499 0.053241 0.103172 0.029143 0.117067 -0.111703 -0.211891 -0.143318 0.131131 0.005508 0.083517 0.039829 -0.045211 -0.137892 0.044471 0.022475 0.150040 -0.043635 -0.131565 0.147430 0.154190 0.270587 0.064987 0.197939 -0.140877 0.065087 0.138162 -0.041844 0.127140 -0.165717 0.059443 0.105906 0.069836 0.154772 0.065398 0.018353 -0.010977 -0.135619 -0.048938 0.117916 0.012711 0.085143 0.160484 -0.091064 0.097398 -0.083758 -0.056820 -0.033576 0.048432 -0.037487 -0.037831 0.007692 -0.181523 0.007377 -0.021822 0.083167 -0.000453
play 0.079139 0.088048 0.071385 0.119642 -0.017109 -0.046465 -0.174649 -0.096535 -0.121367 -0.010302 0.162734 -0.109309 -0.069246 -0.101678 -0.150874 -0.007618 0.210092 0.032922 -0.047021 0.112977 0.078850 0.017346 0.075329 -0.004194 0.006487 -0.016164 -0.054527 0.248629 -0.028832 -0.006474 0.011640 -0.005175 -0.012491 -0.141005 -0.029613 0.072433 0.036933 0.034906 0.032669 -0.023298 -0.075259 -0.084373 -0.092212 -0.047184 0.056492 0.090767 0.003935 0.120506 -0.080517 -0.179348 -0.152409 0.139778 0.026366 0.101568 0.054693 -0.034660 -0.111445 0.060916 0.035728 0.125499 -0.018795 -0.096430 0.182499 0.197707 0.263288 0.066363 0.187108 -0.131598 0.061236 0.108340 -0.031585 0.157026 -0.133328 0.051417 0.065875 0.092309 0.176381 0.038084 0.012681 -0.016569 -0.143198 -0.006553 0.142632 0.018109 0.076974 0.145859 -0.084076 0.126151 -0.116135 -0.065775 -0.017266 0.070502 -0.081421 -0.040851 0.013652 -0.193470 0.011505 0.002063 0.086216 0.038048
experience 0.072771 0.081369 0.096335 0.108818 -0.030245 -0.048717 -0.191406 -0.111254 -0.089716 0.004911 0.188931 -0.101762 -0.068928 -0.102937 -0.114333 -0.031462 0.166148 0.041501 -0.076002 0.134717 0.055684 -0.013395 0.064620 -0.050829 -0.018425 -0.024943 -0.018768 0.229247 -0.016060 -0.004856 0.019311 0.009037 0.003084 -0.127481 0.004618 0.091298 0.013053 0.043640 0.019572 -0.044912 -0.067137 -0.124252 -0.065606 -0.034111 0.042086 0.088488 0.007928 0.117450 -0.111395 -0.190821 -0.160779 0.144894 0.033048 0.130226 0.047382 -0.042646 -0.153477 0.063712 0.005644 0.140736 -0.034203 -0.102087 0.152991 0.182738 0.278858 0.058233 0.176254 -0.131735 0.051710 0.121781 -0.032116 0.181539 -0.134823 0.038966 0.088883 0.090567 0.154572 0.063405 -0.010865 -0.031224 -0.149663 -0.014182 0.110412 0.029510 0.072113 0.142949 -0.081392 0.123538 -0.110771 -0.033721 -0.027083 0.077036 -0.046928 -0.038961 -0.027743 -0.208561 0.000185 0.028579 0.057806 0.019200
people 0.080557 0.104566 0.068014 0.107443 -0.012657 -0.042473 -0.184042 -0.133275 -0.088573 -0.025103 0.160122 -0.095499 -0.056954 -0.095895 -0.143904 -0.029254 0.196305 0.028209 -0.038098 0.122571 0.077950 -0.010187 0.093588 -0.047864 -0.005593 -0.014560 -0.048671 0.237375 -0.045711 -0.023259 0.008795 0.009607 0.024899 -0.167853 0.012285 0.081419 0.033553 0.022751 0.048764 -0.023483 -0.060548 -0.106434 -0.102888 -0.020832 0.047808 0.119090 0.016292 0.152122 -0.105160 -0.207502 -0.144334 0.120553 0.009355 0.110841 0.044091 -0.069400 -0.130360 0.050032 0.020948 0.147299 -0.039794 -0.121602 0.147715 0.171638 0.254100 0.073406 0.175117 -0.093369 0.060504 0.097738 -0.021493 0.157332 -0.164888 0.032013 0.075918 0.098670 0.154120 0.051988 -0.004543 -0.044792 -0.166154 -0.018265 0.123983 0.010122 0.042943 0.138592 -0.080141 0.089373 -0.126616 -0.042993 -0.026728 0.029708 -0.085711 -0.044740 -0.016873 -0.210495 -0.020427 -0.007832 0.063809 0.005819
real 0.067604 0.098923 0.069725 0.116341 -0.025311 -0.049745 -0.171025 -0.094177 -0.121497 0.008512 0.189306 -0.089822 -0.063108 -0.108356 -0.152428 -0.030000 0.170434 0.033959 -0.074180 0.100407 0.066927 -0.010768 0.110085 -0.006642 0.003485 0.002365 -0.018017 0.237381 -0.037315 -0.010828 0.002829 -0.008214 0.025173 -0.168574 -0.032902 0.092606 0.033470 0.056006 0.031327 -0.047419 -0.054908 -0.097038 -0.083001 -0.044274 0.062702 0.110407 0.038174 0.146968 -0.091625 -0.186800 -0.143877 0.150685 0.019170 0.106355 0.039424 -0.041097 -0.132814 0.053728 0.032825 0.127587 -0.040947 -0.130798 0.162541 0.180464 0.259282 0.049405 0.181068 -0.133508 0.032079 0.098185 -0.030122 0.171815 -0.152557 0.049474 0.063479 0.065154 0.146736 0.063105 0.022303 -0.035827 -0.179299 -0.023737 0.103134 -0.000921 0.076596 0.153520 -0.063370 0.109696 -0.108760 -0.029728 -0.006526 0.074024 -0.083948 -0.084199 -0.012925 -0.188043 0.002554 0.022744 0.047791 0.021530
definitely 0.094316 0.087762 0.105692 0.114599 -0.035393 0.002353 -0.194932 -0.135918 -0.110991 -0.037089 0.139066 -0.105724 -0.053789 -0.069498 -0.103535 -0.008955 0.196278 -0.013789 -0.026954 0.082582 0.095589 -0.023144 0.086942 0.002557 0.027496 0.023321 -0.034397 0.250548 -0.056151 0.024298 -0.007708 -0.011638 0.030425 -0.146955 0.014837 0.073455 0.044084 0.015599 0.051666 -0.020198 -0.023936 -0.077611 -0.121663 -0.012545 0.068895 0.125154 0.046990 0.149583 -0.102396 -0.168167 -0.112955 0.174354 0.042129 0.133260 0.054891 -0.031826 -0.101889 0.038086 0.041197 0.107708 -0.063272 -0.114672 0.160783 0.155519 0.290095 0.080710 0.183104 -0.112983 0.016831 0.118375 -0.056440 0.172376 -0.166003 0.023272 0.104116 0.043908 0.129895 0.018237 0.039784 -0.002782 -0.183407 -0.025123 0.104971 0.041345 0.089816 0.133100 -0.079057 0.084657 -0.110621 -0.074746 -0.033428 0.053912 -0.031008 -0.074847 0.018882 -0.213493 0.022394 0.012308 0.034645 0.044372
scene 0.084791 0.074880 0.075680 0.101001 0.003542 -0.048777 -0.177967 -0.092519 -0.130738 0.014617 0.170967 -0.091096 -0.043965 -0.088698 -0.114325 -0.038381 0.197979 0.002867 -0.075530 0.135003 0.077494 -0.009781 0.103850 -0.003705 -0.006020 0.020898 -0.021106 0.230210 -0.049360 -0.031969 -0.004470 0.033331 0.009175 -0.140712 0.003873 0.051971 0.048841 0.068386 0.008713 -0.015317 -0.065854 -0.108167 -0.078780 -0.033998 0.063521 0.082610 0.011903 0.130251 -0.069001 -0.199503 -0.140812 0.143404 0.012901 0.085592 0.048480 -0.029688 -0.154501 0.014086 0.007713 0.152915 -0.018268 -0.142874 0.172526 0.169604 0.270183 0.056734 0.202559 -0.133494 0.056246 0.123362 -0.051135 0.148825 -0.154908 0.038628 0.073439 0.078368 0.164028 0.063284 -0.015557 -0.035061 -0.159533 -0.045905 0.110507 0.047142 0.088991 0.171945 -0.093186 0.082380 -0.110594 -0.024388 -0.010116 0.072967 -0.043635 -0.048821 -0.030656 -0.176509 0.000496 0.022201 0.097025 0.004569
eat 0.074385 0.075684 0.059541 0.106406 0.012383 -0.034170 -0.197656 -0.123188 -0.105395 0.010211 0.149304 -0.109160 -0.032580 -0.111985 -0.135774 0.003822 0.214384 0.024499 -0.031329 0.108042 0.045917 0.020382 0.099944 -0.046526 -0.026211 -0.010676 -0.038934 0.239668 -0.061935 -0.010144 0.033212 0.004591 -0.001012 -0.130159 -0.026569 0.062722 0.036829 0.065770 0.042615 -0.021015 -0.049077 -0.071364 -0.109932 -0.043589 0.060980 0.103438 0.035645 0.144529 -0.066621 -0.175199 -0.170877 0.169585 0.024932 0.082790 0.066289 -0.035735 -0.113080 0.063806 0.025408 0.150934 -0.038573 -0.137343 0.168120 0.179841 0.241785 0.043946 0.210412 -0.136757 0.058080 0.097679 -0.030902 0.183562 -0.142289 0.010018 0.076365 0.082709 0.146533 0.024221 0.022636 -0.006275 -0.139854 -0.020348 0.112279 0.046682 0.088571 0.153596 -0.058208 0.123770 -0.119126 -0.047276 0.004378 0.068455 -0.060257 -0.044487 -0.000177 -0.206606 -0.022311 0.023098 0.070131 0.014712
problem 0.052206 0.092064 0.111575 0.126304 0.009194 -0.052174 -0.214656 -0.125122 -0.093191 0.005820 0.164783 -0.122587 -0.045365 -0.104763 -0.127550 -0.032722 0.197531 -0.011414 -0.047168 0.102884 0.080809 0.027260 0.107736 -0.033781 0.029220 -0.015243 -0.007590 0.236544 -0.049442 -0.027971 0.030851 0.017215 0.043839 -0.177554 0.009892 0.057075 0.001729 0.021891 0.060140 -0.002088 -0.052892 -0.060443 -0.109291 -0.036611 0.077276 0.092172 0.006999 0.107640 -0.118478 -0.203418 -0.124677 0.158947 0.044556 0.127838 0.063356 -0.025154 -0.096979 0.029204 -0.011405 0.128500 -0.061704 -0.100620 0.169382 0.187683 0.244039 0.071270 0.164461 -0.111686 0.068814 0.082110 -0.046684 0.115719 -0.175614 0.067612 0.093904 0.098940 0.137045 0.020554 0.020463 -0.003237 -0.168797 -0.041501 0.094386 0.017265 0.078139 0.134031 -0.055772 0.116054 -0.110564 -0.028083 0.008293 0.045359 -0.071140 -0.078818 0.019336 -0.221997 -0.040092 -0.026010 0.068828 0.048247
terrible 0.082579 0.083087 0.053509 0.091883 0.014269 -0.026440 -0.176430 -0.124554 -0.109701 -0.033763 0.198350 -0.117765 -0.073620 -0.123372 -0.152052 0.002501 0.188693 0.015148 -0.042677 0.142216 0.087058 0.030062 0.061514 -0.057725 -0.023344 0.006851 -0.037381 0.256625 -0.013900 0.012996 0.043564 0.019652 0.044886 -0.134021 -0.047023 0.063278 0.009580 0.030936 0.030794 -0.010808 -0.049452 -0.058759 -0.082988 -0.016111 0.040237 0.127008 -0.016431 0.163625 -0.056315 -0.172644 -0.122637 0.131338 0.051727 0.107487 0.035436 -0.076508 -0.114192 0.072136 0.014063 0.131604 -0.036041 -0.123632 0.125897 0.175730 0.269955 0.061407 0.164069 -0.120798 0.078701 0.143503 -0.070546 0.177135 -0.118662 0.070193 0.080439 0.076265 0.177068 0.057270 -0.006348 0.007354 -0.185708 0.013510 0.091401 0.000171 0.085746 0.130236 -0.068071 0.137176 -0.088946 -0.052093 -0.043170 0.050389 -0.056343 -0.021511 -0.023957 -0.180268 0.019601 -0.035659 0.087502 0.048193
wait 0.087359 0.105591 0.091665 0.113754 -0.010097 -0.048129 -0.189076 -0.117260 -0.091958 0.007679 0.188638 -0.126457 -0.045062 -0.094111 -0.154938 -0.007678 0.191232 0.002280 -0.075502 0.108434 0.073148 -0.000343 0.071591 -0.038965 0.005756 0.014403 -0.034824 0.224803 -0.060950 0.009418 0.027525 -0.006350 0.016371 -0.146715 -0.029175 0.092244 0.025099 0.038326 0.013662 -0.046083 -0.067893 -0.089714 -0.106768 -0.024912 0.053670 0.104729 0.031221 0.141421 -0.083786 -0.184272 -0.164693 0.143867 0.048665 0.127339 0.067994 -0.042825 -0.153940 0.061893 0.013146 0.120790 -0.038179 -0.114075 0.154813 0.169709 0.260657 0.080654 0.176123 -0.112010 0.022308 0.096605 -0.037938 0.164914 -0.139148 0.043899 0.069820 0.079350 0.174202 0.063622 0.008805 -0.051608 -0.141663 -0.025324 0.117680 0.002635 0.049244 0.140518 -0.055061 0.129719 -0.106282 -0.051650 -0.042507 0.036915 -0.044258 -0.051442 -0.003158 -0.209514 0.012406 -0.018141 0.051100 0.021410
story 0.066625 0.115072 0.100587 0.085151 -0.016718 -0.004303 -0.205254 -0.112451 -0.117762 -0.027101 0.169403 -0.120064 -0.058918 -0.113316 -0.161506 -0.020795 0.207596 0.001840 -0.053362 0.123047 0.053044 0.010362 0.074277 -0.010341 -0.005630 -0.002576 -0.019052 0.251714 -0.023794 0.002618 0.011777 0.035106 0.029327 -0.135467 -0.007307 0.078177 0.011209 0.047123 0.057726 -0.011726 -0.031890 -0.108507 -0.076676 -0.045155 0.045398 0.087462 0.004600 0.116670 -0.109893 -0.210051 -0.166532 0.149994 0.012984 0.099876 0.038718 -0.044221 -0.120808 0.038558 0.019133 0.118863 -0.022403 -0.134557 0.173448 0.164359 0.244342 0.063648 0.162492 -0.129508 0.024967 0.130975 -0.040545 0.179919 -0.127324 0.026745 0.078851 0.073256 0.181534 0.024182 -0.012609 -0.016129 -0.166580 -0.033565 0.119131 0.031108 0.074849 0.127007 -0.062120 0.092398 -0.096309 -0.056517 -0.040934 0.062328 -0.078781 -0.070874 0.011259 -0.196942 -0.026733 0.003164 0.059249 0.026062
money 0.094917 0.090313 0.090063 0.119814 -0.050072 -0.000456 -0.158297 -0.153302 -0.098200 -0.027997 0.142684 -0.067328 -0.067261 -0.123644 -0.152948 0.010366 0.202638 0.027530 -0.028690 0.144242 0.099544 -0.016681 0.121946 -0.009120 0.006596 0.004758 -0.082668 0.192296 -0.028491 0.030572 -0.024032 -0.019183 -0.019000 -0.106155 0.000035 0.095442 0.073637 0.065299 0.029590 -0.020783 -0.100588 -0.112945 -0.046661 -0.047031 0.075936 0.106943 0.027406 0.088353 -0.098643 -0.159580 -0.161734 0.168049 0.064282 0.121959 0.055799 0.004541 -0.148609 0.073104 0.015103 0.157432 -0.077670 -0.140796 0.123179 0.180191 0.225973 0.092141 0.178255 -0.131564 0.037012 0.065505 -0.082014 0.167147 -0.170597 0.006019 0.058545 0.091445 0.121996 0.058454 0.036727 -0.040479 -0.181650 -0.052628 0.138332 0.056238 0.076909 0.125306 -0.073857 0.093879 -0.126940 -0.079106 -0.040818 0.047305 -0.039303 -0.049723 -0.017901 -0.170973 -0.055172 0.020718 0.064947 -0.020307
call 0.081224 0.123632 0.109439 0.117628 -0.019698 -0.056069 -0.169287 -0.126507 -0.095792 -0.005368 0.153443 -0.088437 -0.057612 -0.094039 -0.110682 0.014319 0.184856 -0.005704 -0.069505 0.085192 0.056308 -0.002335 0.077846 -0.034907 0.021473 -0.030827 -0.042853 0.244271 -0.063198 -0.020679 0.030401 0.003980 0.001982 -0.132487 0.011665 0.065053 0.014735 0.026110 0.029937 -0.031403 -0.039279 -0.107665 -0.090886 -0.012959 0.076147 0.124947 0.036448 0.113277 -0.076956 -0.201235 -0.161851 0.118543 0.033741 0.122786 0.035518 -0.047495 -0.122886 0.050814 0.020293 0.138673 -0.059420 -0.143025 0.153742 0.182895 0.280613 0.072266 0.160204 -0.111303 0.066586 0.126338 -0.036013 0.143777 -0.119359 0.054181 0.090729 0.085219 0.170777 0.043327 -0.009282 -0.059994 -0.179813 -0.004114 0.146432 0.005725 0.089311 0.174036 -0.078351 0.086940 -0.121058 -0.039814 -0.049281 0.076849 -0.049843 -0.063362 0.010359 -0.185402 -0.001579 -0.021053 0.059748 0.010722
lot 0.080185 0.119574 0.081588 0.090459 -0.028903 -0.038280 -0.163673 -0.133261 -0.098046 -0.013148 0.186791 -0.120150 -0.029999 -0.101491 -0.137268 0.010376 0.208779 0.031756 -0.075408 0.104686 0.070690 0.020889 0.074738 -0.040762 0.002648 -0.020944 -0.031678 0.234585 -0.054186 -0.013660 0.015494 0.003591 -0.013312 -0.128406 -0.032033 0.054104 0.025337 0.053338 0.050406 -0.032919 -0.053212 -0.099870 -0.071331 -0.033784 0.074552 0.093963 0.016023 0.117228 -0.072940 -0.211169 -0.167818 0.148981 0.052447 0.110497 0.037412 -0.025761 -0.150259 0.054518 0.004859 0.122142 -0.015895 -0.131720 0.170704 0.171656 0.276179 0.051575 0.165546 -0.140234 0.036149 0.118732 -0.051659 0.134322 -0.149653 0.057215 0.076694 0.096275 0.149788 0.069584 0.002044 -0.054980 -0.150432 -0.005396 0.130449 0.006338 0.065708 0.142626 -0.074161 0.093294 -0.105147 -0.024897 -0.021893 0.072990 -0.055458 -0.047449 -0.021351 -0.204201 0.010243 0.012349 0.086701 0.028864
star 0.091529 0.098873 0.073112 0.122058 -0.021828 -0.009084 -0.188564 -0.100125 -0.102446 0.001079 0.152662 -0.121341 -0.065515 -0.096562 -0.133324 -0.019337 0.200828 0.048029 -0.079305 0.137099 0.056356 0.026558 0.061229 -0.007798 0.018829 0.005958 -0.020195 0.232722 -0.017109 -0.024201 0.037491 -0.000267 0.014347 -0.151233 -0.033846 0.090695 0.037219 0.016015 0.026778 -0.052133 -0.077246 -0.104434 -0.076581 -0.010319 0.084809 0.068455 0.004400 0.105890 -0.096021 -0.194536 -0.170479 0.142962 0.018663 0.094413 0.058794 -0.024938 -0.142054 0.021802 -0.001579 0.109932 -0.036745 -0.109102 0.177900 0.185189 0.260646 0.077332 0.200649 -0.099157 0.068695 0.134247 -0.040140 0.130706 -0.145098 0.066855 0.068652 0.054277 0.163298 0.075977 0.006345 -0.030492 -0.175939 -0.011940 0.137087 0.031401 0.079326 0.120887 -0.073154 0.090219 -0.106264 -0.031097 -0.025693 0.037837 -0.075737 -0.088658 -0.023330 -0.219309 0.019938 0.003045 0.049782 0.020192
acting 0.071433 0.113773 0.062436 0.110538 -0.035056 -0.037043 -0.183110 -0.120387 -0.131848 -0.013215 0.143597 -0.091442 -0.055127 -0.117269 -0.132771 -0.013974 0.212920 0.041212 -0.058293 0.117864 0.039578 0.016381 0.064884 -0.010035 -0.022548 -0.022020 -0.021310 0.233339 -0.028114 -0.022048 0.000490 0.026069 -0.012422 -0.132487 0.002501 0.054311 0.026272 0.036702 0.008862 -0.041667 -0.055581 -0.088021 -0.072678 -0.013346 0.068528 0.113458 -0.009699 0.157307 -0.088727 -0.207526 -0.141696 0.149472 0.018646 0.127077 0.042660 -0.048324 -0.114528 0.020151 0.021786 0.117725 -0.017603 -0.113775 0.178417 0.208727 0.260727 0.064843 0.156583 -0.096357 0.033847 0.126210 -0.066259 0.147212 -0.132016 0.048399 0.076219 0.076590 0.159209 0.061990 -0.017765 -0.029186 -0.175676 -0.018504 0.101259 0.000027 0.039295 0.162682 -0.089681 0.104127 -0.101177 -0.064348 -0.048534 0.081287 -0.078093 -0.090412 0.007151 -0.217634 -0.017414 0.029369 0.075731 0.028061
new 0.061375 0.102197 0.059983 0.130557 0.003466 -0.042732 -0.174339 -0.122890 -0.079622 0.025832 0.177532 -0.094875 -0.043991 -0.091256 -0.131475 -0.037633 0.186410 0.008484 -0.080880 0.113018 0.088452 -0.002536 0.096776 -0.026782 0.021753 -0.010768 -0.044840 0.251713 -0.047241 0.017994 0.045791 0.020783 -0.000389 -0.164788 -0.010610 0.043088 0.043473 0.036900 0.031260 -0.045161 -0.078341 -0.087047 -0.114660 -0.058094 0.055017 0.126423 0.046137 0.133853 -0.083909 -0.195600 -0.144039 0.120250 0.039553 0.083968 0.025673 -0.025070 -0.133574 0.030700 -0.002840 0.134109 -0.058040 -0.102028 0.141594 0.174765 0.271906 0.091021 0.208799 -0.083037 0.045780 0.100159 -0.059268 0.155143 -0.152895 0.028671 0.049432 0.097854 0.180557 0.055006 0.021360 -0.040899 -0.154454 -0.047157 0.145901 -0.001661 0.057276 0.118256 -0.057144 0.085785 -0.078907 -0.030645 -0.030063 0.071208 -0.054447 -0.060222 -0.024607 -0.219201 -0.019376 -0.024643 0.093504 0.047167
suck 0.033579 0.071755 0.088220 0.096693 -0.024833 -0.037802 -0.206563 -0.092747 -0.077428 0.005139 0.146486 -0.119029 -0.056639 -0.136147 -0.174792 -0.046751 0.165319 0.008194 -0.021114 0.113223 0.067587 -0.006575 0.066088 -0.015381 0.016827 0.019511 -0.066854 0.202853 -0.035002 -0.042455 0.023355 0.003078 0.029033 -0.146162 0.005761 0.047124 0.062648 0.066132 0.049343 -0.003954 -0.041044 -0.087124 -0.093066 0.001433 0.091994 0.082089 0.022505 0.166632 -0.056436 -0.182604 -0.138299 0.116523 0.022793 0.116719 0.021168 -0.054227 -0.133911 0.062023 0.021159 0.166922 -0.049368 -0.087361 0.186940 0.175645 0.240171 0.100245 0.171458 -0.135571 0.082046 0.147134 -0.061638 0.149253 -0.184791 0.037627 0.042067 0.116892 0.139932 0.078628 0.039679 -0.053837 -0.177233 -0.029498 0.139816 0.059140 0.093465 0.188535 -0.030584 0.076715 -0.086711 -0.060255 0.012280 0.016456 -0.083546 -0.081291 0.026818 -0.169217 0.011661 0.028452 0.070128 -0.007585
long 0.063811 0.078745 0.070654 0.096714 -0.021877 -0.020897 -0.191193 -0.089837 -0.134033 -0.030362 0.152661 -0.067027 -0.022305 -0.102459 -0.126663 -0.032550 0.185959 0.044526 -0.075414 0.119184 0.073151 -0.022680 0.085934 0.001951 0.012704 0.000099 -0.055456 0.245258 -0.059279 0.012123 0.039716 0.001007 0.015886 -0.156726 0.007306 0.073309 0.001003 0.055063 0.003919 -0.048853 -0.085103 -0.083774 -0.122603 -0.021464 0.071373 0.082496 0.023979 0.156303 -0.092457 -0.165842 -0.127166 0.165556 0.031333 0.110784 0.018411 -0.063991 -0.156890 0.042471 0.031114 0.136954 -0.068860 -0.122889 0.166307 0.167111 0.271130 0.036985 0.188857 -0.141772 0.061905 0.144804 -0.059167 0.157842 -0.112481 0.018267 0.066933 0.095478 0.175374 0.069871 0.002154 -0.006918 -0.162510 0.007697 0.153689 0.003021 0.065081 0.118926 -0.065290 0.078156 -0.082124 -0.053191 -0.008389 0.045302 -0.059143 -0.083252 0.005304 -0.210975 0.024689 0.006119 0.036214 0.043476
life 0.081599 0.122480 0.099294 0.131113 -0.002163 -0.040894 -0.160089 -0.118723 -0.113824 0.016978 0.150436 -0.079523 -0.021826 -0.132819 -0.107782 0.000821 0.204208 0.037829 -0.077798 0.141809 0.052882 0.006760 0.058735 0.003861 -0.002799 0.001393 -0.018000 0.238031 -0.010942 0.010652 -0.006364 -0.008623 -0.012741 -0.117908 0.002719 0.053691 0.048251 0.052213 0.052848 -0.058938 -0.066004 -0.075756 -0.112695 -0.009045 0.031839 0.115729 0.014522 0.131074 -0.098298 -0.166363 -0.141784 0.158293 0.050490 0.112904 0.038961 -0.036668 -0.117133 0.060407 0.053120 0.123656 -0.029563 -0.116602 0.175382 0.172170 0.298510 0.068121 0.159319 -0.122216 0.049694 0.115728 -0.026648 0.157211 -0.170168 0.054248 0.061262 0.067583 0.173350 0.033815 0.029470 -0.056180 -0.185971 -0.001662 0.115266 0.030317 0.047610 0.168797 -0.089240 0.105471 -0.111575 -0.069203 -0.025926 0.061406 -0.037482 -0.037390 -0.001228 -0.186605 0.007052 -0.007338 0.045444 0.011904
feel 0.083270 0.086128 0.090784 0.113502 0.005595 -0.004686 -0.191643 -0.128908 -0.087727 -0.020213 0.175403 -0.119163 -0.039566 -0.122119 -0.126561 0.006754 0.171009 0.047628 -0.032485 0.094782 0.047970 0.029129 0.065877 -0.009272 -0.002002 -0.027090 -0.019761 0.211894 -0.033629 0.012519 0.035129 -0.003194 0.009861 -0.142190 -0.007249 0.053838 0.030394 0.067394 0.027384 -0.020327 -0.058739 -0.118719 -0.111050 -0.035184 0.059459 0.088982 0.009978 0.142840 -0.085498 -0.194207 -0.164749 0.167365 0.014625 0.113672 0.064766 -0.045688 -0.126106 0.021664 0.050246 0.148834 -0.019228 -0.116850 0.166064 0.183869 0.283662 0.068940 0.183595 -0.103710 0.027314 0.133477 -0.025619 0.157546 -0.141481 0.027489 0.085231 0.078755 0.166685 0.027704 -0.009374 -0.007507 -0.168815 -0.035706 0.137519 0.029006 0.071536 0.143462 -0.055850 0.081225 -0.087305 -0.026908 -0.023834 0.081225 -0.067350 -0.055818 -0.030415 -0.212545 -0.008679 -0.011384 0.087165 -0.012069
piece 0.076403 0.077399 0.083026 0.126232 -0.022550 -0.025384 -0.176528 -0.116627 -0.094338 0.020791 0.152838 -0.071225 -0.053132 -0.110416 -0.120383 -0.010052 0.202513 0.040444 -0.046128 0.102847 0.082959 -0.001397 0.102624 -0.032880 -0.012988 0.011635 -0.038190 0.250414 -0.037581 0.003132 0.036686 0.021514 0.026121 -0.143455 0.021892 0.094728 0.053549 0.063185 0.013194 -0.035905 -0.067205 -0.070259 -0.118650 -0.006132 0.049415 0.111689 -0.007128 0.144297 -0.095404 -0.188609 -0.165806 0.127200 0.005551 0.097902 0.035861 -0.046956 -0.138480 0.030745 0.047530 0.148672 -0.035360 -0.106840 0.126848 0.206482 0.284289 0.076434 0.169054 -0.111609 0.056846 0.112002 -0.065454 0.159506 -0.148326 0.062864 0.093060 0.063556 0.168418 0.076540 0.026510 -0.037359 -0.178382 -0.026264 0.127714 -0.000752 0.046161 0.172135 -0.054961 0.078149 -0.083621 -0.070716 -0.020997 0.031203 -0.074245 -0.084676 -0.007611 -0.167514 0.018291 -0.008018 0.042540 0.021910
friendly 0.074473 0.109723 0.093941 0.074566 0.005442 -0.018202 -0.216274 -0.085061 -0.094479 -0.004161 0.161022 -0.076524 -0.056816 -0.110051 -0.110604 -0.039533 0.193667 0.036211 -0.084145 0.098585 0.047220 0.000078 0.117841 -0.012350 -0.030831 -0.035035 -0.015522 0.237419 -0.071296 0.000350 0.032319 -0.000291 -0.007807 -0.132651 0.014544 0.042182 0.064572 0.039048 0.020052 -0.024412 -0.045413 -0.103012 -0.097816 -0.006998 0.079925 0.122452 0.022839 0.164325 -0.060550 -0.185235 -0.138874 0.151187 0.048817 0.103607 0.013889 -0.058016 -0.105985 0.036077 0.041322 0.111940 -0.009834 -0.143590 0.176196 0.180379 0.247102 0.084263 0.206258 -0.089068 0.032247 0.146555 -0.061375 0.181949 -0.163178 0.062864 0.086113 0.074040 0.169916 0.045663 0.023576 -0.010206 -0.182012 0.002385 0.096017 0.023173 0.037105 0.154305 -0.091571 0.077878 -0.138602 -0.060120 -0.035808 0.064906 -0.041598 -0.046731 0.017993 -0.166206 -0.015038 -0.008283 0.073669 -0.006381
actor 0.070037 0.106809 0.067293 0.086976 -0.025734 -0.029439 -0.180367 -0.094727 -0.090318 -0.025399 0.172648 -0.081422 -0.041022 -0.105145 -0.111440 0.001459 0.201039 0.026953 -0.059742 0.113681 0.042672 0.027076 0.060588 -0.022683 0.012990 -0.023607 -0.029418 0.248357 -0.032843 -0.026869 0.016363 0.037170 0.000403 -0.171708 0.002424 0.084293 0.024040 0.034763 0.052327 -0.044260 -0.068254 -0.104628 -0.100099 -0.039729 0.068937 0.087504 0.037445 0.129947 -0.100613 -0.207801 -0.144659 0.129149 0.023047 0.117397 0.043934 -0.064387 -0.136570 0.057474 0.012368 0.143901 -0.044486 -0.134991 0.146596 0.173214 0.291360 0.063274 0.162761 -0.093930 0.062231 0.101239 -0.037873 0.157176 -0.124120 0.048386 0.089214 0.098234 0.168476 0.033092 0.004355 -0.037582 -0.181151 -0.010955 0.149838 0.007151 0.084411 0.152328 -0.049087 0.085649 -0.121623 -0.033356 -0.034506 0.038076 -0.048176 -0.080184 -0.020964 -0.201191 -0.023110 -0.015221 0.068539 0.018670
day 0.059693 0.103954 0.101055 0.124582 -0.033492 -0.038678 -0.164925 -0.097304 -0.109496 -0.025014 0.137741 -0.098287 -0.036564 -0.098411 -0.142068 0.012502 0.189981 0.025670 -0.031728 0.086372 0.037184 -0.011170 0.106556 -0.027374 -0.027329 -0.022554 -0.038604 0.241578 -0.028101 0.002106 0.007330 0.022653 0.033947 -0.139887 -0.032736 0.057639 0.010087 0.057613 0.026781 -0.030181 -0.057774 -0.081488 -0.070865 -0.037887 0.067196 0.104063 0.014427 0.143019 -0.103256 -0.186578 -0.130946 0.121659 0.058513 0.080582 0.055755 -0.063083 -0.136886 0.060478 0.046672 0.143850 -0.044976 -0.144521 0.157555 0.201733 0.285651 0.058492 0.185267 -0.099006 0.066710 0.112720 -0.033876 0.179263 -0.133964 0.056952 0.098066 0.065274 0.169997 0.057117 -0.016836 -0.049884 -0.158028 -0.014284 0.098848 0.048429 0.089743 0.175815 -0.068903 0.117153 -0.131299 -0.072544 -0.017518 0.031751 -0.043154 -0.069164 -0.022618 -0.180163 0.013360 -0.003323 0.089228 -0.008914
happy 0.043224 0.118853 0.100999 0.112605 -0.042189 -0.030031 -0.191596 -0.130759 -0.127364 -0.003031 0.161440 -0.088021 -0.086593 -0.123110 -0.143988 0.014589 0.172698 0.029699 -0.060975 0.144840 0.073539 -0.004580 0.105443 -0.056216 0.018977 0.005318 -0.018568 0.207166 -0.063786 0.009347 0.026856 0.039018 0.015225 -0.144417 -0.044787 0.060533 0.056152 0.024001 0.016269 -0.001347 -0.070049 -0.114816 -0.053537 -0.019949 0.053644 0.055576 0.003519 0.128649 -0.092227 -0.169103 -0.128639 0.179998 0.025087 0.131925 0.080242 -0.031651 -0.149159 0.012373 0.001386 0.133884 -0.031548 -0.089465 0.158591 0.177143 0.230607 0.097752 0.182378 -0.124825 0.062666 0.116447 -0.022436 0.143433 -0.174586 0.027132 0.112929 0.102819 0.143718 0.056900 -0.009275 0.003189 -0.156737 -0.015825 0.108931 0.061668 0.096354 0.170957 -0.079985 0.102033 -0.119760 -0.027781 -0.015277 0.038970 -0.029839 -0.035379 0.019247 -0.195912 -0.028755 0.015026 0.102598 0.000050
many 0.060978 0.113680 0.066204 0.097677 -0.003757 -0.027791 -0.169099 -0.131947 -0.086976 0.004130 0.181755 -0.094409 -0.023711 -0.080348 -0.110892 -0.000384 0.173225 0.035966 -0.079839 0.112438 0.058599 -0.022800 0.085755 -0.030047 0.011692 -0.024066 -0.040284 0.222259 -0.046194 -0.022571 0.025714 0.015050 0.038294 -0.137112 0.013124 0.051947 0.053712 0.024556 0.016225 -0.056312 -0.062567 -0.070888 -0.119147 -0.021711 0.077395 0.122814 0.031253 0.159813 -0.100454 -0.188440 -0.139785 0.153526 0.042720 0.105862 0.057467 -0.058203 -0.121591 0.019763 0.044585 0.108549 -0.046891 -0.118831 0.139544 0.195161 0.273279 0.076583 0.180565 -0.098575 0.063157 0.106045 -0.039602 0.162482 -0.166633 0.063173 0.096708 0.070773 0.163806 0.058900 0.025407 -0.054614 -0.187237 -0.007489 0.144490 0.007612 0.040151 0.173138 -0.087737 0.108461 -0.125572 -0.027866 -0.029111 0.040534 -0.094306 -0.075952 -0.032107 -0.175802 -0.025153 -0.021924 0.044226 0.039579
plot 0.087174 0.103013 0.109896 0.087303 -0.034069 -0.014308 -0.181008 -0.129948 -0.090770 0.010648 0.169884 -0.104601 -0.033767 -0.093631 -0.148741 -0.044129 0.177994 0.014861 -0.072635 0.124062 0.055780 -0.020774 0.083168 0.001921 -0.001019 0.012939 -0.048157 0.242641 -0.054348 0.003949 0.047039 0.023301 0.024941 -0.151993 0.008652 0.041576 0.058403 0.054482 0.063872 -0.061581 -0.081411 -0.075751 -0.058868 -0.043173 0.044027 0.115089 -0.004558 0.154277 -0.118986 -0.193877 -0.165249 0.156948 0.002056 0.126673 0.017214 -0.063247 -0.138082 0.036414 0.049674 0.128020 -0.037409 -0.088395 0.163678 0.164720 0.270516 0.068088 0.159619 -0.115970 0.045972 0.097564 -0.054372 0.161806 -0.132963 0.050199 0.073508 0.093975 0.145235 0.019114 -0.002058 -0.046021 -0.131514 -0.013222 0.142242 0.044275 0.088252 0.155880 -0.063994 0.092972 -0.083212 -0.060016 -0.018189 0.057292 -0.054919 -0.074074 0.016037 -0.222913 -0.021753 0.006421 0.052852 0.003068
restaurant 0.084965 0.103003 0.105942 0.105693 0.005663 -0.006074 -0.194326 -0.136376 -0.107184 -0.031806 0.139995 -0.072151 -0.082029 -0.099497 -0.121751 -0.013271 0.180263 -0.009758 -0.025527 0.107372 0.040155 0.007475 0.097915 -0.016825 0.013345 -0.019185 -0.038075 0.236416 -0.043897 -0.019632 0.028708 0.032930 0.030572 -0.146039 0.020669 0.076740 0.030352 0.029433 0.060722 -0.058235 -0.072722 -0.124482 -0.062670 -0.051199 0.060181 0.110974 0.026701 0.147485 -0.065092 -0.197382 -0.146104 0.170522 0.011506 0.125166 0.029342 -0.070934 -0.134296 0.036596 0.005278 0.128555 -0.033381 -0.101831 0.154256 0.170025 0.247583 0.069721 0.178718 -0.084715 0.019195 0.111558 -0.055027 0.171128 -0.172886 0.055055 0.063535 0.082595 0.150980 0.059182 0.005462 -0.043980 -0.175541 -0.046248 0.109133 0.044219 0.040209 0.138609 -0.098800 0.127562 -0.085405 -0.034407 -0.009453 0.070393 -0.095817 -0.043922 0.021658 -0.217116 -0.033688 -0.003502 0.088694 0.003144
far 0.072390 0.129577 0.063824 0.123476 0.015107 -0.036567 -0.207651 -0.126824 -0.140197 0.032226 0.176630 -0.090424 -0.022949 -0.125190 -0.165526 -0.039806 0.192110 0.026196 -0.089154 0.119325 0.035565 0.036580 0.099469 -0.015900 -0.032153 0.025910 -0.030064 0.189001 -0.073699 -0.000009 0.057486 0.032069 -0.004398 -0.162388 -0.001414 0.087174 -0.002531 0.009229 0.040586 -0.005721 -0.086684 -0.098741 -0.073729 -0.021428 0.080797 0.081346 0.034787 0.145684 -0.065155 -0.163898 -0.129075 0.119414 0.008656 0.107034 0.047177 -0.021476 -0.089968 0.006418 0.011505 0.115903 -0.054691 -0.083102 0.170332 0.164163 0.282707 0.071637 0.158180 -0.093093 0.039957 0.131900 -0.032844 0.166574 -0.168391 0.038051 0.066912 0.089513 0.186529 0.011070 0.015092 -0.003962 -0.177141 -0.033692 0.125857 0.051392 0.040674 0.134033 -0.094028 0.092049 -0.131424 -0.036120 0.005211 0.080056 -0.069359 -0.036639 0.019801 -0.215764 -0.035901 0.026352 0.038520 0.013275
poor 0.074811 0.063022 0.117192 0.118366 -0.052318 -0.052091 -0.228038 -0.120384 -0.130816 0.042194 0.127003 -0.132853 -0.100704 -0.071235 -0.120051 -0.001160 0.226947 0.038762 -0.045488 0.144235 0.103440 0.007055 0.071805 -0.061201 -0.012023 -0.016361 -0.002739 0.170732 -0.041137 -0.024198 0.056143 -0.003128 -0.005446 -0.181710 -0.046057 0.058975 0.059488 0.018056 -0.001874 -0.016777 -0.013278 -0.120397 -0.101472 -0.058195 0.009000 0.074244 -0.026381 0.074279 -0.074943 -0.172071 -0.094090 0.094674 -0.007904 0.080460 0.037945 -0.064542 -0.163099 -0.020194 0.039236 0.152189 -0.031117 -0.094997 0.186165 0.232534 0.219771 0.113283 0.172855 -0.090339 0.059853 0.108522 -0.043666 0.162448 -0.145268 0.091255 0.039524 0.099563 0.142980 0.022978 -0.029952 -0.069069 -0.218128 0.016501 0.113387 0.002019 0.065942 0.155102 -0.048856 0.125793 -0.060102 -0.098197 0.009357 0.027244 -0.073130 -0.087842 -0.019320 -0.173281 -0.055100 -0.010851 0.029317 -0.008062
worth 0.040307 0.100029 0.047894 0.123258 -0.044520 -0.018264 -0.177083 -0.134740 -0.122530 0.017430 0.151654 -0.132230 -0.064950 -0.095644 -0.134201 -0.041418 0.200297 -0.010482 -0.069083 0.102603 0.047928 0.038502 0.094387 -0.002989 0.032875 -0.012509 -0.031408 0.202402 -0.068998 -0.003364 -0.002248 0.011841 -0.015372 -0.153430 0.017514 0.050544 0.023861 0.010423 0.025580 -0.043022 -0.035021 -0.114566 -0.098380 -0.009307 0.074094 0.075724 -0.004846 0.157790 -0.065105 -0.218602 -0.168938 0.151473 0.056988 0.079380 0.019728 -0.019553 -0.132706 0.023301 0.047905 0.135949 -0.030397 -0.125012 0.189880 0.193071 0.291727 0.076872 0.168279 -0.106631 0.077426 0.118096 -0.028193 0.161295 -0.123860 0.025757 0.053763 0.070682 0.145484 0.058080 -0.020559 -0.042549 -0.129029 0.003248 0.120495 0.038206 0.069014 0.122232 -0.094922 0.122824 -0.105127 -0.080199 -0.023835 0.043505 -0.092941 -0.063439 0.010971 -0.191981 -0.017747 0.025474 0.077277 0.005094
show 0.077394 0.114186 0.093146 0.096778 -0.013804 -0.057153 -0.179766 -0.091289 -0.116435 -0.007979 0.172007 -0.078588 -0.038699 -0.076293 -0.158591 -0.039775 0.189785 0.049469 -0.055014 0.117173 0.039540 -0.002658 0.094471 -0.004701 -0.022730 -0.035639 -0.035406 0.218486 -0.020868 0.014186 0.049073 0.010227 0.032733 -0.145262 -0.036285 0.090342 0.051116 0.035426 0.019015 -0.049373 -0.040668 -0.096965 -0.080731 -0.006650 0.067722 0.092775 0.032376 0.121442 -0.086892 -0.173588 -0.142997 0.146299 0.049721 0.134989 0.034559 -0.054391 -0.135012 0.032865 -0.000532 0.140077 -0.027595 -0.105606 0.139294 0.188401 0.298521 0.077601 0.202361 -0.091403 0.049814 0.086227 -0.021507 0.130369 -0.163758 0.042055 0.076519 0.087766 0.147617 0.021081 -0.002534 -0.003788 -0.187594 -0.046458 0.114563 0.041210 0.089373 0.173980 -0.084676 0.131551 -0.120406 -0.022833 -0.010418 0.043891 -0.055416 -0.036764 0.019346 -0.205853 -0.016085 0.028406 0.061495 0.021949
