612 100
good -0.075783 0.060513 -0.030780 -0.016323 -0.139949 0.001106 0.206571 -0.132072 -0.010287 -0.036058 0.005704 0.078555 -0.088074 -0.128072 0.097312 -0.107037 -0.045824 0.059569 0.062159 -0.105392 -0.032147 -0.025083 0.081280 0.011643 -0.200958 -0.027199 0.057398 0.076933 0.029150 -0.091190 0.191875 -0.006621 0.083914 -0.032078 0.085383 -0.164396 0.035728 -0.130223 -0.165249 0.054186 0.254173 0.117608 -0.002317 -0.076910 0.082355 0.035802 -0.161435 0.009303 0.155540 0.201035 -0.116196 0.064841 0.066333 -0.010508 0.203095 -0.051782 -0.011595 0.103065 -0.214769 -0.034967 0.106549 0.019877 0.064638 -0.051914 -0.006823 -0.035244 -0.146664 0.012295 -0.091407 -0.223552 -0.055937 -0.077497 0.011029 -0.081540 0.060833 0.047617 -0.101013 0.219037 0.076570 -0.108628 0.069776 0.024783 0.125998 0.028959 0.077881 -0.122080 -0.095909 -0.025945 0.115767 0.002727 -0.166497 0.116573 0.000616 -0.045176 0.032374 -0.088306 0.014363 0.035235 0.101966 -0.072103
great -0.079063 0.078792 -0.036531 -0.015009 -0.109610 0.006692 0.212414 -0.137328 -0.024793 -0.050436 0.017742 0.096148 -0.094454 -0.109096 0.083066 -0.131215 -0.047240 0.052735 0.054025 -0.083117 -0.003082 -0.032649 0.055112 0.017052 -0.206733 0.000457 0.056156 0.080037 0.021921 -0.124130 0.164429 -0.015383 0.079041 -0.064404 0.070271 -0.176182 0.048566 -0.155937 -0.192744 0.062173 0.233538 0.107911 0.006820 -0.085114 0.078618 0.050423 -0.151555 -0.014236 0.165817 0.190459 -0.141469 0.031702 0.060120 -0.014337 0.193709 -0.036142 -0.009720 0.082687 -0.219490 -0.048924 0.133555 0.015080 0.058357 -0.056183 0.000882 -0.017609 -0.172529 0.023325 -0.098300 -0.220226 -0.028115 -0.072144 0.016456 -0.080789 0.030956 0.030907 -0.119304 0.203140 0.078439 -0.109550 0.066876 0.022482 0.120910 0.010896 0.048743 -0.125763 -0.095250 -0.036570 0.120267 -0.023687 -0.175603 0.106425 0.019510 -0.056073 0.007094 -0.075953 0.029287 0.029512 0.087108 -0.085278
movie -0.073347 0.056756 -0.041776 -0.007059 -0.127048 0.008833 0.199747 -0.118165 -0.016093 -0.022678 0.010939 0.094844 -0.079831 -0.131347 0.095483 -0.108165 -0.052954 0.082942 0.060706 -0.099856 -0.007727 -0.035650 0.080353 0.018555 -0.203786 -0.027729 0.052189 0.060867 0.007462 -0.101228 0.179245 -0.001000 0.085511 -0.035727 0.078339 -0.148313 0.029141 -0.129172 -0.173969 0.066813 0.261466 0.117235 0.023526 -0.063017 0.073609 0.029594 -0.164590 0.018311 0.156350 0.183270 -0.115031 0.053429 0.055673 -0.021560 0.203236 -0.059826 -0.024258 0.104628 -0.196509 -0.032492 0.104521 0.007877 0.075408 -0.037017 0.014004 -0.032738 -0.140745 0.019023 -0.093181 -0.220248 -0.029750 -0.104966 0.006688 -0.078493 0.067951 0.044768 -0.133593 0.210524 0.078269 -0.093395 0.088962 0.041520 0.127076 0.009059 0.074091 -0.139878 -0.106011 -0.023837 0.121183 0.008546 -0.181981 0.130334 0.027281 -0.043768 0.031548 -0.092709 0.028392 0.039841 0.124633 -0.057084
film -0.046778 0.053982 -0.042364 -0.018249 -0.139234 -0.002722 0.198027 -0.126561 -0.016075 -0.036222 0.005423 0.104768 -0.081864 -0.118430 0.107139 -0.090859 -0.080980 0.065560 0.060999 -0.114338 -0.019368 -0.016705 0.050442 0.011514 -0.213195 0.001065 0.057176 0.070044 0.031157 -0.099500 0.175219 0.016458 0.092995 -0.059821 0.088122 -0.179471 0.034841 -0.155336 -0.166504 0.068749 0.226219 0.108908 -0.006922 -0.092289 0.094536 0.022846 -0.164211 0.018548 0.172543 0.184789 -0.130938 0.061257 0.069160 -0.019037 0.196400 -0.047735 -0.004208 0.107550 -0.193254 -0.036026 0.102085 0.001754 0.052152 -0.051250 0.004831 -0.012874 -0.139381 0.034362 -0.067373 -0.215920 -0.035297 -0.104517 -0.019094 -0.076996 0.069439 0.034822 -0.124577 0.221258 0.105093 -0.092814 0.078024 0.041901 0.122377 0.013934 0.058568 -0.137959 -0.085936 -0.026947 0.107613 -0.010116 -0.172620 0.124976 0.023129 -0.039830 0.020151 -0.094260 0.033301 0.042574 0.099488 -0.089271
phone -0.071623 0.046038 -0.023039 0.007583 -0.137240 0.008206 0.193785 -0.113143 0.002693 -0.025906 0.021264 0.068653 -0.088104 -0.133637 0.082361 -0.100042 -0.051104 0.064751 0.048946 -0.108022 -0.036767 -0.015451 0.080007 0.035533 -0.192108 -0.018168 0.045183 0.048458 0.019481 -0.108804 0.182371 -0.004893 0.114183 -0.030532 0.068261 -0.164379 0.012314 -0.147757 -0.153704 0.084524 0.236818 0.117102 0.020335 -0.074569 0.087885 0.050005 -0.168178 0.023550 0.153944 0.173171 -0.110421 0.046674 0.072709 -0.017694 0.206240 -0.025823 -0.029836 0.092680 -0.202747 -0.052570 0.135928 0.035343 0.061892 -0.053835 0.011639 -0.027483 -0.149679 0.012528 -0.063033 -0.229989 -0.038338 -0.084203 -0.002516 -0.083235 0.053022 0.068205 -0.129277 0.230212 0.088805 -0.118111 0.075493 0.050166 0.124166 0.032683 0.077624 -0.134045 -0.088755 -0.024419 0.121767 0.011006 -0.158189 0.146232 0.002154 -0.051779 0.021607 -0.092396 0.040911 0.018648 0.112764 -0.087900
one -0.050843 0.047989 -0.018501 -0.005478 -0.140880 -0.006257 0.186645 -0.129763 0.003955 -0.015794 -0.009551 0.086618 -0.077063 -0.107640 0.106873 -0.109739 -0.049453 0.068942 0.072217 -0.115699 -0.005778 -0.035836 0.074727 0.025887 -0.210604 -0.011583 0.057685 0.068775 0.026214 -0.120398 0.196565 0.005920 0.101304 -0.059284 0.068780 -0.142190 0.035990 -0.148299 -0.170001 0.081003 0.250308 0.123661 0.024803 -0.088300 0.065947 0.037263 -0.149962 0.009737 0.161514 0.173101 -0.126257 0.038977 0.048162 -0.014709 0.193121 -0.039627 -0.030262 0.084699 -0.220228 -0.024348 0.134616 0.004625 0.055173 -0.034759 0.005823 -0.044982 -0.156949 0.008724 -0.094364 -0.214420 -0.050752 -0.109083 -0.013924 -0.058700 0.038173 0.045415 -0.118000 0.207970 0.093966 -0.090197 0.078693 0.039236 0.136353 0.010299 0.082530 -0.120724 -0.112913 -0.033770 0.107924 -0.015065 -0.174980 0.116415 0.000557 -0.040283 0.038484 -0.092231 0.025063 0.024981 0.117573 -0.077800
bad -0.058480 0.047625 -0.017409 0.002082 -0.134936 0.002893 0.207647 -0.127872 0.000741 -0.015528 0.004195 0.091013 -0.087829 -0.135171 0.087783 -0.101195 -0.069643 0.072793 0.080368 -0.108422 -0.021968 -0.024354 0.072846 0.025541 -0.179556 -0.017605 0.051789 0.083284 0.034686 -0.091874 0.176136 0.023681 0.097431 -0.051382 0.083649 -0.146624 0.036831 -0.138856 -0.174997 0.083595 0.230563 0.102643 0.030455 -0.064909 0.087701 0.060161 -0.149104 -0.007409 0.158750 0.198915 -0.138486 0.046753 0.051144 -0.021233 0.187353 -0.063623 -0.026546 0.107312 -0.220071 -0.014472 0.132774 0.036373 0.067588 -0.053224 0.020132 -0.013164 -0.166917 0.032382 -0.067512 -0.223781 -0.064301 -0.080452 -0.004896 -0.082650 0.067578 0.036734 -0.113540 0.220481 0.100349 -0.084536 0.056230 0.026471 0.139920 0.023864 0.078181 -0.133433 -0.106898 -0.046678 0.096884 0.011756 -0.181507 0.114517 0.014310 -0.026687 0.017153 -0.086424 0.041622 0.021075 0.102352 -0.059206
work -0.059166 0.067040 -0.010312 -0.001646 -0.116150 0.001156 0.214507 -0.138521 0.013928 -0.050587 0.011375 0.104641 -0.069430 -0.132175 0.077920 -0.103818 -0.046215 0.044779 0.087356 -0.096850 -0.036403 -0.029155 0.075428 0.038238 -0.207435 -0.012873 0.070822 0.086189 0.018317 -0.120998 0.153196 0.024702 0.104036 -0.054357 0.087470 -0.176957 0.051565 -0.149926 -0.174565 0.044443 0.221053 0.093349 -0.007725 -0.067345 0.082987 0.028660 -0.154069 0.009429 0.148539 0.161050 -0.113587 0.067691 0.065596 -0.043973 0.216567 -0.026914 -0.015857 0.088535 -0.209983 -0.046182 0.131390 0.006948 0.062442 -0.059195 0.024215 -0.035253 -0.146183 0.039772 -0.078765 -0.221520 -0.042287 -0.110360 -0.025204 -0.089171 0.058864 0.038969 -0.129798 0.225371 0.095365 -0.093772 0.084197 0.029890 0.121284 0.011490 0.067285 -0.134512 -0.078400 -0.029854 0.129622 0.017389 -0.157507 0.119459 0.018891 -0.036220 0.041219 -0.109524 0.011248 0.042401 0.094190 -0.068537
like -0.057395 0.052264 -0.029456 -0.000461 -0.123890 0.019682 0.190683 -0.112475 -0.026798 -0.036514 0.001710 0.086043 -0.074224 -0.140855 0.076102 -0.110839 -0.077895 0.071425 0.087299 -0.091708 -0.030751 -0.025164 0.058543 0.022820 -0.213216 -0.031784 0.053205 0.051593 0.019597 -0.097349 0.193727 0.010734 0.092530 -0.058372 0.089186 -0.173513 0.017099 -0.129492 -0.168058 0.083569 0.231402 0.134503 0.023413 -0.084667 0.086751 0.028422 -0.154209 -0.000259 0.137764 0.177800 -0.142969 0.043118 0.053802 -0.023253 0.210172 -0.040467 -0.038883 0.108572 -0.220321 -0.052296 0.117992 0.034678 0.045591 -0.037246 -0.010240 -0.034205 -0.163286 0.043787 -0.089146 -0.215588 -0.034899 -0.096800 -0.008145 -0.060612 0.040263 0.068449 -0.108475 0.222678 0.095629 -0.087172 0.063362 0.050503 0.114260 0.022346 0.080700 -0.117218 -0.093933 -0.041790 0.128672 0.008542 -0.163894 0.128432 0.022961 -0.033258 0.043845 -0.095692 0.009762 0.045117 0.109180 -0.059049
time -0.058935 0.070153 -0.020017 0.004499 -0.141497 -0.005476 0.198911 -0.107306 -0.017465 -0.025125 -0.012727 0.082459 -0.066986 -0.128452 0.102574 -0.122213 -0.067771 0.084405 0.074826 -0.086536 -0.007183 -0.042242 0.083543 0.021253 -0.184330 -0.030363 0.064148 0.071693 0.031962 -0.094327 0.193247 -0.002622 0.088045 -0.056519 0.080707 -0.169226 0.041888 -0.147403 -0.170064 0.081141 0.256888 0.113264 -0.006156 -0.092523 0.092854 0.038964 -0.159339 0.016822 0.133976 0.196145 -0.116687 0.041224 0.055056 -0.029706 0.209488 -0.032901 -0.029993 0.099338 -0.205223 -0.033118 0.124516 0.032040 0.054728 -0.033670 0.019895 -0.042667 -0.166167 0.008376 -0.069989 -0.219796 -0.056184 -0.079584 0.010847 -0.053640 0.059494 0.036433 -0.122386 0.209146 0.081193 -0.094082 0.074018 0.043664 0.106286 0.023935 0.086106 -0.134375 -0.089727 -0.054859 0.097384 0.004160 -0.177009 0.139020 0.024948 -0.032247 0.018963 -0.084251 0.023074 0.043601 0.103364 -0.061907
go -0.043675 0.051315 -0.021094 -0.000086 -0.145125 0.024051 0.206486 -0.098199 -0.006156 -0.036289 -0.013208 0.084017 -0.080767 -0.102528 0.084219 -0.123062 -0.054451 0.077063 0.058774 -0.092553 -0.009026 -0.045765 0.088489 0.030953 -0.216508 -0.003000 0.036828 0.074034 -0.002750 -0.087474 0.176400 0.008350 0.098990 -0.062310 0.088217 -0.160911 0.020166 -0.145948 -0.183966 0.074398 0.247446 0.130797 0.022147 -0.092285 0.068733 0.035992 -0.160493 -0.004866 0.157001 0.200257 -0.126261 0.038434 0.062264 -0.006396 0.199455 -0.063607 -0.031269 0.093982 -0.201023 -0.054567 0.134872 0.035716 0.046999 -0.066431 -0.013314 -0.039895 -0.159640 0.037458 -0.072602 -0.201030 -0.045090 -0.108214 -0.003671 -0.062313 0.069194 0.065646 -0.119811 0.192481 0.080080 -0.093693 0.074874 0.052417 0.112825 0.020409 0.068782 -0.133113 -0.097996 -0.053029 0.100327 -0.014341 -0.153478 0.116206 0.026777 -0.054137 0.027627 -0.110764 0.030316 0.052393 0.117040 -0.081098
food -0.053817 0.051131 -0.014135 -0.010348 -0.127564 0.025044 0.181963 -0.124700 0.009936 -0.007606 -0.021242 0.074641 -0.085006 -0.122780 0.111553 -0.109808 -0.059940 0.051287 0.052456 -0.109313 -0.039791 -0.037207 0.049355 0.007306 -0.208688 0.001629 0.074634 0.085721 0.023341 -0.084762 0.206126 0.013607 0.111897 -0.036892 0.059188 -0.142798 0.003553 -0.127050 -0.157760 0.087403 0.255579 0.111343 -0.011228 -0.098790 0.080399 0.021141 -0.157986 -0.005498 0.164746 0.184900 -0.131515 0.034874 0.068082 -0.026971 0.226901 -0.028324 -0.005972 0.085908 -0.188197 -0.030808 0.106906 0.001943 0.061026 -0.067413 -0.015621 -0.012513 -0.150763 0.003646 -0.074259 -0.240956 -0.050912 -0.101750 -0.007668 -0.074061 0.073927 0.032091 -0.116173 0.235443 0.070604 -0.093295 0.091547 0.038614 0.125685 0.029058 0.080792 -0.131448 -0.088654 -0.062580 0.098582 -0.021477 -0.155095 0.137206 0.014882 -0.017632 0.042148 -0.079609 0.030314 0.045113 0.095914 -0.071918
place -0.074530 0.071721 -0.048684 0.004009 -0.146688 0.009019 0.191708 -0.129527 -0.015812 -0.044111 -0.009041 0.064677 -0.082530 -0.136473 0.076994 -0.102144 -0.057683 0.058419 0.081036 -0.109789 -0.008331 -0.026994 0.055743 0.031431 -0.182793 -0.032180 0.047789 0.053666 0.007952 -0.115648 0.196699 0.023540 0.114181 -0.040278 0.083254 -0.145875 0.023392 -0.123638 -0.155879 0.067408 0.235380 0.116070 0.011009 -0.067891 0.092971 0.032419 -0.163882 0.009940 0.136240 0.205724 -0.139515 0.037273 0.071829 -0.041271 0.215254 -0.039998 -0.014908 0.097179 -0.223421 -0.026417 0.108335 0.004460 0.076423 -0.064732 0.019276 -0.022204 -0.132925 0.025209 -0.083230 -0.227980 -0.033534 -0.077358 0.007513 -0.070971 0.056807 0.050957 -0.133632 0.213774 0.089164 -0.113445 0.074114 0.032636 0.132098 0.033198 0.086138 -0.108824 -0.116636 -0.056042 0.093092 -0.014365 -0.180870 0.112241 0.029461 -0.046243 0.025354 -0.081533 0.035604 0.052660 0.104224 -0.059989
get -0.056582 0.063744 -0.025029 -0.011459 -0.130994 0.013082 0.182385 -0.132664 -0.006466 -0.038822 0.014049 0.088991 -0.073480 -0.124253 0.097990 -0.096384 -0.047138 0.074455 0.086488 -0.100197 -0.025588 -0.048041 0.077644 0.016193 -0.197445 -0.001870 0.069171 0.070382 -0.001052 -0.099666 0.193625 0.020585 0.113641 -0.063661 0.071080 -0.151791 0.044781 -0.133631 -0.178170 0.075128 0.235640 0.118570 -0.004507 -0.073879 0.073937 0.049923 -0.160199 -0.010273 0.164072 0.188084 -0.141635 0.038006 0.073852 -0.026675 0.223721 -0.050281 -0.037583 0.090231 -0.198975 -0.039591 0.122960 0.029464 0.057116 -0.046178 0.022801 -0.035650 -0.153120 0.019960 -0.079644 -0.204125 -0.038228 -0.090762 0.010482 -0.073346 0.058576 0.039609 -0.122806 0.210702 0.092741 -0.102366 0.064575 0.036763 0.117128 0.026666 0.075031 -0.116036 -0.111325 -0.042537 0.115929 0.001517 -0.178392 0.110877 0.020967 -0.047326 0.023353 -0.111202 0.021840 0.043598 0.102353 -0.076742
make -0.052150 0.065625 -0.040890 0.008029 -0.138785 0.011671 0.208053 -0.129683 0.000214 -0.044795 0.004025 0.069507 -0.086886 -0.132321 0.090821 -0.099402 -0.067461 0.073579 0.083369 -0.090885 -0.012953 -0.043018 0.069423 0.038123 -0.188540 -0.007329 0.060617 0.080875 0.022497 -0.090535 0.175800 -0.003034 0.106934 -0.037832 0.062151 -0.153304 0.033601 -0.128000 -0.171060 0.080314 0.246788 0.129620 0.012885 -0.082851 0.070655 0.027968 -0.149156 -0.002531 0.152978 0.178467 -0.118634 0.059302 0.072913 -0.017107 0.217376 -0.030216 -0.007646 0.112878 -0.218565 -0.046389 0.102746 0.017837 0.047252 -0.050459 0.008842 -0.023374 -0.161982 0.039725 -0.093694 -0.217836 -0.030432 -0.080248 0.005282 -0.059402 0.068805 0.065110 -0.132136 0.226060 0.074911 -0.108055 0.083032 0.030856 0.113511 0.018638 0.083046 -0.117485 -0.086330 -0.041050 0.119478 -0.014858 -0.182239 0.132377 0.005424 -0.036884 0.024147 -0.087344 0.009478 0.032546 0.103965 -0.058788
service -0.065290 0.076074 -0.052580 0.017565 -0.129495 0.002024 0.192539 -0.138855 -0.031515 -0.046405 0.021312 0.108782 -0.073184 -0.106365 0.115863 -0.103789 -0.062703 0.081954 0.046615 -0.102534 -0.015686 -0.057685 0.044678 -0.003385 -0.194422 0.003984 0.070814 0.085447 -0.000020 -0.101470 0.162042 0.032134 0.109999 -0.067336 0.074260 -0.182389 0.018754 -0.153176 -0.170053 0.056617 0.266656 0.105543 0.019554 -0.059124 0.083245 0.030885 -0.144515 -0.019621 0.172400 0.196974 -0.129040 0.060726 0.036334 -0.007511 0.216443 -0.020719 -0.000240 0.091842 -0.194497 -0.053823 0.116380 -0.003437 0.066878 -0.061452 -0.009642 -0.032015 -0.155114 0.020770 -0.093593 -0.200040 -0.066506 -0.094402 -0.009726 -0.047906 0.065915 0.038010 -0.125250 0.211657 0.083600 -0.083351 0.061044 0.056725 0.096509 0.027032 0.077127 -0.137566 -0.088804 -0.035040 0.096488 -0.015500 -0.150950 0.149373 0.035257 -0.017464 0.022956 -0.083294 0.009239 0.019768 0.129074 -0.060130
well -0.081778 0.072864 -0.033189 0.016749 -0.139908 -0.009519 0.209369 -0.116958 -0.013934 -0.039547 0.008223 0.089969 -0.079207 -0.128608 0.089498 -0.115523 -0.059210 0.082754 0.047612 -0.107236 -0.030670 -0.041415 0.085003 0.001881 -0.201874 -0.013079 0.030010 0.067155 -0.004885 -0.096483 0.192169 0.008581 0.092282 -0.027850 0.083368 -0.172440 0.032415 -0.144163 -0.178061 0.056206 0.246530 0.115602 0.015890 -0.060194 0.084044 0.049322 -0.155041 0.003827 0.163471 0.180674 -0.133055 0.062663 0.074908 -0.022802 0.184136 -0.059673 -0.012396 0.106760 -0.200785 -0.045216 0.106129 0.002794 0.045393 -0.025592 -0.004442 -0.044597 -0.142792 0.007023 -0.100047 -0.215120 -0.049437 -0.104323 0.001183 -0.058973 0.052503 0.056717 -0.106932 0.194690 0.103519 -0.083847 0.058768 0.026529 0.128074 0.013783 0.062454 -0.137870 -0.085705 -0.021793 0.127444 0.010693 -0.179612 0.134650 0.007731 -0.052701 0.038320 -0.102818 0.041613 0.022339 0.106831 -0.081232
really -0.054549 0.079195 -0.045469 -0.023276 -0.121839 0.000551 0.210522 -0.101928 -0.015835 -0.026245 0.008974 0.062981 -0.090518 -0.105822 0.113932 -0.092356 -0.080388 0.087311 0.066327 -0.096227 -0.041147 -0.054417 0.046900 0.009724 -0.195020 -0.015219 0.033642 0.063970 0.038297 -0.119631 0.181832 0.017454 0.105052 -0.049391 0.060801 -0.174599 0.048417 -0.124623 -0.175713 0.081111 0.245618 0.134901 0.010901 -0.088488 0.083333 0.041505 -0.132181 0.004059 0.131321 0.206663 -0.147394 0.069899 0.056057 -0.021697 0.216302 -0.027008 -0.031038 0.096235 -0.193746 -0.024606 0.137304 0.014821 0.072311 -0.061913 0.021301 -0.015041 -0.167829 0.045959 -0.103944 -0.224506 -0.053141 -0.113517 -0.008049 -0.065389 0.063865 0.027983 -0.132932 0.191840 0.102274 -0.091558 0.093707 0.025936 0.094245 0.022403 0.069950 -0.101836 -0.103712 -0.039241 0.090245 0.018129 -0.145770 0.146189 -0.000401 -0.038292 0.013203 -0.079814 0.024023 0.034411 0.119399 -0.060388
use -0.069624 0.065209 -0.030412 -0.006902 -0.138981 0.028935 0.193730 -0.120432 -0.025019 -0.033015 -0.009741 0.078940 -0.060568 -0.120647 0.119145 -0.129028 -0.075436 0.047941 0.092145 -0.087046 -0.017309 -0.040266 0.072494 0.032754 -0.209360 -0.027204 0.058944 0.058482 0.027297 -0.087281 0.173955 -0.002242 0.113178 -0.060200 0.057634 -0.174848 0.043538 -0.150502 -0.168351 0.060752 0.241660 0.123482 -0.002085 -0.065100 0.068126 0.040032 -0.130671 -0.004586 0.150511 0.174742 -0.123542 0.073768 0.060070 -0.013476 0.198329 -0.049749 -0.024686 0.103408 -0.191143 -0.015821 0.113342 0.022704 0.061050 -0.029858 0.004492 -0.013534 -0.154263 0.040044 -0.079187 -0.234657 -0.020506 -0.095260 0.007632 -0.075035 0.039724 0.052444 -0.128458 0.240900 0.094221 -0.117310 0.059613 0.018372 0.119458 0.009486 0.071876 -0.112753 -0.119733 -0.018660 0.116252 -0.008338 -0.153024 0.129152 0.031496 -0.060877 0.019013 -0.077940 0.021881 0.040236 0.131569 -0.076621
would -0.073284 0.068273 -0.034282 -0.004020 -0.122014 0.005771 0.210426 -0.136017 -0.027743 -0.050967 0.002645 0.086770 -0.077403 -0.105993 0.100217 -0.126815 -0.078112 0.078150 0.070353 -0.108424 -0.005889 -0.041719 0.048535 0.019736 -0.214271 -0.031657 0.060308 0.064923 0.006255 -0.106478 0.169464 -0.004968 0.082876 -0.033117 0.064884 -0.132516 0.034317 -0.125447 -0.184867 0.049852 0.253913 0.130784 0.013472 -0.067085 0.058248 0.028929 -0.155089 0.002166 0.156477 0.202647 -0.141084 0.037193 0.042849 -0.024870 0.220447 -0.054977 -0.007538 0.098146 -0.208829 -0.036872 0.125771 0.021827 0.050508 -0.058194 0.008780 -0.043384 -0.149724 0.042287 -0.101383 -0.208031 -0.055914 -0.088208 -0.004405 -0.083446 0.045474 0.051330 -0.120325 0.201261 0.074111 -0.120767 0.060052 0.027219 0.120743 0.026873 0.073715 -0.099770 -0.112640 -0.042589 0.101739 -0.018967 -0.165330 0.121780 0.029896 -0.025482 0.039962 -0.112536 0.042840 0.039098 0.091956 -0.073691
love -0.076796 0.025843 -0.045226 -0.007192 -0.140236 -0.004602 0.175229 -0.092676 -0.027184 -0.048309 -0.014701 0.079556 -0.068467 -0.114603 0.097304 -0.112787 -0.050804 0.049526 0.049327 -0.097956 -0.046093 -0.042150 0.047648 0.016038 -0.223988 -0.036180 0.033117 0.090377 0.012666 -0.126557 0.194832 -0.015027 0.078680 -0.025762 0.067311 -0.156714 0.024941 -0.111620 -0.144835 0.086856 0.257606 0.123136 0.028840 -0.052114 0.087197 0.028430 -0.166335 0.001683 0.163257 0.200908 -0.123788 0.028788 0.052316 -0.020004 0.211201 -0.066099 -0.047041 0.121243 -0.217021 -0.055573 0.128518 0.034014 0.053401 -0.016517 0.016079 -0.034971 -0.124569 0.001612 -0.052687 -0.245194 -0.059654 -0.115904 -0.014394 -0.061135 0.043114 0.019828 -0.098524 0.199990 0.073116 -0.073003 0.085458 0.027512 0.103953 0.019035 0.082155 -0.133937 -0.093734 -0.065257 0.134627 0.007668 -0.184973 0.152811 0.021668 -0.048448 0.012794 -0.083039 0.031304 0.044361 0.106729 -0.043150
best -0.044277 0.031590 -0.022416 0.027450 -0.137094 0.000070 0.210801 -0.142859 0.018012 -0.056160 0.014275 0.105520 -0.076028 -0.113198 0.088425 -0.100402 -0.042532 0.062421 0.098715 -0.121649 -0.038730 -0.048117 0.072917 -0.006618 -0.201531 -0.038268 0.020469 0.061113 0.025507 -0.103660 0.160958 0.030852 0.067594 -0.057407 0.078428 -0.158337 0.035699 -0.106779 -0.193756 0.072102 0.233440 0.145229 0.031690 -0.107853 0.079891 0.043352 -0.173486 -0.009829 0.125866 0.206598 -0.130645 0.078913 0.049981 -0.015152 0.177475 -0.052743 -0.052517 0.097412 -0.176360 -0.023167 0.144692 -0.000135 0.084716 -0.073508 -0.013989 -0.052269 -0.124566 -0.006710 -0.102574 -0.248481 -0.028535 -0.089826 -0.008726 -0.067563 0.063185 0.029285 -0.089839 0.222846 0.103724 -0.102207 0.063528 0.047067 0.114588 0.009912 0.073201 -0.114280 -0.095511 -0.042943 0.083335 -0.009827 -0.155283 0.123085 0.041778 -0.056442 0.007319 -0.101776 0.009991 0.051423 0.102322 -0.087878
even -0.055769 0.051544 -0.046231 -0.018652 -0.147250 0.028448 0.206313 -0.135705 -0.026653 -0.043866 -0.007316 0.071082 -0.062753 -0.124908 0.096745 -0.117054 -0.068251 0.076236 0.056777 -0.107014 -0.019764 -0.053608 0.075332 0.003967 -0.215854 -0.021809 0.031304 0.087402 0.032382 -0.112153 0.164670 0.021838 0.109376 -0.065614 0.081054 -0.162252 0.022471 -0.148062 -0.168830 0.061162 0.245009 0.113240 -0.009187 -0.071151 0.100253 0.052108 -0.168332 0.011494 0.141863 0.178360 -0.140539 0.052724 0.060170 -0.027913 0.194925 -0.026879 -0.005116 0.088647 -0.192300 -0.048134 0.108441 0.027820 0.050586 -0.060793 0.018666 -0.036682 -0.169030 0.033449 -0.065203 -0.202566 -0.036801 -0.079817 0.002881 -0.076359 0.048099 0.070154 -0.134969 0.218045 0.075492 -0.119429 0.082920 0.042721 0.119292 0.040222 0.056908 -0.136337 -0.097805 -0.046359 0.105195 0.007292 -0.153447 0.142214 0.015967 -0.025751 0.038279 -0.076740 0.044114 0.046808 0.095052 -0.051823
ever -0.056184 0.054499 -0.019176 -0.012160 -0.151797 -0.016042 0.201350 -0.112630 -0.019140 -0.034471 -0.014290 0.075178 -0.057765 -0.137414 0.071699 -0.111666 -0.060652 0.078441 0.085026 -0.122005 -0.000770 -0.017629 0.077382 0.008866 -0.177497 -0.014045 0.044881 0.074085 0.019843 -0.113132 0.183984 -0.004614 0.096411 -0.064097 0.082138 -0.158452 0.024376 -0.156844 -0.173538 0.059570 0.259625 0.112520 0.017879 -0.063555 0.071663 0.019775 -0.149869 0.003943 0.135128 0.191472 -0.112539 0.048871 0.047672 -0.041057 0.191025 -0.022777 -0.009633 0.093082 -0.218739 -0.028875 0.113601 -0.001872 0.040124 -0.032671 -0.005354 -0.041012 -0.172901 0.048330 -0.101843 -0.205990 -0.050575 -0.110120 0.009942 -0.090468 0.035289 0.035644 -0.118299 0.230790 0.087914 -0.117549 0.052933 0.021555 0.143345 -0.000000 0.050657 -0.105600 -0.080695 -0.016448 0.122103 -0.006527 -0.160368 0.138119 0.024580 -0.039643 0.039902 -0.118708 0.028537 0.057663 0.124157 -0.044492
see -0.036251 0.055968 -0.043716 0.013347 -0.136526 0.020000 0.197268 -0.132216 -0.023457 -0.043004 0.012164 0.059581 -0.062691 -0.144123 0.113962 -0.081384 -0.036393 0.081105 0.070672 -0.082921 -0.013737 -0.015725 0.085109 0.004851 -0.189257 -0.016515 0.060273 0.038809 0.009864 -0.100090 0.164452 0.013475 0.081464 -0.028496 0.064546 -0.147409 0.020813 -0.153573 -0.156251 0.077860 0.229186 0.127484 0.014640 -0.061018 0.092790 0.030570 -0.144592 0.018377 0.173543 0.201404 -0.129883 0.073119 0.070564 -0.025713 0.229817 -0.042008 -0.032107 0.074683 -0.221751 -0.035929 0.111678 0.013360 0.049152 -0.030241 -0.005117 -0.005285 -0.164655 0.014095 -0.101578 -0.199569 -0.047697 -0.101725 -0.027602 -0.072123 0.067312 0.053753 -0.138406 0.230016 0.102497 -0.088486 0.064940 0.031672 0.141748 0.026016 0.075485 -0.117484 -0.080760 -0.013354 0.126381 0.000323 -0.164102 0.139133 0.011789 -0.016099 0.018389 -0.101716 0.034963 0.048723 0.111923 -0.092122
also -0.037206 0.063218 -0.012089 -0.023258 -0.123605 -0.004747 0.214157 -0.113885 -0.013618 -0.017176 0.003596 0.080723 -0.067145 -0.134056 0.070655 -0.103660 -0.087247 0.077273 0.069589 -0.080502 -0.032992 -0.021179 0.064631 0.018505 -0.173285 0.006430 0.045684 0.062200 0.020721 -0.107137 0.201826 0.023867 0.079856 -0.027328 0.076565 -0.154756 0.046633 -0.121484 -0.188198 0.092165 0.249324 0.134753 -0.008412 -0.092598 0.090094 0.016061 -0.135150 0.007528 0.128363 0.177913 -0.119565 0.075041 0.048109 0.000791 0.201904 -0.046530 -0.037517 0.096440 -0.228981 -0.044943 0.121661 0.024694 0.043525 -0.072739 0.000283 -0.024890 -0.151363 0.031583 -0.091552 -0.233335 -0.018350 -0.097385 0.003756 -0.069622 0.058089 0.052809 -0.100598 0.212554 0.083658 -0.115861 0.078280 0.048495 0.096032 0.038882 0.059369 -0.136181 -0.113721 -0.054949 0.122217 0.016361 -0.186104 0.108801 0.029115 -0.041513 0.054085 -0.107272 0.003360 0.032657 0.107187 -0.086402
back -0.076312 0.051927 -0.059638 0.002142 -0.146583 0.006465 0.216900 -0.111947 -0.000476 -0.001305 -0.006805 0.111574 -0.057153 -0.104171 0.092439 -0.100334 -0.038221 0.055531 0.087524 -0.118519 -0.014885 -0.059540 0.058034 0.039045 -0.185608 -0.027881 0.067585 0.064707 0.020864 -0.125767 0.185678 0.035820 0.111636 -0.046712 0.103588 -0.151323 0.009988 -0.132775 -0.177545 0.061831 0.241047 0.131129 0.018703 -0.062187 0.087908 0.029987 -0.138075 -0.013912 0.161279 0.215333 -0.099408 0.076141 0.064351 0.005975 0.190228 -0.027002 0.001742 0.074438 -0.230060 -0.033088 0.120449 -0.001585 0.060144 -0.043490 -0.007510 -0.044925 -0.129241 0.008608 -0.058152 -0.222052 -0.024525 -0.110207 -0.000385 -0.077442 0.044654 0.035904 -0.119284 0.232898 0.093089 -0.100112 0.063166 0.015044 0.112479 0.020900 0.047865 -0.105937 -0.109944 -0.033526 0.084542 -0.020804 -0.170490 0.151154 0.039615 -0.017509 0.016392 -0.078576 0.044857 0.051586 0.086304 -0.092214
come -0.077153 0.063146 -0.010478 0.012518 -0.105720 0.012151 0.201504 -0.133975 0.001887 -0.023997 0.015929 0.106650 -0.076251 -0.102814 0.115281 -0.122415 -0.057651 0.080222 0.058985 -0.100834 -0.032514 -0.050156 0.068697 0.001687 -0.199795 -0.016510 0.070896 0.061267 0.025327 -0.102875 0.168145 0.009250 0.108655 -0.049258 0.072435 -0.172678 0.016650 -0.146941 -0.161473 0.070286 0.258588 0.122705 -0.012243 -0.098552 0.077225 0.048151 -0.157383 0.005211 0.140141 0.206600 -0.105308 0.029476 0.074577 0.003814 0.218109 -0.064311 -0.040880 0.099218 -0.190211 -0.025186 0.133974 0.022344 0.063960 -0.044971 0.010668 -0.004583 -0.164210 0.028880 -0.058696 -0.214362 -0.060326 -0.077400 0.008516 -0.049410 0.039124 0.041353 -0.121157 0.189363 0.085251 -0.091551 0.080857 0.014753 0.137685 0.042362 0.094883 -0.129557 -0.107608 -0.022394 0.128954 -0.026957 -0.166281 0.128252 0.015879 -0.029998 0.020558 -0.101220 0.023302 0.015844 0.092930 -0.065665
think -0.044364 0.042304 -0.039745 0.013532 -0.114764 0.005321 0.210615 -0.123209 -0.014012 -0.009471 -0.023657 0.085180 -0.094171 -0.144786 0.108563 -0.109473 -0.040667 0.084589 0.049778 -0.115151 -0.019044 -0.046722 0.091500 0.024948 -0.191836 -0.033051 0.051951 0.073748 0.023083 -0.126452 0.189759 0.017071 0.119324 -0.039724 0.099902 -0.151652 0.028961 -0.126464 -0.151934 0.066629 0.227629 0.100483 -0.009511 -0.054028 0.058361 0.047322 -0.164511 -0.016745 0.130805 0.199861 -0.144050 0.068478 0.062170 -0.023425 0.212923 -0.032408 -0.027530 0.096469 -0.226110 -0.048710 0.138036 0.040103 0.067844 -0.023633 0.022949 -0.048965 -0.146915 0.007913 -0.096580 -0.230266 -0.053269 -0.080553 -0.006664 -0.083209 0.071481 0.062270 -0.110466 0.199248 0.078583 -0.082068 0.084907 0.014004 0.106116 0.005610 0.064841 -0.113967 -0.118067 -0.017926 0.132126 -0.010290 -0.148412 0.104975 0.032615 -0.032755 0.018799 -0.094366 0.033481 0.056017 0.124485 -0.049294
quality -0.059703 0.071245 -0.003299 -0.014418 -0.120183 0.016246 0.185298 -0.106851 -0.019264 -0.055723 0.020526 0.070400 -0.090603 -0.126045 0.104018 -0.092833 -0.071813 0.039524 0.094237 -0.099385 -0.025326 -0.062383 0.065595 0.047599 -0.181380 -0.019812 0.058053 0.045300 0.010612 -0.092972 0.153695 -0.014365 0.127288 -0.058874 0.070794 -0.152531 0.012227 -0.155584 -0.199369 0.066003 0.253685 0.133219 0.031683 -0.102448 0.072906 0.021943 -0.130510 -0.008949 0.141758 0.211151 -0.120848 0.034776 0.029452 0.000723 0.220076 -0.045011 -0.033541 0.111111 -0.209211 -0.058738 0.118764 0.030269 0.067351 -0.037083 0.027276 -0.039022 -0.125922 0.022975 -0.080350 -0.205990 -0.058526 -0.093090 -0.030008 -0.057401 0.029742 0.027070 -0.088379 0.229941 0.069770 -0.108606 0.069186 0.050760 0.103100 0.032423 0.060105 -0.146072 -0.124861 -0.050370 0.106601 0.009692 -0.174291 0.137000 0.020222 -0.052758 0.020833 -0.109490 0.043412 0.037939 0.108586 -0.088377
look -0.076531 0.080979 -0.029011 0.013828 -0.151638 0.031282 0.188956 -0.120799 -0.015687 -0.008662 -0.001272 0.084574 -0.063508 -0.120057 0.108560 -0.106973 -0.067644 0.063393 0.085244 -0.108596 -0.040141 -0.021497 0.065423 0.042311 -0.214101 -0.000559 0.075238 0.044601 0.002149 -0.121240 0.168267 -0.012623 0.112159 -0.062480 0.055669 -0.152264 0.047006 -0.124662 -0.179795 0.051252 0.231221 0.138270 0.025050 -0.070975 0.058923 0.022956 -0.128874 0.008494 0.156629 0.185295 -0.143874 0.056654 0.074162 -0.026919 0.209553 -0.026828 -0.016121 0.076729 -0.195718 -0.048731 0.138096 0.011957 0.080542 -0.055346 0.003698 -0.005888 -0.142314 0.013612 -0.085100 -0.201685 -0.031434 -0.092714 -0.016684 -0.046725 0.076859 0.060443 -0.126879 0.189609 0.104097 -0.103762 0.069295 0.050979 0.133839 0.008496 0.095302 -0.141646 -0.120054 -0.036220 0.126024 -0.002355 -0.153034 0.144111 -0.008857 -0.043206 0.028239 -0.104097 0.031584 0.017037 0.120887 -0.059758
recommend -0.038254 0.048471 -0.054536 0.030121 -0.101884 0.006574 0.187435 -0.102796 0.000702 -0.017231 0.016749 0.059763 -0.097273 -0.086331 0.113940 -0.141407 -0.083873 0.065705 0.100742 -0.115254 -0.055189 -0.033911 0.039072 0.011340 -0.181659 -0.028054 0.018526 0.037913 0.036586 -0.112531 0.165587 0.031339 0.102227 -0.050436 0.059238 -0.177635 -0.002502 -0.132640 -0.137763 0.033272 0.229677 0.133543 0.006925 -0.104341 0.048164 0.007336 -0.169094 0.003061 0.139481 0.217839 -0.157783 0.015047 0.079325 -0.029167 0.215739 -0.072820 -0.052120 0.132055 -0.195783 -0.065222 0.140519 0.019156 0.039228 -0.055232 -0.001674 -0.051931 -0.127133 0.015946 -0.070251 -0.238880 -0.058600 -0.061651 -0.008624 -0.068945 0.031938 0.076762 -0.120367 0.210254 0.116648 -0.108373 0.047957 0.029485 0.145382 0.050479 0.061205 -0.115030 -0.102253 -0.040284 0.117062 -0.030186 -0.147720 0.117232 0.020156 -0.067639 0.037917 -0.065990 0.006696 0.008893 0.125226 -0.100146
say -0.076051 0.039597 -0.035935 0.002395 -0.136887 -0.007768 0.183947 -0.126700 -0.017376 -0.053708 -0.002929 0.101893 -0.093075 -0.140423 0.098658 -0.131618 -0.071933 0.065361 0.068737 -0.108059 -0.029473 -0.058968 0.072937 0.030408 -0.202937 -0.024414 0.073398 0.078831 0.016500 -0.113660 0.202955 0.020338 0.121180 -0.035277 0.058967 -0.138711 0.006547 -0.123444 -0.170649 0.054160 0.257523 0.133203 0.016916 -0.063429 0.099259 0.047701 -0.125389 -0.016984 0.130631 0.199111 -0.121223 0.037311 0.042898 -0.026115 0.181172 -0.030468 -0.031705 0.111057 -0.206453 -0.022124 0.113265 0.013263 0.038717 -0.042238 -0.007312 -0.007514 -0.125050 0.013867 -0.097479 -0.236473 -0.050011 -0.074582 -0.020134 -0.079273 0.068584 0.039498 -0.140914 0.226791 0.099319 -0.080516 0.063841 0.014919 0.131492 0.031004 0.091297 -0.113548 -0.075373 -0.058944 0.129492 0.009105 -0.144927 0.104334 0.017100 -0.066784 0.030934 -0.092371 0.007328 0.043059 0.113824 -0.062744
character -0.045229 0.037833 -0.014707 -0.013367 -0.118534 -0.001666 0.199668 -0.136280 0.012582 -0.007389 0.020565 0.080655 -0.088886 -0.146553 0.095083 -0.097811 -0.053772 0.042095 0.082079 -0.109592 -0.036122 -0.035209 0.067285 0.018807 -0.186143 -0.003423 0.035156 0.051040 0.033535 -0.083361 0.206122 0.006323 0.101818 -0.065004 0.082293 -0.155750 0.008603 -0.121955 -0.166504 0.042495 0.216205 0.146234 0.024914 -0.101719 0.058461 0.045812 -0.126470 0.025102 0.167466 0.211176 -0.128217 0.050784 0.043385 -0.033122 0.214903 -0.066229 -0.014292 0.103196 -0.230495 -0.050525 0.142553 0.007800 0.041745 -0.028238 0.020048 -0.026330 -0.162480 0.025997 -0.077174 -0.211924 -0.064688 -0.076914 -0.004286 -0.049056 0.053161 0.029339 -0.100876 0.217660 0.091541 -0.083390 0.087398 0.022565 0.104399 0.026299 0.068047 -0.147809 -0.094650 -0.014885 0.126668 0.010456 -0.161964 0.125941 0.020916 -0.016842 0.049616 -0.119945 0.042066 0.044229 0.123331 -0.065445
product -0.088500 0.028148 0.004174 -0.015770 -0.138159 0.038282 0.169042 -0.151472 -0.001351 -0.044241 0.016387 0.069584 -0.040912 -0.081126 0.096865 -0.110184 -0.022560 0.101972 0.097974 -0.092988 -0.043979 -0.048505 0.057945 -0.014244 -0.218709 -0.009255 0.058503 0.042587 0.005211 -0.128082 0.194375 0.022066 0.086987 -0.022398 0.107066 -0.127738 0.038152 -0.095482 -0.186492 0.060964 0.207332 0.153434 -0.028132 -0.041160 0.068301 0.075123 -0.158085 -0.018434 0.157522 0.222269 -0.157927 0.082465 0.072192 -0.003639 0.215241 -0.059220 -0.013625 0.057626 -0.172691 -0.055031 0.125370 0.051983 0.095476 -0.048227 -0.024668 -0.002278 -0.120013 0.029110 -0.090523 -0.219269 -0.034374 -0.094226 -0.034332 -0.054268 0.013826 0.069787 -0.076166 0.207281 0.059373 -0.104633 0.069346 0.058956 0.117109 -0.001795 0.045840 -0.133666 -0.086817 -0.045582 0.142210 -0.028775 -0.187763 0.165870 0.021429 -0.038931 0.053046 -0.058095 0.051603 0.027979 0.129335 -0.046493
sound -0.074319 0.034416 -0.019586 0.020620 -0.140781 0.004838 0.191003 -0.112845 -0.007122 -0.030316 -0.017030 0.088244 -0.066649 -0.137166 0.087545 -0.094486 -0.062295 0.064633 0.049643 -0.100069 -0.000843 -0.026158 0.080491 0.034900 -0.174513 -0.019538 0.071358 0.085508 0.042021 -0.131321 0.191336 0.004917 0.107946 -0.042341 0.091832 -0.157727 0.043104 -0.159544 -0.198904 0.096134 0.268114 0.130859 0.006118 -0.096463 0.080915 0.022308 -0.137020 0.031971 0.126189 0.194567 -0.137704 0.041703 0.031282 -0.031256 0.225259 -0.047572 -0.022767 0.098443 -0.195437 -0.016889 0.137632 0.013448 0.046750 -0.030794 0.026466 -0.001547 -0.126496 -0.002754 -0.083950 -0.208944 -0.051605 -0.083184 -0.030087 -0.056585 0.075976 0.049499 -0.094739 0.223124 0.113712 -0.117946 0.070291 0.048144 0.130326 0.001808 0.051571 -0.112306 -0.075064 -0.057632 0.087264 -0.006142 -0.153053 0.118612 0.009503 -0.032569 0.054862 -0.105586 -0.004169 0.052612 0.080529 -0.071690
headset -0.051656 0.065380 -0.027776 0.016165 -0.111679 -0.014440 0.212463 -0.097059 -0.028717 -0.020400 -0.009555 0.103111 -0.069929 -0.093533 0.074813 -0.121313 -0.045282 0.054792 0.083034 -0.116994 0.005434 -0.023324 0.049193 -0.002470 -0.196126 -0.032541 0.032877 0.071642 0.008676 -0.082831 0.186755 -0.002287 0.096472 -0.067819 0.084560 -0.173338 0.025179 -0.130479 -0.183583 0.053784 0.242789 0.128984 0.022279 -0.090356 0.059892 0.054147 -0.162532 0.004081 0.174065 0.197683 -0.119299 0.062756 0.062131 -0.025732 0.218197 -0.044889 -0.017569 0.112218 -0.190845 -0.047389 0.110807 0.018528 0.039389 -0.057270 -0.007003 -0.023615 -0.169249 0.014142 -0.058731 -0.210694 -0.038827 -0.067115 0.018845 -0.091578 0.057160 0.026192 -0.122024 0.223078 0.109447 -0.106540 0.048639 0.048087 0.096811 0.046703 0.077443 -0.144050 -0.080202 -0.038485 0.117868 -0.013502 -0.184922 0.129802 0.019657 -0.041621 0.047873 -0.106252 0.020952 0.009316 0.082270 -0.080091
nice -0.033139 0.046877 -0.056041 0.009363 -0.097578 -0.015466 0.203429 -0.115082 -0.015346 -0.028115 0.013233 0.074568 -0.096573 -0.129269 0.101041 -0.121155 -0.056942 0.048245 0.044519 -0.077598 -0.005494 -0.058068 0.078012 0.025027 -0.217926 -0.026423 0.067143 0.073704 0.029347 -0.120407 0.174912 0.015975 0.106304 -0.037626 0.102252 -0.144611 0.029330 -0.111270 -0.187320 0.076964 0.235924 0.094773 0.012565 -0.087351 0.078511 0.045651 -0.132126 0.030935 0.173775 0.199689 -0.122384 0.057907 0.073867 -0.032254 0.230001 -0.020613 -0.022701 0.079080 -0.197572 -0.048826 0.134513 0.039148 0.039197 -0.073722 0.026106 -0.027864 -0.151745 0.013508 -0.090940 -0.189211 -0.030471 -0.108727 0.003999 -0.037845 0.065055 0.026569 -0.111147 0.223662 0.109164 -0.096253 0.100005 0.061200 0.144560 0.038449 0.087776 -0.130549 -0.092091 -0.043608 0.125739 -0.015713 -0.167060 0.103062 -0.003114 -0.018739 0.007979 -0.080287 0.037223 0.053036 0.075919 -0.093947
excellent -0.100301 0.080152 -0.066255 0.003594 -0.134942 0.033430 0.232671 -0.150611 0.022636 -0.050441 0.003185 0.089609 -0.072332 -0.117775 0.075289 -0.094307 -0.082648 0.076331 0.061564 -0.104178 -0.030670 0.002445 0.051323 0.024108 -0.203516 -0.005766 0.037593 0.069287 0.020169 -0.092687 0.150233 0.009197 0.066815 -0.045492 0.083320 -0.120166 0.012039 -0.143978 -0.136535 0.029247 0.250353 0.085052 0.032125 -0.086895 0.046591 0.012924 -0.138247 -0.025409 0.150524 0.184561 -0.158820 0.026446 0.092286 -0.030174 0.193649 -0.040251 -0.022498 0.132179 -0.236991 -0.028174 0.127459 0.031656 0.048833 -0.048298 0.041307 -0.002209 -0.116632 0.057867 -0.084716 -0.254437 -0.059070 -0.065027 0.014960 -0.073738 0.066579 0.049735 -0.131136 0.178705 0.090583 -0.102815 0.087968 0.001090 0.133556 0.034984 0.056276 -0.126832 -0.116171 -0.003981 0.085055 0.017645 -0.197662 0.091930 0.023934 -0.062536 -0.006328 -0.107363 0.017028 0.063484 0.072955 -0.106578
could -0.072992 0.068107 -0.058657 -0.019919 -0.146161 0.001711 0.183329 -0.143085 -0.000373 -0.027336 0.017685 0.097066 -0.070500 -0.134946 0.074073 -0.129940 -0.072917 0.043960 0.060267 -0.087740 -0.004832 -0.018953 0.090290 0.011120 -0.189960 -0.037249 0.050313 0.083412 0.023505 -0.087013 0.203915 -0.013611 0.102941 -0.036715 0.053149 -0.145216 0.047266 -0.149078 -0.174028 0.055876 0.237949 0.121946 0.033013 -0.072434 0.091756 0.062857 -0.122029 -0.014399 0.147641 0.197492 -0.143678 0.026189 0.051638 -0.049211 0.196965 -0.039913 -0.035157 0.095593 -0.189389 -0.021499 0.119414 -0.011136 0.081823 -0.059488 -0.019168 -0.030427 -0.156835 0.013354 -0.089769 -0.201443 -0.022979 -0.111167 -0.027838 -0.061375 0.038521 0.067414 -0.122951 0.195051 0.111870 -0.081210 0.056144 0.014997 0.095166 0.042247 0.057076 -0.149010 -0.109064 -0.015271 0.117477 0.001472 -0.187371 0.153169 -0.001307 -0.042664 0.012266 -0.120003 0.038950 0.020557 0.130589 -0.051915
price -0.062447 0.061590 -0.051903 -0.009563 -0.098878 0.000517 0.209489 -0.124974 -0.006779 -0.047213 0.037435 0.100660 -0.083660 -0.083943 0.061166 -0.113321 -0.025508 0.041591 0.082896 -0.067291 -0.016099 -0.046564 0.102578 0.009409 -0.206069 -0.043698 0.050352 0.050116 0.014920 -0.085553 0.163249 0.013746 0.105308 -0.030981 0.103084 -0.150208 0.060055 -0.102692 -0.191244 0.074475 0.232889 0.112662 -0.019371 -0.055718 0.082644 0.070331 -0.149610 0.014087 0.114505 0.201387 -0.105515 0.054209 0.077575 0.000796 0.237388 -0.081383 -0.007657 0.119534 -0.213506 -0.070949 0.099389 0.026792 0.072663 -0.021486 0.028775 -0.041445 -0.177819 0.005191 -0.081465 -0.222935 -0.038612 -0.094302 0.033131 -0.084137 0.070872 0.054925 -0.118615 0.236267 0.075482 -0.116958 0.064363 0.058912 0.093607 0.017428 0.090494 -0.086515 -0.127631 -0.071247 0.141930 -0.038199 -0.126516 0.103528 0.006631 -0.063411 0.027671 -0.060302 0.018778 0.067881 0.124743 -0.058590
thing -0.081936 0.056464 -0.057059 0.021874 -0.114591 0.030012 0.203233 -0.108390 -0.016128 -0.007277 0.025231 0.060410 -0.067777 -0.092236 0.098922 -0.122603 -0.079966 0.042256 0.063562 -0.099947 -0.007250 -0.043041 0.088075 0.049280 -0.202329 -0.033251 0.070739 0.039470 -0.005453 -0.120379 0.186732 0.027290 0.107313 -0.017874 0.060345 -0.128468 0.037695 -0.140763 -0.189558 0.088900 0.222709 0.131443 0.037951 -0.060567 0.047927 0.032865 -0.131155 -0.002074 0.175993 0.188027 -0.130876 0.038665 0.063541 -0.002936 0.202281 -0.054516 -0.023304 0.097147 -0.217942 -0.023070 0.129042 0.013070 0.056284 -0.044188 -0.017057 -0.043018 -0.158685 0.009130 -0.058638 -0.237082 -0.057861 -0.076913 -0.001861 -0.037950 0.054947 0.045211 -0.141182 0.222378 0.105710 -0.127856 0.084061 0.034105 0.144120 0.017142 0.062836 -0.091289 -0.110590 -0.039073 0.116213 -0.009631 -0.164367 0.125621 -0.011158 -0.017545 0.036850 -0.108285 0.035646 0.043081 0.082474 -0.079759
never -0.081465 0.057916 -0.042140 -0.012977 -0.133278 0.034357 0.225595 -0.105610 0.002124 -0.004170 0.023785 0.064663 -0.049601 -0.117780 0.103324 -0.085193 -0.086901 0.071106 0.095604 -0.095414 -0.025667 -0.043683 0.090103 0.047070 -0.198629 0.001635 0.027236 0.040414 0.000427 -0.122414 0.180012 0.017102 0.112370 -0.052597 0.055360 -0.181103 0.035527 -0.107913 -0.145714 0.078997 0.234237 0.136348 0.017057 -0.051014 0.101583 0.062317 -0.126015 -0.014201 0.161136 0.194285 -0.125757 0.070630 0.066028 -0.039234 0.197655 -0.066351 0.005165 0.103895 -0.185421 -0.014240 0.141795 0.038399 0.084509 -0.050994 0.004377 -0.005942 -0.167638 0.021028 -0.087499 -0.223042 -0.041291 -0.097689 0.020662 -0.041889 0.057573 0.027129 -0.107915 0.207732 0.075703 -0.114625 0.046368 0.010634 0.110261 0.022836 0.080291 -0.145055 -0.099670 -0.034440 0.099301 -0.017884 -0.173054 0.154224 0.033250 -0.015892 0.036871 -0.112541 0.051881 0.061877 0.087364 -0.041728
watch -0.049881 0.033859 -0.023248 0.021616 -0.139608 -0.018610 0.176971 -0.142851 -0.032595 -0.017698 -0.023716 0.098654 -0.072286 -0.139407 0.104319 -0.091697 -0.049628 0.068379 0.087027 -0.107899 0.003208 -0.043710 0.085214 0.027009 -0.205085 -0.025192 0.037269 0.070250 0.039739 -0.115341 0.196563 -0.009913 0.086150 -0.055627 0.088971 -0.172809 0.047963 -0.139507 -0.187665 0.043003 0.260585 0.119792 -0.011848 -0.081844 0.084899 0.017960 -0.120158 0.026831 0.134063 0.162558 -0.116100 0.047775 0.055618 -0.011657 0.199946 -0.032686 -0.043098 0.108190 -0.210482 -0.042606 0.107492 -0.002203 0.054566 -0.072612 -0.010345 -0.005698 -0.128771 0.039810 -0.094688 -0.230406 -0.021430 -0.096322 -0.019048 -0.058339 0.073013 0.050641 -0.093143 0.226010 0.087118 -0.093319 0.082000 0.039281 0.121460 0.016404 0.090385 -0.110203 -0.093288 -0.054090 0.106561 -0.017203 -0.183076 0.128640 -0.010897 -0.017250 0.048261 -0.096921 0.009982 0.030961 0.115346 -0.071964
much -0.057028 0.068732 -0.023760 -0.017712 -0.145433 -0.002697 0.193613 -0.124454 -0.016538 -0.044977 -0.000759 0.104814 -0.081398 -0.141326 0.096181 -0.083413 -0.067367 0.051786 0.073340 -0.081478 -0.023392 -0.028770 0.049803 0.023959 -0.174367 -0.004132 0.058071 0.083094 0.004835 -0.106728 0.188848 0.005447 0.099949 -0.057099 0.090534 -0.175590 0.050787 -0.153478 -0.187875 0.041277 0.224237 0.115291 -0.005377 -0.065550 0.086599 0.045757 -0.134235 0.002987 0.146558 0.204316 -0.122090 0.073180 0.041656 -0.014135 0.204422 -0.062827 -0.024735 0.083620 -0.224884 -0.036663 0.096187 0.030833 0.041421 -0.062555 0.009348 -0.043998 -0.158771 0.010956 -0.096899 -0.210384 -0.038836 -0.113766 0.008270 -0.077177 0.029650 0.063694 -0.100900 0.207962 0.088446 -0.105640 0.078813 0.056135 0.108051 0.038042 0.087382 -0.103922 -0.097779 -0.045411 0.114453 -0.008607 -0.170966 0.135373 0.007904 -0.050634 0.045808 -0.096909 0.025650 0.034832 0.123123 -0.093609
give -0.055945 0.078910 -0.009580 0.000297 -0.115578 0.021692 0.204281 -0.111460 -0.027185 -0.014065 -0.000759 0.108607 -0.059069 -0.137150 0.101236 -0.116337 -0.030568 0.057123 0.057341 -0.080559 -0.031951 -0.032726 0.070377 0.016564 -0.181717 -0.002298 0.061716 0.063846 0.021173 -0.115415 0.200443 0.019760 0.098876 -0.061393 0.080950 -0.165979 0.000426 -0.148312 -0.187949 0.088051 0.250747 0.128322 0.012924 -0.104350 0.085645 0.039811 -0.166146 0.016423 0.165567 0.174779 -0.132400 0.059812 0.036238 -0.044511 0.220821 -0.036463 -0.032991 0.077274 -0.198330 -0.059329 0.088910 0.012882 0.054532 -0.041242 0.030668 -0.042510 -0.152427 0.004387 -0.108099 -0.219303 -0.042066 -0.082910 0.012589 -0.071027 0.025516 0.019769 -0.106492 0.177387 0.064191 -0.088505 0.049071 0.007046 0.126400 0.034165 0.093989 -0.122729 -0.121792 -0.063999 0.120063 0.005069 -0.175236 0.103800 -0.006285 -0.020751 0.051062 -0.110810 0.009743 0.062796 0.123358 -0.061593
way -0.087785 0.084183 -0.026241 -0.004443 -0.158047 -0.019604 0.177149 -0.136816 -0.033777 -0.026744 -0.012876 0.083708 -0.100276 -0.099866 0.077395 -0.095373 -0.045756 0.075418 0.076536 -0.074767 -0.009864 -0.045388 0.087139 0.012620 -0.186893 -0.024248 0.062794 0.065049 0.010014 -0.085609 0.200704 -0.005385 0.112888 -0.047020 0.088919 -0.137429 0.018978 -0.142687 -0.192763 0.081213 0.224503 0.138217 -0.014827 -0.058033 0.100895 0.014223 -0.136966 -0.014668 0.163238 0.195562 -0.107265 0.079837 0.049558 -0.014365 0.223147 -0.054192 -0.002135 0.082343 -0.225590 -0.040250 0.103178 0.042871 0.053954 -0.064495 0.004006 -0.042473 -0.149988 0.036554 -0.107886 -0.231174 -0.024836 -0.081831 0.019620 -0.059607 0.033350 0.028030 -0.102672 0.196083 0.110625 -0.086458 0.092813 0.029135 0.094932 0.038192 0.093870 -0.112999 -0.087742 -0.039096 0.140099 0.013367 -0.171055 0.140305 0.001432 -0.061438 0.055008 -0.079505 0.043740 0.032934 0.089161 -0.049861
battery -0.068632 0.058651 -0.034752 -0.020197 -0.128800 0.017519 0.216563 -0.100491 -0.012351 -0.003271 -0.014432 0.101874 -0.045984 -0.097950 0.073066 -0.100737 -0.075588 0.089156 0.071057 -0.100131 -0.036605 -0.011909 0.053001 0.028331 -0.183315 -0.016818 0.072124 0.053126 -0.002450 -0.113463 0.169688 -0.001730 0.108300 -0.064837 0.052711 -0.171697 0.046957 -0.120849 -0.195207 0.089337 0.255109 0.143538 0.035608 -0.104756 0.096728 0.012400 -0.137653 0.007425 0.140037 0.204299 -0.139602 0.068101 0.053193 -0.039163 0.190626 -0.025074 -0.018761 0.079207 -0.203042 -0.017993 0.116242 0.014169 0.069801 -0.024466 -0.001044 -0.048353 -0.122243 0.053034 -0.070593 -0.212667 -0.042154 -0.078975 -0.021513 -0.069679 0.051943 0.023266 -0.139855 0.222673 0.089095 -0.126500 0.086807 0.063280 0.132660 0.048300 0.076692 -0.124953 -0.113536 -0.019997 0.124348 0.003327 -0.143513 0.135168 -0.011015 -0.049965 0.034774 -0.076783 0.035896 0.050030 0.106324 -0.062526
waste -0.078842 0.061516 -0.056791 -0.028578 -0.098485 0.010194 0.160651 -0.075914 0.003931 0.000947 -0.005489 0.062356 -0.055521 -0.116257 0.068360 -0.089804 -0.081174 0.033511 0.106105 -0.074440 -0.021394 -0.067349 0.045019 0.030546 -0.182973 -0.026133 0.069460 0.085166 -0.011476 -0.071998 0.199249 0.038900 0.094811 -0.078160 0.110044 -0.146035 0.038614 -0.133617 -0.171127 0.044406 0.240054 0.146170 0.000005 -0.082330 0.050149 0.066859 -0.186165 -0.024737 0.170449 0.167889 -0.112207 0.033710 0.076529 -0.043388 0.223075 -0.021182 0.006846 0.067175 -0.218764 -0.052912 0.154661 0.020193 0.048641 -0.081573 -0.022832 0.004269 -0.166570 0.060444 -0.047467 -0.252821 -0.010649 -0.053843 0.027917 -0.034882 0.074014 0.009916 -0.135838 0.197555 0.112570 -0.101586 0.035922 0.027389 0.128902 0.038838 0.100115 -0.141005 -0.092754 -0.007647 0.121579 -0.012393 -0.135628 0.156122 0.003016 -0.048003 0.007145 -0.129527 0.008435 0.030467 0.103347 -0.070806
first -0.039638 0.046630 -0.016924 -0.002998 -0.154806 0.021080 0.220297 -0.102610 -0.035359 -0.017390 -0.024881 0.098235 -0.055871 -0.133140 0.088315 -0.109725 -0.050362 0.037412 0.099068 -0.097775 -0.048928 -0.014272 0.079462 0.026608 -0.207422 -0.044343 0.079595 0.074829 0.004715 -0.114879 0.161613 0.016841 0.092613 -0.022693 0.088212 -0.135368 0.051653 -0.113090 -0.175355 0.053054 0.216329 0.089557 -0.001430 -0.064072 0.084064 0.041961 -0.161348 -0.016139 0.175636 0.205657 -0.139518 0.071714 0.062658 -0.045875 0.211063 -0.062902 -0.046178 0.072224 -0.192004 -0.008729 0.127651 -0.011289 0.072695 -0.075577 0.020807 0.001425 -0.158629 0.048571 -0.060338 -0.233680 -0.023322 -0.087182 -0.025219 -0.057243 0.063181 0.072140 -0.098165 0.224577 0.085883 -0.075307 0.047526 0.046636 0.114687 0.027902 0.073459 -0.121252 -0.116018 -0.024880 0.116064 0.003953 -0.166256 0.154022 -0.004047 -0.065797 0.020220 -0.115977 0.007648 0.027827 0.096017 -0.044919
buy -0.045557 0.060588 -0.063452 -0.033508 -0.145861 0.023194 0.210956 -0.085158 0.007234 -0.030958 -0.026765 0.069311 -0.049205 -0.143223 0.095709 -0.115446 -0.035692 0.038848 0.061676 -0.067514 -0.055968 -0.044216 0.102101 0.042782 -0.220372 0.020710 0.071044 0.083007 -0.018382 -0.112439 0.142204 0.037332 0.111599 -0.075618 0.071496 -0.179778 0.025972 -0.145376 -0.175403 0.032838 0.202843 0.105706 0.038377 -0.045081 0.078069 0.064543 -0.129021 -0.021449 0.138121 0.155961 -0.148991 0.049476 0.093224 -0.017071 0.214128 -0.054215 -0.050588 0.107582 -0.194667 -0.007888 0.144018 -0.004792 0.071014 -0.068308 0.016874 0.008496 -0.136594 0.058438 -0.110646 -0.228323 -0.047139 -0.114642 -0.034166 -0.032295 0.023283 0.042800 -0.087003 0.200690 0.068870 -0.125736 0.054647 0.020929 0.143167 0.047003 0.041056 -0.144783 -0.114461 -0.067619 0.114475 -0.009208 -0.166234 0.141459 0.035165 -0.066811 0.010234 -0.114746 -0.012083 0.042113 0.097398 -0.076969
pretty -0.060932 0.038397 -0.050553 0.012661 -0.100457 -0.008241 0.217057 -0.096535 -0.036915 -0.024057 0.029840 0.075568 -0.054966 -0.127128 0.102650 -0.122512 -0.074725 0.086645 0.084618 -0.086879 -0.048073 -0.025271 0.077159 0.018761 -0.191326 -0.033516 0.020835 0.077746 0.014024 -0.090568 0.151408 -0.022661 0.104680 -0.018914 0.097810 -0.127768 0.012406 -0.111197 -0.187677 0.046479 0.224823 0.130110 0.024868 -0.097475 0.062801 0.009956 -0.135739 -0.002564 0.143239 0.188574 -0.126233 0.042058 0.030539 0.004770 0.234538 -0.056866 -0.045955 0.117600 -0.194135 -0.058604 0.095743 0.022032 0.058087 -0.071208 -0.003037 -0.008270 -0.168310 0.054102 -0.084977 -0.222586 -0.055516 -0.104214 -0.025076 -0.054229 0.076588 0.057586 -0.094605 0.235452 0.111549 -0.109062 0.068437 0.023831 0.140505 0.031982 0.068599 -0.142434 -0.123039 -0.012641 0.109185 0.002627 -0.183473 0.097737 0.042978 -0.020967 0.047302 -0.090827 0.035462 0.062971 0.118410 -0.082648
find -0.053755 0.066190 -0.046327 -0.017347 -0.123149 0.009439 0.209237 -0.110155 0.010736 -0.046088 -0.020317 0.067835 -0.058528 -0.131464 0.104195 -0.105026 -0.053749 0.056637 0.058169 -0.111251 -0.010899 -0.029642 0.050881 0.010541 -0.212869 -0.011986 0.066248 0.077037 0.023390 -0.117189 0.191702 0.027766 0.074474 -0.026036 0.085736 -0.173178 0.012485 -0.139375 -0.176133 0.056329 0.256883 0.133175 0.007574 -0.095062 0.060260 0.039256 -0.134050 0.006577 0.147216 0.191200 -0.110435 0.051704 0.043517 -0.036634 0.220621 -0.030791 -0.000887 0.092367 -0.204707 -0.053648 0.122214 -0.005757 0.040946 -0.064233 0.003503 -0.046117 -0.149583 0.009331 -0.096502 -0.238390 -0.058635 -0.111016 -0.023039 -0.079668 0.046642 0.068324 -0.093702 0.210438 0.063345 -0.095314 0.086631 0.017647 0.109096 0.018693 0.086064 -0.135496 -0.111113 -0.042110 0.099925 -0.015788 -0.156713 0.119426 0.013301 -0.042991 0.022267 -0.084634 0.003038 0.046329 0.096223 -0.079002
try -0.089869 0.063019 -0.025267 0.015789 -0.122845 0.004152 0.172266 -0.129593 0.012134 -0.053853 -0.024622 0.080675 -0.074280 -0.138456 0.108964 -0.131454 -0.065877 0.076781 0.070013 -0.124540 -0.014860 -0.061682 0.068471 -0.004212 -0.221090 -0.038649 0.046174 0.056542 0.021256 -0.101204 0.199093 0.031276 0.081852 -0.052593 0.097353 -0.143995 0.022546 -0.111363 -0.157385 0.056906 0.237912 0.106686 0.019698 -0.074508 0.077561 0.016086 -0.163590 -0.002669 0.145283 0.167985 -0.131326 0.049084 0.059646 -0.019012 0.188157 -0.027906 -0.037259 0.122070 -0.220544 -0.062897 0.139510 0.037686 0.074915 -0.039189 0.000389 -0.036974 -0.132105 0.030378 -0.106342 -0.237224 -0.048114 -0.110429 -0.007891 -0.057121 0.045427 0.041575 -0.140056 0.189109 0.082807 -0.074263 0.084771 0.041564 0.096902 0.028965 0.051328 -0.146987 -0.082517 -0.055395 0.098867 -0.020547 -0.164807 0.149623 0.003804 -0.055299 0.033819 -0.091675 0.047454 0.007654 0.089191 -0.094521
ear -0.042545 0.072210 0.004157 0.025059 -0.100814 -0.019592 0.235137 -0.138267 0.020020 -0.053431 0.009769 0.064259 -0.056569 -0.103045 0.128171 -0.093564 -0.092056 0.038585 0.085983 -0.085408 -0.009227 -0.001302 0.092511 -0.010497 -0.210510 -0.022959 0.019306 0.082793 0.023296 -0.106252 0.214980 0.009593 0.121869 -0.081804 0.048785 -0.184327 0.044438 -0.115868 -0.138984 0.084656 0.231133 0.149330 0.046905 -0.042300 0.093737 0.012593 -0.138301 0.033642 0.127751 0.160983 -0.128645 0.071686 0.069489 -0.033196 0.199590 -0.071066 -0.010938 0.080783 -0.171432 -0.057730 0.120511 0.024333 0.065299 -0.020740 -0.006724 -0.007520 -0.157917 0.025818 -0.060733 -0.253874 -0.021941 -0.110000 0.006562 -0.074662 0.047566 0.066261 -0.086274 0.182744 0.113461 -0.080144 0.101725 0.008724 0.105074 -0.006211 0.105998 -0.103087 -0.068974 -0.006757 0.142074 0.009969 -0.180263 0.167987 0.003273 -0.064302 -0.001377 -0.062834 0.022322 0.033912 0.111046 -0.067722
year -0.059829 0.076583 -0.019598 0.010137 -0.154833 0.003681 0.178845 -0.107469 -0.003209 -0.048581 0.009023 0.092761 -0.063245 -0.121105 0.102924 -0.124657 -0.055261 0.071417 0.069313 -0.081577 -0.032943 -0.012935 0.058465 0.032234 -0.213935 -0.019510 0.059079 0.064647 0.016239 -0.126077 0.169355 0.006820 0.096082 -0.060471 0.092503 -0.163061 0.042835 -0.158891 -0.177166 0.071263 0.224492 0.103048 0.016257 -0.087007 0.080039 0.049967 -0.135528 0.025057 0.169811 0.171899 -0.107977 0.044245 0.052082 -0.026165 0.229098 -0.045805 -0.040531 0.094727 -0.198126 -0.044538 0.116110 0.036828 0.055746 -0.047039 0.001009 -0.038295 -0.141315 0.047492 -0.064833 -0.230049 -0.038919 -0.084884 0.006316 -0.073608 0.052347 0.041357 -0.134008 0.230825 0.065918 -0.121987 0.066831 0.015206 0.117393 0.003941 0.060310 -0.115513 -0.092090 -0.040466 0.092330 0.000850 -0.191077 0.128056 0.020759 -0.051078 0.009390 -0.101994 0.006179 0.012504 0.124383 -0.078758
still -0.036812 0.076060 -0.034968 0.021580 -0.125553 0.011951 0.211854 -0.123263 0.002216 -0.033360 -0.002298 0.062887 -0.073068 -0.104160 0.107118 -0.105495 -0.074774 0.050475 0.083755 -0.083281 -0.021817 -0.028248 0.052178 0.029633 -0.224553 -0.021411 0.062147 0.058577 0.031136 -0.107734 0.191735 -0.010632 0.087260 -0.037482 0.092627 -0.140071 0.046325 -0.140230 -0.192118 0.045474 0.217857 0.117615 0.021482 -0.060001 0.083401 0.016898 -0.141718 0.013149 0.174276 0.184930 -0.127084 0.069255 0.062281 -0.012923 0.189378 -0.070630 -0.044605 0.098755 -0.211045 -0.030847 0.115360 0.000931 0.073528 -0.038335 0.023179 -0.014218 -0.151968 0.002401 -0.087134 -0.227641 -0.066883 -0.109357 -0.026059 -0.041823 0.069485 0.074007 -0.100651 0.227426 0.093034 -0.125312 0.090656 0.035896 0.112549 0.035313 0.099793 -0.096725 -0.107000 -0.037710 0.113267 0.002450 -0.145545 0.125146 0.026775 -0.056210 0.052509 -0.084558 0.040148 0.034223 0.112845 -0.069387
2 -0.072218 0.069055 -0.046201 -0.007854 -0.126179 -0.002675 0.188979 -0.097898 -0.025152 -0.041315 0.008576 0.099378 -0.062658 -0.104005 0.102444 -0.107797 -0.041419 0.082205 0.066652 -0.086373 -0.034439 -0.050736 0.080615 0.024568 -0.217475 -0.006628 0.070149 0.081198 0.023989 -0.125378 0.174689 0.025719 0.083358 -0.030805 0.072117 -0.182383 0.026845 -0.123287 -0.155198 0.070583 0.265710 0.135310 0.008737 -0.093808 0.098635 0.057494 -0.158786 0.008523 0.174446 0.175979 -0.102553 0.036856 0.042754 -0.026695 0.187271 -0.043816 -0.011549 0.122595 -0.216546 -0.027615 0.095272 0.031505 0.078498 -0.040363 0.017439 -0.036503 -0.151882 0.016156 -0.072759 -0.227407 -0.062627 -0.098554 -0.023621 -0.067382 0.040281 0.052541 -0.112017 0.223568 0.075570 -0.097789 0.067862 0.047350 0.119347 0.006122 0.092379 -0.129800 -0.084402 -0.054612 0.104677 0.005825 -0.144489 0.122459 -0.005361 -0.044634 0.050293 -0.118619 0.000511 0.023154 0.089554 -0.073409
take -0.083701 0.039682 -0.052353 -0.022942 -0.141198 0.031189 0.202259 -0.112199 -0.015343 -0.033688 0.021202 0.073127 -0.090655 -0.121999 0.107539 -0.109734 -0.081285 0.063931 0.083528 -0.098284 -0.002347 -0.018522 0.060753 0.012138 -0.193770 -0.041864 0.039226 0.061501 0.000026 -0.116837 0.160916 -0.003966 0.119308 -0.041431 0.066946 -0.137653 0.029754 -0.146489 -0.159982 0.080971 0.255462 0.123994 0.027264 -0.066539 0.091088 0.048272 -0.169004 -0.013676 0.135269 0.180577 -0.134879 0.072658 0.035276 -0.030007 0.208114 -0.059137 -0.020493 0.082051 -0.223994 -0.025100 0.109113 0.017023 0.052389 -0.035895 0.024195 -0.043451 -0.173777 0.021779 -0.094802 -0.231937 -0.054939 -0.095937 0.000623 -0.078183 0.047333 0.043152 -0.101283 0.189739 0.103687 -0.117183 0.086621 0.036652 0.132652 0.020725 0.075466 -0.131484 -0.099275 -0.012446 0.105094 -0.002606 -0.178452 0.115945 -0.000430 -0.034325 0.010470 -0.092471 0.010197 0.011494 0.099689 -0.047651
know -0.033673 0.086710 -0.018069 0.022986 -0.112689 0.016050 0.201608 -0.131356 -0.006197 -0.005871 -0.001322 0.107763 -0.071910 -0.119401 0.116903 -0.142942 -0.079695 0.037564 0.074702 -0.069076 -0.034313 -0.038702 0.101466 0.053646 -0.233139 -0.049531 0.034643 0.080117 0.028924 -0.101191 0.167871 -0.025696 0.068147 -0.048127 0.093323 -0.159440 0.038434 -0.105590 -0.180463 0.094847 0.218969 0.121872 0.039421 -0.075785 0.101714 0.037116 -0.173212 0.019950 0.135252 0.171458 -0.120157 0.046580 0.045779 -0.044104 0.209173 -0.056774 0.007914 0.086284 -0.196770 -0.067481 0.150358 0.015698 0.028208 -0.049496 0.017336 -0.001377 -0.180658 0.016782 -0.050309 -0.234488 -0.011657 -0.058373 0.031731 -0.054362 0.072489 0.060826 -0.144884 0.196726 0.069531 -0.088039 0.077838 0.036832 0.144214 0.029839 0.105502 -0.109823 -0.079629 -0.046077 0.106191 -0.000637 -0.147145 0.139639 0.031884 -0.011460 0.007032 -0.064276 0.011229 0.048613 0.117449 -0.046327
case -0.034476 0.073857 -0.048172 0.005457 -0.108331 -0.002115 0.168978 -0.130764 -0.035767 -0.064769 0.028573 0.096683 -0.104203 -0.113118 0.082832 -0.087707 -0.041042 0.050866 0.096172 -0.090347 0.012108 -0.015102 0.064247 0.055757 -0.207719 0.002249 0.069158 0.079926 -0.011919 -0.091066 0.166927 -0.017574 0.133545 -0.025216 0.046812 -0.164882 0.004689 -0.168343 -0.169980 0.091045 0.238930 0.113699 -0.000481 -0.080233 0.067310 0.066174 -0.154855 -0.006458 0.177230 0.169979 -0.093997 0.060779 0.038010 -0.048394 0.216923 -0.039122 -0.035264 0.110716 -0.179004 -0.039681 0.148418 0.002867 0.044299 -0.079143 0.013325 -0.044821 -0.121772 0.009290 -0.067651 -0.212451 -0.067314 -0.108261 -0.032835 -0.075918 0.056249 0.081614 -0.095268 0.211009 0.118930 -0.108856 0.085163 0.036879 0.119289 -0.007067 0.089615 -0.140659 -0.082686 -0.010976 0.145626 -0.011118 -0.161396 0.148903 0.004507 -0.077112 0.048649 -0.078706 0.006693 0.005660 0.090543 -0.069519
minute -0.088873 0.062197 -0.025190 -0.010082 -0.137946 -0.007880 0.212215 -0.115574 -0.035254 -0.048532 -0.002130 0.074914 -0.068515 -0.127033 0.083782 -0.088959 -0.081215 0.043856 0.066754 -0.075623 -0.002676 -0.010473 0.050227 0.048886 -0.191870 0.002262 0.067728 0.045808 0.024206 -0.106652 0.203418 -0.002219 0.111352 -0.072427 0.091064 -0.152464 0.017394 -0.115720 -0.178686 0.091786 0.248955 0.098802 0.028061 -0.101403 0.079510 0.026507 -0.139193 -0.002407 0.174840 0.180254 -0.102257 0.049577 0.060869 -0.022423 0.230061 -0.045259 -0.026270 0.120635 -0.196938 -0.019401 0.112935 0.007927 0.069212 -0.066822 0.013077 -0.035302 -0.142943 0.045267 -0.094630 -0.194489 -0.043241 -0.103726 0.017437 -0.040204 0.073717 0.023023 -0.121270 0.232981 0.085583 -0.110523 0.082346 0.042881 0.107278 0.017095 0.051317 -0.136551 -0.088287 -0.037192 0.124219 0.018630 -0.153292 0.143150 0.029519 -0.044186 0.053824 -0.083865 0.014533 0.040346 0.099979 -0.073658
10 -0.093898 0.084604 -0.030005 -0.017912 -0.159351 0.030950 0.218026 -0.138563 -0.005846 -0.057715 -0.008528 0.080658 -0.075119 -0.084725 0.121776 -0.131368 -0.061002 0.075218 0.093855 -0.100910 -0.027677 -0.013695 0.064021 0.054782 -0.188973 -0.044616 0.036119 0.069450 0.015739 -0.128217 0.208488 0.007123 0.076790 -0.076021 0.094413 -0.153701 0.019071 -0.138542 -0.163150 0.058510 0.203177 0.131728 0.000994 -0.092191 0.042165 0.062150 -0.160272 0.036067 0.152225 0.181267 -0.123737 0.019826 0.078710 -0.006559 0.221081 -0.052352 -0.047139 0.120553 -0.187982 -0.007927 0.127441 0.048452 0.052786 -0.032483 -0.021710 -0.007968 -0.169235 0.050690 -0.091682 -0.201405 -0.013795 -0.069824 -0.006557 -0.080356 0.018597 0.044258 -0.132797 0.200526 0.059269 -0.089550 0.060628 0.001992 0.133269 0.033287 0.060612 -0.112077 -0.124275 -0.005862 0.112560 0.030590 -0.139169 0.112011 -0.002106 -0.050012 0.004011 -0.080114 0.049490 0.039035 0.110307 -0.088502
want -0.079175 0.044349 -0.058593 0.028990 -0.111098 0.035021 0.217742 -0.093563 -0.015201 -0.053571 -0.003760 0.086277 -0.041777 -0.093025 0.090829 -0.078371 -0.082658 0.051621 0.097171 -0.121922 -0.042279 -0.038180 0.092363 0.023499 -0.209597 -0.005519 0.064241 0.056067 -0.003317 -0.098357 0.192063 0.007888 0.115537 -0.069295 0.059587 -0.143749 0.000660 -0.151653 -0.140965 0.061051 0.225627 0.109109 0.031289 -0.085749 0.057563 0.047853 -0.149199 0.023845 0.138632 0.201438 -0.100737 0.049661 0.082164 -0.030144 0.228604 -0.061790 -0.023631 0.113414 -0.228442 -0.014433 0.106030 0.020042 0.079609 -0.060658 0.018938 -0.008573 -0.167937 0.005003 -0.061167 -0.210376 -0.044966 -0.089930 -0.002080 -0.035018 0.058041 0.022994 -0.125997 0.232935 0.078493 -0.114517 0.082463 0.041749 0.100916 0.014357 0.084259 -0.098933 -0.070494 -0.059008 0.101688 -0.016447 -0.188975 0.132709 0.037653 -0.060986 0.040624 -0.121901 0.034509 0.036256 0.090803 -0.065832
everything -0.089728 0.035259 -0.010295 -0.020347 -0.141737 -0.010032 0.193850 -0.134820 0.016543 -0.055957 0.005082 0.061517 -0.077778 -0.098048 0.124941 -0.095429 -0.055169 0.057605 0.050184 -0.086648 0.000549 -0.061093 0.076927 0.009782 -0.215616 0.008141 0.026214 0.079359 0.047004 -0.081423 0.149669 -0.017561 0.071095 -0.025005 0.106497 -0.177433 0.039150 -0.151103 -0.159147 0.037110 0.242753 0.131689 -0.001124 -0.082107 0.096546 0.028746 -0.168252 0.035719 0.175027 0.218969 -0.131465 0.058992 0.060175 -0.014484 0.199030 -0.052652 0.009743 0.086354 -0.185318 -0.010593 0.119170 0.040558 0.085425 -0.018289 0.020353 -0.007284 -0.152474 0.051426 -0.112802 -0.235910 -0.013106 -0.121802 0.019880 -0.037495 0.030958 0.065132 -0.145832 0.192580 0.088139 -0.126686 0.070131 0.031644 0.096507 0.011222 0.040193 -0.091985 -0.116018 -0.012423 0.120395 -0.017540 -0.157905 0.127321 0.005656 -0.028677 0.053579 -0.110725 0.010489 0.006811 0.096793 -0.051282
end -0.076531 0.035494 -0.049125 -0.017863 -0.140737 0.020749 0.197568 -0.128935 -0.025988 -0.041554 -0.024017 0.081900 -0.043937 -0.101977 0.115188 -0.107359 -0.043219 0.087905 0.091666 -0.086606 -0.048288 -0.013630 0.052313 0.018019 -0.170153 -0.006802 0.039438 0.045420 0.015313 -0.091914 0.178546 0.009443 0.070279 -0.053599 0.058947 -0.177413 0.012938 -0.118693 -0.179107 0.063768 0.258665 0.117619 0.039745 -0.057036 0.085397 0.017729 -0.168564 0.012164 0.129177 0.171004 -0.144732 0.038313 0.068364 -0.047185 0.228397 -0.036495 -0.026968 0.107601 -0.223232 -0.020900 0.109808 0.029429 0.080919 -0.038495 -0.018729 -0.009826 -0.142531 0.050395 -0.061778 -0.227948 -0.048613 -0.110980 -0.028898 -0.073320 0.037713 0.040032 -0.124539 0.224748 0.068140 -0.103185 0.046814 0.027268 0.104144 0.027411 0.082275 -0.140518 -0.094209 -0.041048 0.119115 -0.009966 -0.185584 0.146360 -0.013976 -0.041515 0.009840 -0.112065 0.027950 0.057873 0.093011 -0.050055
order -0.078925 0.088020 -0.040205 -0.032239 -0.143930 0.007747 0.197808 -0.098436 -0.016290 -0.021867 -0.024923 0.067329 -0.066119 -0.097868 0.080433 -0.073675 -0.082305 0.032156 0.047944 -0.074607 0.001854 -0.062089 0.069259 0.008849 -0.197569 -0.011736 0.068432 0.082372 0.042355 -0.095856 0.203447 -0.019775 0.123226 -0.015628 0.066350 -0.154874 0.060896 -0.102195 -0.186754 0.069497 0.262050 0.098193 -0.002260 -0.069739 0.088711 0.062363 -0.132369 0.004586 0.138863 0.177808 -0.149049 0.032712 0.073064 0.003251 0.213846 -0.022006 0.000368 0.097421 -0.201179 -0.055212 0.124926 -0.003118 0.053108 -0.073261 0.011928 -0.007153 -0.166353 -0.006947 -0.103033 -0.231572 -0.025285 -0.060673 -0.009050 -0.047123 0.076176 0.054368 -0.138441 0.217366 0.095292 -0.069949 0.070324 0.015063 0.129106 0.004056 0.092426 -0.106547 -0.086161 -0.058244 0.126974 -0.035818 -0.192518 0.147349 0.024404 -0.049624 0.001877 -0.110825 0.034983 0.041435 0.070055 -0.040395
enough -0.076616 0.026534 -0.026184 -0.020331 -0.108667 0.011434 0.210350 -0.097230 -0.025684 -0.037812 -0.015595 0.090835 -0.097377 -0.098410 0.083769 -0.131664 -0.067794 0.069963 0.054028 -0.095141 -0.024547 -0.045569 0.090179 0.042441 -0.198905 -0.006381 0.037575 0.077203 0.040362 -0.105729 0.185518 -0.018091 0.112686 -0.044474 0.095300 -0.178747 0.024606 -0.146780 -0.162803 0.068947 0.246574 0.098086 0.022323 -0.102212 0.078237 0.035335 -0.169864 0.028170 0.171178 0.188744 -0.132731 0.031467 0.027189 -0.035995 0.193373 -0.049348 -0.019943 0.116385 -0.225176 -0.047927 0.088582 -0.004925 0.039906 -0.041793 0.030474 -0.026881 -0.167927 0.031265 -0.094002 -0.195585 -0.055284 -0.117375 0.014556 -0.055302 0.045841 0.027949 -0.123912 0.183303 0.058811 -0.074914 0.047566 0.038373 0.110960 0.009309 0.078853 -0.124259 -0.096066 -0.056685 0.131290 0.013784 -0.189309 0.142839 0.011772 -0.060709 0.041215 -0.112436 0.005372 0.018986 0.084175 -0.066778
two -0.043712 0.056600 -0.023001 -0.020782 -0.134419 0.016712 0.205288 -0.092692 -0.017905 -0.013168 0.016378 0.074358 -0.050438 -0.151603 0.083890 -0.107168 -0.087120 0.045068 0.050134 -0.122280 -0.028394 -0.052756 0.070644 0.007934 -0.201804 0.005136 0.038403 0.059316 0.045382 -0.096539 0.197040 -0.003091 0.098358 -0.056768 0.064266 -0.175822 0.021165 -0.118157 -0.189644 0.046235 0.239198 0.092515 0.023759 -0.066030 0.070827 0.012815 -0.150306 -0.004817 0.131870 0.207796 -0.126175 0.029001 0.044502 -0.026039 0.197315 -0.028034 -0.047539 0.094791 -0.235015 -0.059968 0.129962 0.002928 0.053037 -0.029077 -0.006892 -0.014101 -0.183794 0.048250 -0.066079 -0.227099 -0.059059 -0.095298 -0.010202 -0.071127 0.033401 0.044482 -0.151262 0.213213 0.083481 -0.076204 0.069951 0.041475 0.100333 -0.002138 0.079808 -0.095928 -0.108016 -0.020854 0.120569 -0.025226 -0.158515 0.146095 0.016607 -0.057727 0.015661 -0.069612 0.025128 0.037777 0.118565 -0.092041
little -0.071334 0.081734 -0.005524 0.004418 -0.120476 0.033370 0.174256 -0.135402 -0.009297 -0.042750 -0.022175 0.059975 -0.084101 -0.126239 0.079833 -0.082933 -0.063545 0.054788 0.091965 -0.126098 -0.026303 -0.028440 0.056812 0.001232 -0.214136 -0.024440 0.024074 0.055406 0.007958 -0.085882 0.155689 0.017277 0.075853 -0.064475 0.064066 -0.185431 0.032557 -0.124105 -0.186309 0.045341 0.243290 0.119430 -0.003938 -0.101669 0.091713 0.056499 -0.153261 0.024482 0.163543 0.199492 -0.124668 0.063204 0.056958 -0.009751 0.222419 -0.022921 -0.001210 0.112421 -0.225286 -0.028769 0.140674 0.006567 0.036461 -0.033280 0.020866 -0.010168 -0.132855 0.027886 -0.104882 -0.227442 -0.018067 -0.094004 0.016668 -0.054301 0.061273 0.071789 -0.125857 0.229105 0.092719 -0.090804 0.047838 0.019689 0.148290 0.020547 0.061686 -0.102144 -0.116558 -0.046377 0.098497 -0.025223 -0.145040 0.126931 0.030829 -0.050714 0.039297 -0.092321 0.031230 0.017842 0.086299 -0.057515
every -0.073898 0.040818 -0.025495 0.010852 -0.137345 0.018824 0.191190 -0.123430 0.009846 -0.031072 0.005899 0.096927 -0.059890 -0.124591 0.110688 -0.129081 -0.046630 0.083571 0.088093 -0.113167 -0.042226 -0.034495 0.072748 0.024249 -0.187880 -0.000153 0.056316 0.059358 0.006362 -0.086839 0.196896 0.012340 0.104149 -0.035987 0.090300 -0.146492 0.041848 -0.150949 -0.178048 0.052310 0.259906 0.109889 0.005701 -0.069918 0.096016 0.031438 -0.159270 0.014545 0.148923 0.194732 -0.113110 0.049764 0.077264 -0.026017 0.197896 -0.062150 -0.024671 0.083002 -0.203409 -0.013602 0.107612 0.003925 0.040780 -0.034204 0.005048 -0.011117 -0.148571 0.039137 -0.096406 -0.214027 -0.056639 -0.077227 -0.012021 -0.066051 0.073042 0.065029 -0.125638 0.225134 0.107203 -0.091066 0.062475 0.028176 0.117373 0.021887 0.068974 -0.136565 -0.106034 -0.020621 0.115471 -0.005661 -0.156409 0.134133 0.035947 -0.024838 0.030732 -0.090404 0.033478 0.015535 0.096622 -0.077382
right -0.030460 0.077834 0.000210 -0.007014 -0.144829 0.014295 0.213429 -0.090836 -0.017225 -0.050384 0.005631 0.072507 -0.044463 -0.130503 0.115547 -0.083317 -0.074149 0.040437 0.079054 -0.122169 0.004114 -0.061948 0.060840 0.001724 -0.172743 -0.008300 0.044846 0.081797 0.025618 -0.118311 0.160980 -0.013754 0.116225 -0.044721 0.080610 -0.126827 0.050726 -0.154609 -0.196110 0.035524 0.229439 0.127515 -0.020542 -0.064409 0.104230 0.056295 -0.140716 0.000547 0.159015 0.153710 -0.152770 0.062635 0.024954 -0.016518 0.235162 -0.068427 -0.048651 0.101566 -0.201795 -0.038432 0.092831 -0.011715 0.054714 -0.039169 0.027494 -0.052312 -0.143286 0.058317 -0.103778 -0.238882 -0.045854 -0.096566 0.014120 -0.066364 0.019773 0.021268 -0.125055 0.203094 0.080274 -0.104059 0.056047 0.023507 0.094865 0.046679 0.101234 -0.104770 -0.112577 -0.010053 0.133818 0.006577 -0.188908 0.101473 -0.002191 -0.059383 0.005733 -0.078333 0.013750 0.019125 0.137079 -0.101811
play -0.062726 0.076821 -0.052201 0.005962 -0.119656 0.021736 0.177228 -0.120676 0.000048 -0.043017 -0.011234 0.105895 -0.048367 -0.142861 0.097540 -0.086180 -0.061347 0.055475 0.089370 -0.123326 -0.031816 -0.049113 0.053030 0.013704 -0.188975 0.002296 0.054186 0.067293 0.010725 -0.101983 0.184044 0.022372 0.110843 -0.050436 0.076021 -0.159473 0.049340 -0.115146 -0.194357 0.043245 0.258685 0.145209 0.019538 -0.054891 0.073408 0.030917 -0.122803 0.029817 0.171915 0.200677 -0.107966 0.061714 0.055805 -0.013284 0.208864 -0.045995 -0.009316 0.116966 -0.178650 -0.055593 0.097139 0.015456 0.061990 -0.026852 -0.008142 -0.016763 -0.164070 0.040715 -0.083877 -0.209153 -0.052280 -0.108433 -0.002909 -0.044306 0.052856 0.042031 -0.127516 0.229041 0.073817 -0.079886 0.092989 0.031560 0.140855 0.026000 0.071000 -0.117060 -0.120445 -0.055197 0.124555 -0.026240 -0.157928 0.108157 0.009335 -0.032135 0.029063 -0.094347 0.049406 0.050275 0.127809 -0.063698
experience -0.036013 0.084430 -0.055764 0.030165 -0.121523 -0.014112 0.178597 -0.127635 -0.028156 -0.041158 -0.026589 0.097194 -0.040941 -0.089586 0.082667 -0.131700 -0.043384 0.092637 0.047781 -0.073396 -0.012277 -0.039122 0.053874 -0.002963 -0.221715 -0.042031 0.052165 0.056855 0.031261 -0.098070 0.165103 0.016514 0.075684 -0.077029 0.103590 -0.124999 0.024346 -0.123698 -0.172971 0.072252 0.230394 0.144824 0.020369 -0.071784 0.054101 0.044629 -0.159748 0.034528 0.168240 0.196212 -0.125858 0.062066 0.059437 -0.048772 0.213581 -0.014819 -0.048863 0.085562 -0.176593 -0.016552 0.145569 0.011171 0.027554 -0.039717 0.015698 -0.049937 -0.171283 0.005392 -0.112902 -0.256007 -0.063634 -0.122291 0.027127 -0.056337 0.084628 0.029719 -0.110443 0.183763 0.065863 -0.117558 0.068193 0.055574 0.133198 -0.002250 0.084166 -0.123211 -0.109164 -0.071454 0.106383 -0.015245 -0.187304 0.122788 0.037735 -0.025245 0.023716 -0.072822 0.054899 0.021117 0.081287 -0.082626
people -0.086605 0.054175 -0.035530 -0.000935 -0.111348 0.013540 0.209875 -0.117744 -0.037372 -0.046860 -0.021769 0.097594 -0.078375 -0.143513 0.100699 -0.105339 -0.079023 0.083118 0.066375 -0.117127 -0.041686 -0.050049 0.064316 0.031279 -0.198385 -0.009683 0.068801 0.080602 0.015181 -0.091999 0.157293 0.002781 0.119969 -0.066398 0.050371 -0.180330 0.021571 -0.117779 -0.149291 0.048619 0.248967 0.139932 -0.006311 -0.075645 0.069889 0.053973 -0.159867 0.001997 0.151473 0.185059 -0.130668 0.045949 0.060351 -0.013832 0.183902 -0.045990 -0.026812 0.114076 -0.217076 -0.030371 0.139515 0.007691 0.080103 -0.067735 -0.014660 -0.032021 -0.174216 0.017937 -0.075228 -0.212416 -0.020332 -0.078775 -0.018090 -0.072922 0.057837 0.038187 -0.120438 0.198930 0.066312 -0.103369 0.047048 0.039849 0.095075 0.024069 0.059013 -0.126897 -0.078670 -0.016013 0.134085 -0.001241 -0.154316 0.150925 -0.009538 -0.062260 0.009578 -0.082242 0.014373 0.032427 0.125721 -0.093114
real -0.067597 0.036830 -0.007202 -0.009078 -0.157248 -0.007542 0.208453 -0.099910 0.006000 -0.013674 -0.023452 0.088116 -0.085680 -0.142325 0.117452 -0.098206 -0.065686 0.062201 0.048439 -0.117296 -0.005230 -0.040467 0.056089 0.029640 -0.201329 -0.016988 0.040009 0.039210 0.040004 -0.091870 0.178891 -0.009849 0.104842 -0.025954 0.094623 -0.163425 0.017291 -0.116031 -0.164579 0.088412 0.260206 0.109247 -0.012732 -0.085096 0.088842 0.053845 -0.145913 -0.010488 0.143928 0.189189 -0.144812 0.044600 0.068324 -0.000223 0.219923 -0.054957 -0.004834 0.111627 -0.187265 -0.011247 0.126844 0.032816 0.057845 -0.026659 0.033250 -0.012467 -0.126526 0.026244 -0.095015 -0.233129 -0.030226 -0.100855 0.008523 -0.091482 0.042871 0.047384 -0.104693 0.225853 0.113101 -0.076679 0.061505 0.043017 0.104473 -0.004418 0.059790 -0.104764 -0.111611 -0.028964 0.123534 -0.008390 -0.176231 0.106550 0.015558 -0.029171 0.036458 -0.086133 0.025833 0.059702 0.126129 -0.051894
definitely -0.077755 0.077017 -0.074719 -0.030245 -0.172262 -0.033595 0.162794 -0.109254 0.026541 0.005220 -0.029183 0.046076 -0.048642 -0.135553 0.099506 -0.061985 -0.104328 0.030125 0.053767 -0.058121 -0.016915 -0.050772 0.065125 0.026350 -0.190183 -0.041923 0.036035 0.071140 -0.019497 -0.139049 0.185528 0.012273 0.120880 -0.067839 0.035939 -0.109572 0.027167 -0.174067 -0.137731 0.107592 0.189881 0.081813 0.020096 -0.055056 0.054174 -0.000710 -0.168499 -0.019482 0.119833 0.225086 -0.150534 0.045733 0.092086 0.025357 0.215231 -0.000450 -0.040421 0.129779 -0.210658 0.007207 0.154794 0.059679 0.090073 -0.054244 0.043198 -0.006033 -0.182047 0.008248 -0.117801 -0.222264 -0.069705 -0.068142 0.024901 -0.104128 0.067897 0.019017 -0.144795 0.168749 0.070198 -0.110438 0.032317 0.019605 0.131462 0.015976 0.086832 -0.119935 -0.107139 -0.029596 0.082943 -0.042531 -0.165917 0.152008 -0.021532 -0.016474 0.066870 -0.095116 0.069223 0.032381 0.061252 -0.060522
scene -0.072532 0.037397 -0.039540 0.006791 -0.137301 -0.013397 0.181991 -0.086372 0.008456 -0.042000 -0.002269 0.067510 -0.041166 -0.097195 0.071221 -0.098643 -0.092203 0.054216 0.062083 -0.066495 -0.027446 -0.008823 0.055138 0.043731 -0.206953 -0.004432 0.052437 0.039553 0.009204 -0.136580 0.191136 -0.013390 0.109783 -0.012854 0.049636 -0.137120 0.048268 -0.156773 -0.155982 0.070478 0.252768 0.144755 0.045337 -0.058123 0.086818 0.012225 -0.159256 -0.017596 0.177641 0.190918 -0.155342 0.042394 0.042123 -0.024900 0.225604 -0.041692 0.009144 0.088592 -0.191462 -0.030211 0.152139 -0.014692 0.077140 -0.071250 0.011660 -0.016256 -0.165100 0.048437 -0.072011 -0.222499 -0.052063 -0.066881 0.019178 -0.057326 0.041701 0.083907 -0.114256 0.196625 0.081090 -0.130630 0.053971 0.032367 0.117519 0.015317 0.071974 -0.101193 -0.122141 -0.013173 0.092908 -0.021680 -0.194342 0.161242 -0.008894 -0.008486 0.005496 -0.070162 0.044039 0.010774 0.127268 -0.071177
eat -0.052284 0.030888 -0.033523 -0.031089 -0.124047 -0.021407 0.225576 -0.084862 -0.019801 -0.011226 0.008212 0.101567 -0.088782 -0.146198 0.080210 -0.137181 -0.084540 0.078960 0.039404 -0.111192 -0.036314 -0.010667 0.037569 0.025715 -0.192529 -0.015084 0.058233 0.079807 0.044030 -0.096396 0.186245 0.043367 0.064653 -0.063994 0.074509 -0.140361 0.032445 -0.162223 -0.174270 0.058793 0.246765 0.114767 -0.014718 -0.077971 0.093367 0.001169 -0.132992 -0.016763 0.175154 0.167550 -0.087437 0.031768 0.062138 -0.034145 0.188879 -0.080677 -0.010139 0.129163 -0.170158 -0.006523 0.139987 -0.000436 0.084937 -0.068104 0.026790 -0.015378 -0.174891 0.037904 -0.119960 -0.238092 -0.068014 -0.081664 -0.034493 -0.090231 0.056649 0.019746 -0.108455 0.203897 0.055416 -0.126461 0.041733 0.010081 0.134531 -0.015304 0.100769 -0.107213 -0.132257 -0.041304 0.137434 0.019785 -0.134539 0.114479 0.043987 -0.065226 0.026661 -0.069167 0.057108 0.016830 0.071336 -0.055648
problem -0.078599 0.033796 -0.036398 0.027769 -0.102449 -0.006247 0.205354 -0.134721 0.023279 0.001929 -0.025539 0.063179 -0.056150 -0.144365 0.073548 -0.122230 -0.072455 0.072464 0.071151 -0.131520 0.012592 0.007336 0.070621 0.017719 -0.150121 0.000698 0.069379 0.087302 -0.013883 -0.078060 0.145355 -0.012688 0.094480 -0.058006 0.070821 -0.181277 -0.004889 -0.099803 -0.182819 0.092448 0.257603 0.080352 0.000493 -0.101516 0.064808 0.018097 -0.172047 0.006709 0.133913 0.205912 -0.128664 0.073873 0.028772 -0.013897 0.183160 -0.067014 -0.037662 0.105009 -0.216951 -0.019148 0.122869 -0.001606 0.075957 -0.029606 0.016271 -0.058892 -0.159325 0.054032 -0.114467 -0.182906 -0.051735 -0.098771 -0.020019 -0.063817 0.039038 0.074362 -0.090757 0.218765 0.044875 -0.128166 0.098345 0.059888 0.122051 0.054528 0.082129 -0.119820 -0.059075 -0.048903 0.135445 -0.039343 -0.187615 0.120513 0.049547 -0.039021 0.046756 -0.084170 0.044018 -0.002357 0.128009 -0.102156
terrible -0.057811 0.060945 -0.059287 -0.035621 -0.108258 0.015844 0.219391 -0.128607 -0.009526 -0.031480 0.041154 0.084466 -0.093896 -0.154884 0.100279 -0.128990 -0.056925 0.104553 0.025044 -0.097745 0.019864 0.005998 0.082366 0.048154 -0.166520 -0.040686 0.058394 0.031917 0.048058 -0.067437 0.169514 -0.000142 0.098024 -0.029082 0.118336 -0.145459 0.000836 -0.155892 -0.155848 0.090893 0.207847 0.109363 -0.009431 -0.100751 0.097647 0.032040 -0.096092 -0.001152 0.191602 0.207593 -0.140644 0.087164 0.049808 -0.040144 0.223603 -0.033143 -0.064536 0.051230 -0.161249 -0.035569 0.151666 -0.008972 0.084345 -0.083098 0.028390 0.013767 -0.144837 -0.013227 -0.115521 -0.220054 -0.076751 -0.071674 -0.031948 -0.068445 0.071895 0.087461 -0.072302 0.234084 0.047384 -0.125017 0.095706 0.046553 0.108776 0.017042 0.106599 -0.108886 -0.075997 -0.074767 0.075893 0.008602 -0.113364 0.112620 0.020768 -0.013932 0.055870 -0.126199 0.004872 0.052544 0.070995 -0.096698
wait -0.052085 0.070866 -0.044555 -0.023975 -0.141479 0.007462 0.173344 -0.141254 -0.039419 -0.022046 -0.008504 0.086475 -0.073270 -0.122790 0.101265 -0.118348 -0.087343 0.065920 0.064700 -0.122388 -0.014558 -0.034717 0.040685 0.011696 -0.212787 -0.034096 0.063852 0.064034 0.010036 -0.089270 0.180744 0.018140 0.106239 -0.052280 0.087291 -0.161093 0.030149 -0.133652 -0.160628 0.081271 0.218062 0.112740 -0.016588 -0.064025 0.100736 0.062583 -0.132946 0.028082 0.156103 0.186577 -0.116215 0.068447 0.038034 -0.036373 0.228372 -0.031051 -0.004781 0.081056 -0.192466 -0.020902 0.136789 -0.003355 0.053000 -0.039287 0.018408 -0.047600 -0.170743 0.013080 -0.098872 -0.212479 -0.067781 -0.115093 0.000645 -0.077933 0.075312 0.064650 -0.114413 0.190203 0.096834 -0.126007 0.086619 0.048077 0.102784 0.007047 0.099684 -0.151259 -0.118350 -0.053075 0.086849 -0.011778 -0.139084 0.099524 0.032177 -0.062020 0.023524 -0.100420 0.006569 0.020638 0.125052 -0.072097
story -0.067930 0.083239 -0.013747 0.006312 -0.155621 0.032652 0.167083 -0.143336 -0.033608 -0.047114 -0.002924 0.092434 -0.084896 -0.110489 0.117953 -0.104478 -0.033525 0.066791 0.097103 -0.091940 -0.004796 -0.011394 0.044365 0.001743 -0.186044 -0.030446 0.041486 0.091349 0.002986 -0.123115 0.163291 0.000574 0.120055 -0.050101 0.066595 -0.150735 0.047985 -0.140161 -0.171237 0.044478 0.211947 0.119716 -0.007530 -0.096712 0.052274 0.033031 -0.151616 0.018488 0.137445 0.173316 -0.125238 0.035523 0.065975 -0.008902 0.206563 -0.074071 0.009613 0.072167 -0.218796 -0.039712 0.122193 -0.013193 0.078353 -0.053008 -0.013652 -0.025515 -0.175807 0.018143 -0.110220 -0.236140 -0.017783 -0.107718 -0.019683 -0.091951 0.051019 0.021086 -0.134948 0.210871 0.081135 -0.125836 0.074987 0.050588 0.123934 0.017648 0.065355 -0.116023 -0.110652 -0.065575 0.131949 -0.026153 -0.153792 0.105678 0.037164 -0.050481 0.004524 -0.102548 0.037691 0.045097 0.087323 -0.097062
money -0.020297 0.012028 -0.033255 0.002637 -0.119212 0.006711 0.196357 -0.068500 -0.031212 -0.030263 -0.046577 0.070725 -0.080429 -0.102811 0.130663 -0.094769 -0.069280 0.094976 0.097848 -0.127654 -0.030917 -0.045712 0.047691 0.023816 -0.206822 -0.024087 0.032646 0.016154 0.016909 -0.143161 0.204962 -0.004962 0.092835 -0.076316 0.060614 -0.113348 0.065333 -0.150320 -0.179502 0.070876 0.259322 0.148399 0.011538 -0.059530 0.055210 -0.008818 -0.133908 0.025531 0.171057 0.176674 -0.076360 0.064807 0.087200 -0.012241 0.185697 -0.075142 -0.040108 0.092058 -0.174689 -0.013164 0.140668 -0.018362 0.028062 -0.078998 -0.012958 0.001987 -0.147339 0.027302 -0.117269 -0.221434 -0.028331 -0.108895 -0.022509 -0.036853 0.093442 0.086421 -0.089910 0.198846 0.081844 -0.112145 0.031234 0.067521 0.138537 0.012910 0.070668 -0.160476 -0.125275 -0.080586 0.068570 -0.001539 -0.149851 0.156409 -0.015359 -0.078515 -0.007877 -0.101314 -0.011511 0.005843 0.085851 -0.052951
call -0.042408 0.030096 -0.051459 -0.027221 -0.156965 0.007365 0.207975 -0.092002 -0.022942 -0.024268 -0.022386 0.098980 -0.075871 -0.142252 0.098362 -0.119717 -0.047245 0.057585 0.094168 -0.087722 -0.019079 -0.045235 0.049396 0.044234 -0.167857 0.000619 0.024735 0.039956 0.029556 -0.087843 0.189570 0.030934 0.091407 -0.048631 0.050970 -0.177203 0.006213 -0.150631 -0.195280 0.089154 0.233902 0.112905 -0.009339 -0.066545 0.064994 0.045460 -0.164707 0.028640 0.167258 0.176900 -0.148851 0.063824 0.052851 0.003088 0.208431 -0.024520 -0.032807 0.114072 -0.224129 -0.039654 0.100081 0.024329 0.069780 -0.050713 0.023338 -0.047764 -0.154891 0.041696 -0.082168 -0.214906 -0.047011 -0.110650 -0.020006 -0.060921 0.053140 0.073327 -0.094765 0.232151 0.082542 -0.096433 0.069357 0.027056 0.119831 0.002049 0.095138 -0.106988 -0.084547 -0.038977 0.105466 -0.015017 -0.152396 0.121030 0.018800 -0.044329 0.019321 -0.115681 0.005283 0.045495 0.095504 -0.049340
lot -0.066387 0.050026 -0.035128 -0.005000 -0.151784 0.003759 0.205642 -0.142442 -0.003804 -0.037472 0.028111 0.081417 -0.039461 -0.143247 0.108814 -0.096692 -0.080047 0.044859 0.042032 -0.122561 -0.037205 -0.021681 0.050567 -0.008578 -0.219711 -0.020139 0.054081 0.060544 0.019505 -0.084619 0.173352 0.013643 0.101305 -0.016180 0.063447 -0.146910 0.055140 -0.142117 -0.175445 0.044331 0.260076 0.093292 0.023324 -0.053404 0.103912 0.066343 -0.127910 0.016608 0.122153 0.185613 -0.134198 0.048273 0.071987 -0.029019 0.225928 -0.026795 -0.045752 0.093940 -0.171470 -0.065096 0.101534 0.023714 0.066216 -0.057366 0.036192 -0.005559 -0.132711 0.016652 -0.087117 -0.243010 -0.059989 -0.087096 0.022229 -0.090263 0.056516 0.049911 -0.142101 0.206517 0.058610 -0.124893 0.058738 0.046506 0.118996 0.032113 0.068768 -0.096563 -0.103484 -0.059198 0.102119 -0.019876 -0.174522 0.136913 0.006691 -0.068240 0.005220 -0.090501 0.039535 0.006264 0.120321 -0.075543
star -0.040732 0.053710 -0.040411 -0.027344 -0.147747 0.023440 0.205676 -0.100607 -0.022082 -0.015924 0.005380 0.105648 -0.080620 -0.110709 0.123936 -0.111152 -0.062829 0.099803 0.039971 -0.101333 -0.049923 -0.005213 0.039223 0.027228 -0.211284 0.011162 0.068774 0.042258 -0.013639 -0.098081 0.162041 0.020969 0.129970 -0.069015 0.095065 -0.183289 0.032230 -0.112111 -0.166848 0.042731 0.220835 0.144277 -0.016080 -0.108688 0.069333 0.034022 -0.130221 0.033220 0.169696 0.220349 -0.108471 0.074518 0.065485 -0.023359 0.208014 -0.057688 0.000884 0.120285 -0.222137 -0.006617 0.107335 0.019911 0.042714 -0.027850 -0.009119 -0.051937 -0.148042 0.006136 -0.106066 -0.230794 -0.040572 -0.118441 0.007976 -0.047149 0.027891 0.025805 -0.103290 0.211336 0.059245 -0.108056 0.059971 0.064974 0.106774 0.004458 0.040990 -0.145190 -0.085464 -0.016016 0.080102 0.004754 -0.189930 0.109901 -0.012000 -0.051548 0.028766 -0.067499 0.009729 0.011694 0.077686 -0.077585
acting -0.038285 0.076142 -0.007567 -0.024147 -0.156606 -0.010459 0.219237 -0.132784 -0.023763 -0.013041 0.023763 0.088368 -0.067091 -0.117273 0.074094 -0.134951 -0.058241 0.050359 0.051996 -0.073844 0.006038 -0.014565 0.051045 -0.002994 -0.173138 -0.019440 0.032763 0.074767 0.035072 -0.126445 0.194847 0.032663 0.114248 -0.032608 0.097748 -0.165494 0.012281 -0.162005 -0.167819 0.073071 0.246422 0.141971 -0.017417 -0.067391 0.076095 0.040733 -0.157408 0.012632 0.125338 0.176615 -0.111396 0.049586 0.056294 -0.022556 0.181016 -0.065726 -0.037335 0.126254 -0.203778 -0.015014 0.092971 0.004157 0.082575 -0.024553 0.007555 -0.050996 -0.149773 0.008936 -0.071102 -0.200675 -0.046981 -0.102697 0.008636 -0.069455 0.063917 0.045822 -0.093903 0.233592 0.100164 -0.098769 0.093158 0.046765 0.133810 0.000525 0.050211 -0.136437 -0.120231 -0.024547 0.107693 -0.023001 -0.159106 0.108838 -0.015867 -0.068721 0.021454 -0.105262 0.015237 0.012633 0.134128 -0.084025
new -0.057090 0.058217 -0.064645 0.012003 -0.127185 0.008362 0.157755 -0.102072 -0.028335 -0.005897 0.021758 0.105840 -0.086445 -0.090797 0.103911 -0.076415 -0.089063 0.048242 0.098413 -0.114753 0.005686 -0.049295 0.040656 0.006099 -0.203337 -0.012333 0.054863 0.097751 -0.011033 -0.108477 0.156137 0.017372 0.117999 -0.012375 0.085472 -0.184362 0.001573 -0.115751 -0.171207 0.032184 0.221656 0.137392 0.020850 -0.075692 0.067012 0.009689 -0.176032 0.013769 0.169475 0.201281 -0.123119 0.050992 0.035265 -0.005265 0.205789 -0.022370 -0.033911 0.129834 -0.176612 -0.065565 0.103419 -0.020964 0.027335 -0.040954 0.016976 -0.003828 -0.161425 0.031640 -0.085120 -0.238493 -0.031100 -0.117084 0.001556 -0.079169 0.028560 0.070691 -0.144798 0.189401 0.064595 -0.101555 0.081044 0.037838 0.113345 -0.003293 0.088606 -0.111936 -0.106154 -0.049883 0.099449 0.018988 -0.193926 0.152228 0.043380 -0.024703 0.026212 -0.104939 -0.002067 0.058678 0.129992 -0.085758
suck -0.067091 0.046323 -0.014652 0.031177 -0.146874 -0.015317 0.165552 -0.096073 -0.021354 -0.008423 -0.030448 0.097064 -0.100711 -0.156625 0.125102 -0.151371 -0.037307 0.052267 0.113887 -0.115968 0.022028 -0.057093 0.053276 0.053605 -0.218142 -0.048754 0.080783 0.089176 -0.019503 -0.092899 0.207786 0.006341 0.059891 -0.055798 0.067547 -0.149692 0.022630 -0.147908 -0.154159 0.090054 0.214591 0.133725 0.004621 -0.093122 0.072529 0.067748 -0.172149 0.012359 0.179667 0.182709 -0.107711 0.007359 0.077575 0.009142 0.169129 -0.073434 0.009624 0.098228 -0.171240 0.002882 0.141322 0.024379 0.069862 -0.079682 0.017119 0.006070 -0.164214 0.021317 -0.070828 -0.196374 -0.022366 -0.096524 0.027412 -0.039617 0.074102 0.073074 -0.076679 0.194533 0.066464 -0.080486 0.118547 0.079135 0.104683 0.058476 0.065604 -0.115698 -0.115906 -0.013550 0.123821 -0.007347 -0.169732 0.135823 0.029611 0.001850 0.004339 -0.138918 0.033964 -0.008996 0.067588 -0.029971
long -0.027692 0.048896 -0.021554 0.032453 -0.138350 -0.001567 0.179794 -0.103897 -0.031697 -0.037294 -0.033043 0.084385 -0.075559 -0.101623 0.122641 -0.084345 -0.027258 0.096799 0.071811 -0.127881 0.007910 -0.067825 0.090458 0.044674 -0.201482 -0.025542 0.061345 0.055026 0.008667 -0.066682 0.163444 0.015608 0.093239 -0.044727 0.064106 -0.122617 0.049901 -0.149292 -0.136082 0.098034 0.243146 0.102863 0.023480 -0.083468 0.061785 0.045689 -0.149213 -0.002412 0.159953 0.184366 -0.119739 0.070078 0.080921 -0.002706 0.218581 -0.027958 -0.052375 0.082233 -0.232129 -0.012048 0.122759 0.015816 0.021597 -0.068221 0.014300 -0.048862 -0.135962 0.061714 -0.056303 -0.232926 -0.027430 -0.097304 -0.006800 -0.082731 0.049886 0.053412 -0.133179 0.222898 0.111366 -0.099182 0.039018 0.055308 0.136016 0.025413 0.089078 -0.131457 -0.101749 -0.067890 0.113782 0.009687 -0.179005 0.108873 0.043126 -0.077257 0.030376 -0.058076 0.022190 0.059397 0.131721 -0.058868
life -0.057597 0.073124 -0.063703 -0.001423 -0.109669 0.035790 0.195183 -0.105598 0.009781 -0.015612 -0.009132 0.088400 -0.055628 -0.126642 0.091027 -0.120517 -0.055730 0.096584 0.067223 -0.102510 -0.031496 -0.050090 0.094377 0.028284 -0.181072 -0.035845 0.059497 0.094231 0.045835 -0.079899 0.203316 -0.008498 0.119727 -0.035858 0.086065 -0.136928 0.033443 -0.126295 -0.201025 0.049608 0.260688 0.096282 -0.011296 -0.081300 0.071910 0.064535 -0.152207 -0.027747 0.141783 0.216667 -0.151396 0.037480 0.050194 0.004536 0.175773 -0.031527 0.003389 0.103687 -0.169892 -0.003849 0.136232 0.006154 0.028662 -0.014251 0.001614 -0.059775 -0.151959 0.057244 -0.099570 -0.231090 -0.009120 -0.059678 -0.019354 -0.052274 0.052993 0.051898 -0.122645 0.180685 0.107569 -0.071167 0.038595 0.049566 0.136476 0.047945 0.089150 -0.104856 -0.096506 -0.021401 0.131070 -0.011597 -0.183460 0.145823 -0.003470 -0.053700 0.052711 -0.110457 0.027238 0.023305 0.130158 -0.041261
feel -0.045384 0.050222 -0.021626 0.008557 -0.141036 -0.002136 0.206824 -0.086539 0.015719 -0.009607 0.001421 0.063203 -0.048301 -0.140971 0.077355 -0.077128 -0.083613 0.037397 0.066432 -0.114798 -0.050911 -0.008075 0.084566 0.014229 -0.227715 -0.023164 0.046608 0.063531 -0.012023 -0.109306 0.194167 0.003399 0.102824 -0.031539 0.053549 -0.165464 0.029257 -0.102176 -0.198449 0.084845 0.234391 0.092702 -0.005161 -0.098408 0.055291 0.014633 -0.175005 0.024201 0.171004 0.215394 -0.137840 0.018331 0.058197 -0.032660 0.190497 -0.037281 -0.020679 0.128108 -0.232302 -0.027483 0.094288 -0.004799 0.084129 -0.044257 0.021943 -0.015648 -0.142924 0.023394 -0.080174 -0.231404 -0.068041 -0.068796 0.004276 -0.051773 0.045212 0.049427 -0.131845 0.210277 0.079873 -0.130852 0.092834 0.003749 0.093020 -0.008931 0.050712 -0.140279 -0.111126 -0.021450 0.122925 -0.009528 -0.134938 0.122273 0.035179 -0.033341 0.002725 -0.069563 -0.002521 0.045083 0.112456 -0.042698
piece -0.029161 0.058731 -0.055645 -0.016504 -0.142342 0.005831 0.212893 -0.131206 -0.013233 -0.037121 0.014175 0.092309 -0.093085 -0.120513 0.096836 -0.108571 -0.056055 0.062547 0.046330 -0.103115 -0.051622 -0.042887 0.062683 0.042993 -0.206488 0.012494 0.059461 0.051214 0.034952 -0.069219 0.194386 0.012982 0.083129 -0.064560 0.094152 -0.166576 0.029526 -0.111727 -0.179090 0.075414 0.251361 0.106836 0.025158 -0.045524 0.090111 0.017138 -0.125327 -0.011086 0.168271 0.203336 -0.140009 0.018517 0.079439 0.004836 0.201282 -0.053527 -0.038940 0.073094 -0.225367 -0.031550 0.080912 -0.015055 0.058908 -0.045627 -0.020869 -0.022544 -0.125405 0.036548 -0.106761 -0.230632 -0.038292 -0.102143 0.029277 -0.042127 0.055201 0.026129 -0.128869 0.215039 0.090677 -0.127336 0.051416 0.053446 0.138609 -0.008639 0.094480 -0.085053 -0.097449 -0.004343 0.132731 -0.024479 -0.144194 0.118361 0.039429 -0.023163 0.033208 -0.101309 0.034923 0.000925 0.084673 -0.087888
friendly -0.048323 0.035613 -0.047230 -0.023341 -0.125675 0.031310 0.215538 -0.133873 0.002847 -0.041008 0.002240 0.055045 -0.093573 -0.131000 0.113565 -0.106542 -0.073454 0.064125 0.038535 -0.123447 -0.033357 -0.008663 0.091063 -0.005811 -0.164418 -0.024002 0.062019 0.086284 0.042337 -0.069771 0.180815 -0.009877 0.069284 -0.072163 0.043800 -0.166608 0.057376 -0.132435 -0.176403 0.088093 0.261324 0.123556 0.039307 -0.066782 0.086422 0.063495 -0.146892 0.034864 0.176295 0.172964 -0.091111 0.058976 0.023263 -0.055339 0.184208 -0.041857 -0.002303 0.120560 -0.201837 -0.002848 0.087291 0.011522 0.046345 -0.076039 -0.010276 -0.042878 -0.168608 0.053441 -0.072813 -0.218499 -0.046017 -0.078875 -0.030460 -0.086260 0.035373 0.046934 -0.102107 0.229040 0.058918 -0.126860 0.092922 0.008747 0.127392 0.019894 0.056941 -0.108948 -0.070672 -0.050672 0.119557 -0.027169 -0.171088 0.120349 0.020752 -0.056432 0.036536 -0.120442 0.045064 0.026344 0.133281 -0.039659
actor -0.088975 0.066998 -0.037996 -0.031114 -0.120273 -0.019534 0.187297 -0.123923 0.010783 -0.022623 -0.029786 0.073701 -0.094569 -0.124654 0.096320 -0.121369 -0.046652 0.053212 0.053014 -0.077607 -0.006944 -0.050616 0.069824 0.030487 -0.187299 -0.007006 0.063872 0.052651 0.018441 -0.090665 0.174375 -0.009502 0.091398 -0.050072 0.102266 -0.158791 0.006115 -0.155696 -0.183220 0.096917 0.252470 0.142063 -0.017391 -0.057995 0.054240 0.023712 -0.150733 0.023669 0.171785 0.198111 -0.124061 0.023390 0.078517 -0.021983 0.223543 -0.037548 0.009786 0.089168 -0.194650 -0.042446 0.136453 0.015742 0.084298 -0.043097 0.005350 -0.015097 -0.117540 0.004269 -0.098151 -0.210204 -0.018904 -0.107254 -0.019141 -0.050349 0.073408 0.046111 -0.106133 0.211592 0.116550 -0.120325 0.073544 0.031872 0.137905 0.001101 0.051564 -0.148508 -0.111500 -0.062511 0.082679 0.006324 -0.141007 0.132713 0.012792 -0.028385 0.040914 -0.090494 0.033189 0.043706 0.116109 -0.047391
day -0.050876 0.056727 -0.055921 0.023815 -0.115188 0.011355 0.168276 -0.146202 -0.005511 -0.038406 0.011147 0.106220 -0.048277 -0.134034 0.070984 -0.109295 -0.034985 0.092641 0.098699 -0.094679 -0.010052 -0.039429 0.039650 0.047467 -0.224943 -0.012643 0.025118 0.085496 0.014129 -0.086373 0.156228 0.008896 0.083475 -0.021477 0.071415 -0.147067 0.011097 -0.165755 -0.205140 0.095834 0.214761 0.098245 -0.016639 -0.088912 0.092956 0.059775 -0.162553 0.031403 0.174804 0.172290 -0.132268 0.042190 0.043659 -0.047749 0.227004 -0.013688 -0.025006 0.101559 -0.217434 -0.042458 0.113576 0.042419 0.049388 -0.024579 0.031051 -0.046919 -0.171098 0.011194 -0.108774 -0.225132 -0.041405 -0.106531 0.002370 -0.062545 0.074292 0.064447 -0.094571 0.202552 0.074998 -0.120750 0.043615 0.062881 0.117807 0.017685 0.057738 -0.097627 -0.122661 -0.044598 0.109382 -0.007425 -0.157221 0.132400 0.042534 -0.034191 0.043403 -0.095011 0.031978 0.044282 0.078696 -0.058341
happy -0.046890 0.079542 -0.020593 -0.034100 -0.100923 0.003072 0.221796 -0.101217 -0.052915 -0.057194 -0.009000 0.117519 -0.103300 -0.084660 0.061312 -0.092858 -0.094337 0.035695 0.069686 -0.117963 -0.047830 -0.036681 0.063873 0.041644 -0.157132 -0.006758 0.061316 0.037456 0.018000 -0.077543 0.194328 -0.015921 0.104747 -0.009316 0.116489 -0.155233 0.039147 -0.132287 -0.166442 0.033900 0.244528 0.088958 0.037385 -0.115673 0.108076 0.037625 -0.124240 0.002529 0.110213 0.225687 -0.084160 0.054989 0.085933 0.023517 0.237080 -0.056345 0.015345 0.053453 -0.174061 -0.062273 0.151367 0.061123 0.059691 -0.027642 0.036555 -0.069849 -0.124359 0.020711 -0.092776 -0.253919 -0.030851 -0.097961 0.018158 -0.107492 0.045241 0.087974 -0.100111 0.241078 0.089020 -0.119734 0.081149 -0.005622 0.144279 -0.018723 0.030794 -0.078458 -0.069386 -0.032205 0.106324 0.036272 -0.155446 0.127318 0.023328 -0.001435 0.009778 -0.105531 -0.018068 -0.002901 0.101532 -0.084115
many -0.046629 0.037409 -0.030506 -0.026160 -0.152111 -0.007100 0.207044 -0.124619 -0.006772 -0.013915 0.013886 0.109765 -0.066618 -0.093922 0.071571 -0.119140 -0.057693 0.039631 0.062987 -0.123294 -0.002608 -0.050981 0.072966 0.046880 -0.189752 -0.043128 0.075474 0.047160 0.016060 -0.074798 0.156256 0.025514 0.097687 -0.048049 0.102801 -0.185177 0.019069 -0.138367 -0.175216 0.045758 0.219871 0.142065 0.019246 -0.076130 0.077495 0.067450 -0.146357 0.016313 0.171877 0.184015 -0.144714 0.069504 0.035318 -0.024528 0.229377 -0.051552 -0.009051 0.082000 -0.230194 -0.062464 0.119961 0.008456 0.061319 -0.031179 -0.013943 -0.049211 -0.147309 0.026676 -0.087463 -0.223006 -0.060627 -0.072095 0.021707 -0.063172 0.063283 0.065115 -0.105548 0.223038 0.093983 -0.106085 0.093380 0.028843 0.092404 -0.004563 0.047140 -0.095184 -0.103220 -0.022107 0.110122 0.020642 -0.156857 0.146118 -0.003301 -0.042363 0.021050 -0.085664 0.037037 0.021936 0.123373 -0.038294
plot -0.089853 0.068405 -0.025292 -0.031491 -0.106967 -0.002447 0.187789 -0.111757 0.006848 0.007340 0.002000 0.095656 -0.053420 -0.115924 0.057267 -0.089867 -0.063013 0.086911 0.046180 -0.130917 -0.032962 -0.042394 0.083488 -0.012085 -0.187504 0.014854 0.035776 0.041002 0.035565 -0.113758 0.198211 0.000744 0.108210 -0.045377 0.077029 -0.148315 0.045052 -0.114896 -0.164904 0.034805 0.261380 0.096371 0.015821 -0.082499 0.109418 0.046663 -0.118548 0.035320 0.170784 0.203208 -0.118436 0.076627 0.033446 -0.004153 0.226212 -0.039001 -0.024028 0.126745 -0.218969 -0.022645 0.127359 0.042199 0.072975 -0.039357 -0.001067 -0.058887 -0.141606 0.004318 -0.062664 -0.211042 -0.005611 -0.101122 -0.029433 -0.081813 0.053642 0.058030 -0.142853 0.218360 0.105495 -0.102654 0.045773 0.041269 0.110923 0.026967 0.076443 -0.129363 -0.087731 -0.010853 0.121148 -0.026703 -0.140551 0.156513 -0.022584 -0.010641 0.039728 -0.099642 0.051149 0.035509 0.103373 -0.062366
restaurant -0.034428 0.023676 -0.014006 0.009255 -0.109413 0.009742 0.174547 -0.108771 0.026625 -0.018930 -0.011225 0.096366 -0.038021 -0.141332 0.087768 -0.094683 -0.077026 0.048144 0.036629 -0.103135 0.010012 -0.022832 0.066122 -0.001892 -0.170455 -0.034778 0.040175 0.074351 0.025641 -0.122077 0.188723 -0.016611 0.124563 -0.040418 0.066718 -0.124114 0.026436 -0.147536 -0.136887 0.099192 0.263641 0.153724 0.015708 -0.058106 0.107143 0.060078 -0.160382 0.036556 0.158237 0.179734 -0.150523 0.033528 0.058562 -0.046993 0.213295 -0.028143 -0.005511 0.099664 -0.222253 -0.060071 0.120463 0.028355 0.041528 -0.082899 0.016505 -0.062495 -0.171327 0.019691 -0.092320 -0.223391 -0.024418 -0.097238 0.026289 -0.047255 0.047638 0.023208 -0.148545 0.194164 0.117430 -0.122336 0.081100 0.028968 0.142196 -0.008628 0.063721 -0.104618 -0.073035 -0.074266 0.087837 0.030237 -0.159290 0.115125 0.007926 -0.072375 0.048499 -0.057393 0.020068 0.025411 0.138642 -0.073342
far -0.026493 0.024611 -0.031741 0.044836 -0.177491 0.028041 0.179196 -0.097221 -0.010865 -0.051932 -0.041058 0.064157 -0.062657 -0.160669 0.105178 -0.149664 -0.099555 0.075159 0.043815 -0.103974 -0.035309 0.009906 0.027770 0.066579 -0.221281 -0.047491 0.005126 0.028348 0.020477 -0.102509 0.204168 0.046975 0.138157 -0.005409 0.042141 -0.128200 0.007983 -0.149166 -0.139315 0.115294 0.236422 0.086579 -0.023916 -0.065535 0.050341 0.061188 -0.148496 -0.021447 0.164150 0.233593 -0.154441 0.020857 0.026685 -0.060198 0.171653 -0.044585 0.003762 0.075991 -0.188809 -0.007020 0.074060 0.040554 0.082379 -0.011728 0.001937 -0.023738 -0.111443 0.048276 -0.078072 -0.215258 -0.032093 -0.063412 -0.000464 -0.032977 0.087498 0.090578 -0.131017 0.174632 0.088552 -0.118232 0.114898 0.042124 0.107811 0.018581 0.072108 -0.163867 -0.097716 -0.072218 0.132377 0.022026 -0.160681 0.103453 -0.004320 -0.067959 0.022384 -0.092067 -0.012302 0.045366 0.091951 -0.099896
poor -0.082982 0.025465 -0.048416 -0.019827 -0.170521 0.058751 0.207279 -0.072887 -0.030739 0.009413 -0.032560 0.081944 -0.039708 -0.104681 0.059355 -0.056170 -0.029649 0.015779 0.097699 -0.137147 0.012526 -0.084363 0.111875 0.038733 -0.198830 0.021685 0.074451 0.069564 -0.010749 -0.128497 0.141275 0.014743 0.094993 -0.003423 0.107103 -0.166926 0.041496 -0.166438 -0.193196 0.077608 0.194815 0.082969 0.058294 -0.064094 0.105455 0.037811 -0.179728 0.024768 0.196062 0.183043 -0.145737 0.030516 0.095394 0.014143 0.202782 -0.075343 -0.074283 0.100692 -0.167453 -0.063548 0.064472 0.005024 0.084080 0.000007 0.034651 -0.015450 -0.169885 -0.012524 -0.071962 -0.197222 -0.091397 -0.118080 -0.045208 -0.078216 0.007929 0.015124 -0.066589 0.203469 0.095266 -0.048867 0.119346 0.076873 0.124557 -0.014667 0.040797 -0.096706 -0.107978 -0.011065 0.084455 -0.012923 -0.205013 0.096185 0.039063 -0.033108 0.003475 -0.056727 0.029365 0.048640 0.112299 -0.115136
worth -0.102565 0.052184 -0.008476 0.027352 -0.168469 0.027878 0.177514 -0.116842 0.030611 -0.028927 -0.020638 0.081212 -0.080875 -0.129124 0.070494 -0.112525 -0.050515 0.055548 0.078234 -0.132027 -0.041665 -0.016321 0.081497 0.063091 -0.193850 -0.008871 0.068564 0.023395 0.012479 -0.100930 0.172044 -0.006069 0.101236 -0.024784 0.116282 -0.142079 0.008799 -0.151548 -0.145786 0.096762 0.218007 0.088942 0.019332 -0.060743 0.091081 0.022201 -0.164794 -0.028054 0.167106 0.163469 -0.158753 0.023739 0.080911 -0.042605 0.172863 -0.032889 -0.028109 0.054628 -0.228410 -0.038180 0.094430 0.032135 0.038103 -0.077616 0.017205 -0.004594 -0.157284 -0.013020 -0.042820 -0.218526 -0.056112 -0.111034 0.022590 -0.048701 0.060272 0.011744 -0.140585 0.224201 0.046505 -0.138232 0.098427 0.077975 0.101712 0.042377 0.038957 -0.090284 -0.133212 -0.069842 0.088801 -0.005731 -0.197860 0.113650 0.008464 -0.066816 0.045204 -0.115007 0.041219 0.060717 0.097246 -0.071904
