201 100
not 0.122213 -0.076859 0.049073 -0.077277 0.016513 -0.004443 -0.025218 0.117424 0.083761 0.098535 -0.113877 0.012740 -0.117021 -0.025365 0.016104 0.002052 -0.285270 0.164996 -0.059153 0.125233 -0.164357 -0.162465 -0.044695 0.018990 -0.110437 -0.004723 0.021021 0.003918 -0.031711 0.130277 -0.016758 0.104611 -0.067638 -0.081391 -0.123213 -0.077114 -0.002146 -0.009555 -0.011031 -0.098529 0.048174 0.042871 -0.028633 -0.125347 0.093472 0.038828 0.014465 -0.091326 0.038238 0.077178 0.166229 0.144365 0.109204 -0.010065 0.297684 0.040588 0.164502 -0.073735 -0.049178 -0.028222 -0.069371 -0.161579 0.055996 0.066362 -0.176733 -0.045330 0.060503 0.055858 -0.088890 -0.117151 -0.090770 -0.212015 -0.097838 0.014357 0.034682 -0.029312 0.094414 0.121203 0.002178 -0.062296 -0.052880 -0.084704 -0.028995 0.143249 -0.039586 -0.157825 0.042291 0.087870 0.188023 -0.174127 -0.123195 0.139579 0.048728 -0.098218 0.081646 0.042216 -0.042952 0.020033 -0.160602 0.041341
 -0.143319 0.025509 0.125474 0.141153 0.027804 0.135428 -0.014135 -0.009672 0.168378 0.129070 0.078161 0.127974 0.145384 0.125749 0.044734 -0.157148 -0.143266 0.019825 0.086165 -0.054559 0.000217 0.141795 -0.093155 -0.065752 0.159372 -0.160764 -0.028594 0.071271 0.149673 -0.058682 -0.088111 -0.109956 0.054158 -0.052982 -0.076357 0.049246 -0.095727 -0.058353 0.056546 -0.063525 0.011954 0.001566 0.033102 0.000840 -0.068542 -0.164221 -0.165723 -0.070506 0.170128 0.118445 0.123155 -0.043360 0.171174 -0.062260 -0.154679 -0.067085 0.038376 -0.163994 -0.045417 -0.041463 0.094126 -0.032112 0.148545 0.041152 -0.025043 -0.042596 -0.099714 0.152717 -0.036721 -0.143774 -0.049791 -0.085833 0.025296 -0.109940 -0.092649 0.111498 -0.025141 0.112452 0.042910 -0.071600 -0.058483 0.104291 -0.092126 -0.107927 -0.095299 0.035400 0.133350 -0.143510 -0.118620 -0.119056 -0.168592 -0.140738 -0.155987 -0.006886 -0.044476 0.087895 -0.087642 -0.064914 0.046922 0.096962
very 0.184516 -0.011601 0.065954 -0.149778 -0.049989 0.024685 -0.018017 0.103714 0.126270 0.032739 -0.133551 -0.079539 -0.131666 -0.066030 -0.017451 0.055505 -0.265411 0.131714 -0.031756 0.116722 -0.187131 -0.093705 -0.098462 0.056529 -0.152548 -0.026554 0.093588 -0.041347 0.017251 0.115139 0.003097 0.149952 -0.049703 -0.007791 -0.111151 -0.083153 0.051895 0.056314 -0.055408 -0.073159 0.087819 -0.010513 -0.017174 -0.220587 0.106596 0.034324 -0.037571 -0.113497 -0.026042 0.053663 0.200890 0.106079 0.091401 0.028848 0.314473 0.054267 0.173312 -0.044240 -0.007753 -0.093085 -0.005432 -0.120152 -0.012587 0.035123 -0.145444 -0.012009 -0.006996 0.075382 -0.039855 -0.132649 -0.048185 -0.148255 -0.029372 0.010542 0.063321 -0.036635 0.061810 0.109597 0.015195 -0.053391 -0.116666 -0.066379 -0.107865 0.055394 0.037155 -0.143227 0.085989 0.125802 0.184400 -0.097381 -0.117073 0.093984 -0.007090 -0.027988 0.110952 0.065353 -0.059069 0.065209 -0.126162 0.076326
good 0.089430 -0.013929 0.096887 -0.157728 -0.074511 -0.026725 -0.015239 0.117815 0.019474 -0.003551 -0.022760 0.059051 -0.086637 -0.018337 0.029049 0.025492 -0.169105 0.136122 -0.057284 0.155885 -0.155814 -0.168671 -0.030444 0.020764 -0.055152 0.044330 -0.002823 0.022153 0.046461 0.093219 0.008339 0.153455 0.002894 -0.120578 -0.124874 -0.099747 -0.038713 -0.011424 0.019843 -0.034717 0.064604 0.108555 -0.066322 -0.204064 0.051119 0.069963 -0.017646 -0.122244 0.081886 0.068660 0.163104 0.049008 0.132334 -0.029565 0.237621 0.095512 0.155995 -0.137740 0.025768 -0.047828 -0.028131 -0.151854 0.078748 0.119357 -0.113011 -0.057118 0.030191 -0.001939 -0.134520 -0.083140 -0.143638 -0.194254 -0.084411 0.023555 -0.029899 -0.073714 0.106981 0.059244 0.004896 -0.063710 -0.125671 -0.009806 -0.055304 0.124898 -0.049975 -0.197929 -0.031508 0.064163 0.175633 -0.178742 -0.146428 0.121861 0.050791 -0.127176 0.075305 0.110546 -0.047627 -0.030488 -0.200838 0.132920
great 0.195218 -0.080493 0.119262 -0.074215 -0.070904 -0.056966 -0.083958 0.120115 0.118213 0.118053 -0.145970 0.058726 -0.111258 0.018461 -0.057951 0.075270 -0.269349 0.175914 -0.078528 0.005027 -0.110341 -0.040592 0.031038 0.073679 -0.087233 -0.081561 0.124629 -0.047265 -0.049483 0.055316 0.077813 0.048024 -0.090527 -0.115422 -0.009011 -0.160200 0.040669 0.084385 0.057443 -0.108121 -0.018380 -0.014059 0.049270 -0.051708 -0.004251 0.006624 0.014421 -0.138052 -0.029159 0.054132 0.127982 0.129011 0.052450 -0.019129 0.311081 0.038255 0.164184 -0.036324 -0.018243 0.024137 -0.125454 -0.121254 0.075470 -0.016302 -0.165569 -0.040572 0.037261 0.084881 -0.045856 -0.115597 -0.136071 -0.066945 -0.045432 -0.049592 0.023179 -0.065278 0.092748 0.073638 0.049582 -0.015403 0.012326 -0.102193 -0.069597 0.071049 -0.013944 -0.191705 -0.036362 -0.020739 0.194381 -0.207183 -0.169184 0.114112 0.064068 -0.080271 0.063299 0.016927 -0.113645 0.095180 -0.176271 0.066312
so 0.211977 -0.022281 0.055122 -0.067894 -0.015837 -0.020526 0.023147 0.124298 0.117023 0.090921 -0.108174 0.007339 -0.077234 -0.067934 -0.042404 -0.037789 -0.239398 0.121725 -0.084911 0.163620 -0.190297 -0.112585 -0.099554 0.069207 -0.094725 -0.013457 0.062201 -0.040282 -0.070646 0.064081 -0.020045 0.064094 -0.062810 -0.096202 -0.096444 -0.105223 -0.049480 0.002245 -0.021407 -0.136802 0.079663 0.033340 0.051840 -0.161168 0.154979 0.017963 0.068033 -0.066816 0.015411 0.063678 0.182307 0.129853 0.122172 -0.076637 0.209565 0.083802 0.146056 -0.054093 -0.049835 -0.008687 -0.028088 -0.123884 0.085713 0.094752 -0.161212 -0.079879 0.086833 0.036391 -0.056752 -0.161904 -0.150594 -0.135130 -0.053120 -0.021602 0.062713 -0.006449 0.030429 0.160022 0.017207 -0.095129 -0.083368 -0.074093 -0.099285 0.052766 -0.027384 -0.165421 0.032462 0.120507 0.178413 -0.191324 -0.170232 0.144674 0.096662 -0.053362 0.048893 0.023355 0.002703 -0.014883 -0.098359 0.087929
just 0.112089 -0.024045 0.013323 -0.151588 0.029901 0.061515 0.000584 0.123158 0.084631 0.142317 -0.054445 -0.025207 -0.035900 -0.036845 -0.069037 0.043484 -0.218179 0.106360 0.041216 0.082591 -0.143219 -0.115534 -0.136308 0.040969 -0.058036 -0.075536 0.005234 -0.056574 0.070465 0.141655 0.064107 0.080643 -0.071859 -0.069827 -0.074020 -0.027913 -0.003298 0.077845 -0.013619 -0.117707 0.008092 0.067346 0.045893 -0.091492 0.137822 -0.036308 0.019199 -0.047215 0.064416 0.032941 0.177471 0.163581 0.173182 -0.027630 0.273809 0.061746 0.145955 -0.015916 -0.071518 -0.052786 -0.111437 -0.185594 0.090084 0.095167 -0.116704 -0.009988 -0.018668 0.089427 -0.121592 -0.149498 -0.140737 -0.215183 -0.074466 -0.073715 -0.026036 -0.059719 0.080921 0.089181 0.047380 -0.121041 -0.091777 -0.066362 -0.025697 0.054559 -0.016331 -0.203013 0.100957 0.127250 0.211974 -0.139799 -0.134570 0.046473 0.037182 -0.066001 -0.002582 0.055211 0.007011 0.077387 -0.181846 0.064910
really 0.111326 -0.078793 -0.009603 -0.175115 0.062657 -0.014920 -0.104561 0.154281 0.063037 0.071999 -0.122546 -0.108107 -0.125447 0.009403 0.050507 0.034641 -0.248094 0.133133 -0.041188 0.043471 -0.108232 -0.136374 -0.048328 0.074044 -0.035885 0.041552 0.089635 -0.043083 -0.072687 -0.004433 0.004689 0.048030 0.012376 -0.103681 -0.005861 -0.133683 -0.033821 -0.018825 -0.023986 -0.052857 -0.013389 0.045990 -0.044328 -0.207422 0.146939 -0.073156 0.001236 -0.021288 0.049871 0.021796 0.038973 0.166083 0.095403 -0.116214 0.252946 0.037474 0.225566 -0.048478 0.037757 -0.023448 -0.029986 -0.146471 0.028382 0.061955 -0.162208 -0.065508 0.092361 0.096714 -0.042586 -0.007854 -0.119678 -0.149441 -0.116297 -0.075271 0.112578 -0.017228 0.142171 0.082787 -0.055438 -0.068540 -0.103863 -0.164794 -0.039816 0.181931 -0.001953 -0.240877 0.122190 0.079415 0.156256 -0.129033 -0.092833 0.032291 -0.019913 -0.137028 0.034528 0.005809 0.023984 0.119268 -0.043272 0.102310
could 0.121490 -0.018827 0.072282 -0.114692 -0.011546 -0.021937 -0.075049 0.087531 -0.004154 0.093863 -0.060582 -0.036693 -0.145852 0.035165 -0.055302 -0.007545 -0.230494 0.054167 -0.027028 0.057145 -0.116006 -0.080565 -0.075278 0.022430 -0.052675 0.048136 0.059766 -0.074432 0.059136 0.138355 -0.007589 0.056158 -0.006210 -0.112987 -0.168665 -0.130950 -0.022755 0.073110 0.015443 -0.061623 0.036730 0.031302 0.049430 -0.182169 0.142104 -0.034305 -0.063656 -0.012169 0.058915 0.034340 0.143515 0.186728 0.173077 -0.072026 0.267266 0.027310 0.135206 -0.039473 0.030638 -0.077373 -0.049438 -0.230718 0.106518 0.071456 -0.178062 -0.028148 0.028466 0.116751 -0.112181 -0.051773 -0.040952 -0.155653 -0.092287 -0.020672 0.103443 0.025871 0.005993 0.028391 0.039044 -0.141638 -0.045284 -0.150877 -0.030470 0.156494 -0.039634 -0.163133 0.053838 0.083704 0.145137 -0.166715 -0.156963 0.129170 0.102254 -0.077557 0.107999 -0.017024 0.013947 0.082237 -0.195975 0.074866
will 0.156810 -0.030861 0.064806 -0.094123 -0.044910 0.051116 -0.093619 0.027497 0.122334 0.010341 -0.038408 -0.027432 -0.089437 -0.049301 0.035164 0.036861 -0.250641 0.152010 -0.000432 0.135295 -0.144103 -0.185504 -0.096864 0.037892 -0.130707 0.002926 0.049533 -0.027434 -0.034766 0.122866 -0.003942 0.112714 -0.060638 -0.000749 -0.136566 -0.044652 0.050059 0.016982 -0.012308 -0.044108 0.026275 0.007492 -0.038640 -0.143946 0.131847 0.025073 -0.035296 -0.013621 0.049037 0.132752 0.187157 0.101924 0.068420 -0.008858 0.315834 0.083636 0.183848 -0.137057 -0.063576 0.034892 -0.005500 -0.183980 0.099790 0.018220 -0.157510 0.012829 0.062668 0.091371 -0.019624 -0.089257 -0.139376 -0.217857 -0.045316 -0.064501 0.054454 0.013400 0.072438 0.095724 -0.020813 -0.066880 -0.111729 -0.131792 -0.003629 0.067908 0.044988 -0.207395 -0.015993 0.043763 0.161442 -0.141059 -0.125162 0.124058 0.004671 -0.133177 0.064934 0.011547 -0.067476 0.000431 -0.135195 0.044584
would 0.149957 -0.078656 0.051171 -0.086750 -0.083495 -0.053037 0.000892 0.048770 0.039850 0.083222 -0.146335 -0.060598 -0.089155 0.046172 -0.056953 -0.022038 -0.186286 0.161451 0.012664 0.158684 -0.143370 -0.105135 -0.020111 -0.024740 -0.080975 0.000590 -0.022116 -0.055922 -0.015808 0.068777 -0.023455 0.129431 -0.015057 0.010023 -0.075109 -0.016413 -0.032335 -0.017658 -0.065141 -0.097984 -0.004846 0.067246 -0.030902 -0.093922 0.091192 0.079693 0.023144 -0.067866 0.102966 0.142978 0.175166 0.113384 0.181786 -0.062696 0.307384 0.064701 0.197701 -0.128188 -0.069224 -0.085837 0.015637 -0.138976 0.022633 0.100874 -0.174094 -0.029853 0.011788 0.052873 -0.052400 -0.048011 -0.098798 -0.204218 -0.065621 -0.074179 -0.026712 -0.074480 0.020909 0.123619 -0.038975 -0.130669 -0.076875 -0.086759 -0.004224 0.152634 0.039379 -0.228660 0.075865 0.018297 0.134784 -0.147615 -0.046624 0.081655 0.038869 -0.097926 0.115163 0.122622 0.020103 0.005627 -0.204255 0.136484
bad 0.185009 -0.028082 0.026615 -0.171470 -0.063224 -0.059369 0.025968 0.003808 0.116647 0.086959 -0.150592 -0.044817 -0.056475 -0.015216 0.021161 -0.054790 -0.259645 0.078486 -0.100881 0.144251 -0.053584 -0.165220 -0.009180 -0.056307 -0.118583 -0.084195 0.059655 -0.006529 0.021605 0.133669 -0.020871 0.099473 0.008225 -0.115058 -0.148356 -0.097880 -0.057468 -0.050671 -0.039446 -0.091190 0.096770 0.067552 0.061604 -0.174761 0.120128 0.065257 0.010969 -0.082126 0.047599 0.063227 0.101950 0.095035 0.077213 -0.103173 0.279108 0.100244 0.117178 -0.104461 0.044015 -0.075368 0.017897 -0.213335 0.011686 0.106090 -0.102754 0.007127 0.048041 0.076746 -0.108622 -0.095268 -0.024805 -0.091385 -0.117250 -0.020973 -0.013225 0.008418 0.124360 0.017750 0.034400 -0.006065 -0.035598 -0.104111 -0.078256 0.126543 0.035194 -0.151338 0.016279 0.111932 0.220001 -0.213545 -0.053298 0.139806 -0.000972 -0.027298 0.042839 0.101236 -0.042271 0.009076 -0.190006 0.099493
well 0.187509 -0.004235 0.048627 -0.090744 -0.071521 0.033909 0.024954 0.020647 0.027970 0.095109 -0.139138 -0.072987 -0.163679 -0.061015 0.055777 -0.061408 -0.263045 0.132770 0.044892 0.159946 -0.081647 -0.092210 -0.004027 -0.011392 -0.068307 -0.041382 0.065639 -0.040463 0.045265 0.101813 0.067340 0.149744 -0.013335 -0.123480 -0.133184 -0.059345 0.067747 -0.022646 0.003800 -0.005304 0.105372 0.087911 -0.022676 -0.149652 0.001019 -0.035714 -0.008815 -0.119431 0.053365 0.100624 0.101209 0.113498 0.166228 0.040853 0.299105 0.093274 0.177623 -0.034247 0.028854 0.001433 -0.032009 -0.135920 0.033771 0.062503 -0.205973 0.066062 0.068230 0.053210 -0.139530 -0.070437 -0.121440 -0.186366 -0.110937 -0.001758 0.056916 -0.094337 0.089839 0.139054 0.046548 -0.099173 -0.104704 0.006085 -0.077168 0.144102 0.012349 -0.172232 -0.012049 0.119659 0.107149 -0.176157 -0.113076 0.078595 0.053959 -0.034941 -0.005698 0.118294 -0.094640 0.046469 -0.087692 -0.015202
only 0.194880 -0.032264 0.022216 -0.007612 -0.065445 -0.030375 0.046288 0.042972 0.014631 0.027601 -0.049772 -0.018872 -0.101292 -0.006467 0.085713 -0.071848 -0.241611 0.064066 -0.111437 0.096323 -0.152204 -0.176153 0.011112 0.032972 -0.021852 -0.057610 0.028129 -0.013422 0.015945 0.160352 0.042649 0.060628 -0.097822 -0.011226 -0.091012 -0.166230 0.098059 0.094762 -0.066385 -0.051210 0.065816 0.109426 -0.047731 -0.203610 0.104750 -0.047032 -0.035918 -0.010202 0.114773 0.159992 0.041827 0.192194 0.183646 -0.079417 0.283698 -0.015674 0.144349 -0.122213 0.065955 0.006011 -0.042937 -0.201927 0.111525 0.124953 -0.103874 0.018013 0.018657 0.003914 -0.038213 -0.039880 -0.146315 -0.169166 -0.100424 -0.070330 0.105496 -0.038622 -0.017891 0.070340 0.101758 -0.157209 -0.034725 -0.073810 -0.039547 0.111314 0.015367 -0.171431 0.052368 0.106930 0.216030 -0.123577 -0.025910 0.042631 0.018767 -0.051879 -0.043899 0.048859 -0.120596 0.072060 -0.049777 0.054253
here 0.102109 -0.024414 0.003271 -0.169052 0.000272 0.082892 -0.086038 0.030866 0.014216 0.075566 -0.091563 0.040107 -0.095142 -0.060000 -0.054160 0.085986 -0.201158 0.166052 0.044905 0.113826 -0.115722 -0.083303 -0.111201 -0.054771 -0.139713 -0.062703 -0.000143 -0.009637 0.038940 0.068671 0.070466 0.157672 -0.087640 -0.112492 -0.149950 -0.087065 -0.043162 -0.016760 0.032812 -0.155162 0.046629 0.106410 0.074723 -0.099198 0.049030 0.065941 0.061200 -0.065893 -0.024412 0.048341 0.135278 0.102743 0.179964 -0.070670 0.249069 0.045887 0.206683 -0.057781 -0.051426 -0.071736 0.013693 -0.140459 0.064175 0.037252 -0.107480 0.053228 -0.025478 0.109143 0.005211 -0.171084 -0.118231 -0.174268 -0.086066 -0.065083 0.040368 0.048987 0.108270 0.050702 0.058720 -0.101877 -0.088490 -0.012096 0.002694 0.153967 0.003639 -0.215019 0.089267 0.142904 0.157302 -0.175240 -0.065879 0.150657 0.055859 -0.090701 -0.023135 0.011543 -0.083893 0.107357 -0.165331 0.053081
even 0.118144 -0.003700 0.008461 -0.061673 0.006722 0.026579 -0.067203 0.092143 0.101151 0.020314 -0.150793 -0.046509 -0.107834 -0.002526 0.009858 0.065109 -0.288491 0.195411 -0.068859 0.044147 -0.100014 -0.138212 -0.076309 0.019091 -0.080335 -0.081221 0.043870 -0.016599 -0.018270 0.113648 0.081362 0.156589 0.009215 -0.080311 -0.039251 -0.077022 0.089471 0.023765 -0.017802 -0.148672 0.114204 0.091587 -0.010949 -0.222151 0.032370 0.080660 -0.056128 -0.053190 0.038051 0.054361 0.132275 0.108838 0.035645 0.016234 0.230956 0.028340 0.129961 -0.090790 0.054673 0.052924 -0.003456 -0.225673 0.007657 0.009682 -0.190280 0.035151 0.076364 0.120559 -0.014158 -0.072206 -0.109385 -0.172353 -0.009216 0.050602 -0.031316 -0.013071 0.124083 0.100092 0.104395 -0.138478 -0.030499 -0.019405 -0.076409 0.055246 0.062783 -0.178818 0.083403 0.109320 0.088327 -0.228713 -0.124790 0.042363 0.092907 -0.127945 0.036640 0.089675 -0.061418 0.049182 -0.211898 0.028510
also 0.053306 -0.073703 -0.034739 -0.040986 0.064637 0.056286 -0.096871 0.029557 0.045011 -0.013922 -0.093384 0.073197 -0.092734 0.027272 0.005956 -0.067994 -0.269114 0.156494 0.036046 0.055496 -0.047434 -0.229177 0.015576 0.011465 -0.042699 0.054556 0.013450 0.059392 0.030759 0.056955 0.054139 0.033213 -0.013049 -0.099101 -0.155327 -0.085493 0.071394 0.001881 -0.005972 -0.032431 0.074797 0.024436 0.011516 -0.115476 0.168881 0.070237 -0.086068 -0.017805 0.021758 0.101651 0.124169 0.204726 0.197667 -0.067933 0.331306 0.085038 0.188434 -0.139958 -0.050447 -0.060601 -0.072956 -0.156620 -0.012104 0.145619 -0.034643 -0.017660 0.005360 0.126241 -0.064855 -0.139627 -0.099339 -0.055685 0.037808 0.042726 -0.042575 0.041141 0.024947 0.054020 0.007283 -0.135366 -0.116520 -0.002493 -0.102912 0.055502 0.040897 -0.201432 -0.009098 0.080906 0.207977 -0.118455 -0.046209 0.069404 -0.028656 -0.075901 0.055232 -0.027533 -0.104594 0.048028 -0.224600 0.143873
best 0.141928 -0.096160 0.051852 -0.125785 -0.027475 -0.008723 0.019662 0.175571 0.137652 0.106127 0.033080 -0.019758 -0.100403 -0.045532 -0.002709 -0.085879 -0.108832 0.037609 -0.090453 0.043774 -0.180872 -0.110469 -0.165658 -0.024553 0.021946 -0.094572 -0.023462 0.004512 0.098453 0.074914 0.033453 0.023751 -0.115878 -0.019292 0.002331 -0.076436 0.037787 0.042641 0.052949 -0.015552 0.012630 0.113831 0.082251 -0.086597 -0.037653 -0.067910 0.000284 -0.166923 -0.023579 0.076406 0.000885 0.185208 -0.018316 -0.066167 0.293733 0.144012 0.159436 -0.143515 -0.102597 0.068130 0.043794 -0.237872 -0.065532 0.094256 -0.210089 0.059406 0.077396 0.128601 -0.061328 -0.060546 0.024919 -0.223290 0.023044 -0.104741 0.091731 -0.064709 0.135712 0.040663 -0.029603 -0.123948 -0.153883 0.036509 -0.055362 0.128921 -0.044331 -0.063364 -0.023620 0.150043 0.081724 -0.150168 -0.035102 0.174604 0.096544 -0.102112 -0.059154 0.019884 0.013506 -0.078512 -0.123632 0.067288
back 0.139949 -0.018817 0.047472 -0.165515 -0.074358 0.077208 -0.036025 0.024123 0.064909 0.054348 -0.093906 0.025696 -0.068866 -0.080047 -0.038039 -0.003025 -0.193682 0.059247 -0.017164 0.081502 -0.093900 -0.209876 -0.011847 -0.050682 -0.040067 -0.071268 0.037310 -0.025176 -0.027399 0.089576 -0.005307 0.158717 -0.115037 -0.086363 -0.117393 -0.055523 0.062230 -0.067365 -0.047874 -0.125220 0.038184 0.116981 -0.032605 -0.208047 0.065698 0.075594 -0.017822 -0.026419 0.099496 0.078034 0.148933 0.177502 0.109966 -0.012885 0.301377 0.089825 0.182280 -0.020564 -0.060549 0.009665 -0.055351 -0.215664 0.008778 0.098597 -0.062841 -0.008484 -0.013224 0.036460 -0.036451 -0.154020 -0.003452 -0.156812 -0.062883 0.004058 -0.028611 0.022163 0.142815 0.153788 -0.046406 -0.050246 -0.098334 -0.072410 -0.026492 0.110162 -0.078553 -0.156174 -0.033339 0.091488 0.192032 -0.201757 -0.146691 0.135677 0.012517 -0.028788 0.114670 0.016866 -0.071795 0.011106 -0.187682 -0.007639
ever 0.088438 0.022309 0.024258 -0.146590 0.023079 -0.065460 -0.002645 0.005240 0.092572 0.144026 -0.064715 0.006150 -0.144339 -0.049169 0.028751 0.005832 -0.160632 0.106495 0.035968 0.190791 -0.042989 -0.144239 -0.053950 -0.002808 -0.092199 0.024586 0.028763 -0.104575 -0.067808 0.147940 -0.082795 0.174313 0.028332 0.003847 -0.092319 -0.069311 0.021881 0.021320 0.039676 -0.105265 0.049076 0.129524 0.085622 -0.237093 0.034390 0.029034 -0.000967 -0.018005 0.008412 0.016684 0.170868 0.122471 0.124860 0.034291 0.325979 0.008938 0.207013 -0.078025 -0.028319 -0.053243 -0.009564 -0.132651 0.037476 0.061400 -0.184313 -0.017062 0.120940 0.112644 -0.111313 -0.154953 -0.155163 -0.255616 0.031975 0.028691 0.027694 0.059627 0.109152 0.049473 0.054984 -0.143414 -0.053514 -0.051034 -0.128217 0.017937 0.008277 -0.102780 0.072835 0.098930 0.132275 -0.075305 -0.018896 0.016367 0.125766 -0.109521 0.054073 0.017761 -0.116494 0.040968 -0.126982 0.022511
more 0.155481 0.041845 -0.021094 -0.111224 -0.068273 -0.073169 0.053194 -0.002452 -0.012568 0.083344 -0.075682 -0.079748 -0.018879 0.065404 0.031486 -0.080324 -0.294514 0.035952 -0.085663 0.160283 -0.208282 -0.167696 -0.130227 0.040640 -0.000680 -0.060028 0.032232 0.052919 0.029423 0.078120 0.095997 0.106770 -0.115105 -0.026247 -0.013952 -0.113350 -0.002485 -0.058943 -0.072029 -0.106776 0.116642 0.078347 -0.079692 -0.100938 0.141938 -0.042363 0.075576 -0.076237 0.115669 0.131600 0.126171 0.149994 0.010600 -0.117116 0.166508 0.069913 0.199186 -0.068534 0.019109 -0.097890 0.019879 -0.239974 0.092440 0.108781 -0.209957 -0.080468 0.021670 0.100143 0.007901 -0.087404 0.002717 -0.142182 0.008806 -0.089806 -0.026289 -0.069283 0.037447 0.006410 -0.018078 -0.149487 -0.034393 -0.133405 -0.013831 0.124911 0.007648 -0.170950 0.005619 0.076839 0.096978 -0.158476 -0.142251 0.138195 -0.002883 -0.034701 0.059465 0.125229 -0.009529 0.104252 -0.062718 0.002184
can 0.192978 -0.025905 0.071182 -0.129358 0.016742 -0.001746 -0.055291 0.058164 0.039068 0.155230 -0.075619 0.012178 -0.011072 -0.027152 0.017351 0.064088 -0.277922 0.103116 0.035946 0.093048 -0.015165 -0.176918 -0.075627 0.108610 -0.073869 -0.049666 0.042310 -0.086787 -0.014860 0.158433 0.001203 0.065160 -0.011718 -0.075206 -0.149575 -0.073073 -0.065737 0.059252 -0.006356 -0.143161 -0.036667 0.091232 0.043587 -0.179098 0.121589 -0.018203 0.024224 -0.107027 0.100092 0.095722 0.124609 0.080362 0.060910 -0.112787 0.255065 0.140280 0.172337 -0.042473 -0.007575 -0.087960 -0.110253 -0.191816 -0.053106 0.095725 -0.152009 0.048132 0.113157 0.063580 -0.149884 -0.065848 -0.000657 -0.182121 0.013447 -0.082879 -0.020348 -0.028937 0.015722 0.164728 -0.020363 -0.001005 -0.055295 -0.095912 -0.113384 0.149268 -0.053348 -0.113097 0.091968 0.006420 0.155265 -0.037574 -0.098137 0.153311 0.123303 -0.109438 0.041996 0.031015 0.055255 -0.008714 -0.156874 0.041434
too 0.058365 0.039172 0.066573 -0.156589 -0.072154 0.069528 -0.046540 0.131985 -0.020545 0.123053 -0.059795 -0.068994 -0.114854 0.018214 -0.003018 0.006104 -0.281103 0.138250 -0.113169 0.064947 -0.119529 -0.227480 -0.047692 -0.021796 0.025238 -0.083990 0.024303 -0.000204 -0.037430 0.176171 -0.030179 0.140054 -0.035143 -0.152432 -0.072046 0.005640 0.055859 0.021696 0.094362 -0.023249 0.017910 0.044615 -0.003358 -0.208810 0.040761 0.039208 0.081765 -0.013735 0.110143 0.018218 0.152494 0.147268 0.087074 -0.047323 0.194421 0.067765 0.195060 -0.050182 0.070972 0.002579 -0.125497 -0.103967 -0.013230 0.064959 -0.135012 0.055391 0.082532 0.127182 -0.105815 -0.144920 -0.094088 -0.152657 -0.058010 -0.050998 0.130464 0.033817 0.074940 0.170590 -0.003531 -0.101836 0.008461 -0.134347 -0.146146 0.200062 -0.040440 -0.100162 -0.030553 -0.010038 0.065084 -0.130434 -0.103993 0.116428 0.108701 -0.063827 -0.008580 0.051319 0.048963 0.036533 -0.145990 0.097883
better 0.081384 0.027684 0.120614 0.041765 -0.088910 -0.033346 0.025081 0.081202 0.165002 0.050250 0.013107 0.043869 -0.063899 0.057642 -0.130501 -0.119824 -0.097040 0.116334 0.058088 0.062635 -0.012391 -0.221928 -0.164918 0.078967 -0.196940 0.037582 0.116031 -0.008548 -0.038684 0.007739 0.091568 0.157449 0.060426 -0.025971 -0.037637 -0.181755 -0.036842 0.005176 -0.082814 -0.018674 0.155108 0.055675 -0.052578 -0.065987 -0.022088 0.031205 0.023727 -0.083495 0.006942 0.043431 0.159669 0.051127 0.218179 0.030248 0.257674 0.110781 0.030007 0.040233 -0.024400 -0.014342 0.054566 -0.165159 -0.031654 0.044496 -0.039654 -0.075192 0.136985 0.015781 -0.056971 -0.192377 -0.026221 -0.174154 -0.130618 0.032611 -0.028322 -0.145466 0.180903 0.007048 -0.066182 -0.125650 -0.103635 -0.171756 -0.069665 -0.008385 0.091729 -0.103559 0.067238 0.022295 0.116145 -0.141361 -0.167985 0.149139 -0.052910 0.061283 0.058103 0.063260 -0.107574 0.140422 -0.092556 -0.076632
excellent -0.004470 -0.091711 0.000866 -0.036443 0.081226 -0.101059 0.060774 0.082854 0.060902 -0.040545 -0.073815 -0.090545 -0.138135 -0.033592 0.084937 0.067486 -0.256454 0.029289 0.004103 0.073419 -0.128987 -0.178327 0.007785 0.050086 0.066156 -0.122273 0.022129 -0.127870 -0.070358 -0.028842 -0.098327 0.117266 -0.047061 -0.073590 0.052282 0.043992 0.114410 0.006138 -0.082052 -0.181612 0.100225 0.087294 0.055538 -0.044085 0.080499 0.114398 0.068506 -0.152199 0.129006 0.064764 0.210657 0.179975 0.109462 -0.112438 0.248784 0.012019 0.120135 -0.094602 -0.041210 0.025916 -0.143904 -0.173226 -0.018651 0.031888 -0.090731 0.033353 -0.066481 0.073312 -0.093859 -0.155414 -0.098974 -0.081538 -0.021507 -0.116164 -0.037782 -0.095989 -0.038904 0.190037 0.025352 -0.073276 0.020054 0.020895 -0.041716 0.074464 -0.116914 -0.112505 -0.014302 0.030668 0.131448 -0.130780 0.014315 0.194853 0.116409 -0.170564 -0.072408 0.091027 -0.002638 0.153676 -0.009855 -0.036015
much 0.139381 -0.045622 0.127222 -0.064423 0.027721 -0.018268 0.021348 0.156378 0.080761 0.068756 -0.155448 0.006917 -0.107556 0.046581 -0.082820 0.002244 -0.260765 0.126260 -0.062475 0.171956 -0.102053 -0.179681 -0.067719 -0.001129 -0.136650 -0.039379 0.081290 -0.072923 0.061609 0.046258 0.051291 0.146294 -0.007964 -0.119173 -0.019997 -0.042449 0.050696 0.012096 0.033071 -0.145166 0.103077 -0.003670 -0.057716 -0.185190 0.024471 -0.056848 0.091952 -0.013639 0.037424 0.006282 0.144791 0.168751 0.140383 -0.077434 0.277558 0.092432 0.061618 -0.020886 0.059532 -0.066339 -0.123114 -0.092353 0.088013 0.025642 -0.105192 0.011891 0.102807 0.016280 -0.035680 -0.085850 -0.090269 -0.118528 -0.091278 0.037471 -0.046193 -0.005533 0.014278 0.156371 0.050688 -0.092806 -0.135697 0.000115 -0.084624 0.122525 0.062213 -0.191497 -0.006925 0.001432 0.185643 -0.209798 -0.069955 0.133841 0.106338 -0.013067 0.076297 0.009987 -0.076331 0.002566 -0.177492 0.054047
other 0.176664 0.036478 -0.002908 -0.106303 0.031500 -0.068170 -0.070405 0.007349 0.039629 0.137881 -0.074653 0.002270 -0.082199 0.054156 0.031387 -0.006068 -0.281069 0.137999 0.034640 0.073695 -0.161152 -0.160094 -0.056981 0.080642 -0.134837 0.016839 0.082880 0.017528 -0.010578 0.120287 -0.032272 0.110431 -0.088517 -0.039112 -0.107196 -0.068326 -0.003216 -0.014796 -0.038756 -0.023150 -0.033080 0.050464 0.055710 -0.073286 0.079194 0.008852 0.059602 -0.130522 0.076606 0.000782 0.146084 0.157840 0.112337 -0.035933 0.270921 0.001319 0.115698 -0.120001 0.047954 0.022389 -0.090422 -0.210642 0.039888 0.033907 -0.157014 -0.080666 0.047130 0.021045 -0.109300 -0.067325 -0.063291 -0.213160 -0.116474 -0.079973 0.075178 -0.042176 0.082657 0.065355 0.024794 -0.138334 -0.106890 -0.101002 0.016402 0.155551 -0.014390 -0.195025 0.105873 0.122177 0.206309 -0.111942 -0.097320 0.042188 0.095698 -0.072075 0.108638 0.041041 0.016179 0.009193 -0.184364 0.002743
again 0.073776 -0.051778 -0.029868 -0.118142 -0.077145 0.052251 -0.089396 0.150722 0.035259 0.123997 -0.073518 -0.010545 -0.138418 -0.085674 0.037511 -0.061640 -0.282870 0.163070 -0.058963 0.119230 -0.127224 -0.151534 -0.071348 -0.041796 -0.088746 0.017345 0.068250 0.034060 0.012036 0.150313 0.040599 0.106117 0.027256 -0.030367 -0.108776 -0.010564 0.073337 0.078646 0.005221 -0.146148 0.055438 0.067074 0.005909 -0.216778 0.101552 0.075079 0.087882 0.000758 0.089059 0.043694 0.133929 0.154211 0.043171 0.008887 0.289078 0.058111 0.184066 -0.098420 0.045346 -0.006239 -0.063395 -0.173124 0.042519 0.020743 -0.079480 -0.066958 -0.027276 0.085146 -0.040445 -0.038312 -0.156590 -0.197536 -0.040673 -0.049952 0.005649 -0.032238 0.067010 0.092872 -0.037399 -0.128504 -0.047024 -0.145837 -0.090821 0.030388 -0.054297 -0.192765 0.030994 0.052113 0.080736 -0.172477 -0.054324 0.161701 0.030668 -0.088027 0.028951 0.100832 -0.034088 0.108716 -0.120910 0.076932
never 0.132282 -0.013096 0.127982 -0.006025 0.031657 0.047396 0.051509 0.156510 0.002986 0.034477 -0.079118 0.011580 -0.051486 0.042685 -0.079258 0.093373 -0.164330 0.165429 -0.029185 0.109892 -0.175804 -0.173287 -0.140365 0.077754 -0.020721 0.024354 0.055274 -0.019834 -0.038939 0.149934 -0.032645 0.030401 -0.114126 -0.012440 -0.118010 -0.155519 0.025694 0.052547 -0.087622 -0.036102 -0.061355 0.053036 -0.011486 -0.112781 0.134902 0.041117 -0.077298 -0.079511 -0.034297 0.116612 0.182432 0.086760 0.181561 0.010255 0.312031 -0.027055 0.122298 -0.155153 -0.074132 -0.051246 -0.109071 -0.150227 0.121432 -0.012140 -0.121422 -0.013772 0.059358 0.018370 -0.092102 -0.069857 -0.125034 -0.182800 -0.027243 -0.007940 -0.045872 -0.007764 0.136259 0.033964 0.074326 -0.116691 -0.078921 -0.105394 -0.073421 0.028198 0.075795 -0.222418 0.036048 0.041586 0.074450 -0.215866 -0.046735 0.177830 0.053527 -0.108276 -0.018306 0.079055 -0.072053 -0.002599 -0.090437 -0.012045
a 0.197588 -0.060028 0.101273 -0.165616 -0.073864 -0.062433 0.012591 0.110866 0.003004 0.139506 -0.088943 -0.011847 -0.127862 0.033145 -0.008608 -0.036818 -0.301095 0.170789 -0.070468 0.068361 -0.206651 -0.152618 -0.066776 0.103797 -0.147072 -0.083654 0.041737 -0.007711 0.015214 0.163515 -0.000721 0.087899 -0.014560 -0.013804 -0.089720 -0.036888 0.091204 0.026514 0.062975 -0.146465 -0.022483 0.011893 -0.030068 -0.102373 0.027409 0.084288 -0.011678 -0.105482 0.044034 0.090645 0.053779 0.059233 0.102770 0.004438 0.217342 0.082502 0.117676 -0.141578 -0.068318 0.048507 -0.093277 -0.244205 0.123886 0.100338 -0.097766 -0.075435 0.030895 0.102355 -0.035439 -0.093161 -0.004881 -0.211734 -0.041655 0.009027 -0.027984 0.005761 0.072447 0.019178 -0.025629 -0.047346 -0.023259 -0.047976 -0.063976 0.088389 0.071578 -0.230013 0.060841 -0.005940 0.117335 -0.122825 -0.098953 0.088249 0.039997 -0.011061 -0.008953 0.044129 -0.042777 -0.031905 -0.221222 0.115317
first 0.085336 -0.029480 0.107593 -0.001233 -0.031204 -0.032578 -0.109728 0.076550 0.118625 -0.042899 -0.171511 0.031693 -0.084484 -0.026925 0.028886 0.066539 -0.275843 0.190046 0.016017 0.118130 -0.075904 -0.151245 -0.125281 0.081504 -0.076072 -0.055023 -0.061073 -0.047848 -0.077826 0.161668 0.006099 0.063920 -0.102004 -0.035348 -0.120486 0.011092 -0.000828 -0.014156 -0.066063 -0.158546 0.024877 0.052725 0.061676 -0.211402 0.159579 -0.062302 0.061595 -0.143908 0.048059 0.148516 0.108104 0.047892 -0.008652 -0.019615 0.130830 0.138413 0.141373 -0.161766 -0.101392 0.007536 -0.127834 -0.073600 0.131497 0.096987 -0.071776 0.043706 -0.051006 0.008452 -0.139522 -0.117808 -0.161136 -0.126195 -0.022258 -0.008402 0.116228 -0.049123 -0.009618 0.102585 0.101772 -0.117474 0.048191 -0.088888 -0.131556 0.143611 -0.048615 -0.115593 -0.068326 0.146450 0.071560 -0.136975 -0.059726 0.123742 0.042719 0.041656 -0.056516 -0.058634 -0.096358 -0.022359 -0.201317 -0.032735
nice 0.201276 0.006540 -0.040940 -0.006828 0.066857 0.087325 -0.099218 0.130752 0.011939 0.086040 -0.152150 -0.058011 -0.121035 0.075120 -0.077931 0.083190 -0.211612 0.195100 -0.058249 0.065097 -0.085764 -0.054996 -0.142633 0.086220 -0.071149 -0.034410 -0.041415 -0.111475 0.001799 0.082341 -0.053397 0.106679 -0.138359 -0.065371 -0.021132 -0.068205 -0.057273 -0.036403 -0.005814 -0.118925 -0.009110 0.113418 0.070876 -0.234966 0.079542 0.095606 -0.054303 -0.087212 -0.053902 0.011260 0.054026 0.187796 0.050269 -0.003648 0.215444 -0.005754 0.067039 -0.172768 0.076343 0.061307 -0.043905 -0.213395 0.106808 0.024859 -0.136432 0.040759 0.015770 0.063902 -0.015935 -0.048454 0.004076 -0.153177 -0.099342 -0.111671 0.104042 0.061958 -0.014122 0.089761 -0.023364 -0.010883 -0.022383 -0.024099 -0.002471 0.101404 -0.060057 -0.165149 0.034688 0.080463 0.123035 -0.206150 -0.150457 0.134837 0.062947 -0.051537 0.098933 -0.025377 -0.071327 0.060355 -0.212429 0.158983
most 0.196555 0.020147 0.000120 -0.151095 -0.029769 0.024210 -0.089980 0.134057 0.026977 0.033065 -0.061428 -0.071362 -0.137864 0.011838 -0.081274 0.083770 -0.213084 0.056852 -0.068675 0.028434 -0.175692 -0.174944 -0.019345 -0.050445 -0.139242 -0.024257 -0.042881 -0.094388 0.017148 0.118708 0.054110 0.065693 0.028161 0.004306 -0.125664 -0.102165 0.076701 0.077245 0.012704 -0.014664 -0.048932 0.015063 -0.005900 -0.198208 0.120204 0.049943 -0.054572 -0.064277 0.084162 -0.004052 0.179134 0.089263 0.177151 -0.012212 0.275792 0.079770 0.108506 -0.049488 -0.060077 0.015836 -0.109040 -0.120220 0.125868 0.046227 -0.111847 -0.027873 0.077610 0.097591 -0.068972 -0.022613 -0.066319 -0.216263 -0.036109 -0.083710 0.081290 -0.100462 0.080435 0.020813 0.073097 -0.003286 0.001570 -0.059649 -0.047081 0.091689 -0.039388 -0.151872 0.009683 -0.002199 0.233929 -0.168367 -0.181918 0.075586 0.093176 -0.084061 0.113293 0.039351 -0.013936 0.103436 -0.207043 0.015428
pretty 0.215207 -0.020416 0.007265 -0.179108 0.048778 0.044502 -0.103026 0.079674 0.137505 0.060551 -0.017938 -0.015646 -0.099103 -0.009359 0.067831 -0.025512 -0.141791 0.111254 0.001867 0.091467 -0.143344 -0.063682 -0.110527 0.062493 -0.053254 -0.052267 0.094448 -0.084542 -0.054494 0.077393 0.031939 0.103734 -0.125600 -0.148893 -0.122497 -0.117297 -0.025222 -0.011349 0.000422 -0.122264 0.078568 0.057397 -0.038536 -0.225485 0.068353 0.044829 0.074531 -0.135698 0.046438 0.077315 0.141066 0.161518 0.054527 0.042608 0.235744 0.033772 0.104226 -0.036301 -0.021681 -0.054141 0.014102 -0.206777 0.008424 -0.022134 -0.182580 0.030729 0.120709 0.052068 -0.122207 -0.131703 -0.133145 -0.147838 -0.142541 -0.026234 0.076479 0.018658 0.150324 0.005718 -0.017628 -0.027869 -0.140961 -0.006458 -0.072573 0.102291 -0.056794 -0.073414 0.130728 0.086276 0.064131 -0.212751 -0.065297 0.052531 -0.001467 -0.149667 0.087266 -0.033439 -0.043403 -0.032324 -0.191330 0.133272
still 0.169843 -0.036037 0.029039 -0.074210 0.042843 0.081433 -0.093420 0.056895 0.062758 0.025215 -0.091994 -0.036027 -0.085311 -0.064195 0.044479 -0.002684 -0.180974 0.126820 0.034834 0.045546 -0.107520 -0.124643 -0.130276 0.072164 0.014799 -0.096570 0.030156 0.050590 -0.005554 0.119262 -0.063780 0.148758 0.029104 -0.110912 -0.049147 -0.172434 -0.073420 -0.056946 0.059008 0.012757 -0.056080 0.031254 -0.065949 -0.112623 0.094780 -0.011267 0.077126 -0.105578 0.102499 0.103932 0.117884 0.181001 0.009950 -0.063607 0.311324 0.099608 0.123107 -0.046303 -0.101454 -0.102991 -0.019395 -0.198104 0.057736 0.120560 -0.180727 0.087872 -0.001455 0.091026 -0.067005 -0.134562 -0.147787 -0.230397 -0.111217 -0.005711 0.123994 -0.001206 0.015317 0.061191 -0.010545 -0.019304 -0.023696 -0.132508 0.037395 0.128668 -0.055337 -0.179145 0.116417 0.070473 0.187712 -0.166961 -0.021765 0.037308 0.018096 -0.119165 0.040390 0.029675 0.061795 0.016840 -0.031679 0.160022
now 0.043174 -0.058402 -0.039949 -0.128822 -0.129373 -0.078749 0.073419 0.148281 -0.038614 -0.037712 -0.020270 -0.065221 -0.133479 0.076489 -0.063995 -0.046178 -0.137455 0.130624 0.008011 0.052289 -0.165008 -0.035695 -0.088135 -0.021022 -0.092754 0.043457 0.020379 -0.076981 -0.114810 0.015006 0.094110 0.125174 -0.015735 -0.090831 -0.049281 -0.080194 0.001155 0.051795 0.054658 -0.175079 0.141789 -0.048854 0.073061 -0.130452 0.122038 0.086022 -0.090905 -0.059716 -0.079600 0.189510 0.105099 0.048861 0.114139 -0.012047 0.226658 0.068319 0.056250 -0.101737 0.081167 -0.016220 -0.026888 -0.232513 -0.028666 0.153454 -0.172120 -0.079179 0.046828 -0.033071 -0.123980 -0.045468 -0.123847 -0.083159 -0.126976 0.101519 -0.023935 0.015181 0.117346 0.129456 -0.004900 0.040611 -0.043720 -0.048092 -0.145250 0.123752 -0.060296 -0.066620 -0.001771 0.116089 0.074190 -0.218498 -0.199622 0.150094 0.063845 0.042280 0.061867 0.156412 0.045948 0.037360 -0.150998 0.157670
little 0.111328 0.059164 0.062699 -0.091495 -0.096592 0.078447 0.081218 0.060476 0.158659 0.150882 -0.032826 -0.011615 -0.100612 -0.045859 -0.056292 -0.017862 -0.309198 0.207541 0.044882 0.054240 -0.108043 -0.106939 0.025463 0.044595 -0.144837 -0.006782 0.074472 0.037269 0.081699 -0.014414 0.039833 0.006855 0.067357 -0.146037 -0.178740 -0.083129 -0.018420 0.019782 -0.034448 -0.162982 -0.055730 0.090675 0.051730 -0.216760 -0.039423 0.053548 0.087641 -0.038251 0.093794 0.080954 0.084478 0.101076 0.031164 -0.054687 0.147172 0.047970 0.085276 -0.114090 0.019647 0.078711 -0.108732 -0.247710 -0.019107 0.063283 -0.224146 0.062083 -0.038359 -0.060262 -0.068151 -0.135429 -0.147180 -0.109472 0.010275 -0.022556 0.037714 -0.021368 0.117152 0.161733 0.066463 0.047929 -0.109084 -0.157266 -0.114337 0.007317 0.037576 -0.068327 -0.032562 0.115130 0.241731 -0.095932 0.004040 0.072653 0.107356 0.045603 -0.032237 0.036301 -0.008383 0.075369 -0.066877 0.091374
then 0.105900 -0.017035 0.144057 -0.172089 -0.112743 0.101903 -0.128109 0.162211 0.144494 0.093873 -0.133246 -0.089060 -0.028409 0.028855 -0.093397 -0.000918 -0.278203 0.167064 0.053954 0.079351 -0.194483 -0.080257 0.023373 -0.066847 -0.007246 -0.002431 0.073278 0.035457 -0.063605 0.119997 0.058713 0.076289 -0.003597 -0.037549 -0.102297 -0.098822 0.016725 0.057205 -0.086182 -0.042162 0.025218 -0.066296 -0.034912 -0.172697 -0.009406 0.015489 0.075344 -0.050291 0.124823 0.045846 0.007634 0.073456 0.046278 -0.078869 0.283902 0.143386 0.195964 -0.060121 -0.089682 -0.047645 0.026820 -0.162382 -0.063979 0.122137 -0.166713 0.014054 0.005580 0.124457 -0.082710 -0.068202 -0.036417 -0.209412 -0.014969 -0.025703 0.119715 -0.001082 0.032566 0.031795 0.076408 -0.108687 -0.094068 0.028072 -0.026974 0.026750 0.022146 -0.222795 -0.022158 0.031714 0.185883 -0.165407 0.008693 0.149431 0.036172 -0.000893 -0.029823 0.059543 -0.044647 -0.051370 -0.055524 0.051643
enough 0.070928 -0.060409 0.103225 -0.120045 -0.048676 0.073614 0.019841 0.126110 -0.022006 0.033043 -0.046308 0.069122 -0.116227 -0.081573 0.027850 -0.071289 -0.112539 0.170021 0.045875 0.116225 -0.173634 -0.154668 -0.108605 -0.032332 0.000454 -0.010788 0.013537 0.003630 0.078218 0.152135 -0.051845 0.117622 0.028895 -0.068089 -0.065874 -0.156868 0.095042 0.077971 0.004860 -0.092681 0.055005 -0.015976 -0.061351 -0.183258 0.065466 0.037439 -0.081447 -0.108758 -0.026389 0.154218 0.204385 0.152625 0.139918 0.064283 0.133271 -0.025554 0.035999 -0.026299 -0.101589 0.009500 0.045576 -0.134069 0.119044 0.033892 -0.166047 -0.089662 0.030535 0.094181 -0.124929 -0.137715 -0.029369 -0.223467 0.004285 -0.088537 0.121585 0.043415 0.042426 0.147548 0.091987 -0.128819 -0.079068 -0.120125 -0.128253 0.122087 -0.075146 -0.066189 0.037383 0.134814 0.124207 -0.183216 -0.074780 0.127691 0.129654 -0.041660 -0.047762 0.038123 -0.017360 0.092665 -0.190303 0.106031
definitely 0.086474 0.028739 0.005023 -0.139091 -0.006624 0.005851 0.002308 0.058670 0.108653 0.088159 -0.010530 0.086305 -0.006685 0.070718 0.098063 0.003747 -0.284668 0.206801 0.016496 0.011177 -0.031729 -0.156514 -0.132094 -0.070690 -0.152064 -0.032113 0.104456 -0.007254 -0.061552 0.168416 -0.027752 0.072980 -0.093848 -0.138309 -0.139705 -0.087184 0.065418 -0.023703 0.073666 -0.086302 0.127340 -0.001757 0.009957 -0.214610 0.039368 0.108759 0.002999 -0.149487 0.014571 0.150041 0.141708 0.091171 0.162557 -0.016220 0.151424 0.041130 0.039160 0.027662 0.016041 0.067855 -0.090774 -0.122695 0.041106 0.053720 -0.205684 0.068193 0.034036 -0.010596 0.028295 -0.052768 -0.046754 -0.227406 0.024317 -0.088364 -0.065287 -0.074801 0.113737 -0.020399 -0.070177 0.005487 -0.101874 -0.175635 -0.141925 0.188154 0.087958 -0.098186 -0.011330 0.033660 0.070849 -0.174756 -0.173171 0.066804 0.035526 -0.075582 0.088921 -0.018666 -0.117559 0.089007 -0.037206 0.084144
real 0.220295 -0.019948 0.035407 -0.192864 -0.089037 -0.116768 0.015668 0.090435 -0.028649 -0.028194 -0.133503 -0.005580 -0.207320 -0.081017 0.111262 0.089654 -0.249982 0.203102 -0.137681 0.162156 -0.069315 -0.186912 -0.098516 0.027214 -0.128599 0.018288 -0.001816 -0.045898 0.023255 0.076715 -0.038625 0.024338 0.044258 -0.009359 -0.029264 -0.022156 0.075742 0.013905 -0.058374 0.027424 -0.003017 -0.041034 0.120732 -0.076025 0.175376 -0.090490 0.063060 0.025937 0.004582 0.167908 0.193262 0.050040 0.091883 -0.031203 0.122596 -0.059814 0.186478 -0.025663 0.077730 0.063329 0.042506 -0.107930 -0.040554 0.128031 -0.062948 0.078824 0.047567 0.154461 -0.039381 -0.126944 -0.109302 -0.143526 -0.085712 -0.107638 0.016297 -0.110876 0.011152 0.130319 0.140835 -0.104147 -0.133856 -0.008483 -0.061392 0.104137 0.022127 -0.086315 0.037287 0.142916 0.055171 -0.121064 -0.144980 -0.003857 -0.023404 0.047133 0.108231 0.079925 0.004578 -0.052650 -0.144564 0.053779
right 0.175981 -0.046765 0.130427 -0.033472 0.047519 0.042545 -0.043916 0.148287 0.142058 -0.028884 -0.055231 0.034361 0.007457 0.021082 0.077472 -0.042184 -0.256578 0.145914 0.062159 0.168203 -0.092397 -0.185910 0.049601 0.077337 -0.156355 -0.043816 0.016226 0.046365 0.042025 -0.008769 0.017412 0.029867 0.007559 -0.143472 -0.168313 -0.087347 -0.035861 -0.080540 -0.097321 -0.152906 -0.035525 0.037231 -0.097842 -0.190774 -0.004262 0.073123 -0.041686 -0.035394 0.010904 0.159291 0.055530 0.096525 0.149563 -0.086916 0.221095 0.086834 0.167831 0.026991 0.062769 -0.090412 -0.041643 -0.154545 -0.048571 0.142172 -0.181125 -0.045059 0.108047 0.075430 -0.095324 -0.069373 -0.110316 -0.134372 -0.032391 0.062529 -0.064186 -0.052523 0.132623 0.008177 0.107132 -0.139192 0.038543 0.000027 -0.050125 0.079286 -0.078602 -0.157562 0.060558 0.047339 0.211502 -0.048203 -0.169036 0.139308 0.034936 -0.054748 0.057810 0.010882 0.002534 -0.046334 -0.013049 0.089555
terrible -0.053953 -0.171190 -0.118747 -0.104254 -0.011086 -0.117058 0.002598 -0.029001 -0.041862 0.149675 0.051377 -0.047812 0.030845 -0.084389 0.010330 -0.046477 -0.044065 0.210596 0.048070 -0.052236 -0.155209 -0.177280 0.090699 0.072146 0.016618 0.005698 0.036210 -0.121948 0.016482 0.176689 0.032645 0.094324 0.069721 -0.161485 -0.150579 0.051753 -0.046558 -0.005127 0.105031 -0.012145 -0.076497 0.079258 -0.002763 -0.179322 0.075332 0.073128 0.121948 -0.029358 -0.076644 -0.039640 -0.031470 -0.021629 0.208684 0.122272 0.151822 0.000160 0.126109 -0.191743 -0.042581 -0.051078 -0.093732 -0.146542 -0.088410 0.055210 -0.174791 0.081463 0.060567 0.119610 -0.005962 -0.111203 -0.015032 -0.024766 0.019390 -0.121571 -0.019284 -0.061958 -0.099315 0.157131 0.018769 -0.081696 -0.091791 0.024164 0.041652 0.154127 -0.013156 -0.147505 0.135195 0.127499 0.217162 0.061200 -0.068148 0.157331 0.081126 -0.124361 0.091822 0.012255 0.036840 0.142097 -0.020326 0.167034
worst 0.087972 0.012285 -0.000325 -0.093804 -0.121243 -0.096031 -0.037707 0.119151 0.185138 0.007350 0.062515 0.013565 0.041302 -0.031056 -0.014521 0.060042 -0.073837 0.008252 -0.009890 0.051794 -0.036093 -0.086379 -0.178942 0.017156 -0.111919 0.076787 0.059367 -0.126949 0.098153 0.204668 0.043371 0.127268 -0.090666 -0.169672 0.001823 -0.137512 0.082252 -0.090998 0.010984 -0.114277 -0.087525 0.009982 -0.018061 -0.064151 0.030138 0.128167 0.015277 -0.128711 -0.091383 0.144346 0.116277 0.058957 -0.049544 0.104363 0.060848 0.094349 0.040862 -0.189803 -0.032313 -0.061802 -0.022020 -0.160435 0.082658 0.176812 0.002393 0.013545 0.117524 -0.007781 -0.019531 -0.082180 -0.092989 -0.195867 -0.033125 -0.136686 0.156169 -0.131997 0.175379 0.180539 0.115611 -0.068283 0.057654 -0.124214 -0.085619 0.109620 -0.104032 -0.015068 0.089626 -0.072889 0.171937 -0.105937 -0.171687 0.211485 0.097390 0.053039 -0.002359 0.140565 -0.023184 0.090807 -0.051797 -0.011455
friendly 0.068060 -0.111549 0.068734 -0.205041 -0.130362 0.069790 -0.041417 -0.046270 0.040212 0.112607 0.022783 0.046640 -0.021212 0.078532 0.022372 -0.021290 -0.167466 0.046172 0.005885 0.119426 -0.230405 -0.234228 -0.072991 -0.059831 0.018607 0.020589 0.053318 -0.003406 -0.100770 -0.016154 0.060488 0.067663 0.003442 0.002374 -0.178724 -0.088461 0.076081 0.006305 0.124281 -0.168582 -0.074301 0.166086 0.067483 -0.082044 0.105832 0.036280 0.057930 -0.008925 0.090431 0.147238 0.200404 0.099097 0.108143 0.012309 0.323076 -0.002624 0.008918 -0.062226 0.113235 0.050928 -0.142669 -0.073627 0.014156 -0.036629 -0.100240 -0.081998 -0.054807 -0.031795 -0.163898 -0.133506 0.022925 -0.070684 0.033993 -0.043673 0.070391 0.009195 -0.024706 0.100953 -0.021529 -0.180798 -0.118677 -0.038105 -0.022631 0.111644 0.112683 -0.220491 0.009224 0.015320 0.167789 -0.219941 0.021099 0.018092 0.030585 -0.018650 -0.011573 -0.043639 -0.000925 0.106681 -0.056947 -0.035329
few 0.016983 0.022764 0.018407 -0.085648 -0.100412 0.038615 -0.119542 -0.001678 0.115577 0.078569 -0.116567 0.025283 -0.085069 -0.045774 -0.067797 -0.000498 -0.266450 0.008202 -0.086737 0.100709 -0.070392 -0.097833 0.012555 -0.047417 -0.119107 0.030128 0.112140 -0.002776 0.049272 0.141670 0.044175 0.124173 -0.087880 0.027171 -0.164935 -0.118646 0.011621 -0.014544 0.043907 -0.173584 0.074935 0.096688 0.070109 -0.182135 0.149540 0.036222 -0.062856 -0.013791 0.018659 0.104403 0.072477 0.205105 0.123388 -0.056938 0.203514 0.019673 0.059049 0.009735 -0.119113 0.085489 -0.096480 -0.187082 0.116964 0.169654 -0.020407 0.036225 0.064150 0.008781 -0.087012 -0.063936 -0.010583 -0.204767 -0.064614 -0.041604 0.129053 -0.069177 0.036475 0.097903 -0.046389 -0.008164 -0.137944 -0.082396 0.054735 0.053998 -0.028034 -0.239425 0.093193 0.048002 0.137890 -0.081491 -0.157886 0.082427 0.084521 -0.114555 0.069050 0.146742 0.032517 0.032056 -0.184238 0.100750
there 0.207277 -0.009060 0.088104 -0.095756 0.076624 0.021062 -0.126327 0.000370 0.103329 0.112002 -0.132961 0.058516 -0.088665 0.047032 0.016869 0.087284 -0.227538 0.128813 -0.014549 0.004981 -0.207845 -0.100780 -0.143931 0.046927 -0.016416 -0.024466 0.049495 0.041998 -0.015736 0.184795 0.074854 0.159524 -0.025982 -0.070771 -0.097407 -0.171154 -0.050267 -0.002406 -0.092418 0.018595 0.044565 -0.058687 0.025987 -0.068686 0.128452 0.052241 -0.025278 0.004676 0.114533 0.151640 0.188069 0.191885 0.015157 -0.021258 0.198502 0.005200 0.055241 -0.087831 -0.031424 0.065009 -0.129119 -0.105783 -0.005888 0.135248 -0.172748 -0.012766 0.118955 0.033813 -0.048427 -0.138287 -0.148696 -0.219141 -0.109426 -0.083789 0.124127 -0.093374 0.018403 -0.011397 0.044607 -0.083608 0.011060 -0.064385 -0.056810 0.052026 -0.048333 -0.217522 0.066985 0.078161 0.111091 -0.148986 -0.101920 0.107227 0.047355 -0.028023 0.070482 -0.023802 -0.042512 0.052204 -0.097180 0.063091
new 0.143756 -0.140539 0.132109 0.006217 -0.134231 -0.058277 0.058111 0.174010 0.055735 0.111565 -0.007890 0.062890 -0.089181 -0.074867 -0.115531 0.048754 -0.089121 0.020777 0.086871 0.094864 -0.125808 -0.123581 0.027270 0.123252 -0.037698 -0.050827 -0.003245 0.060780 -0.113097 0.091872 0.112392 0.083274 -0.123789 0.064977 -0.158028 -0.087201 -0.102024 -0.018114 0.113957 -0.063641 -0.074120 0.020792 0.118029 -0.079716 0.159767 -0.083497 0.096486 -0.052449 0.036990 0.085519 0.185728 -0.032973 -0.014192 -0.118294 0.275854 0.046576 0.120604 -0.036528 -0.009869 0.018958 -0.066981 -0.225964 0.106065 -0.005997 -0.009184 -0.088389 0.059809 -0.000575 -0.126530 -0.048651 -0.149955 -0.081492 -0.098762 0.106576 0.115725 0.014971 0.113560 0.032598 0.116992 0.013182 -0.157599 -0.111542 -0.037756 0.193225 -0.009725 -0.129201 0.061371 0.063099 0.117255 -0.146426 -0.041775 0.038905 -0.061514 -0.143608 -0.057245 0.117992 -0.123341 0.122128 -0.081056 0.091071
disappointed 0.011053 -0.161689 0.096782 -0.051392 0.023548 0.039260 -0.137462 -0.001897 0.166840 -0.055911 -0.091430 0.074453 -0.174084 -0.117283 0.049958 -0.097397 -0.054002 -0.044767 -0.084791 0.122365 -0.097453 -0.205754 -0.103447 0.133249 -0.022511 0.078496 0.144988 -0.054383 0.111927 0.049817 0.138441 0.118337 -0.071675 -0.011104 -0.009423 -0.021154 0.144855 -0.015600 0.121517 0.091354 0.111105 -0.067826 0.051466 -0.191106 -0.036769 -0.120796 0.023139 -0.108909 0.075885 -0.064077 -0.034132 -0.033794 -0.042906 0.068297 0.234844 -0.051087 0.101076 -0.068832 0.002282 0.115606 0.025362 -0.130568 0.115729 -0.072399 -0.055638 -0.048494 0.157380 -0.090707 0.088195 -0.176591 0.013524 -0.110190 -0.143358 -0.149792 0.160171 -0.065659 0.080141 -0.015962 0.003486 -0.179040 -0.023846 0.051257 -0.014570 0.095746 -0.122906 -0.057109 -0.068200 0.178257 0.119605 -0.043735 0.016174 0.124911 0.059690 0.040159 -0.085989 0.145420 -0.148923 -0.051331 -0.052001 0.125823
many 0.117136 -0.001896 0.058979 -0.081157 -0.017506 0.069556 -0.004803 0.060467 0.058632 0.019631 -0.144838 0.066742 -0.124798 -0.007155 -0.066196 -0.062224 -0.195192 0.166483 -0.038196 0.157748 -0.162315 -0.072551 0.023217 -0.008680 -0.064401 -0.115067 0.050902 -0.020350 0.040406 0.156223 0.065338 0.074422 0.008520 -0.122507 -0.100151 -0.112362 -0.042556 -0.003469 -0.082927 -0.084663 0.053918 -0.004207 0.017869 -0.099527 0.031818 -0.070716 -0.000580 -0.107188 0.059039 0.068279 0.172149 0.113385 0.186251 -0.088514 0.328809 0.028201 0.184643 -0.090502 0.013765 0.063746 0.027409 -0.236843 0.015315 0.153825 -0.152361 -0.018709 0.030385 0.125888 -0.093267 -0.017278 -0.083129 -0.133663 -0.068687 -0.092321 -0.006466 -0.075911 0.123854 0.084346 0.091783 -0.051941 -0.018754 -0.035701 -0.140452 0.064993 0.047460 -0.196635 0.094690 -0.000988 0.204927 -0.123379 -0.061317 0.105634 0.066455 -0.073428 0.087774 0.082914 -0.027254 0.108200 -0.070273 0.062580
far 0.190195 -0.086017 0.027861 -0.095224 -0.102176 -0.047844 -0.112675 0.063368 -0.044018 0.132871 -0.172413 -0.046250 -0.115663 -0.026240 -0.068216 -0.065675 -0.269198 0.023517 0.058347 0.173391 -0.097056 -0.115430 -0.067735 -0.077480 -0.119958 -0.112728 0.086443 -0.046995 -0.048769 0.147866 -0.065152 0.156495 -0.104566 0.023681 -0.050581 -0.125968 0.053366 0.034574 -0.094587 0.031830 -0.005750 0.079446 -0.065230 -0.177259 0.001980 -0.023419 0.089176 -0.047181 -0.069085 -0.011668 0.097201 0.169748 0.158288 0.049781 0.293070 -0.042694 0.016529 -0.095261 0.012582 -0.087932 -0.106070 -0.074619 0.022402 0.038748 -0.010205 -0.029894 -0.040937 -0.005493 -0.065241 -0.133877 -0.077432 -0.148956 -0.052539 -0.120927 -0.025698 -0.114552 0.035230 0.019810 0.002787 -0.075674 0.032767 -0.152605 -0.080123 0.035897 0.062797 -0.199333 0.098247 0.062009 0.185486 -0.194140 -0.075006 0.087035 0.061526 -0.123343 -0.057791 0.063911 -0.133235 -0.012266 -0.084057 0.066216
quite 0.106375 0.085496 0.058488 -0.100682 -0.122003 0.033688 -0.130993 -0.012899 -0.035468 0.119284 -0.003398 -0.094362 -0.137924 0.041814 0.019518 0.014164 -0.163036 0.020399 -0.005966 0.135901 -0.165789 -0.147486 -0.131989 0.079476 -0.165616 -0.099854 0.041660 -0.082496 -0.120784 -0.014996 -0.087476 0.004238 -0.048790 -0.117329 -0.124955 0.041825 0.041964 0.048213 0.045963 -0.093888 -0.004295 0.102192 0.044378 -0.065900 0.024520 0.005260 0.041105 0.036238 -0.037238 0.154051 0.180963 0.026030 0.139115 -0.103502 0.177219 -0.006386 0.228026 -0.080031 0.100608 -0.101100 -0.153957 -0.076830 0.150188 -0.006193 -0.096731 -0.078808 0.144541 0.143360 -0.029225 -0.089672 -0.071064 -0.201115 -0.011834 -0.065850 -0.057366 -0.009656 0.106721 0.144906 -0.042199 0.046264 -0.017425 -0.195294 -0.053963 0.049876 0.101204 -0.103585 0.052712 -0.016359 0.191871 -0.101217 -0.183362 0.036643 -0.019355 -0.160470 0.036183 0.121349 0.037820 -0.043643 -0.169536 0.046811
wonderful 0.039983 -0.015798 0.082741 -0.183974 -0.067009 0.103465 -0.052786 0.097402 0.138834 0.079532 -0.051152 0.039825 0.000900 0.090621 -0.074953 0.017999 -0.248580 0.107033 0.084771 0.161555 -0.140425 -0.138380 -0.116466 0.108126 -0.015121 0.074575 0.062552 -0.011162 0.105663 0.164919 -0.102887 0.148906 -0.142188 -0.059336 -0.039939 -0.141630 0.045216 0.004440 0.011230 -0.173417 0.030974 0.060639 -0.081188 -0.040913 0.112774 -0.048459 0.114231 -0.076669 0.129104 -0.043339 0.123486 0.052779 0.121572 -0.058814 0.236292 0.011364 0.182770 -0.023458 0.034222 -0.119376 0.042768 -0.135909 -0.009762 0.024703 -0.071986 0.095592 0.061241 0.005608 0.044027 -0.083718 -0.018509 -0.227675 -0.007517 0.070767 0.019478 0.033238 0.102584 0.061089 -0.010138 0.007648 -0.107720 0.038745 -0.012665 0.188854 -0.040829 -0.163561 0.069108 0.104400 0.098295 -0.151783 -0.148672 0.015795 -0.037240 -0.103044 0.131614 0.062212 -0.072596 -0.051213 -0.190733 -0.054493
wo -0.016264 -0.095849 -0.110271 0.024593 -0.137524 0.052219 0.104036 -0.023408 0.005900 0.016769 -0.055859 -0.138695 0.013901 0.047926 -0.033973 -0.018415 -0.262284 0.159162 0.074338 0.041296 -0.022362 -0.067694 -0.071670 0.121701 -0.108112 -0.147448 0.159252 -0.088742 0.066093 0.003295 0.064100 0.162300 0.105673 -0.047922 0.064592 0.045607 -0.049925 0.063471 -0.044905 -0.101462 -0.022440 0.170250 -0.053049 -0.039204 0.204709 0.039967 -0.086097 -0.127410 -0.099033 -0.008809 0.079766 0.095529 0.099828 -0.079369 0.291506 0.153072 -0.023107 -0.124023 0.011690 -0.005616 0.024027 0.015918 -0.089461 0.122966 0.011895 0.031603 0.069428 0.113546 0.029264 -0.154536 -0.053790 -0.170317 -0.097320 0.056662 0.110913 -0.145693 0.026771 -0.018334 -0.125114 -0.015143 0.061807 -0.058068 0.080872 0.023884 0.049612 -0.006917 0.129780 0.124762 0.163332 -0.230263 -0.117939 0.072371 -0.099759 -0.132736 0.176976 -0.097335 0.007336 0.048049 -0.032682 0.045984
ca 0.037331 -0.153908 0.051473 -0.074496 0.083141 0.084930 -0.078417 -0.010353 0.030518 0.043725 -0.131739 0.001358 0.013762 -0.089225 0.018649 0.019355 -0.326912 0.094604 0.043786 -0.016439 -0.192647 -0.184491 0.006996 0.062151 -0.014512 0.094711 -0.006928 0.015023 -0.058018 0.162346 0.026797 0.129299 -0.067048 0.057783 0.011163 0.028696 0.130870 0.002133 0.114630 -0.079407 0.076600 0.069286 -0.030972 -0.096382 -0.038957 0.020030 0.069751 -0.145347 -0.051593 -0.015759 0.137249 0.174935 0.165726 0.088200 0.116802 -0.031846 0.038210 -0.151522 -0.127649 -0.114200 0.040041 -0.102204 -0.062247 0.023222 -0.124648 0.028475 0.071749 0.061475 0.012969 -0.087325 0.026685 -0.212056 0.050399 0.100018 0.017464 0.032304 0.173476 0.130547 0.145858 -0.063770 -0.176377 0.011204 -0.066862 0.030012 -0.011681 -0.097032 -0.064935 -0.010927 0.197460 -0.019509 -0.085213 0.201969 0.033264 -0.189885 0.045555 0.164577 -0.110965 0.030405 -0.134994 0.010261
happy 0.161908 0.009968 0.002835 -0.179407 -0.070698 -0.106054 -0.020585 -0.054062 -0.039277 0.055680 0.044194 -0.004817 0.051467 -0.109521 0.003103 0.112973 -0.262505 0.171548 0.067962 0.044277 -0.121741 -0.059830 -0.168186 0.113970 -0.087974 0.115378 0.121144 0.121124 -0.141412 0.152847 -0.083708 0.003008 -0.153106 0.056052 -0.151668 0.053957 0.093490 -0.098402 -0.031434 -0.110231 -0.029260 -0.011993 0.143929 -0.048241 0.168839 -0.125392 0.023171 -0.061910 0.143471 0.112283 0.217995 0.078433 -0.010394 -0.099087 0.015669 0.098148 -0.011870 -0.176096 0.020997 0.090383 0.017967 0.036042 -0.093411 0.045730 -0.029834 -0.122515 -0.088744 0.087159 0.039639 -0.027687 -0.143971 -0.128385 -0.079896 0.022475 0.016639 0.032716 0.112263 0.058589 -0.100654 -0.150330 -0.123608 -0.074971 -0.136107 0.169722 0.003066 0.008657 -0.033055 0.129206 0.004138 -0.216075 -0.048188 -0.018819 0.031272 -0.123360 -0.089926 0.089218 0.026762 -0.090842 -0.048060 -0.000048
long 0.204671 -0.132879 0.018861 -0.123169 0.004464 0.001578 -0.035016 0.033189 0.105568 0.090131 0.039905 0.064618 -0.154991 0.097708 0.038598 0.020012 -0.273285 0.195560 0.010535 0.033939 0.002842 -0.151173 -0.038882 -0.038111 -0.020475 0.077161 0.021841 0.021554 -0.079468 0.038184 0.023491 0.014794 0.065656 -0.027504 -0.047048 -0.102194 -0.095533 0.107483 -0.040705 -0.095058 -0.061314 -0.040489 0.103629 -0.213933 0.146897 -0.021129 -0.068240 0.024821 -0.050133 0.044957 0.147932 0.141730 0.050506 0.069852 0.139693 0.042816 0.142798 -0.143677 -0.086449 -0.106014 0.061527 -0.148730 0.047245 0.085887 -0.180464 0.051711 0.122266 0.133149 -0.074869 -0.168817 -0.144951 -0.056881 -0.109309 -0.042398 -0.030014 0.057407 0.036565 0.139847 -0.074878 -0.107686 -0.079146 -0.005247 -0.016521 0.144566 -0.058691 -0.176720 -0.043593 0.083203 0.044060 -0.176748 -0.175440 0.063637 -0.027859 -0.149281 -0.034670 0.128378 -0.104104 -0.032523 -0.017107 0.152150
should 0.213950 -0.068359 0.073688 -0.092088 0.091517 0.087937 -0.010326 0.143915 0.079370 0.145748 0.009805 -0.022101 -0.104193 -0.011760 0.047230 -0.094697 -0.205859 0.215915 -0.074975 0.150342 -0.017022 -0.106541 0.035034 -0.003265 -0.013071 -0.081046 0.047046 0.062217 -0.092888 0.091556 -0.097331 0.048926 -0.099311 -0.143729 -0.051780 -0.126195 -0.012246 -0.024396 0.090616 -0.031263 0.112385 -0.041580 -0.086011 -0.095254 0.110770 -0.041653 0.065085 -0.098349 -0.005698 0.163066 0.186605 0.160016 0.170322 0.004381 0.134066 -0.023322 0.167726 -0.133585 0.086303 -0.032033 -0.023459 -0.063733 0.063287 0.134191 -0.184542 0.058250 0.074050 -0.005517 0.012120 -0.025393 -0.153622 -0.117567 -0.012198 0.062874 0.098095 0.060978 0.024494 0.122399 -0.053651 -0.054250 0.023129 -0.124858 0.035004 0.181242 0.087870 -0.065702 0.122123 0.002104 0.179403 -0.145752 -0.029856 0.107209 -0.008228 -0.075813 -0.024713 -0.042564 0.023121 0.129550 -0.169045 0.161233
absolutely 0.053778 0.059359 0.160454 -0.013500 0.111464 0.104087 0.006198 0.065038 0.124257 0.035698 -0.167333 -0.016081 -0.058150 0.062048 -0.037006 0.027189 -0.162847 0.216627 -0.090975 -0.057355 -0.122515 -0.129163 0.001546 -0.020710 -0.000960 0.089669 0.048617 0.045253 0.111068 0.001763 0.014854 -0.071193 -0.028811 -0.103270 -0.083126 -0.132438 -0.095225 -0.121382 -0.055137 0.055984 0.096043 0.159149 -0.024967 -0.218077 -0.066279 0.072366 -0.006743 -0.078731 0.017430 0.192504 0.117911 0.108957 0.079214 0.055669 0.259517 -0.017851 0.006857 -0.028412 -0.127292 -0.102760 0.000988 -0.161184 0.015260 -0.086597 -0.142612 0.040415 0.020300 0.154329 0.091504 -0.204772 -0.076640 -0.086563 0.039103 0.018287 0.139753 0.064195 0.163478 0.030610 0.019121 -0.026458 0.033635 -0.030737 -0.012989 -0.041886 -0.104544 -0.215396 -0.082799 -0.066047 0.039312 -0.021833 -0.048669 0.049993 0.137955 -0.116651 -0.077345 0.155688 -0.001399 0.046006 -0.211332 0.139197
probably 0.072287 -0.120285 -0.056554 -0.137447 -0.009068 -0.054229 -0.001463 0.126463 0.091892 0.090052 -0.025071 -0.083904 -0.033814 0.056082 -0.079413 0.075499 -0.166184 0.198850 0.007693 0.006525 -0.104443 -0.100571 -0.137079 -0.054826 0.009789 -0.036123 -0.011548 -0.057672 0.068250 0.066359 0.019031 0.044589 -0.142000 0.040093 -0.110303 -0.117590 -0.085254 0.045320 0.011461 0.000815 0.063225 0.097621 -0.004870 -0.041147 0.125852 -0.031282 -0.093403 0.009504 0.112560 0.120097 0.227892 0.112999 0.098506 -0.033662 0.217498 0.114578 0.108637 -0.006498 -0.116417 -0.127011 -0.141033 -0.204617 0.116976 -0.018406 -0.054802 0.087530 0.088848 -0.058552 -0.134941 -0.197345 0.003031 -0.145255 0.040803 0.050131 0.081867 -0.049377 0.053290 0.121540 0.113416 -0.049188 -0.006823 -0.110917 0.050782 0.195722 -0.022454 -0.098172 0.083065 0.138386 0.241319 -0.159384 -0.134422 -0.001099 0.026934 -0.163612 -0.025970 -0.022961 0.041469 0.103143 -0.122971 0.009145
always 0.220479 0.029181 0.042020 -0.122460 0.068887 0.036859 0.015745 0.121666 0.069281 -0.046441 -0.007397 -0.117451 -0.016298 0.044701 0.086489 0.032033 -0.290534 0.140925 -0.113896 0.128521 -0.042455 -0.115337 -0.168524 -0.089001 0.015532 -0.063923 0.072379 -0.090502 0.086613 0.161166 -0.093526 -0.001251 0.002810 0.048783 -0.157189 0.001796 -0.025735 0.043248 0.065863 -0.154146 0.116930 0.030351 0.114973 -0.182593 0.001833 -0.060388 0.080056 -0.113212 0.067479 0.070864 0.154210 0.215633 0.046610 -0.089756 0.154219 0.033491 0.167453 0.028264 -0.034508 -0.113852 -0.099866 -0.109770 0.079046 0.113136 -0.141013 0.044573 -0.050407 0.040023 -0.084514 0.010468 -0.111002 -0.091973 -0.083079 -0.115030 0.131768 -0.126668 0.038032 0.182305 -0.047819 -0.088799 0.039513 0.029939 -0.133476 -0.006843 -0.009993 -0.089545 0.105077 0.035348 0.107209 -0.042534 -0.123603 0.153296 0.024962 -0.101244 -0.061588 0.113521 0.004223 0.059284 -0.136769 -0.004817
comfortable 0.183359 -0.079535 0.057143 -0.165346 0.004441 0.063111 -0.000424 0.082753 0.059276 0.046008 -0.082447 0.095252 -0.180894 0.010118 0.108836 0.052641 -0.102542 0.089783 -0.011488 0.150656 -0.164457 -0.120762 -0.108371 0.107087 -0.139387 -0.052352 -0.033630 -0.059372 0.091602 -0.015200 -0.077859 0.081118 -0.124237 -0.028870 -0.096063 0.017870 -0.055327 -0.080564 -0.081441 -0.096131 -0.049196 0.032657 0.069869 -0.193124 0.082203 0.009485 -0.042666 -0.033383 0.119137 0.163944 0.005035 0.007238 0.045923 -0.054506 0.151923 0.162879 0.200223 -0.026773 0.094114 -0.088835 -0.074217 -0.070665 -0.048745 0.114713 -0.140780 0.085750 0.125046 0.013865 -0.011958 -0.187853 -0.061843 -0.231003 -0.076985 0.001264 0.076356 -0.103650 0.122443 0.056176 -0.045876 -0.155583 -0.077423 0.027969 -0.074998 0.078889 0.011589 -0.156079 0.003684 -0.028530 0.164876 -0.047345 -0.116524 0.046846 0.143803 -0.157004 0.077501 0.152999 0.009941 0.111674 -0.173665 0.000437
poor 0.067808 -0.154703 0.144168 -0.105871 0.016292 -0.034352 0.114706 0.140639 -0.053023 0.137617 -0.145543 -0.114560 -0.200715 -0.023103 -0.038775 0.035103 -0.108416 0.073711 -0.153430 0.014649 -0.029730 -0.062232 -0.067553 0.051409 -0.049942 0.057686 -0.071310 -0.052977 -0.033508 0.079328 0.092050 -0.009521 0.027601 -0.088274 -0.047055 -0.125204 0.022463 -0.110371 0.033131 -0.129794 0.115332 0.165847 0.061501 0.054356 -0.065875 0.081871 0.081093 -0.013842 -0.098408 0.033915 -0.019443 -0.026997 0.206228 0.100895 0.103756 0.086372 0.164246 0.094808 0.025277 -0.157142 -0.120624 -0.166450 0.060645 0.032214 -0.010631 -0.056896 -0.009494 0.100807 -0.097662 0.026774 0.058664 -0.174041 -0.000658 0.000395 -0.055510 0.078627 0.045264 0.187714 0.070490 0.049935 -0.158497 -0.079411 0.030101 0.166102 0.029517 -0.180809 -0.000075 0.065215 0.210863 -0.115852 -0.055326 -0.034954 -0.012790 -0.175376 0.162934 0.166443 0.030542 0.096877 -0.128695 0.160464
funny 0.007486 0.085609 0.110350 -0.192216 -0.051977 0.084073 -0.156234 0.046733 0.099387 -0.078682 0.006844 0.006872 0.050062 0.045531 -0.020168 -0.060321 -0.113154 0.154992 -0.036136 0.078632 0.055147 -0.221235 -0.070098 0.046673 -0.042292 0.014064 0.117060 -0.153219 0.083916 -0.066883 -0.124569 0.104194 -0.041191 0.077420 -0.045057 -0.170276 0.016745 -0.105768 -0.028164 -0.146555 0.084743 0.019612 -0.046683 -0.041122 0.085594 -0.026529 0.108323 -0.127412 0.021396 0.050585 0.114698 -0.047149 0.035169 -0.057362 0.111173 -0.018593 -0.019149 -0.158443 0.113387 0.086195 0.101096 0.014995 0.146950 0.148041 -0.221549 0.014516 0.167437 -0.006133 -0.146438 0.010691 -0.081134 -0.145096 -0.181440 0.073150 0.099063 -0.138654 0.082529 0.043736 -0.022637 0.024896 -0.140357 -0.171622 -0.010289 0.129068 0.012348 -0.031910 0.128152 0.144907 -0.005226 -0.237084 -0.061381 0.199325 -0.095187 -0.099946 -0.088951 -0.016433 -0.094451 0.024623 -0.019360 0.039478
highly 0.067324 -0.152368 0.115416 0.057148 0.013479 -0.036654 0.071091 0.074197 0.178671 -0.068853 -0.177384 -0.042840 0.081820 0.053551 0.135069 -0.105403 -0.068667 0.050351 0.010848 0.017990 -0.183454 -0.104463 -0.030943 0.142861 0.000034 -0.161299 -0.105947 0.045806 -0.113552 -0.046927 -0.111788 -0.091413 -0.008369 -0.038071 -0.190049 0.098851 0.082597 -0.152919 0.132719 0.027157 -0.114609 -0.061019 -0.137013 -0.111339 0.077140 -0.029305 -0.041374 -0.103824 -0.053672 0.111865 0.104313 -0.082192 0.057311 -0.160902 0.193702 0.132126 0.027500 -0.141992 -0.148938 0.016387 0.113512 -0.170285 -0.015330 0.032869 0.031375 0.067387 -0.095234 -0.081698 0.006639 0.055618 -0.172350 0.049415 0.087595 0.120102 -0.102347 0.111038 0.070518 -0.110210 0.003450 0.022578 0.037250 -0.085230 0.068404 0.186451 -0.140570 0.064507 -0.100504 -0.010638 -0.083366 -0.027255 0.023907 0.131164 -0.078937 0.100596 -0.084282 0.122101 -0.050880 0.147173 -0.019232 0.170186
horrible 0.089166 0.066801 0.100320 0.019375 -0.055500 0.029218 -0.100226 0.046322 0.171488 0.062344 0.029353 0.128907 -0.026289 -0.152681 0.071062 0.104822 -0.224294 -0.060618 0.124594 0.188157 0.067623 -0.151189 0.024332 -0.119798 -0.087714 -0.116351 0.170162 -0.048432 0.140938 0.003775 0.144633 0.076155 0.066054 -0.036808 0.085405 0.058342 0.151374 0.082931 -0.112643 0.090431 -0.001891 -0.092536 -0.146592 -0.050952 0.061160 -0.072159 -0.034804 -0.027765 -0.083885 0.149764 0.020537 0.067607 0.049529 -0.163263 0.033389 0.023593 0.087925 -0.080393 -0.129200 -0.117237 -0.127632 -0.045211 -0.079277 0.154856 -0.017182 -0.158689 -0.084894 0.152829 0.112580 -0.035701 -0.023120 -0.208067 -0.045537 -0.049241 0.115711 0.092547 0.053123 0.179690 0.075559 -0.091762 -0.045110 0.042215 -0.126864 0.143395 0.072428 -0.239768 0.000457 -0.045456 -0.060597 -0.021840 0.055131 0.033025 -0.014428 -0.149187 0.042569 0.114499 0.088748 0.000249 -0.038800 0.069590
however 0.148699 -0.129747 0.113123 -0.167924 -0.054868 -0.074196 -0.107520 0.131907 0.131999 0.128531 -0.017839 -0.088068 -0.192922 0.090558 -0.095701 0.074940 -0.200276 0.166840 0.028920 0.042422 -0.190010 -0.135414 0.014877 -0.044139 -0.052101 0.040617 0.120943 -0.042199 0.046842 0.063630 0.058839 0.000430 -0.065462 -0.079509 -0.057055 -0.165863 0.013890 -0.092623 -0.029709 -0.117620 0.009910 0.078185 0.016032 -0.185153 -0.021173 -0.091712 -0.055845 -0.066516 0.109267 0.115089 0.049466 0.184477 0.040809 -0.091658 0.152835 -0.017804 0.168146 -0.106768 -0.040319 -0.029139 -0.007403 -0.123741 -0.045270 0.022878 -0.187913 -0.050737 -0.054709 -0.026463 -0.144317 -0.199242 -0.008575 -0.052376 0.046450 -0.099601 0.026858 -0.070760 -0.012762 0.055369 0.111000 -0.138813 -0.025362 0.000500 0.044935 0.207869 -0.009088 -0.050010 -0.042015 0.013528 0.152680 -0.103305 -0.108768 0.075806 0.050949 -0.099350 0.137622 0.130035 0.001004 0.076416 -0.165699 0.063834
amazing 0.176287 -0.017090 0.108328 -0.048011 0.085037 0.035564 -0.135228 0.067230 -0.028557 0.005041 -0.128665 -0.110916 -0.052360 -0.022055 -0.021233 0.037044 -0.198826 0.094480 0.053457 0.181828 -0.120842 -0.148815 -0.115618 -0.006589 -0.082150 -0.027306 -0.021219 -0.056580 -0.048722 0.157522 0.082284 -0.004990 -0.106318 -0.062572 -0.000352 -0.051319 -0.027321 0.025543 0.034906 -0.044610 0.111824 -0.027118 -0.045686 -0.145886 0.126689 -0.000875 -0.076932 -0.038637 0.106869 0.054042 0.220748 0.081150 0.170580 -0.011339 0.307785 0.092439 0.119484 -0.107447 0.041886 -0.083735 0.024806 -0.208480 0.072675 -0.036238 -0.077051 -0.062735 0.018931 0.024515 -0.128163 -0.105087 -0.009417 -0.134450 -0.141951 -0.051054 0.002488 0.013805 0.031555 0.123765 -0.025634 0.032791 -0.006374 -0.172267 -0.053171 0.136434 -0.011500 -0.181167 -0.023165 0.045407 0.208882 -0.039486 -0.184719 0.042210 0.015669 -0.151013 -0.016194 -0.011912 -0.113499 0.086567 -0.172384 0.010257
delicious 0.142612 -0.047339 0.038379 -0.062789 -0.073099 0.067227 -0.132929 -0.017140 0.028948 -0.041940 -0.141537 0.101953 -0.194507 -0.133953 0.094020 0.114056 -0.098950 0.189264 -0.006371 0.153787 -0.075163 0.002766 -0.086121 0.064603 -0.187964 -0.091022 0.158664 -0.024750 -0.033657 -0.043385 -0.041370 -0.055515 -0.043072 -0.097930 0.006509 -0.181653 0.130776 0.106077 0.060266 -0.148212 -0.030809 0.021974 0.131682 -0.168305 0.014942 0.045134 -0.091924 0.062528 -0.091037 0.038958 0.197198 0.016789 0.002364 0.004497 0.130139 0.154435 0.067425 -0.032346 -0.136014 -0.027911 -0.032353 -0.019433 0.008703 0.030630 -0.070609 -0.083106 0.147543 0.115627 -0.044526 -0.140692 -0.162986 -0.007860 -0.174546 -0.039866 -0.036677 0.112673 0.153513 0.160107 0.125157 0.026454 -0.029963 -0.130388 0.051316 -0.012179 -0.053592 -0.152136 -0.005274 -0.044132 0.157993 -0.064743 0.006373 0.173224 0.049588 -0.117525 0.011049 0.006547 -0.142131 -0.100909 -0.098295 0.145136
fine 0.122094 -0.082954 0.082757 0.068169 -0.030228 -0.127566 -0.138212 0.106110 -0.033063 0.026898 0.009146 -0.128581 -0.022125 0.077688 0.032367 -0.060192 0.003699 0.187839 0.049514 0.066218 0.084217 -0.182590 -0.183174 -0.090861 -0.051039 0.079221 0.039853 0.016274 0.018960 0.058470 -0.061231 0.176780 -0.161239 -0.150598 -0.165901 -0.163858 0.117845 -0.130847 0.037778 -0.053043 0.068923 0.080286 -0.108123 -0.001129 0.073739 0.016410 0.058591 -0.123600 0.118965 -0.105454 0.199918 -0.015960 -0.072318 0.122235 0.162062 0.160540 0.068162 -0.115005 -0.122210 0.080670 -0.049863 -0.218116 0.001718 -0.042082 -0.078367 0.047826 -0.111093 0.004338 -0.106815 -0.183583 -0.065094 -0.050461 -0.045843 0.004395 -0.113831 -0.087495 -0.021695 0.083547 0.059252 -0.005409 -0.149589 0.101057 0.034478 0.069655 -0.015775 -0.078219 0.133334 0.175173 0.158068 -0.070467 -0.146618 -0.078632 -0.048288 -0.152511 -0.028135 -0.069588 -0.111110 -0.006848 0.007968 -0.003575
same 0.057383 -0.017788 0.074097 -0.068764 -0.012803 0.057840 -0.129055 0.083874 0.113605 0.028421 -0.071831 -0.083994 0.008933 -0.100621 -0.072084 -0.050963 -0.173933 0.076627 0.051360 0.149238 -0.024569 -0.188698 -0.140743 -0.036033 0.008843 0.043111 -0.059479 -0.102900 0.091532 0.065983 0.107285 0.154372 0.042710 -0.102240 0.011735 0.035876 0.023460 -0.031691 0.020080 -0.110355 -0.001655 0.040519 -0.043779 -0.108704 0.131287 0.084583 -0.001432 -0.109481 -0.037842 0.144670 0.168321 0.163361 0.050894 0.034053 0.254109 0.015472 0.115936 -0.151182 -0.080549 0.050095 -0.008142 -0.193907 0.075119 0.120136 -0.112835 -0.087359 0.065261 0.097276 -0.116945 -0.153409 -0.038160 -0.138045 -0.142442 -0.055989 -0.009981 -0.101595 0.116360 0.099740 -0.071434 -0.022750 -0.118803 -0.090919 -0.003965 0.158044 -0.012395 -0.209681 0.018808 0.095298 0.133667 -0.183976 -0.000236 0.122326 0.085965 -0.027016 -0.015759 -0.044733 -0.111873 0.075430 -0.186751 0.134791
totally 0.140294 -0.120249 -0.017533 -0.000203 -0.045336 -0.037023 0.088411 0.165090 0.078065 0.034815 -0.122788 -0.044843 -0.168620 -0.114062 -0.114047 -0.014022 -0.226846 0.074552 0.037757 0.066974 -0.157191 -0.119437 0.021451 -0.035526 -0.061052 -0.033443 0.068812 -0.058700 -0.008294 -0.008231 -0.081032 -0.030589 -0.056729 0.040388 0.048632 0.032389 0.039001 0.035741 0.038610 0.047371 0.117473 -0.069585 -0.071579 -0.145241 0.096408 -0.056413 -0.013679 -0.053771 0.010965 0.126020 0.041598 0.179269 0.184300 -0.083397 0.172490 0.152787 0.046245 -0.171010 -0.107710 0.088134 0.030455 -0.229304 0.114860 0.077468 -0.143263 0.017350 -0.003601 0.145928 -0.070063 -0.188759 -0.070977 -0.028956 -0.144954 0.073250 0.028535 -0.135822 0.125627 0.093000 -0.003925 -0.115230 0.046263 -0.131988 0.071032 0.173173 0.018638 -0.093464 0.117160 -0.020975 0.216869 -0.057431 -0.048177 0.078151 0.073824 -0.052395 -0.022285 0.138310 0.085680 -0.084010 -0.067244 0.160971
last 0.098173 -0.049764 0.114144 -0.009326 -0.049312 -0.063353 0.020926 0.052665 -0.022360 0.056905 -0.120986 -0.073927 -0.007130 -0.026187 0.037375 0.104241 -0.292723 0.182965 -0.084399 0.098105 -0.087376 -0.046330 -0.068156 0.107753 -0.081293 0.053837 -0.052524 -0.065229 0.082648 0.071697 -0.067907 0.080239 0.018884 0.019177 -0.056583 0.011133 0.034633 0.059039 -0.034093 -0.028703 0.074469 -0.048009 0.048776 -0.207258 0.063995 0.104047 -0.065125 -0.074733 0.048350 0.131500 0.157760 0.147283 0.176983 0.038929 0.274110 -0.028749 0.143433 -0.117484 0.045827 -0.072307 -0.075378 -0.063294 0.098072 0.116102 -0.131561 -0.045154 -0.039776 -0.038583 -0.019643 -0.031957 -0.138594 -0.218852 0.010593 -0.004671 -0.013605 0.067351 0.028177 0.036439 -0.009359 -0.150766 -0.123563 -0.128925 0.000095 0.148543 0.031363 -0.144006 0.067634 0.141760 0.179076 -0.153399 -0.058307 0.174369 -0.043168 0.024345 -0.007300 0.053343 -0.123977 0.028071 -0.219736 0.091416
easy 0.188848 0.012785 -0.011390 0.022779 0.029052 0.096487 0.060174 0.110945 0.091648 0.024391 -0.132477 -0.137837 -0.021179 -0.007060 -0.026792 -0.031407 -0.190372 -0.019407 -0.023070 0.210140 -0.168730 -0.175251 0.002466 -0.079528 -0.204712 -0.024675 0.041704 -0.048679 0.047935 0.188275 -0.051317 0.126931 0.063933 -0.084694 -0.107213 -0.048204 0.135422 0.034296 0.069974 -0.017709 -0.010435 0.084442 0.036309 0.011144 -0.075649 -0.142353 0.075334 -0.139815 -0.075887 0.016111 -0.007141 -0.029183 -0.028134 -0.121287 0.265847 0.121057 0.066612 -0.063546 -0.086804 -0.110672 0.081749 -0.146535 -0.065945 0.107558 -0.082557 0.077419 0.128796 0.045987 -0.126919 0.031428 -0.106096 -0.117656 0.079250 -0.093846 -0.098237 -0.020313 0.055524 0.172229 0.062465 -0.015487 0.027307 0.059629 0.027054 0.050662 0.080113 -0.100402 0.144721 0.127626 0.145395 -0.071771 -0.169363 -0.055374 0.072370 0.077718 0.171177 -0.078748 -0.079111 0.147547 -0.031645 0.138018
small 0.184908 -0.115306 0.008904 -0.141387 0.076930 0.086391 -0.025793 0.176378 0.113475 -0.071007 -0.140145 0.022523 -0.063192 0.037420 -0.067447 0.047333 -0.235190 -0.001977 0.098597 0.125553 -0.109700 -0.048544 -0.093442 0.121747 -0.145370 0.052364 0.075265 0.000903 0.003228 -0.033147 0.128606 0.156499 -0.048765 -0.148922 -0.169342 -0.008909 -0.052884 -0.121504 0.068946 0.001305 -0.092695 -0.012830 -0.065715 -0.092012 0.030859 -0.118693 0.048291 -0.137837 0.130684 0.064354 0.189094 0.154212 0.004917 -0.046421 0.089142 -0.004455 0.208167 0.050100 0.098687 -0.015867 -0.044034 -0.140457 -0.076825 0.073017 -0.021368 0.024266 0.038499 0.101717 -0.012134 -0.153637 -0.038337 -0.184258 -0.027859 0.097364 0.115018 0.105586 0.026224 -0.059501 -0.006347 -0.031481 -0.165813 -0.134763 -0.033370 0.093287 0.038822 -0.033268 0.113687 0.051900 0.192121 -0.123415 -0.163539 -0.034960 -0.078222 -0.093842 -0.082746 0.067932 -0.034840 0.109777 -0.149962 0.074439
stupid 0.039495 0.100723 -0.063973 -0.184261 0.138704 0.028245 -0.069158 0.061792 0.160134 0.111460 0.044923 -0.002999 -0.160973 -0.012113 -0.068651 0.093948 -0.132669 0.051127 -0.128123 0.136306 0.038852 0.011142 -0.137453 -0.043487 -0.014204 -0.124093 0.035321 -0.010349 0.135980 0.048189 -0.037188 0.168113 0.095027 -0.169011 -0.004748 -0.139920 -0.045347 0.140065 0.128072 -0.012562 0.047854 0.126396 -0.007870 -0.166709 0.040564 0.005813 -0.084296 0.090395 0.128061 0.019204 0.105038 -0.039749 0.160333 -0.130163 0.206806 -0.095558 0.191911 -0.130106 -0.149556 -0.103684 0.024913 -0.189741 -0.100688 0.104680 0.029608 0.037863 0.137648 0.077672 0.003411 0.046526 -0.175955 -0.127900 -0.075421 0.106813 0.087786 0.015414 -0.032107 0.010468 0.006035 -0.036362 -0.045898 -0.167668 -0.103699 0.085826 0.106106 -0.162430 -0.051328 0.018582 -0.013204 0.046590 -0.067864 0.090006 -0.063286 -0.101984 0.068587 -0.100967 -0.122642 0.101352 -0.071246 0.042649
actually 0.211420 -0.051103 0.091266 0.022718 0.089609 -0.097177 -0.026993 0.174679 0.112777 0.092414 -0.008544 -0.123176 -0.034309 -0.050476 0.024241 -0.056156 -0.134650 0.101246 -0.092102 0.049469 -0.166356 -0.130834 -0.095593 0.080710 -0.022097 -0.035654 0.113160 -0.074305 -0.056168 0.118760 0.022484 0.136327 -0.061957 0.007240 -0.010232 0.030496 0.005718 0.077805 0.095396 -0.083152 0.111529 0.028627 -0.016898 -0.085292 0.068791 0.017839 0.086422 0.041950 0.144856 0.169709 0.219651 0.014470 0.151474 0.060824 0.136978 0.062895 0.092140 0.001727 0.077717 -0.085912 -0.153095 -0.143221 0.139742 0.064711 -0.109729 0.014970 0.020645 -0.023949 -0.078008 -0.016723 -0.048040 -0.171257 -0.042817 0.077938 0.139878 0.079236 0.069137 -0.001775 0.011343 -0.129338 -0.157282 -0.156397 -0.109753 0.136931 -0.108227 -0.082632 0.073154 -0.014768 0.202954 -0.212957 -0.038520 0.018074 0.152878 -0.128006 0.013560 -0.055808 -0.028022 0.104867 -0.185296 0.085887
big 0.013417 0.064405 -0.062762 -0.040962 -0.094822 -0.081784 -0.000816 0.081263 -0.003875 0.053856 0.035677 0.031439 -0.153294 -0.118723 -0.109509 -0.076767 -0.247160 0.052605 -0.112031 0.129199 0.053555 -0.190576 0.012188 -0.072364 -0.109223 -0.130088 0.064161 -0.077083 -0.112358 0.187275 -0.006115 0.167714 -0.093635 0.070107 -0.175051 0.008621 -0.034319 0.098518 -0.090442 0.000452 -0.083587 -0.001964 -0.067123 -0.155851 -0.069503 -0.114782 0.056301 0.069083 0.075537 0.167124 0.143069 0.039566 0.132710 0.094063 0.177939 0.111497 0.069674 -0.013241 0.129987 -0.037140 -0.037579 -0.195098 -0.047767 -0.089747 0.013472 -0.028331 0.080996 0.075758 -0.114621 -0.026722 -0.144062 -0.168315 -0.085272 0.064777 -0.046523 -0.085866 0.021275 -0.061431 0.085187 -0.067300 -0.000025 -0.108062 0.110028 0.079867 0.068580 -0.220194 -0.082134 -0.029296 0.125225 -0.145666 -0.051525 0.115753 0.033512 -0.128243 -0.084502 -0.102695 0.006616 0.150794 -0.112628 -0.047567
such 0.175397 -0.107896 0.038471 -0.186051 0.003555 0.029603 -0.031150 0.041051 0.123525 0.049139 -0.098120 0.037662 -0.029403 0.046210 0.088457 -0.085988 -0.230789 0.121498 -0.114759 0.026817 -0.176909 -0.210713 -0.023238 -0.002123 -0.130550 0.079777 0.076784 -0.023036 -0.110863 0.007559 0.068014 0.064527 -0.057468 -0.018414 -0.166671 -0.111220 0.030801 0.046796 -0.076974 -0.128518 0.098692 0.048811 0.020985 -0.045601 0.025968 0.074644 0.017467 -0.133876 0.009369 0.048595 0.189819 0.012703 0.159161 0.072105 0.265092 0.030629 0.137446 -0.024838 -0.081911 -0.125999 -0.125527 -0.040743 -0.059505 0.000027 -0.138533 0.011793 0.061257 -0.003281 -0.090294 -0.077775 -0.048477 -0.172206 0.045612 0.030901 0.025453 0.062430 0.023887 -0.001409 0.118702 -0.057688 -0.009435 -0.002614 -0.012952 0.172093 0.072710 -0.176163 0.027258 0.145394 0.111287 -0.195641 -0.111373 -0.014450 0.135716 -0.110213 -0.017648 0.136364 -0.027106 0.066785 -0.218178 0.038367
fantastic 0.092496 -0.056012 -0.131125 0.004011 0.002218 -0.096844 0.055415 0.018100 0.118985 0.000969 -0.057260 -0.071426 0.048216 0.073826 0.071127 -0.011537 -0.030151 0.214837 0.017359 -0.026393 -0.115808 0.071040 0.019805 0.027165 -0.016780 -0.087928 -0.086214 0.004895 -0.136208 0.126719 -0.039191 0.087766 -0.061204 0.138324 0.007078 -0.174773 -0.146774 0.155642 0.158034 -0.173592 -0.045830 0.074751 -0.058614 -0.065049 -0.078357 0.082476 0.042677 -0.206811 -0.056943 0.150161 0.063404 0.035516 0.009130 0.071653 0.075149 -0.035089 -0.062122 -0.156897 -0.112343 0.141555 0.115533 -0.090880 0.134908 0.042358 -0.019070 0.098048 -0.013623 -0.044473 -0.193598 -0.181311 -0.068954 0.075421 -0.058686 0.056889 -0.116693 -0.096222 0.128745 0.178070 0.117232 -0.202224 -0.044082 -0.070181 -0.062744 -0.094486 0.076450 -0.066036 0.026748 0.034170 -0.019300 -0.216529 -0.225364 -0.034000 0.060423 -0.018036 -0.114473 0.032021 -0.180532 0.018335 -0.077518 -0.095987
awesome 0.189575 0.111207 0.120662 -0.185692 -0.118936 0.017161 -0.059923 0.046612 -0.051731 0.114462 -0.118902 -0.147246 0.075864 0.127969 -0.038038 0.140220 -0.170705 0.001391 -0.012307 -0.032725 -0.059494 -0.188480 0.019091 -0.070119 -0.168869 -0.113003 0.105580 -0.029200 0.073683 -0.062155 -0.073150 0.026213 -0.134955 -0.003649 0.081466 -0.036411 -0.043030 0.077038 0.093562 -0.141075 -0.121975 -0.040274 0.150858 -0.210944 0.070046 -0.022314 0.040372 0.108288 -0.038565 0.044951 0.126555 0.028505 0.179569 0.123561 0.046615 0.060889 0.025396 0.067749 0.010805 -0.047783 0.002600 -0.106801 0.153345 0.073586 -0.171691 -0.065827 -0.033955 -0.057312 -0.180263 0.008497 -0.103349 -0.040247 0.009305 -0.148506 -0.123647 0.057827 -0.062713 0.048918 0.112111 0.021445 -0.044772 0.048986 -0.003327 0.121107 -0.140350 0.005916 0.067389 0.166661 0.151720 -0.159756 -0.140272 0.013452 -0.117110 -0.007384 0.089385 0.056076 -0.127735 -0.005641 -0.091862 0.158011
worth 0.209544 0.001280 -0.042658 -0.190601 0.098938 -0.047034 0.003782 -0.019533 0.079706 -0.043548 -0.104757 0.074086 -0.153188 -0.027038 -0.045228 0.009318 -0.149119 0.077215 -0.073089 0.181828 -0.062666 -0.005924 -0.050253 -0.023978 -0.165884 -0.055081 -0.030785 -0.101155 0.008544 0.145389 0.061400 0.058745 0.012617 0.057943 0.027055 -0.093408 -0.017705 0.099764 -0.113680 -0.006267 -0.017504 0.127093 -0.043756 -0.071605 0.155030 0.047960 -0.006624 0.049204 -0.035604 0.084535 0.092999 0.136076 -0.015463 0.003027 0.285469 0.091068 0.203584 -0.160185 0.051912 -0.040186 -0.111113 -0.122434 0.069737 0.099236 -0.062410 -0.075598 -0.026486 0.047832 -0.165313 -0.159698 0.019552 -0.253467 0.012019 0.067970 0.019151 -0.029587 0.011501 -0.037645 0.120128 -0.123612 0.022951 -0.155218 0.032203 0.067564 0.086624 -0.200939 -0.009265 -0.005262 0.116940 -0.214255 -0.107179 -0.022287 0.004262 0.050587 0.070123 0.138462 -0.005538 -0.040201 -0.193418 -0.016328
slow 0.055303 0.039655 0.122292 -0.032797 0.051224 -0.044028 -0.032503 0.092886 0.008043 0.050919 -0.168065 -0.119717 -0.140291 0.103624 0.048939 0.102535 -0.240934 0.149917 -0.115852 0.054259 -0.166980 -0.199215 0.007197 0.106021 -0.132038 0.048729 0.114169 -0.013238 0.075929 0.183969 -0.063097 0.106738 -0.084876 -0.146246 -0.146628 -0.130228 -0.039592 -0.094423 0.032868 -0.022575 0.003972 0.006543 -0.032380 -0.140857 0.155117 0.028813 0.016980 -0.015674 0.132917 -0.003895 0.062010 0.035409 0.167611 -0.073033 0.276871 -0.011039 0.042765 0.009665 -0.061391 0.006185 -0.074834 -0.088366 -0.000681 0.148602 -0.120602 0.072640 0.127125 -0.053044 -0.064356 -0.032226 -0.019368 -0.137272 -0.092546 0.059744 0.132444 -0.014097 -0.048055 0.087883 0.053898 -0.168524 0.016306 -0.072202 0.008144 0.074369 0.095888 -0.167685 -0.014494 0.024597 0.176230 -0.007253 -0.152025 0.102824 0.043028 -0.047968 -0.011988 -0.063889 -0.064076 0.000833 -0.210696 0.088233
old 0.115454 -0.133871 -0.067050 -0.189966 -0.044444 0.039910 0.021052 0.184332 0.046335 0.088497 -0.021351 0.072694 -0.098729 0.094775 0.015716 -0.003453 -0.281082 0.091898 -0.066313 0.012804 -0.190165 -0.101378 -0.134337 -0.037472 -0.150575 0.061372 0.045414 -0.083686 -0.047524 0.134706 -0.007802 0.090799 0.055349 0.027129 -0.046201 -0.067764 -0.028475 -0.058751 -0.067262 -0.126918 0.090371 0.070454 -0.033994 -0.221067 0.138800 0.119127 0.015192 -0.100838 0.043846 0.166949 0.167124 0.086101 -0.001951 0.059409 0.179228 -0.009992 0.003813 -0.121416 0.085965 -0.022423 -0.059315 -0.080734 -0.044295 0.017942 -0.096111 0.030566 -0.037745 0.068562 -0.000554 -0.067341 -0.098438 -0.025078 0.015381 -0.008894 -0.057216 -0.052316 0.132794 -0.013355 0.084835 -0.128177 -0.122145 0.015864 -0.083645 0.130758 0.044876 -0.222593 0.019447 0.046372 0.031086 -0.191655 -0.188130 0.047351 0.118621 0.016755 -0.017545 0.142793 -0.097637 0.078504 -0.231779 0.054609
especially 0.031802 -0.022658 0.007020 -0.168779 -0.046681 0.089324 0.013289 0.128815 0.019082 0.143515 -0.160780 -0.107306 -0.032938 -0.003119 0.071465 0.035234 -0.281465 0.070260 -0.023528 0.150221 -0.025596 -0.205346 -0.031989 -0.024475 -0.146453 0.016969 0.122517 -0.030872 -0.046232 0.053627 0.052387 0.122442 -0.071874 -0.113338 0.015561 -0.162169 -0.041221 0.044741 0.073513 -0.077517 0.046528 0.039576 -0.097170 -0.151561 0.083370 0.073071 -0.084237 0.031571 0.051355 0.088325 0.038867 0.015097 0.088448 0.007807 0.298283 -0.037832 0.193377 -0.134825 -0.001370 -0.102261 0.000069 -0.204945 -0.055510 0.020544 -0.074921 -0.061835 0.003084 0.006028 -0.066844 -0.020771 -0.036170 -0.217807 -0.068797 -0.093816 0.005922 -0.047036 0.096280 0.114951 0.018963 -0.060060 -0.014162 -0.084040 0.002004 0.175660 -0.020699 -0.172261 0.092659 0.044112 0.218328 -0.223194 -0.147502 0.078840 0.005015 -0.079503 0.047728 0.031710 -0.009732 0.002523 -0.086936 0.003358
overall -0.010537 -0.144917 -0.045222 0.056164 -0.042980 -0.116170 0.036322 0.145975 0.054813 0.111694 -0.033837 0.028264 -0.169792 0.119487 -0.065835 0.012875 -0.284038 0.036547 -0.020312 0.074751 -0.175447 -0.147787 -0.160765 -0.055715 -0.180737 -0.096003 -0.054465 -0.062471 -0.028371 0.014934 -0.061053 0.185081 0.084446 0.067893 -0.016074 -0.061508 -0.001065 -0.120543 -0.098346 0.055636 0.049800 0.060238 -0.040095 -0.053660 -0.011325 -0.029775 -0.023898 -0.044742 0.071482 -0.010400 0.041258 0.105431 0.113402 -0.105500 0.182031 0.092115 0.147414 -0.062801 -0.025540 -0.058758 -0.070128 -0.224243 -0.083378 -0.005852 -0.191339 -0.025796 0.157722 0.067926 -0.142367 -0.048522 -0.178254 -0.097539 -0.068920 -0.006421 -0.029858 0.048973 0.047627 -0.039035 0.041754 -0.147067 -0.140769 -0.092040 -0.099278 0.098092 -0.070532 -0.142682 -0.010099 0.079439 0.073247 -0.131477 0.032294 0.167884 0.034400 -0.044098 0.135090 -0.022242 0.095636 0.076395 -0.207805 0.055761
fresh 0.124014 -0.161073 -0.011038 -0.076164 0.110823 -0.089041 0.019800 0.099408 0.183087 0.029154 0.083200 0.141996 -0.153748 -0.037344 0.117538 0.089916 -0.191679 0.217344 0.077564 0.146297 0.070948 -0.169679 0.017059 -0.014685 0.103935 -0.089463 0.099336 0.055268 -0.097723 0.076502 0.046668 0.055878 -0.064040 -0.089330 -0.014096 0.035190 -0.136771 -0.008741 0.107339 -0.033435 -0.017662 0.164523 0.012994 -0.188931 0.043466 -0.067199 -0.098147 0.013159 0.003457 0.065750 0.036193 -0.075854 0.059088 -0.043405 0.013432 0.133154 0.218545 0.100765 0.129526 -0.100033 0.073655 -0.211081 -0.023794 0.127882 -0.017389 -0.022602 0.017863 -0.110847 -0.183031 0.031717 0.037354 -0.080782 -0.066555 0.113837 0.137827 -0.090821 -0.045183 -0.097424 0.146820 -0.073413 -0.029015 0.106446 0.097593 0.070432 0.049989 -0.082169 0.033380 0.039633 0.213986 -0.079747 0.095992 -0.088295 0.003611 -0.068123 -0.105158 0.035334 0.053217 0.069328 -0.122376 0.136949
sure 0.098563 -0.060037 0.021269 -0.160318 -0.118289 0.094847 -0.063438 0.138586 0.137299 0.006871 0.018053 -0.010114 -0.055234 -0.107949 0.037696 -0.070723 -0.204773 0.193938 -0.049715 -0.022702 0.025488 -0.182359 -0.090742 0.114227 -0.112184 -0.128369 0.053608 -0.091875 -0.051724 0.055642 0.031720 -0.009908 -0.083293 -0.001308 -0.048978 -0.172952 0.000807 0.040393 0.078269 0.043069 0.045228 -0.035177 -0.050266 -0.211516 0.048452 -0.070486 0.129362 0.048162 0.011103 -0.009975 0.141497 -0.016844 0.096726 -0.037747 0.231493 0.143307 0.141207 -0.078401 -0.056676 -0.073130 -0.142429 -0.197492 0.122254 -0.055382 -0.011247 -0.114993 0.115373 0.037204 -0.014536 0.030892 -0.068673 -0.037280 0.049445 0.097839 -0.058489 -0.046689 0.142815 0.117733 0.055246 -0.160975 -0.138764 -0.140394 -0.121410 0.043445 0.098455 -0.139615 0.083117 -0.004202 0.218263 -0.180138 -0.147926 0.001321 -0.084575 -0.087986 -0.046907 -0.016740 -0.106141 -0.065285 -0.042343 -0.034463
least 0.016779 -0.058811 0.059234 -0.068786 0.069809 0.022174 -0.028887 0.139689 0.005816 0.078205 0.024053 -0.036632 -0.153392 -0.037756 -0.106053 -0.049893 -0.160143 0.076759 0.030132 0.065955 -0.040492 -0.193051 0.036950 0.056560 -0.147281 -0.039252 0.081532 -0.024230 -0.024491 0.086171 -0.075248 -0.008202 -0.097024 0.029724 -0.123684 -0.127641 0.055113 0.072180 0.101401 -0.097358 -0.003528 -0.029754 -0.020543 -0.225051 0.075762 0.034977 -0.024922 -0.080194 0.128232 0.098591 0.117549 0.081501 0.065922 -0.092606 0.239649 -0.019047 0.030839 -0.072440 -0.084351 -0.080312 0.025658 -0.193248 0.024541 0.081080 -0.119719 -0.110035 0.073008 0.036625 0.027893 -0.156326 -0.048561 -0.221753 -0.005968 0.027620 -0.007046 -0.073115 0.108258 -0.018544 0.103031 -0.066647 -0.094530 -0.154746 -0.028045 0.056855 -0.044937 -0.224512 0.102438 0.152417 0.114834 -0.197885 -0.090980 0.185627 0.095400 0.040867 0.135949 0.151397 -0.128933 0.134573 -0.095518 0.124728
beautiful 0.011873 -0.122383 0.004750 -0.158192 -0.040578 0.107153 -0.143991 0.152144 -0.059890 0.037127 -0.033575 0.107365 -0.164461 -0.023589 0.121057 0.027055 -0.057843 0.142121 -0.055846 0.000420 0.016736 -0.091974 -0.104403 0.075141 -0.174604 -0.082741 0.073652 -0.064914 0.094285 0.009716 -0.025332 0.181607 -0.106008 0.041378 -0.184952 0.038986 -0.075004 0.080492 0.017447 -0.110135 0.007047 0.028071 0.045178 -0.084343 0.084052 -0.114731 -0.095193 -0.026577 0.096810 -0.054925 0.022298 -0.032491 0.137965 -0.005969 0.267136 0.093610 0.218460 -0.058832 0.082889 0.062673 -0.066345 -0.232835 0.029645 -0.015924 -0.186864 -0.087500 -0.024465 -0.083249 0.053892 -0.008336 -0.098645 -0.077199 -0.097268 0.036762 -0.005291 -0.120158 -0.069231 0.128487 -0.078530 0.049376 -0.170271 -0.045322 -0.018747 0.037192 0.045903 -0.192503 0.148699 0.047169 0.122921 -0.191976 -0.026213 0.034079 -0.057582 -0.003628 0.072182 0.071478 0.072585 0.143494 -0.193884 0.038353
cheap 0.044784 -0.091532 0.016814 -0.025833 -0.112018 -0.110832 0.048979 0.064590 -0.066303 0.139927 -0.106465 0.098922 -0.133920 0.085292 0.120099 0.135767 -0.056772 -0.024799 -0.089347 0.182061 -0.047363 0.014149 -0.137809 -0.049849 0.016831 -0.079410 0.059370 -0.027455 -0.129347 -0.003490 0.114021 0.152038 0.042565 -0.169005 -0.142265 -0.043387 0.090613 -0.046869 0.001140 0.053389 -0.103555 -0.081485 0.000799 -0.016832 0.045304 -0.059964 0.000465 -0.079168 0.051074 -0.081722 0.032356 -0.027887 0.041316 -0.044476 0.204780 -0.027082 0.195827 -0.126050 -0.123966 -0.104267 0.073227 -0.246525 -0.087605 0.131565 0.034244 -0.089084 0.016191 0.007202 -0.058740 -0.189068 -0.140350 -0.222288 -0.106280 -0.086572 0.011291 0.044458 0.133822 -0.032372 -0.085971 -0.039526 0.022891 -0.137679 0.013217 0.120007 0.075543 -0.068411 0.111366 0.108896 0.207067 0.025290 0.051190 -0.022106 -0.035741 -0.177688 0.139233 0.152390 -0.132667 0.024031 -0.097684 0.109842
awful -0.056395 -0.151419 -0.115761 -0.096610 0.045937 0.030889 -0.153599 0.067370 0.008408 0.116680 -0.017069 -0.124145 -0.060303 -0.096462 -0.064458 0.038362 -0.255753 -0.059068 -0.022755 -0.013071 -0.108578 -0.182736 -0.129748 -0.087792 0.036035 -0.002529 -0.074410 -0.105427 0.019551 0.195924 -0.125270 0.110943 -0.151806 -0.130936 -0.148180 -0.102684 -0.035176 -0.125742 0.081986 -0.034966 -0.077725 0.049151 -0.026122 0.016513 -0.008665 -0.021613 0.109961 -0.043261 0.022585 0.063394 0.163270 -0.062121 -0.055480 -0.012201 0.166894 0.013999 0.115845 0.072455 0.101963 -0.134635 -0.071350 -0.141128 0.088610 -0.011091 -0.177903 0.025372 -0.029851 -0.079394 -0.023116 -0.186197 0.037520 -0.003003 -0.025919 0.089077 -0.068146 0.127429 0.036398 0.151344 0.041245 -0.161231 0.095325 0.087107 0.013624 0.157215 0.082649 -0.006152 0.044512 -0.035594 0.119562 -0.169184 -0.057574 0.073929 0.171227 -0.039647 0.161948 0.134345 -0.118593 0.101194 -0.082214 0.112814
next 0.160370 -0.134588 -0.034414 -0.043524 -0.044215 0.051875 -0.007801 0.140376 0.086446 0.112399 -0.113096 -0.013890 -0.009790 0.093942 0.107576 0.065804 -0.267631 -0.001523 -0.052835 0.056378 -0.059809 -0.083993 0.018153 0.119265 -0.135296 0.086833 0.008974 -0.052686 0.091533 0.195351 0.073454 0.004030 -0.031944 0.065846 0.020448 -0.056091 0.108938 0.117395 -0.023530 -0.163160 0.017108 0.014313 0.103705 -0.145228 0.038233 0.061246 -0.006466 -0.116014 -0.029963 0.142430 0.089817 0.177123 0.002126 -0.074618 0.220115 -0.059599 0.194088 0.019558 0.073695 -0.120078 0.018764 -0.161082 -0.021926 0.106051 -0.117053 -0.061471 0.037168 0.154775 -0.088463 -0.117591 0.002453 -0.165158 -0.006127 0.093859 0.071729 -0.080953 0.135701 0.096873 0.065570 -0.089451 0.053148 -0.179978 -0.128180 0.200665 -0.082891 -0.086891 -0.038919 0.015223 0.158207 -0.025600 -0.127769 -0.031145 0.147656 -0.068636 -0.074076 0.112823 0.051422 0.052085 -0.082728 0.002353
special 0.111694 -0.103276 0.092982 -0.135258 0.092606 0.046284 -0.133759 0.157475 0.147115 0.123825 -0.100156 -0.082366 -0.150349 0.055510 0.084256 0.011364 -0.181604 0.081962 -0.054783 0.171641 -0.112799 -0.037687 -0.065611 -0.092668 -0.169556 -0.079810 0.062721 -0.034830 0.081891 0.027680 0.088706 0.055181 -0.003294 0.011251 -0.041514 -0.058196 -0.101134 -0.096528 -0.016639 -0.151199 -0.038140 0.088543 -0.011275 -0.221038 -0.014390 -0.012342 0.000258 -0.132161 0.126171 0.150201 0.013607 0.041244 0.156173 -0.053939 0.229455 -0.009226 0.097733 -0.048730 0.091402 -0.067250 -0.093865 -0.071984 -0.050245 0.103205 -0.102914 -0.022005 0.039626 0.053415 -0.114312 -0.130301 -0.032225 -0.175390 -0.046665 0.017670 0.132622 0.063293 0.118740 -0.033577 0.056125 -0.004661 -0.061141 -0.003271 -0.146160 0.159624 0.099955 -0.147123 0.079404 0.118081 0.225194 -0.130702 -0.023013 0.007370 0.073008 0.038874 0.125041 0.144402 -0.048019 -0.066750 -0.016884 0.120382
must 0.092306 -0.060617 0.144422 -0.025451 0.077394 -0.011745 0.032894 -0.007863 0.133646 0.115769 -0.170957 -0.089528 -0.046781 -0.064670 -0.008805 -0.030112 -0.282852 0.159025 0.011962 0.171687 -0.097890 -0.201178 -0.069402 -0.090904 0.030704 -0.003494 -0.067866 0.034132 0.036818 -0.022957 -0.090690 0.137670 0.028168 0.000622 -0.105486 -0.104655 -0.018454 0.052063 0.049370 0.022497 -0.084299 -0.056710 0.046577 -0.208630 0.001119 -0.046890 -0.031805 -0.040726 0.000220 0.033128 0.122767 0.157057 0.111498 -0.038426 0.185624 -0.028875 0.177295 -0.003535 -0.102941 0.020178 -0.106349 -0.235546 -0.049182 0.079603 -0.067832 0.073867 -0.026690 -0.051432 -0.032832 -0.011090 0.009362 -0.204689 -0.052854 -0.057110 0.093697 -0.060086 0.077957 0.167185 0.069123 0.036467 -0.084782 -0.111157 -0.102259 0.143811 0.034606 -0.073089 -0.038117 0.117818 0.166586 -0.096837 -0.177008 0.135104 0.039805 -0.156413 0.136719 0.145963 -0.083501 -0.010641 -0.057369 0.025897
impressed 0.115694 0.010585 -0.023548 -0.128495 0.132597 0.148428 -0.140057 -0.029881 0.175303 -0.043754 -0.110264 -0.029386 0.061448 -0.106492 -0.136767 0.026076 -0.018918 0.167193 0.038237 0.099805 0.038814 -0.189758 0.041214 -0.047885 0.020780 -0.132728 0.109522 0.104970 -0.001445 0.048899 -0.029159 0.070322 0.034057 -0.062403 -0.147388 -0.086770 -0.017705 -0.115734 0.114806 -0.084389 -0.037984 0.024539 0.138408 -0.199410 -0.105154 -0.037677 0.076071 0.011102 0.150242 -0.080036 0.200392 0.160790 -0.077386 -0.125959 -0.038140 0.038621 0.222652 -0.064815 0.065006 -0.023365 -0.018478 -0.122230 0.096190 -0.040070 -0.127387 -0.029614 0.044023 -0.021674 -0.048031 0.095108 -0.094738 -0.154532 0.009100 0.061261 0.130348 -0.162930 -0.029730 0.064725 0.127456 -0.142891 0.083784 0.020890 -0.037084 0.090323 0.072780 -0.211906 0.019638 -0.020799 0.060468 -0.136612 -0.121461 0.057591 0.161134 -0.037761 -0.029869 -0.043857 0.052632 -0.082777 -0.167226 0.132256
cool 0.189953 -0.022083 0.116719 -0.087195 0.022059 0.025128 -0.119642 -0.020076 0.126753 0.013639 -0.001530 -0.095958 -0.093206 -0.051231 0.080232 -0.077159 -0.112294 0.207940 -0.062081 0.117800 -0.059579 -0.177174 -0.025753 0.049004 -0.034270 0.056344 0.109275 -0.088277 -0.003973 0.099971 -0.002173 -0.029545 -0.130544 -0.133560 -0.166217 0.014236 0.046363 0.010840 -0.073337 -0.068796 0.008376 0.088687 0.048455 -0.188394 -0.044699 -0.047297 -0.000734 -0.113800 -0.005631 0.040517 0.027406 0.169233 0.119837 0.043010 0.305448 -0.020926 0.076820 -0.057990 0.034295 -0.098769 0.010895 -0.150783 0.073709 0.088086 -0.168323 -0.049537 0.082710 0.111080 -0.164677 -0.079347 0.040224 -0.191393 -0.025937 0.019096 0.107996 0.048179 0.136637 0.106074 0.109219 -0.084847 -0.154614 0.007341 -0.096305 0.141599 0.023261 -0.192859 -0.006503 0.085661 0.151701 -0.059240 -0.118125 0.106993 0.084834 -0.070123 0.132932 0.047440 -0.000786 0.095487 -0.132181 0.026328
black 0.192453 -0.039167 -0.062090 -0.064796 -0.100004 -0.071139 -0.019909 0.157328 0.013533 0.123002 -0.031124 0.050373 -0.126850 0.082436 -0.069405 -0.030904 -0.211553 0.218091 -0.072976 0.035614 -0.170100 -0.098349 -0.040256 0.055945 -0.151342 -0.091192 0.114323 0.075376 0.011305 0.069453 0.056330 0.048619 -0.112118 -0.021510 -0.107298 -0.051520 0.000364 0.079474 0.026698 -0.143861 -0.083848 0.014651 0.105466 -0.193399 0.071842 -0.043938 0.002967 -0.160185 -0.044024 0.065371 0.002307 0.174238 0.119568 -0.009865 0.154340 0.090208 0.150273 -0.070113 -0.024166 -0.094668 0.065931 -0.136964 -0.004404 0.135462 -0.016614 -0.032194 0.029781 0.141644 0.033491 -0.110533 -0.122373 -0.075748 -0.035552 -0.046473 0.048250 -0.126150 0.077104 0.024587 0.040341 0.036719 -0.152758 -0.029626 -0.055542 0.150435 -0.030185 -0.103219 0.057362 0.051588 0.186813 -0.096372 -0.178020 0.107078 0.145620 0.031422 0.149767 0.089297 -0.054286 -0.032480 -0.215654 0.112493
ear 0.060236 -0.096233 0.006271 -0.094460 0.083354 -0.075367 -0.134759 0.075061 -0.044759 0.104325 0.019629 0.058397 -0.121433 -0.118005 -0.048931 0.104305 -0.221893 0.108700 0.058304 0.118999 -0.021308 -0.180620 -0.069128 0.008176 -0.094005 0.024521 -0.003434 -0.069001 0.061993 0.124012 0.040751 0.096171 -0.050452 0.031582 -0.183140 -0.112796 0.066484 0.038296 0.092271 -0.049174 -0.034025 0.142092 -0.066964 -0.028095 0.037375 -0.091250 -0.030518 0.040372 -0.023729 0.063620 0.111760 0.044290 0.118230 -0.100283 0.162790 -0.007285 0.216584 0.028649 -0.108440 -0.080629 -0.094151 -0.199508 -0.064381 -0.034390 -0.196619 0.046996 0.115237 0.008427 -0.163956 -0.142341 -0.076971 -0.183597 -0.081853 0.091822 0.079435 -0.129721 -0.050217 0.054999 0.013539 -0.164118 -0.001597 -0.101604 -0.083585 0.015554 0.010713 -0.034842 0.073142 0.155468 0.019882 -0.118223 -0.158046 0.186361 0.041122 -0.137390 0.075889 0.099595 -0.060865 0.147024 -0.168583 -0.051552
completely 0.130645 -0.001957 0.100506 -0.157891 -0.124050 0.039952 -0.137330 -0.065999 0.059688 0.105503 -0.040301 -0.013269 -0.167497 0.063683 0.010072 0.127241 -0.244267 0.190020 0.048679 0.001528 -0.127733 -0.090120 0.024777 -0.079275 -0.053107 -0.008819 0.133320 -0.017245 -0.014308 0.144629 0.067345 -0.051695 0.056446 0.002859 -0.160580 -0.089890 0.092911 -0.073140 -0.101972 0.005829 0.142572 -0.018470 0.086714 -0.083714 0.176566 0.003565 0.065721 -0.010463 0.059536 -0.057429 -0.013718 0.162465 -0.004806 -0.068270 0.178538 0.145016 0.204356 0.009694 0.040866 0.008804 -0.013780 -0.231893 0.117442 -0.029336 -0.131094 -0.105214 0.020557 0.102319 0.052280 -0.049888 0.066190 -0.017748 -0.016940 -0.042969 0.143807 0.074920 -0.032113 -0.021382 -0.036873 -0.007205 -0.105388 -0.152045 0.027676 0.136460 -0.115448 -0.181915 0.128185 0.101866 0.072165 -0.165540 -0.084859 0.161264 0.083215 0.054223 0.004157 -0.050303 0.036243 0.061982 -0.181004 0.071515
almost 0.197947 -0.039974 0.120777 -0.070213 -0.072444 -0.053028 0.022246 0.161309 -0.056521 -0.017480 -0.136056 0.003193 -0.090451 0.105542 0.001288 0.092131 -0.269586 0.193332 -0.116706 0.080945 -0.126454 -0.105341 -0.095261 -0.001492 -0.017619 -0.102365 0.128920 -0.103689 0.017520 -0.038555 -0.114216 0.009502 -0.145775 0.005710 0.044820 -0.167172 0.062376 0.056815 0.081514 -0.011510 -0.023802 0.093300 0.095026 -0.179968 0.142140 -0.037001 0.122407 -0.077241 -0.073932 0.017097 0.117903 0.137866 0.005613 0.039206 0.120602 0.080069 0.168829 0.000209 0.040429 -0.068028 0.084869 -0.110133 -0.040278 0.059056 0.009933 -0.101143 -0.048291 0.066474 -0.045374 -0.005812 -0.036814 -0.147262 0.069600 0.094369 -0.026780 -0.113617 -0.009418 0.017645 0.048445 -0.165299 0.013128 -0.049607 0.040956 0.000738 0.063870 -0.223822 0.090632 0.009324 0.195997 -0.200055 -0.174693 0.078328 -0.039949 -0.084961 -0.031011 0.160117 -0.089666 -0.074323 -0.122733 0.107197
simply 0.099428 -0.037174 0.049982 -0.016884 -0.059318 0.125733 0.021236 -0.040134 -0.040978 0.115738 -0.053672 -0.101643 -0.183262 -0.111044 -0.100214 0.023868 -0.165017 0.070496 0.029283 -0.018526 -0.093069 0.012735 0.020286 0.034481 -0.085505 0.003794 0.093241 -0.103555 -0.002699 0.071451 -0.017837 0.038704 -0.124645 -0.160043 -0.119437 -0.081673 0.013543 -0.102711 0.051265 -0.112464 0.009331 -0.003472 -0.114231 -0.167980 0.164381 -0.114089 0.058760 -0.021851 -0.028660 0.035782 0.190871 0.162373 0.125808 -0.097716 0.262867 0.075032 0.077294 -0.155829 -0.000096 -0.035416 -0.083101 -0.205284 -0.090758 0.169806 0.002718 -0.126889 0.032216 -0.028034 -0.032311 -0.178590 0.008052 -0.067103 -0.131219 -0.042923 0.122696 0.096102 -0.048199 0.103812 0.130708 -0.039116 0.045392 -0.166937 -0.136399 0.152686 0.107807 -0.081945 0.090263 0.022351 -0.009525 -0.057873 -0.146112 0.104305 -0.004260 -0.150016 0.096576 0.141508 -0.130891 0.035747 -0.104396 -0.000969
low 0.183014 0.022894 -0.031918 -0.065561 -0.089848 -0.106010 -0.084641 0.081861 -0.032883 0.039737 -0.081497 -0.026587 -0.106793 0.004665 0.095349 -0.002993 -0.233034 0.145605 -0.073540 0.113518 -0.107994 -0.190066 -0.158361 -0.105120 0.062245 -0.015458 0.042210 -0.063739 0.075541 0.123353 -0.097163 0.133252 0.076954 -0.045620 -0.157348 -0.024674 -0.028691 -0.118665 0.110796 -0.001753 -0.096678 0.063102 0.104099 -0.215941 -0.052859 -0.095063 0.125229 -0.153645 0.010330 0.075937 0.015862 0.053983 0.057509 0.077913 0.242409 0.097789 0.219371 -0.032880 0.062648 -0.083805 0.009675 -0.195044 0.149702 0.004889 -0.132833 -0.017098 0.114779 0.031081 -0.100202 -0.077030 -0.069472 -0.103509 0.066772 -0.058549 -0.071035 -0.012111 -0.018840 0.147918 0.063105 0.061840 0.030543 -0.037801 -0.004748 0.052613 -0.084992 -0.062153 -0.088674 -0.068101 0.176876 -0.107339 -0.184015 0.105885 0.087703 -0.062484 0.047156 0.020916 -0.123570 -0.026526 -0.130531 -0.024972
short 0.012237 -0.090372 0.140936 -0.139323 0.058061 0.026175 0.042056 0.122527 -0.023136 0.041907 -0.135550 -0.056204 0.044827 0.040580 0.077039 0.124300 -0.239901 -0.006231 0.009882 0.014559 -0.002634 -0.018858 -0.133488 0.105806 -0.068218 -0.047664 0.119665 0.080845 -0.031400 0.086939 0.000682 0.114243 -0.085426 0.080728 -0.037988 -0.017854 0.117772 0.121551 -0.069329 -0.141580 0.060826 0.088354 -0.064946 -0.053046 0.093884 0.078352 0.065086 -0.152703 0.142878 0.123927 0.161853 0.186907 0.107841 0.073692 0.299034 -0.069572 0.086058 -0.160215 0.101636 0.025446 -0.117665 -0.157762 0.072176 -0.041230 -0.181791 -0.084232 0.072089 0.075642 -0.175686 -0.052703 0.034680 -0.079393 0.023591 0.090291 -0.078316 -0.088538 -0.022932 0.162671 0.021380 0.036241 -0.057199 -0.069614 0.047815 -0.038009 -0.043432 -0.058394 -0.068656 0.030058 0.068183 -0.227356 -0.180929 0.057898 0.068127 0.037863 0.029681 0.104994 0.008005 0.113191 -0.143399 0.088054
