199 100
not -0.078352 0.000011 0.007561 0.091162 0.067147 -0.032243 0.110808 -0.079803 -0.045437 0.123616 0.179537 0.088420 -0.095666 0.172946 -0.036036 0.114181 0.006962 0.136248 0.094887 -0.083029 -0.044015 -0.150041 0.075103 -0.145533 -0.073739 0.027068 -0.095962 -0.180499 0.153850 0.088740 -0.078187 -0.077182 0.005031 0.120022 0.249886 -0.180801 0.013083 -0.052988 -0.026703 0.154863 -0.099419 0.017483 0.021564 -0.039007 0.065433 -0.022108 -0.020188 -0.088866 -0.121597 0.141307 -0.067999 -0.056097 0.069428 0.059741 -0.010726 0.016385 0.180536 -0.013334 0.024856 -0.111309 0.007445 0.042718 0.057339 0.135878 -0.090509 0.046615 -0.101712 0.053847 0.025529 -0.274241 0.063033 -0.098944 0.050625 0.012401 -0.012125 0.080152 0.194909 -0.086301 -0.011007 0.116629 -0.139812 -0.115950 -0.020745 0.016945 0.147831 -0.170781 -0.029283 -0.082026 -0.151705 -0.069140 0.030754 0.026320 -0.182392 -0.019619 0.028473 0.129177 -0.060395 -0.027664 -0.169640 -0.046750
 0.117125 -0.158755 0.078602 0.083019 0.152609 0.139612 -0.002360 -0.155892 0.026138 -0.151736 0.096027 -0.017866 -0.064392 0.134009 0.110214 -0.032540 0.158025 -0.149419 -0.144605 0.149156 -0.101050 0.049769 0.030267 0.089110 0.076757 -0.000490 -0.167384 -0.095838 -0.153278 0.120692 -0.050238 -0.101811 -0.111144 -0.078941 -0.039186 -0.096553 0.083981 0.059214 0.063363 -0.141651 -0.135583 0.123720 -0.015597 -0.086804 0.107407 -0.092999 -0.010134 0.150729 -0.046297 0.058163 -0.057057 -0.090329 -0.077127 -0.060071 -0.061844 -0.006457 0.106201 -0.078943 -0.041612 0.060470 0.020950 -0.009865 0.032397 0.170252 -0.156844 -0.075937 0.159092 -0.060092 0.131259 -0.042292 0.093995 -0.114349 -0.155379 0.144302 -0.093779 0.154624 0.045509 -0.034824 -0.012286 -0.010594 0.012764 -0.120887 -0.132812 -0.005996 -0.049918 -0.165391 0.029758 0.136165 -0.114694 0.110315 0.034620 0.135998 -0.068074 -0.060215 0.087192 -0.017064 0.136240 0.075151 0.132566 0.088404
good 0.008517 -0.004176 0.042733 0.091605 0.126395 0.054584 0.069988 -0.050467 0.044444 0.112997 0.062654 0.093654 -0.056247 0.145260 0.012515 0.133886 0.024549 0.150487 0.122031 -0.114032 -0.017301 -0.114139 0.053563 -0.130343 -0.076561 -0.035693 -0.083769 -0.159543 0.186173 0.063092 -0.103954 -0.006974 0.071136 0.078496 0.274686 -0.162306 0.077427 0.042216 -0.110352 0.144111 -0.119027 -0.052906 0.049051 0.013085 -0.003084 -0.028658 -0.085621 -0.129640 -0.072661 0.092700 -0.102384 -0.028275 -0.037507 0.062266 -0.052734 0.045131 0.188904 0.038432 -0.013508 -0.094801 -0.018866 0.042315 0.087115 0.167180 -0.101830 0.035535 -0.121669 0.058393 -0.005912 -0.211596 0.023685 -0.142035 -0.015573 -0.042978 0.014407 -0.003981 0.120632 -0.008356 -0.015415 0.050629 -0.131872 -0.074663 -0.060027 0.031387 0.205039 -0.194254 -0.063916 -0.059691 -0.154912 -0.020116 0.110779 0.017509 -0.270551 0.042989 0.100582 0.056690 -0.009505 -0.051846 -0.197405 -0.073094
very -0.064080 -0.030816 -0.004899 0.061133 0.082995 0.036358 0.111120 -0.134782 -0.045143 0.135035 0.125853 0.051996 -0.066616 0.130593 -0.028479 0.112697 -0.068390 0.126261 0.024491 -0.127796 -0.130113 -0.160589 0.139409 -0.116501 -0.076731 -0.011717 -0.122074 -0.199063 0.126607 0.067549 -0.086694 0.004454 0.024304 0.119849 0.247333 -0.151841 0.041429 -0.043792 -0.039772 0.166344 -0.159366 -0.040045 0.014045 0.007918 0.095839 0.010110 -0.019454 -0.046673 -0.122690 0.155902 -0.008175 -0.009395 0.071006 0.080590 0.024623 -0.054544 0.166106 0.010075 0.028198 -0.132489 -0.059687 0.117488 -0.000359 0.088800 -0.127750 -0.009101 -0.178793 0.030158 0.033235 -0.267640 0.076275 -0.128641 -0.015487 0.040520 0.043532 0.070227 0.177492 -0.077633 -0.005395 0.124512 -0.144068 -0.065957 -0.073632 0.025105 0.190387 -0.104319 0.045453 -0.016720 -0.104352 -0.014515 0.031731 0.006507 -0.170752 -0.032343 -0.031263 0.040337 -0.028618 -0.059597 -0.199433 -0.060811
great 0.017974 -0.027724 -0.047158 0.074955 0.042249 0.062809 0.104365 -0.030143 -0.070673 0.093513 0.169249 0.023665 -0.089184 0.173643 -0.085933 0.093079 -0.046303 0.099171 0.132402 -0.016332 -0.082754 -0.180182 0.072637 -0.138251 -0.041469 -0.065927 -0.032014 -0.087851 0.091757 0.002678 -0.087535 -0.110882 0.058502 0.047697 0.183872 -0.197930 -0.035025 -0.022898 -0.052453 0.131715 -0.157250 0.011447 0.037633 -0.037674 0.024625 -0.044189 -0.050141 -0.149815 -0.113665 0.120062 -0.005937 -0.037853 0.063881 0.096091 -0.040791 -0.065841 0.209928 0.045102 -0.058455 -0.162567 -0.031926 0.138155 0.087637 0.161884 -0.005727 0.083223 -0.100316 0.027201 -0.077879 -0.302639 0.040113 -0.051093 0.084446 0.006137 -0.019739 0.020624 0.216752 -0.090915 0.015790 0.095800 -0.156333 -0.154439 -0.000560 0.046921 0.150412 -0.146834 0.009594 -0.084021 -0.086400 0.001455 0.040341 0.037020 -0.204773 -0.051745 0.006974 0.064883 0.036080 -0.083167 -0.196996 -0.074023
so -0.036482 0.032938 -0.013550 0.082528 0.120331 -0.007314 0.130253 -0.121997 -0.085119 0.052593 0.090559 0.079056 -0.051827 0.143960 -0.052237 0.040406 0.019920 0.084637 0.075487 -0.062098 -0.091067 -0.140018 0.132968 -0.112127 -0.010101 0.029264 -0.049984 -0.182313 0.178520 0.090945 -0.065189 -0.031254 0.048579 0.057190 0.278795 -0.190917 0.066715 -0.076153 -0.027392 0.136107 -0.099501 0.062623 0.042936 0.007313 -0.000138 0.026462 -0.024436 -0.146687 -0.072063 0.131013 -0.020253 0.008030 0.055261 0.072543 -0.033301 -0.046760 0.124110 0.023539 0.046671 -0.128286 -0.058171 0.064880 0.077977 0.154564 -0.082814 0.083901 -0.169801 0.053539 -0.022548 -0.258919 0.076895 -0.093194 0.059136 -0.047576 -0.039300 0.044684 0.173253 -0.100548 -0.046532 0.052864 -0.194890 -0.115974 -0.076334 -0.018098 0.132767 -0.205045 -0.003074 -0.071670 -0.151713 -0.097093 0.060159 -0.006984 -0.268735 -0.057887 0.025893 0.052800 0.003626 -0.032989 -0.126065 -0.059282
bad -0.015287 0.036557 -0.066889 0.031267 0.102850 0.044144 0.137985 -0.122694 -0.026777 0.046570 0.070680 0.054523 -0.027398 0.168158 -0.009076 0.003976 0.053300 0.078131 0.121169 -0.023919 -0.090661 -0.189447 0.008671 -0.148836 -0.096226 -0.079621 -0.055574 -0.202948 0.165210 0.023998 -0.105932 -0.103729 0.026270 0.076651 0.287270 -0.139530 0.083985 0.046970 0.016268 0.099344 -0.105601 0.056902 0.088042 0.020238 -0.028348 -0.075761 -0.061080 -0.045492 -0.170726 0.108898 0.026147 -0.095443 0.002074 0.018594 0.039479 -0.075593 0.089515 0.062880 0.051446 -0.160616 -0.020772 0.099418 -0.009248 0.112360 -0.107234 0.069394 -0.052347 -0.001064 -0.008962 -0.233576 0.025882 -0.145881 -0.021045 0.049588 0.054223 0.032349 0.186711 -0.052286 0.041453 0.096786 -0.161983 -0.076775 0.025610 -0.039606 0.165549 -0.142234 -0.039019 -0.077711 -0.158568 -0.032972 0.027887 -0.017203 -0.276051 0.003427 0.056132 0.141741 -0.068333 -0.053294 -0.209236 -0.050871
just -0.014601 0.012263 -0.039662 0.034780 0.097714 -0.048280 0.147354 -0.072178 -0.047495 0.119038 0.173727 0.039016 -0.032612 0.175357 0.026795 0.095748 -0.063066 0.132277 0.051748 -0.124787 -0.114685 -0.177759 0.085653 -0.114108 -0.074539 0.025602 -0.051145 -0.177892 0.189647 0.091717 -0.074133 -0.080462 0.044265 0.078619 0.260301 -0.154200 -0.036446 0.026905 -0.046178 0.085801 -0.035989 0.050739 0.065360 -0.026422 0.011375 -0.023399 0.000117 -0.050726 -0.156627 0.155131 -0.076274 0.021685 0.078437 0.062452 -0.004583 -0.043764 0.126553 0.019294 0.021998 -0.154534 -0.057998 0.034540 0.054379 0.173115 -0.073850 0.089565 -0.082992 0.061356 -0.020057 -0.288362 0.068720 -0.043257 0.008664 0.029193 -0.047477 0.008204 0.207689 -0.087967 0.054254 0.112618 -0.147363 -0.138771 -0.054183 0.040174 0.199658 -0.160595 -0.012358 -0.085386 -0.121253 -0.075630 -0.002994 0.012473 -0.216138 -0.032094 0.061858 0.084778 -0.044492 -0.075830 -0.087383 0.028183
really 0.006709 0.088569 -0.023755 0.005925 0.155225 -0.087469 0.120000 -0.141745 -0.095213 0.093188 0.055345 0.056702 -0.002375 0.180285 0.009500 0.114617 0.055718 0.087925 -0.012987 0.010341 -0.065577 -0.162272 0.004547 -0.184349 -0.059377 0.034603 -0.009948 -0.199874 0.091911 0.147723 -0.014414 -0.115579 0.016876 0.083230 0.180928 -0.222783 0.052593 0.056940 0.037784 0.121947 -0.014681 -0.050120 0.072978 -0.091390 0.122626 -0.041254 -0.027429 -0.061284 -0.082832 0.059779 -0.002863 -0.099728 0.083497 -0.006661 0.017048 0.011005 0.202891 -0.009386 -0.020631 -0.112528 -0.055498 0.019916 0.120197 0.138415 -0.012518 -0.026248 -0.048306 -0.000482 -0.089056 -0.226385 0.019381 -0.023240 -0.050266 0.064039 0.071066 0.106864 0.126364 -0.030334 -0.021702 0.080097 -0.204963 -0.108589 -0.102104 -0.002591 0.207173 -0.163762 0.056855 -0.116002 -0.099059 -0.111870 0.026569 -0.056454 -0.300132 0.017454 -0.036733 0.089405 0.019187 -0.039698 -0.176201 0.051270
well -0.075316 0.047368 0.050218 -0.005699 0.056156 0.057806 0.045905 -0.110963 0.046448 0.111160 0.193848 -0.004369 -0.004213 0.107272 -0.054902 0.114147 -0.083659 0.152218 0.006588 0.000194 -0.095216 -0.216624 0.076268 -0.116183 0.019714 -0.019145 -0.068214 -0.200993 0.198355 0.003205 -0.037744 -0.031500 0.053035 0.174875 0.279079 -0.123256 0.028689 -0.045144 -0.120649 0.144161 -0.128379 0.044630 0.023605 -0.095123 -0.018921 0.041615 -0.069823 -0.042481 -0.032291 0.088209 -0.046358 0.015373 0.008140 0.090920 -0.058360 0.014329 0.094428 -0.081345 -0.028383 -0.161850 -0.029989 0.130367 0.119068 0.183960 -0.060086 0.091805 -0.058629 0.041591 0.029998 -0.340742 -0.018735 -0.057674 -0.007422 -0.023360 -0.000041 0.091716 0.129899 -0.128225 0.047213 0.060668 -0.122530 -0.054001 -0.043475 -0.061986 0.132569 -0.093846 -0.081112 -0.091299 -0.122020 -0.078633 0.003001 0.087961 -0.153969 -0.054313 -0.020547 0.046332 -0.002981 -0.135496 -0.158596 -0.100343
could -0.130779 0.049761 -0.075895 0.059685 0.087523 0.061139 0.168884 -0.153114 0.019317 0.092541 0.116046 0.133287 -0.131583 0.135544 -0.035601 0.097136 -0.073460 0.108506 0.086564 -0.095901 0.006802 -0.123149 0.012894 -0.181485 -0.082676 -0.073175 -0.046510 -0.121211 0.063316 0.068969 -0.132270 -0.062303 0.016657 -0.005037 0.252696 -0.186683 -0.015093 -0.018902 -0.110364 0.105206 -0.010144 -0.021141 -0.020565 -0.078794 0.080356 -0.051380 0.025902 -0.100380 -0.108822 0.006901 -0.036008 0.044925 -0.022601 0.082135 0.018723 -0.056198 0.172019 0.048451 0.038114 -0.152385 0.058565 0.120672 -0.028351 0.143172 -0.093593 0.120825 -0.168526 0.089142 -0.048054 -0.253312 0.113544 0.026379 0.017147 0.038499 -0.088174 0.054844 0.147765 -0.106945 0.040676 0.048400 -0.186028 -0.166080 -0.060572 0.085127 0.126738 -0.156627 -0.054894 -0.119095 -0.013118 0.010768 0.115950 0.000407 -0.187259 -0.050548 -0.019902 0.097791 -0.009266 0.033778 -0.129770 -0.090532
will -0.034497 -0.019897 0.058805 0.011498 0.117305 0.013685 0.172188 -0.005273 0.009637 0.151498 0.110224 0.116543 -0.143102 0.175209 -0.038793 0.041090 0.029507 0.083388 0.022446 -0.027711 -0.029721 -0.139283 0.094241 -0.074271 0.032475 -0.080012 -0.114356 -0.211885 0.208996 0.129155 -0.087666 0.018224 0.080944 0.019717 0.293096 -0.147913 0.009676 -0.060829 0.018831 0.095964 -0.074953 0.040471 -0.026908 0.032604 0.087845 -0.061037 0.058382 -0.051770 -0.079182 0.086099 0.022766 0.021629 0.010680 0.085629 0.003508 -0.004467 0.216912 0.009968 0.032624 -0.149294 -0.005279 0.053172 0.002926 0.072979 -0.094330 0.113537 -0.101612 0.004672 -0.038327 -0.282163 0.062278 -0.039067 -0.015582 -0.046509 0.010070 0.061262 0.157536 -0.138677 0.051789 0.018720 -0.107958 -0.044922 -0.066078 0.047977 0.140774 -0.225600 -0.055824 -0.024698 -0.152537 -0.072356 0.057130 0.021005 -0.251205 -0.075424 0.085533 0.062767 -0.048982 -0.115272 -0.141301 -0.017817
would -0.126464 -0.035534 -0.026771 0.040697 0.007045 -0.042569 0.183250 -0.121935 0.026420 0.102260 0.198857 0.122968 -0.040750 0.220349 0.011595 0.140406 -0.036469 0.196601 0.079535 -0.013792 -0.145149 -0.218774 0.073293 -0.096235 -0.061920 -0.032613 0.018450 -0.217361 0.187544 0.035150 -0.084929 0.005284 0.014047 0.127549 0.231848 -0.064878 0.058370 -0.052985 -0.071098 0.100609 -0.066072 0.030944 -0.002105 0.018723 0.000565 0.047441 -0.087094 -0.025572 -0.150322 0.040643 -0.080999 0.047012 0.035940 0.023752 0.064324 -0.047024 0.112355 -0.077664 0.027405 -0.180096 -0.032576 0.020574 0.020539 0.125466 -0.096738 -0.026160 -0.103151 -0.019623 0.040635 -0.235774 -0.019958 -0.084355 0.023312 0.040061 0.019555 0.035695 0.157614 -0.025224 0.074802 0.040840 -0.091456 -0.101021 0.028635 -0.008534 0.097725 -0.204984 0.060363 -0.042366 -0.118758 -0.078709 0.096071 0.054453 -0.279773 -0.065737 0.073157 0.064072 -0.048635 -0.113291 -0.072710 0.037568
only -0.021127 -0.059434 0.000880 0.031703 0.046393 -0.017174 0.048249 -0.096388 -0.075134 0.061029 0.192942 0.035645 -0.058878 0.169013 -0.021887 0.071087 0.022659 0.173197 0.107349 -0.066272 -0.044151 -0.207016 0.145456 -0.181003 -0.093842 -0.011365 -0.003885 -0.202565 0.188685 0.101374 -0.126461 -0.106680 0.090143 0.123698 0.276939 -0.142648 -0.056363 0.055936 -0.019457 0.115661 -0.028035 0.042948 -0.028271 -0.003632 0.002692 -0.023917 -0.065046 -0.067250 -0.121219 0.047193 -0.039497 0.051138 0.005153 0.040574 -0.058301 -0.065383 0.182512 0.010003 0.056455 -0.064961 -0.072173 0.104533 0.057309 0.149328 -0.086295 -0.018133 -0.174746 0.050864 -0.048790 -0.255257 -0.001565 -0.101574 -0.051601 -0.016476 -0.036264 0.092914 0.122475 -0.006647 -0.041491 0.066640 -0.118772 -0.113627 -0.083923 0.010417 0.157933 -0.197662 0.004456 -0.001177 -0.169869 0.030965 0.115623 0.065922 -0.180274 -0.063495 0.003012 0.021921 -0.016767 -0.113316 -0.110000 0.005082
here -0.012066 -0.028657 0.041599 0.111061 0.136601 0.006745 0.140513 0.001893 -0.000607 0.162367 0.057048 0.019850 -0.069793 0.099414 -0.050272 0.048800 -0.045472 0.060005 0.057259 -0.062942 -0.103217 -0.207516 0.121157 -0.175240 -0.023141 0.021975 -0.099465 -0.148859 0.207663 0.075216 -0.051958 -0.075367 0.020983 0.095023 0.169519 -0.147173 -0.017785 -0.068793 -0.097435 0.171639 -0.120330 -0.027528 0.062371 -0.057018 0.069957 0.017694 -0.063678 -0.140682 -0.164658 0.152318 -0.096591 0.014483 0.052882 0.103143 -0.064870 0.038129 0.120944 0.023954 0.057490 -0.051204 -0.073036 0.117260 -0.008904 0.096070 -0.064232 0.022154 -0.117022 0.076788 0.000151 -0.296252 0.077734 -0.051570 -0.023235 -0.067270 -0.053192 0.107232 0.160297 -0.044118 0.072156 0.143537 -0.097054 -0.123858 -0.106165 0.076631 0.081579 -0.201113 -0.054969 -0.026665 -0.045715 0.021263 0.063596 0.020572 -0.232639 -0.057222 -0.018342 0.126207 -0.097677 -0.109621 -0.146129 0.031410
even -0.084032 0.039565 0.046926 0.108413 0.093842 0.010363 0.098844 -0.047805 -0.040292 0.156159 0.155496 -0.012908 -0.041407 0.207795 0.043129 0.026369 -0.057607 0.093719 0.122768 -0.107733 -0.095885 -0.172985 0.093534 -0.083030 -0.046959 0.001610 -0.011277 -0.125731 0.201720 0.122141 -0.031404 -0.101155 0.076710 0.026284 0.262519 -0.187471 0.024645 -0.078875 -0.060217 0.069464 -0.062040 -0.047059 0.069184 -0.041338 0.103494 0.025514 0.012393 -0.026971 -0.147967 0.056358 -0.013091 -0.021241 0.078055 0.097532 0.050132 -0.036269 0.083755 -0.068870 -0.050651 -0.127413 -0.040284 0.098523 0.032337 0.058670 -0.102003 0.038627 -0.145112 0.064036 -0.016810 -0.235803 0.108889 -0.038590 0.073895 0.026268 -0.076220 0.113592 0.223105 -0.109761 -0.011606 0.115423 -0.199913 -0.101791 -0.089151 0.072856 0.189203 -0.204560 0.036959 -0.073351 -0.087601 -0.036092 0.032662 -0.022300 -0.173672 -0.068607 -0.030431 0.126392 -0.083107 -0.064716 -0.083146 -0.056513
also 0.042638 0.051727 0.018986 0.144411 0.028168 -0.102665 -0.022400 -0.162968 -0.001715 0.176919 0.061060 0.100460 -0.135894 0.111439 -0.046120 0.164054 0.079609 0.049537 -0.018911 0.039552 -0.113552 -0.147532 0.049522 -0.204412 -0.118616 0.074619 -0.157725 -0.112519 0.088143 -0.031457 -0.001887 -0.025285 0.018871 -0.022025 0.286743 -0.053769 -0.095134 0.045134 0.003390 0.168910 -0.090861 0.091727 0.081854 -0.022587 0.018001 0.019277 0.006093 -0.084688 -0.045749 0.148006 0.071406 -0.132236 0.059194 0.000562 0.029655 0.106454 0.068329 0.093418 -0.005219 -0.194295 -0.108974 0.032543 0.079630 0.088684 0.019523 0.090872 -0.173163 0.040799 -0.042981 -0.236318 0.012655 -0.124252 -0.019447 -0.003680 0.039920 -0.055316 0.195763 -0.068964 0.084924 -0.011863 -0.137822 -0.166709 -0.137960 -0.065055 0.011186 -0.164472 0.102377 -0.089004 -0.095573 -0.019301 0.113185 -0.083356 -0.112871 0.067907 0.042910 0.146423 0.019036 -0.073124 -0.090157 -0.090850
best 0.054540 0.069602 -0.091545 0.042398 0.135866 0.025714 0.150532 0.027013 -0.112509 0.132954 0.196427 0.102859 -0.141259 0.099690 -0.070465 0.018706 -0.073146 0.123992 0.105732 -0.119123 -0.128198 -0.159981 -0.011830 -0.192070 -0.026338 -0.073265 -0.015547 -0.111739 0.059353 0.021149 -0.151354 -0.019464 -0.036708 0.064012 0.145428 -0.159535 -0.028243 -0.077319 -0.104998 0.071505 -0.172403 0.001130 -0.059596 -0.092845 -0.016933 -0.063828 0.000516 -0.141157 -0.030611 0.182809 -0.100483 -0.060805 0.094133 -0.050623 -0.030564 0.061752 0.213847 -0.098000 0.077888 -0.023618 0.024982 -0.023170 0.124388 0.088132 0.008066 0.063937 -0.128016 0.069063 -0.055485 -0.212991 0.134502 -0.065282 -0.033414 0.030847 0.025498 0.033293 0.155743 0.006237 0.090990 -0.004387 -0.125336 -0.062263 -0.076474 0.035752 0.176385 -0.131579 0.034094 -0.075193 -0.184056 -0.005468 -0.040013 -0.006358 -0.247714 0.073990 0.115602 0.008891 0.038668 -0.086964 -0.147109 -0.027542
back -0.056020 0.026622 0.062842 0.104582 0.020452 0.035228 0.130729 -0.119377 0.031512 0.143473 0.101511 -0.010370 -0.095808 0.202492 -0.040415 0.063823 0.038125 0.094517 0.079562 -0.093729 -0.047127 -0.155648 0.092749 -0.079523 -0.107756 0.060748 -0.013749 -0.164725 0.109537 0.015328 -0.083845 -0.008986 0.054116 0.139141 0.187126 -0.170876 0.063691 0.036501 -0.029961 0.128689 -0.061159 0.072233 -0.004749 -0.062974 0.110557 -0.003567 -0.016204 -0.081649 -0.077983 0.177946 -0.034022 -0.049459 0.054203 0.047482 0.027709 0.064909 0.194157 0.026033 -0.017491 -0.072496 -0.096174 0.143951 -0.001983 0.130563 -0.110037 0.082080 -0.160387 -0.012657 0.013116 -0.317346 0.015166 -0.138189 0.031224 0.054907 -0.077919 0.067878 0.113114 -0.012568 -0.012805 0.095915 -0.132076 -0.164404 -0.051307 -0.008034 0.176038 -0.166533 -0.007279 -0.070836 -0.124430 -0.074327 0.101557 0.039019 -0.217758 -0.097100 0.004297 0.146884 -0.033036 -0.026869 -0.128108 -0.072154
ever 0.023053 0.058265 -0.069285 0.097442 0.091226 -0.076960 0.130195 -0.119548 0.013989 0.142035 0.111479 -0.025798 -0.037577 0.180893 -0.087115 0.055024 -0.095430 0.141366 0.034768 -0.017171 -0.131336 -0.129469 0.035190 -0.105480 -0.050785 -0.093539 -0.048290 -0.181931 0.173610 -0.021998 -0.101527 -0.036188 -0.053121 0.117300 0.211106 -0.052393 0.013377 0.067339 -0.059149 0.165592 -0.134293 -0.025631 0.006838 -0.101064 0.100846 0.041230 -0.039080 -0.089759 -0.123660 0.124832 -0.089742 -0.040180 0.045038 0.042011 -0.007834 -0.070732 0.214098 -0.028439 -0.075219 -0.086791 -0.033530 0.006434 -0.030696 0.141513 -0.006578 -0.031962 -0.183670 0.025316 -0.002305 -0.273383 0.114223 0.010839 0.017401 0.019023 -0.078291 0.026570 0.112957 -0.123441 -0.007155 0.096215 -0.084013 -0.158648 -0.049635 -0.017837 0.184109 -0.050142 0.077470 -0.124233 -0.079966 -0.031534 0.098469 -0.009663 -0.242665 -0.072488 0.096941 -0.007040 -0.015507 -0.138722 -0.196240 -0.032131
more -0.025383 0.046277 0.009347 0.083490 0.141207 -0.012618 0.054676 -0.115145 0.026162 0.095051 0.184833 -0.000788 -0.096261 0.136366 -0.060792 0.144998 -0.012511 0.185174 0.092758 -0.029822 -0.128895 -0.110973 0.079692 -0.109518 0.022679 -0.053908 -0.066754 -0.190520 0.187000 0.130607 -0.071331 -0.113724 -0.010234 0.071764 0.276278 -0.177534 0.077822 -0.029169 -0.069368 0.177457 -0.040327 0.076921 0.032094 -0.049379 0.034552 -0.050051 0.008092 -0.093660 -0.049442 0.066696 0.020941 -0.027030 -0.016431 -0.025481 0.039610 -0.000919 0.162945 -0.040985 -0.016458 -0.139363 -0.052709 0.129282 0.064666 0.098410 -0.141714 0.048873 -0.089781 -0.019875 0.019016 -0.249668 0.015204 -0.117105 0.044119 0.033502 -0.004641 0.083402 0.227914 -0.001579 0.019026 0.031953 -0.078934 -0.091367 -0.072561 -0.031410 0.207941 -0.180520 -0.037243 -0.036354 -0.133164 -0.033050 0.042622 0.073901 -0.226656 -0.005283 -0.018809 0.116525 0.008463 -0.032699 -0.121331 -0.051063
can -0.042021 -0.056720 0.003467 0.034048 0.160654 0.067062 0.179827 -0.108086 -0.113931 0.184751 0.182790 0.123614 -0.015662 0.117967 -0.055582 0.072524 -0.015722 0.058077 0.104735 -0.038437 -0.073854 -0.150056 0.029155 -0.062022 -0.082427 -0.048832 0.003081 -0.146638 0.206519 0.043963 -0.072435 -0.069582 -0.027193 0.005801 0.201096 -0.063232 0.033683 -0.001996 -0.017920 0.154155 -0.094043 -0.026728 0.039897 -0.027868 0.008013 0.074261 -0.076272 -0.054412 -0.144589 0.036363 -0.033662 0.000515 -0.021960 0.094218 -0.092830 0.064081 0.148944 -0.037177 0.018833 -0.176789 -0.076035 0.071378 0.079023 0.053231 -0.008325 0.074700 -0.058707 0.055812 -0.004643 -0.320913 -0.014143 0.000236 0.055299 -0.066134 -0.047215 0.125022 0.083237 -0.112946 0.025508 0.005593 -0.160531 -0.030870 -0.073589 0.061563 0.214289 -0.217553 0.017963 -0.012850 -0.118951 -0.025355 0.019934 0.081592 -0.230985 0.040687 -0.047095 0.082671 0.046141 -0.137619 -0.228223 -0.002680
too -0.007869 -0.014550 0.098979 -0.020412 0.165265 -0.060496 0.108385 -0.015992 -0.007257 0.034220 0.170203 -0.032681 -0.039286 0.180425 -0.002519 0.036277 -0.008702 0.118695 0.059168 -0.050031 -0.135374 -0.210839 0.139858 -0.165341 0.036636 -0.083371 0.009709 -0.220037 0.140714 0.070453 -0.097491 -0.006683 0.081936 0.146734 0.233582 -0.155556 -0.061185 -0.013799 -0.086903 0.182365 -0.159575 0.064120 0.072934 0.005113 0.024142 -0.084700 0.021528 -0.079644 -0.130436 0.030541 -0.062161 -0.019408 0.011866 -0.020689 -0.035786 0.066831 0.072631 0.081931 0.080191 -0.164988 0.050368 0.079447 -0.024266 0.136672 -0.027854 0.054264 -0.130417 0.096051 0.026650 -0.140481 -0.005291 -0.160040 0.021919 -0.037985 0.003802 -0.019262 0.114580 -0.024191 -0.074700 -0.019271 -0.078737 -0.174263 -0.086334 0.047859 0.224805 -0.141439 0.011308 -0.072841 -0.033963 -0.059416 -0.012365 0.090475 -0.246076 -0.096049 -0.001533 0.054873 0.046196 -0.104492 -0.184049 0.048612
excellent 0.010454 -0.133682 0.029664 0.087262 0.039211 -0.015932 -0.042302 0.011256 -0.088064 -0.050083 0.095472 -0.005072 -0.154053 -0.018002 0.025356 -0.037761 -0.098037 0.088742 0.165519 -0.010497 -0.097131 -0.092339 -0.015516 -0.053526 -0.147657 -0.074973 -0.137848 -0.025843 0.025013 -0.021874 0.064244 -0.158947 0.068850 0.028933 0.055224 -0.225618 0.059873 0.117273 -0.068556 0.177045 -0.207401 0.046204 0.031634 0.088693 0.049298 0.088900 0.070382 -0.158950 -0.197467 0.064012 -0.116283 -0.147169 -0.083655 0.109543 0.048771 0.002467 0.248128 -0.030723 0.100298 0.008667 -0.064765 0.157317 0.043499 0.217304 -0.186770 -0.083692 -0.225260 0.059227 0.074180 -0.098846 -0.106115 -0.060666 0.129559 -0.023881 -0.026687 0.033005 0.010101 -0.077960 -0.093947 -0.021131 -0.077860 -0.085127 0.023033 -0.051602 0.059821 -0.166405 -0.104956 0.034734 -0.171341 -0.046309 0.139987 -0.003720 -0.158658 -0.003565 -0.018633 0.025987 -0.149678 -0.035620 0.011798 0.026733
much -0.097481 0.065249 0.030539 0.072565 0.134317 0.023682 0.173878 -0.140079 -0.010229 0.146376 0.156374 0.118894 -0.100274 0.096515 0.031450 0.123479 -0.084174 0.102038 0.057904 -0.098314 -0.040582 -0.162381 0.053075 -0.091771 -0.043833 -0.022011 -0.092486 -0.124382 0.105098 0.016539 -0.053930 0.016183 0.068704 0.093657 0.255750 -0.175308 -0.050008 -0.093727 -0.063835 0.163984 -0.072983 -0.030629 -0.034519 -0.093067 0.010589 -0.020340 0.052979 -0.086877 -0.139705 0.139011 -0.039824 -0.012063 0.088004 -0.012928 0.047167 0.042201 0.077438 0.052138 -0.035106 -0.073359 0.006323 0.047936 0.095272 0.163270 -0.064145 0.034043 -0.153558 0.090851 0.004985 -0.270959 0.079053 -0.132736 0.065850 -0.057965 -0.020221 0.089768 0.125844 -0.028087 0.032177 0.085700 -0.159394 -0.113006 0.006730 -0.060480 0.106461 -0.102246 0.058660 -0.030877 -0.175351 -0.075453 -0.016524 -0.046201 -0.266193 -0.013072 0.021893 0.144477 0.010446 -0.094069 -0.178840 -0.067629
other 0.005529 -0.000247 -0.037068 0.111893 0.071940 -0.068347 0.054059 -0.103149 -0.061492 0.099578 0.096243 0.015263 -0.129949 0.094274 -0.001203 0.140787 -0.002241 0.197297 -0.002888 -0.105531 -0.071989 -0.135116 0.064916 -0.134330 -0.062952 -0.087471 -0.107222 -0.205927 0.090515 0.036902 -0.045873 -0.000204 0.011722 0.075338 0.197745 -0.090128 0.038223 0.029611 0.009471 0.138941 -0.046417 -0.035240 0.087842 -0.081937 0.013379 0.039513 -0.018199 -0.122166 -0.178692 0.151260 -0.063731 0.045207 0.060497 0.110204 0.001288 -0.038054 0.158458 -0.045015 -0.026840 -0.140827 0.018575 0.005337 0.000922 0.074650 -0.139157 0.116295 -0.049652 0.070951 -0.005744 -0.286120 0.088087 -0.009524 0.071915 -0.052651 0.006479 0.090454 0.188438 -0.039755 -0.026164 0.152870 -0.092594 -0.118402 -0.056787 0.039336 0.171739 -0.167101 0.051754 -0.119681 -0.181732 0.011200 0.006791 0.054664 -0.236788 0.027033 0.035715 0.109517 -0.090856 -0.075994 -0.220454 0.037584
again -0.055842 0.023739 -0.060598 0.059924 0.010727 -0.067314 0.100043 -0.100208 -0.022774 0.147926 0.177804 -0.032551 -0.065538 0.176373 0.029742 0.125669 -0.029307 0.095561 0.145625 -0.072185 0.003670 -0.150745 0.033475 -0.120447 -0.099647 0.025793 -0.032405 -0.170397 0.085322 0.080709 0.012247 -0.026164 0.096562 0.119955 0.291520 -0.060645 0.063916 -0.030911 -0.059473 0.040897 -0.099251 -0.023677 -0.031472 -0.040736 0.045675 0.054575 0.070094 -0.086386 -0.153884 0.085391 -0.112387 -0.088758 -0.045474 0.011125 -0.048664 -0.001323 0.187478 -0.020048 -0.057109 -0.032795 0.043643 0.040826 0.079357 0.117904 -0.111661 0.110333 -0.176063 0.005522 -0.071208 -0.182240 -0.025880 -0.159479 -0.041056 0.059871 0.069809 0.126892 0.160130 -0.149442 0.011760 0.117286 -0.079091 -0.164381 0.005752 0.078759 0.217431 -0.120138 -0.029380 -0.118498 -0.070184 0.032129 0.057353 -0.031371 -0.249498 -0.014632 0.112585 0.157286 0.028952 -0.070408 -0.118509 -0.007153
never 0.041128 0.050129 0.012770 0.000838 0.010553 0.057088 0.091463 -0.180969 0.002683 0.051380 0.118328 0.031381 -0.058802 0.219301 -0.001920 0.078481 0.077243 0.102820 0.148679 -0.025154 0.015396 -0.121746 0.126332 -0.082324 -0.020378 0.064503 -0.053800 -0.240812 0.224490 0.147486 -0.115427 0.015899 0.036457 0.150181 0.189609 -0.053325 0.027040 0.025480 0.026361 0.201595 -0.110784 0.074999 0.086119 -0.081645 -0.034889 -0.014341 -0.047242 -0.133670 -0.175637 0.009123 -0.061130 -0.022734 -0.004389 -0.051781 -0.016793 -0.007886 0.170907 -0.058542 -0.102222 -0.100916 -0.000881 0.154072 0.004555 0.134638 -0.078521 0.099254 -0.083049 -0.005581 -0.096520 -0.162206 0.055792 0.022157 0.030299 -0.046808 0.087512 0.103859 0.118521 -0.091757 -0.043579 0.114382 -0.237221 -0.092806 0.006086 0.033639 0.219707 -0.056235 0.030389 -0.087319 -0.164034 -0.084456 0.046924 0.028393 -0.200367 0.050531 0.077167 0.100431 -0.021535 -0.058985 -0.084622 -0.033890
as 0.024004 -0.057585 -0.007413 0.098213 0.124354 0.017105 0.112882 -0.114305 0.021785 0.138030 0.184731 0.005753 -0.016941 0.157533 -0.066719 0.085766 -0.051416 0.056370 0.075542 -0.069505 -0.092269 -0.145066 0.137725 -0.111378 0.026991 0.046230 -0.086537 -0.084440 0.165694 0.025478 -0.121235 0.023428 0.074189 0.119100 0.247852 -0.151059 0.080434 0.040673 0.004949 0.060731 -0.030167 -0.020605 0.035789 -0.078020 -0.024629 -0.050964 0.017608 -0.152494 -0.067296 0.064026 0.022821 -0.009891 0.046386 0.099389 0.007028 0.061014 0.191579 0.048436 -0.061618 -0.160421 -0.082585 0.132051 0.026481 0.103344 -0.040166 0.079273 -0.166196 0.064608 0.040602 -0.294612 -0.021020 -0.035779 -0.035535 0.043811 0.030726 0.070284 0.213884 -0.132770 -0.004631 0.067575 -0.143400 -0.149765 -0.026791 -0.024134 0.194571 -0.168468 -0.038245 0.006841 -0.040398 0.021124 0.000031 0.053004 -0.242066 -0.089622 0.033880 0.049251 0.027096 -0.006437 -0.193888 -0.056753
first -0.128164 0.032729 -0.052785 -0.058385 0.117162 0.061476 0.163959 -0.127120 0.018962 0.198250 0.089324 0.138392 -0.017862 0.128532 0.068908 0.086776 -0.060942 0.112132 0.134686 -0.135737 -0.080690 -0.196068 0.135994 -0.125139 0.006415 0.069342 -0.031661 -0.227798 0.051646 0.004384 -0.040766 -0.080080 0.066992 0.031855 0.170903 -0.235021 0.128753 0.083376 -0.105663 0.037110 -0.119569 -0.034716 0.120789 -0.082297 -0.036550 0.043068 -0.008949 -0.108881 -0.129012 0.190917 0.054034 0.049333 0.009129 0.128543 0.100313 0.035170 0.154067 0.005108 0.010830 0.027617 0.060292 -0.008987 -0.058244 0.042784 -0.027447 0.060987 0.003085 -0.078473 0.092057 -0.269967 0.031643 -0.018266 -0.005122 -0.083512 -0.031566 0.052015 0.094781 0.041915 0.003285 0.017600 -0.043690 -0.140366 -0.068020 0.065237 0.123722 -0.061002 -0.083012 -0.041553 -0.127531 -0.019682 -0.037337 0.022500 -0.273549 0.079640 0.035984 0.010984 0.013206 -0.069756 -0.204974 -0.003458
nice -0.129119 -0.052597 0.054283 -0.013319 0.157879 -0.051096 0.105378 0.015494 0.028005 0.097610 0.198291 0.057206 -0.105825 0.130662 -0.059772 0.049711 -0.064903 0.179030 -0.019877 -0.149612 -0.072789 -0.219387 0.001060 -0.153111 0.033469 0.015124 -0.008657 -0.051679 0.175225 0.063672 -0.032181 -0.071851 0.024711 -0.003373 0.125720 -0.133540 0.080114 -0.102954 -0.103134 0.076526 -0.152418 -0.029988 -0.014010 0.015617 0.100704 -0.040446 0.051098 -0.147077 -0.076688 0.107839 0.060681 -0.066861 0.020127 -0.049921 -0.082834 -0.058899 0.098588 -0.008984 0.097313 -0.129696 0.050285 0.050484 -0.011914 0.197939 -0.030484 0.027530 -0.179225 0.087042 -0.016972 -0.265666 0.124943 -0.067515 0.003572 -0.081799 0.005841 0.061388 0.108952 -0.081149 -0.033828 0.107041 -0.145319 -0.037068 -0.100530 -0.085892 0.149873 -0.211681 -0.086274 -0.100039 -0.118965 0.035406 0.086790 0.088180 -0.190081 -0.038326 0.065765 0.179131 0.053988 0.003355 -0.107391 0.068996
most -0.104863 -0.071408 -0.035343 0.126092 0.083306 0.077263 0.106974 -0.123181 -0.014719 0.149341 0.166955 0.091572 -0.089151 0.211307 -0.083919 0.012726 -0.039021 0.134898 0.109140 -0.102371 -0.097205 -0.073842 0.001195 -0.089292 -0.004675 0.038118 -0.044989 -0.078320 0.138930 -0.014204 -0.107418 -0.116341 0.041034 0.144638 0.278610 -0.195885 0.075066 -0.016419 -0.114514 0.188687 -0.051233 0.062019 0.044369 -0.113386 -0.021814 -0.101378 -0.015001 -0.116023 -0.040234 0.070367 0.037491 -0.028146 -0.005458 0.053545 -0.033803 0.012196 0.200544 -0.069518 -0.061035 -0.057467 -0.088664 0.098323 0.026718 0.110039 -0.031471 0.062239 -0.120044 0.048290 -0.083157 -0.243316 -0.042397 -0.009752 0.098875 0.018048 0.019540 0.046523 0.122805 -0.077929 -0.021146 0.031514 -0.133632 -0.148038 0.039652 0.025593 0.061564 -0.215709 -0.084582 -0.069428 -0.046551 -0.028809 0.084513 0.054421 -0.241065 -0.025248 0.028304 0.141390 0.020598 -0.120261 -0.133914 -0.022195
pretty -0.030800 -0.026852 -0.059760 0.072283 0.103270 -0.026275 0.184154 -0.150125 0.006585 0.174849 0.107504 -0.011088 -0.021451 0.220541 -0.088593 0.075231 -0.099159 0.188696 0.028195 -0.124101 -0.070858 -0.202836 0.110898 -0.030603 0.034967 0.008676 -0.019491 -0.058103 0.077342 0.033004 -0.105438 0.038806 -0.024427 0.084443 0.298866 -0.224142 0.003282 0.009423 -0.015185 0.057743 -0.162518 -0.025409 0.064224 -0.015223 0.082098 -0.014875 0.070633 -0.146479 -0.177412 0.085660 -0.073275 -0.079638 0.057321 0.011601 -0.010230 0.060220 0.124584 0.022172 0.063265 -0.077022 0.000377 0.135395 0.009165 0.094005 0.012870 0.121378 -0.134794 -0.043806 0.033700 -0.220456 0.029500 0.003575 -0.068204 -0.054437 -0.093113 -0.009108 0.212913 -0.016917 0.091298 0.142056 -0.151308 -0.082608 0.020008 0.018557 0.144885 -0.082313 0.066177 -0.024639 -0.050814 -0.108742 -0.026492 -0.062889 -0.194956 -0.097353 0.076338 0.107902 0.007294 -0.110640 -0.092157 -0.016309
still 0.028275 -0.071313 -0.069954 0.058239 0.005639 0.044924 0.091198 0.009747 -0.008850 0.018032 0.145876 0.046163 -0.130864 0.025802 0.009452 -0.027640 -0.101712 0.074912 -0.026039 -0.139363 -0.128297 -0.228373 0.079356 -0.094211 -0.041338 0.060557 -0.019704 -0.150550 0.096896 0.127280 -0.151433 0.043760 0.097954 0.162689 0.276275 -0.177722 -0.026491 0.003664 -0.077707 0.024731 -0.155299 0.088394 0.006030 0.046163 0.108622 -0.106864 -0.022204 -0.083789 -0.144022 0.132296 -0.093620 0.036927 -0.058483 0.023977 0.038395 0.064003 0.167680 0.071646 -0.081773 -0.051077 -0.072425 0.029559 0.053828 0.145412 -0.105431 0.106483 -0.061935 0.057766 -0.097956 -0.274525 0.016815 -0.066651 -0.006657 -0.093637 0.052941 0.091982 0.210660 -0.033644 0.073995 0.113470 -0.079265 -0.156424 0.027984 -0.093584 0.096176 -0.081678 -0.004569 0.005758 -0.096371 -0.041008 -0.059826 0.016634 -0.228756 -0.068288 -0.006051 0.130424 0.006921 -0.103588 -0.148250 0.079031
now -0.116505 0.031523 0.007227 0.040624 0.067249 0.009079 0.045941 -0.158802 -0.054101 0.142747 0.057537 -0.035133 -0.107748 0.049377 0.056904 0.044108 0.021637 0.184459 0.038090 0.009634 -0.042875 -0.209515 0.028824 -0.025784 0.051634 0.031549 0.011598 -0.147067 0.058804 0.074655 -0.095463 0.044851 0.061022 0.160924 0.102596 -0.213644 0.102136 -0.077494 -0.011024 0.039884 -0.173872 0.051182 -0.029792 -0.107971 0.098261 -0.028186 0.071174 0.010667 -0.174871 0.078323 -0.091253 -0.100571 0.010860 -0.054119 0.068470 -0.084995 0.201069 -0.072483 0.076710 -0.056305 -0.064346 0.059826 0.122383 0.061283 -0.151897 0.034674 -0.171878 -0.033146 -0.077197 -0.128644 -0.015082 -0.000230 0.033262 -0.032232 0.002992 0.069034 0.147259 0.031152 0.047164 0.039672 -0.173043 -0.079504 0.036289 0.079168 0.205803 -0.202147 0.055133 -0.111711 -0.150504 -0.120672 -0.024676 0.104711 -0.263422 0.050310 -0.068926 0.002333 -0.119741 -0.146782 -0.210551 0.017527
little -0.125389 0.084072 0.090754 0.109783 -0.015680 -0.031566 0.122609 -0.029206 0.089136 0.019298 0.114148 -0.029997 -0.006235 0.013144 -0.077211 0.135150 -0.000694 0.053483 0.013308 -0.157733 -0.020191 -0.193306 0.038323 -0.146516 -0.112204 -0.105979 -0.139171 -0.083994 0.136261 0.128049 -0.015799 0.007312 0.010261 0.027917 0.226099 -0.076189 0.025696 0.001404 -0.011837 0.108297 -0.109951 -0.039015 0.009149 0.023109 0.082436 -0.111280 0.099702 -0.062114 0.017248 0.172559 -0.021129 -0.015533 -0.039551 0.119813 -0.059471 0.089641 0.037859 0.022543 0.023547 -0.061148 0.036500 0.042702 -0.031781 0.146791 -0.042892 0.038596 -0.098555 0.005744 -0.087598 -0.319858 -0.072367 -0.044149 0.069904 -0.064145 -0.109534 -0.055753 0.139626 0.037605 -0.066334 0.179269 -0.180005 -0.079842 -0.124968 -0.046252 0.213224 -0.202831 0.022466 -0.068180 -0.008124 -0.059937 0.064838 0.113371 -0.212478 -0.026728 0.126086 0.159358 -0.095129 -0.126142 -0.132196 0.028673
then -0.113184 0.069920 -0.050084 0.082698 0.094260 0.044089 0.114965 -0.039981 -0.099748 0.169982 0.166493 -0.005894 -0.132162 0.154175 -0.094069 0.067081 0.025556 0.192751 0.041813 -0.054309 -0.046437 -0.204332 0.045397 -0.080743 -0.092936 0.000858 -0.110724 -0.174777 0.141436 0.097140 -0.005679 -0.061519 0.033647 0.157494 0.219866 -0.197447 0.082874 -0.069575 -0.058134 0.110497 -0.087132 0.029753 0.063076 -0.114094 -0.024058 0.070581 0.006222 -0.155888 0.007341 0.130093 -0.036449 -0.094095 -0.017371 -0.050359 0.062808 -0.028723 0.160255 -0.045499 -0.028912 -0.064961 -0.032315 0.035088 -0.014845 0.038839 -0.137037 -0.019032 -0.034907 -0.027693 -0.020306 -0.257248 -0.005400 -0.067151 0.081014 0.053403 -0.036847 0.122412 0.225037 -0.030835 -0.067519 0.104753 -0.164120 -0.046826 -0.118694 0.021520 0.029288 -0.209873 0.058770 0.036897 -0.123420 -0.021101 0.053478 0.082564 -0.186918 -0.036399 0.035561 0.110014 -0.109121 0.026433 -0.100911 0.051057
enough -0.014778 0.077862 -0.005495 0.014388 0.133785 -0.081776 0.181134 -0.126359 -0.125656 0.023654 0.144579 0.124877 -0.040053 0.103092 -0.074805 0.104628 -0.020376 0.162852 0.142089 -0.085534 -0.095120 -0.035589 -0.028588 -0.108256 -0.047775 -0.081911 -0.049397 -0.174875 0.198573 0.053577 0.013599 -0.119581 -0.065367 0.063058 0.226942 -0.069216 0.081481 0.007802 -0.125224 0.173108 -0.123282 0.058745 0.063326 -0.092927 -0.019992 -0.036149 0.060790 0.007737 0.000654 0.175983 0.029488 0.044049 0.099271 -0.038565 0.069831 0.016262 0.205818 -0.039109 0.087484 -0.076380 -0.065661 -0.004503 -0.043698 0.106539 0.018189 -0.029385 -0.183956 0.071771 -0.052105 -0.113874 0.097582 -0.106896 0.003870 0.032875 0.010154 0.077631 0.164547 0.035238 -0.032145 0.001696 -0.195659 -0.166686 -0.088359 -0.080403 0.156132 -0.128297 0.042013 -0.106163 -0.029212 -0.110507 0.056364 -0.031523 -0.258647 0.049954 0.110703 0.168736 -0.060695 -0.047385 -0.040210 -0.031903
definitely -0.034861 0.079046 0.062822 0.105021 0.088137 0.008905 0.107807 -0.134416 -0.082580 0.017793 0.205433 0.014545 -0.109959 0.135189 -0.098652 0.135557 -0.042946 0.142618 0.068400 0.010992 -0.095152 -0.173422 0.070916 -0.010309 -0.066264 0.011537 0.044023 -0.189293 0.132252 -0.002084 0.009943 -0.101081 0.123892 0.170495 0.205007 -0.201929 0.000220 0.055105 0.025292 0.009231 -0.122554 0.047298 0.108326 -0.079806 0.073614 0.002558 -0.086643 -0.137494 -0.031930 0.109137 0.066029 0.011809 0.038126 -0.056712 0.042497 0.092138 0.099032 -0.061220 -0.074299 -0.093604 -0.092628 0.061567 0.045923 0.153824 -0.160923 0.054904 -0.030891 0.042270 0.078468 -0.170338 -0.015094 0.008576 -0.045517 0.020498 0.075757 0.117643 0.139910 -0.134155 0.001773 0.148892 -0.199106 -0.012979 -0.122412 0.066173 0.126964 -0.225834 0.082253 0.013776 -0.159892 -0.010195 0.024944 0.074637 -0.193689 -0.001680 0.062411 0.144332 -0.009706 -0.078963 -0.084854 0.065280
real -0.114452 -0.102361 -0.024066 0.033639 -0.031819 -0.006678 0.101301 -0.161585 0.109308 0.109563 0.113502 0.126537 -0.077900 0.084651 -0.139135 0.065450 -0.057196 0.109371 -0.069536 -0.057267 0.038504 -0.221321 0.088912 -0.105484 -0.114973 -0.100941 -0.102611 -0.209532 0.007738 0.139648 -0.084926 -0.006818 -0.089482 -0.029975 0.112777 -0.062092 0.071691 -0.129130 -0.137045 0.086436 0.029378 0.021671 0.087933 -0.135209 0.017227 0.105052 0.100712 -0.040237 -0.118717 0.095791 -0.092316 -0.119832 -0.050258 -0.093751 0.003070 -0.122596 0.213896 -0.045039 0.029187 -0.132691 0.110118 0.060205 -0.067851 0.082811 0.075231 -0.054599 -0.201384 0.095626 -0.033032 -0.115974 0.000070 0.034046 -0.015721 0.098134 0.038021 -0.060219 0.078345 0.045318 -0.083720 0.158381 -0.189673 -0.141098 -0.093943 -0.100533 0.057781 -0.145497 0.012923 -0.035445 -0.042184 0.039269 0.036424 0.010037 -0.239432 -0.012341 0.029192 -0.046188 -0.086368 -0.139441 -0.191268 0.037212
right -0.009125 -0.085269 0.089791 0.018456 0.163135 -0.103777 0.142297 -0.084998 0.069085 0.112978 0.153919 0.072746 -0.058315 0.214923 -0.039549 0.025912 -0.104551 0.170899 0.038881 -0.151274 -0.020060 -0.182078 -0.010253 -0.047925 0.001614 -0.051749 -0.102683 -0.119201 0.011773 0.039203 0.028178 -0.053296 -0.019918 0.130258 0.151970 -0.201109 0.021903 0.029182 -0.038029 0.111640 -0.146291 -0.079346 -0.070599 -0.092166 0.001024 -0.081464 -0.023712 -0.167544 -0.081142 0.059375 0.018956 -0.088819 -0.015444 0.002659 -0.080281 0.035901 0.111759 -0.081931 0.003650 -0.159866 -0.055591 0.120930 0.119543 0.008913 -0.101448 0.047534 -0.159906 -0.061876 -0.025463 -0.247074 -0.031193 -0.094246 -0.022073 -0.035610 -0.000691 0.055387 0.212736 -0.022647 0.003017 0.147576 -0.185691 -0.021645 -0.110049 0.025128 0.149286 -0.163366 -0.085104 -0.027817 -0.065616 0.018177 0.124143 -0.017932 -0.271591 -0.032566 0.115647 0.079602 0.042378 -0.040796 -0.020785 -0.051608
terrible 0.006620 0.128676 -0.050969 -0.098524 0.026645 -0.134698 0.114651 -0.059412 0.118371 0.194415 0.113482 0.035675 -0.125771 0.025475 -0.078219 0.093461 -0.156547 0.085245 0.035690 -0.073818 -0.004248 -0.185684 0.127842 -0.221079 -0.057464 0.127956 0.080894 -0.015658 0.055223 -0.111682 -0.084831 0.007318 -0.118663 0.116578 0.017319 0.023711 0.080420 -0.150468 -0.034870 -0.077561 -0.200305 -0.053436 0.176837 -0.009742 0.113638 -0.146660 -0.049588 0.048597 0.031992 -0.035022 0.121992 0.033381 0.038224 -0.016238 -0.156847 -0.044063 0.120974 0.048173 0.123733 0.053044 -0.145305 -0.011287 0.010095 -0.074344 0.074855 0.067194 0.052503 -0.026058 -0.094701 -0.083992 0.154729 -0.034587 -0.141315 0.119504 0.089405 -0.044208 0.030883 0.030947 0.109624 -0.084462 -0.239864 0.014415 -0.097124 0.086690 0.066164 -0.050776 -0.060932 -0.098105 -0.009856 -0.145127 0.156153 0.101760 -0.083978 0.019882 -0.057197 0.141363 0.108475 -0.156052 -0.071800 -0.145191
friendly 0.023281 -0.023371 -0.023899 -0.002690 0.146076 0.123085 0.112907 0.034786 -0.126405 0.152181 0.097213 -0.074456 -0.004376 0.233800 0.028199 -0.009251 0.038958 -0.040799 0.081411 -0.168495 -0.078922 -0.046835 0.189251 -0.035392 -0.030703 -0.085651 -0.103418 -0.209022 0.085682 0.013787 -0.029750 -0.017611 0.146265 0.098293 0.186357 -0.075347 -0.014837 -0.057119 -0.046979 0.120978 -0.096235 -0.005047 -0.039912 -0.005003 0.118814 -0.011647 -0.091116 -0.135717 -0.032435 0.152338 -0.016079 -0.005033 0.006793 -0.083808 -0.030214 0.055858 0.238275 -0.064883 0.125718 -0.057602 -0.055695 0.125880 -0.062293 0.126304 -0.094599 -0.055401 -0.048089 -0.061313 -0.142958 -0.248585 0.040005 -0.021091 -0.087125 -0.032352 0.079476 0.168163 -0.015729 0.046652 0.104981 0.104205 -0.198865 -0.089263 -0.091515 0.105841 0.007588 -0.119985 0.047847 0.051793 -0.086692 -0.118089 0.115904 0.028984 -0.143096 -0.114793 0.041005 0.085485 -0.048667 0.042085 -0.202904 0.069303
few -0.050701 0.074694 -0.035298 0.031882 0.090459 0.074841 0.142647 -0.139168 0.033057 0.100364 0.089369 0.085243 -0.150104 0.128373 -0.054288 0.153990 0.043394 0.115600 0.139975 -0.066005 -0.012040 -0.072402 0.040067 -0.107720 -0.124364 0.043275 -0.122594 -0.212663 0.221980 0.039835 -0.120870 0.014517 -0.030098 0.058564 0.289834 -0.188201 0.034280 -0.015444 0.007422 0.030534 -0.150219 0.099848 0.009753 0.025956 0.023979 -0.036422 0.021398 -0.158799 -0.147441 0.125614 0.026764 -0.110276 0.110078 0.130710 -0.016667 0.098262 0.040890 0.011953 -0.072988 -0.176597 -0.117265 0.026735 0.012974 0.104816 -0.142207 0.047620 -0.180908 -0.066323 -0.029821 -0.123653 0.077044 -0.020048 -0.041757 -0.029534 -0.017406 -0.048645 0.163288 -0.031785 -0.069455 0.053047 -0.129219 -0.092083 -0.068661 0.004080 0.140772 -0.040875 0.095519 -0.063344 -0.113422 -0.100451 0.077429 0.093922 -0.089590 -0.114186 -0.065188 0.037767 -0.068325 -0.134863 -0.163962 -0.029927
there -0.053029 -0.001251 0.081474 0.104099 0.056929 -0.061621 0.056428 -0.058330 0.057255 0.067516 0.080810 0.053915 -0.055777 0.172871 -0.052854 0.150569 0.034872 0.148008 0.110003 -0.002924 0.010996 -0.124094 0.153072 -0.017259 -0.072761 -0.039545 -0.060643 -0.124423 0.148679 0.034777 -0.060965 -0.127317 0.066195 0.107536 0.106340 -0.208545 -0.036585 0.036759 -0.004567 0.171404 -0.164792 0.036861 -0.051689 -0.026877 0.107832 0.005519 -0.080071 -0.031849 -0.098633 0.127648 -0.067937 -0.053289 0.087390 0.110639 0.013322 0.072435 0.125425 -0.034750 0.075561 -0.009506 0.053005 0.089498 0.074426 0.122730 -0.019792 0.123792 -0.113125 0.073912 -0.092529 -0.264707 -0.026870 -0.153602 -0.010432 0.038271 0.039422 0.108210 0.223636 -0.148025 -0.013009 0.133256 -0.033052 -0.174234 0.042899 -0.038488 0.189695 -0.191819 -0.075188 0.003721 -0.155360 -0.011151 0.100824 -0.040477 -0.185821 0.005548 -0.046077 0.071473 -0.069222 0.039046 -0.199270 0.033702
new -0.136946 0.035623 0.051107 0.121209 -0.027965 0.076357 0.067878 -0.118904 0.044713 0.013809 0.041552 -0.027713 0.006364 0.158343 -0.057188 0.120621 -0.112887 0.198000 0.075002 -0.048531 -0.080545 -0.201520 -0.065611 -0.135743 -0.052251 -0.090141 -0.003557 -0.176864 0.089204 -0.040639 -0.098886 -0.156807 0.077390 0.127024 0.153371 -0.237739 0.091422 -0.061424 0.029439 0.147382 -0.016008 -0.074738 -0.004869 0.027911 0.110876 -0.134752 0.056535 -0.031034 -0.041320 0.009655 0.065353 -0.002125 -0.048843 -0.047699 -0.087594 0.102668 0.008928 0.053921 -0.020864 -0.087695 0.098955 0.115088 -0.030455 0.142478 0.034001 0.065989 -0.132178 0.034518 0.114255 -0.219279 0.080653 -0.099338 -0.002029 0.010457 0.080384 0.085837 0.181454 -0.132362 -0.080032 -0.058383 -0.189360 -0.091982 -0.093961 0.024731 0.055621 -0.152539 -0.064299 0.006256 -0.017338 -0.084380 0.098221 -0.015709 -0.247266 -0.134929 0.044793 0.162936 -0.088949 -0.037029 -0.104219 0.076203
far -0.017722 -0.074896 0.014912 0.013771 0.156313 -0.070119 0.155087 0.015465 -0.030846 0.146933 0.141335 0.026973 -0.104749 0.072985 -0.053503 -0.020737 -0.060167 0.140301 0.001588 -0.011918 -0.017246 -0.075362 0.138846 -0.023116 -0.073427 0.075669 -0.036374 -0.088669 0.147559 0.056890 -0.141483 -0.073615 0.001454 0.116592 0.245277 -0.046524 -0.003774 -0.083756 -0.035042 0.017475 -0.165408 0.075152 0.026162 -0.118836 0.040184 -0.069979 -0.050190 -0.167409 -0.078625 0.111480 -0.110657 -0.072991 -0.046437 0.071016 0.038106 0.033769 0.123694 0.078759 -0.043525 -0.084218 -0.004810 0.011067 0.088689 0.170026 -0.049160 -0.021560 -0.158713 0.010816 0.015669 -0.286163 0.009815 -0.103738 0.064034 -0.009970 -0.049382 0.140129 0.221918 -0.133647 -0.029813 0.081742 -0.110362 -0.184468 -0.061065 0.054830 0.039264 -0.192896 0.034638 -0.113307 -0.057877 -0.117342 0.029284 -0.032721 -0.275539 0.034301 0.073555 0.121651 -0.105760 -0.086886 -0.072098 -0.079407
disappointed -0.108314 0.104272 -0.100861 0.157972 -0.025836 0.008874 0.022353 0.070229 -0.122917 0.093609 0.153634 -0.013214 -0.031017 0.203113 0.136807 0.049428 -0.085520 0.104182 0.052956 -0.153192 -0.094045 -0.049109 -0.086259 -0.148277 0.006059 -0.166433 -0.080653 -0.167184 0.016625 0.074229 -0.118081 -0.055582 0.130934 0.071365 0.069020 -0.224027 -0.069278 -0.098164 0.039001 0.093194 0.054383 -0.141881 -0.019541 0.101536 -0.085188 0.066421 -0.037237 0.066165 -0.022525 0.193456 0.068331 0.091916 0.051965 0.077267 0.141718 -0.030668 0.085468 0.047842 0.037152 0.036837 0.006597 0.030079 -0.050905 0.033377 -0.198183 0.098936 0.047510 0.080073 -0.082842 -0.199277 0.135053 -0.053095 0.030300 -0.018550 -0.074479 -0.070221 0.093101 -0.093156 0.025969 -0.088146 -0.022312 -0.099406 0.006254 0.055156 0.100276 -0.173832 0.114346 0.029152 -0.120449 0.110994 0.086168 -0.018571 -0.254878 0.047747 -0.114609 0.208204 -0.015265 0.004717 0.029802 -0.118893
many -0.113214 -0.063276 0.087448 0.088754 0.069771 -0.061420 0.171485 -0.002632 -0.013219 0.019880 0.172044 0.145953 -0.145312 0.166266 -0.041269 0.045310 0.004133 0.208450 0.080755 0.010088 -0.137940 -0.172263 0.120456 -0.178257 -0.084279 0.027046 -0.009016 -0.200152 0.067743 -0.001077 -0.126192 -0.126259 0.105550 0.036574 0.153583 -0.142181 -0.059290 -0.022121 -0.043275 0.197225 -0.081359 0.082764 0.038777 -0.061900 -0.006477 -0.103904 -0.025729 -0.017167 -0.171182 0.170585 0.010329 0.063347 -0.008689 0.054664 -0.026547 -0.085055 0.181128 -0.042503 0.009322 -0.108848 -0.111658 0.063310 0.085599 0.134086 -0.098048 0.090515 -0.105515 -0.041716 -0.033261 -0.203299 0.018978 -0.051629 -0.005752 -0.009606 -0.062171 0.035168 0.194254 0.012453 0.021411 0.126263 -0.157589 -0.107066 -0.076534 0.035467 0.121262 -0.104201 0.029277 0.021563 -0.072795 -0.070386 0.126748 -0.014514 -0.165923 -0.034765 0.087057 0.030355 -0.072989 -0.128020 -0.088216 -0.058021
happy -0.095659 -0.081898 0.118314 -0.073056 0.151981 -0.067955 0.096759 -0.108977 -0.092904 0.011577 0.183558 0.014637 -0.055097 0.211146 0.066541 0.139411 -0.109486 -0.030879 -0.065051 -0.088228 -0.108289 -0.122847 0.061803 -0.082716 -0.013167 -0.060545 -0.064209 -0.095557 0.000196 0.038098 -0.055248 -0.055540 -0.012384 0.024634 0.264506 -0.198704 -0.026662 0.100975 0.061823 0.162217 -0.048506 0.058691 0.086081 0.055308 -0.083917 0.071667 -0.103840 -0.184899 0.041505 0.139776 -0.124111 -0.061626 -0.082640 0.069530 -0.011812 0.070804 0.072051 -0.026101 0.020817 -0.133322 0.076639 0.135063 0.042608 0.163852 -0.011386 -0.030976 -0.144332 0.036382 0.114319 -0.238523 0.059653 0.056104 0.109754 -0.063489 -0.122907 0.131666 0.090885 -0.045525 -0.074455 0.063428 -0.195492 -0.053249 0.010081 -0.069578 0.123768 -0.171319 -0.078776 0.005821 -0.039926 0.072701 0.038494 0.047319 -0.037070 0.029175 0.006877 0.021486 -0.107576 -0.131917 -0.211679 -0.058539
long -0.020624 -0.059336 -0.046671 -0.053630 -0.033478 0.052843 0.193967 -0.122305 -0.017746 0.163014 0.216209 0.018069 -0.013396 0.071054 0.026364 0.162308 0.093004 0.196797 0.036074 -0.036179 0.044015 -0.038992 0.113353 -0.035470 -0.052062 0.006205 -0.046123 -0.105809 0.076145 0.051424 -0.089135 -0.124576 0.018105 -0.014989 0.139881 -0.191119 -0.052556 -0.022949 -0.086806 0.134536 -0.036713 0.042859 0.107512 -0.004099 0.110293 0.006480 0.007353 -0.169964 -0.061005 0.081170 -0.034179 0.035478 -0.035997 0.088391 0.083344 -0.054673 0.187105 -0.115155 -0.053721 0.008091 -0.084512 0.167404 0.049493 0.049656 0.050050 0.115085 -0.168558 0.025640 0.081141 -0.317331 0.122323 -0.026278 0.018415 0.043967 -0.067889 -0.024494 0.210061 -0.083112 0.046144 0.036516 -0.033378 -0.185540 0.056199 -0.067566 0.098122 -0.072641 0.035468 -0.079531 -0.111742 -0.097460 0.060458 0.104671 -0.198729 -0.091030 -0.013936 0.178246 -0.019801 -0.059507 -0.170890 0.056767
quite -0.031945 0.059312 0.122295 0.005772 0.169467 -0.108142 0.120120 -0.025601 -0.046236 0.039232 0.191693 0.122276 0.021221 0.042186 -0.094203 0.158318 0.060527 0.154484 0.162129 0.032378 0.004280 -0.056682 -0.009162 -0.185039 -0.136582 0.068191 -0.034421 -0.094995 0.215418 0.164220 -0.063036 -0.009566 -0.005187 0.197701 0.198265 -0.138812 -0.092655 0.051503 -0.068538 0.026576 -0.198036 -0.030791 0.053794 -0.135133 0.016331 -0.031534 -0.098916 -0.024852 -0.153358 0.194231 -0.040048 0.005836 -0.061416 0.000178 -0.069079 0.118183 0.074490 0.016481 -0.025693 -0.059678 -0.068522 -0.006567 -0.059885 -0.001731 -0.133178 0.077404 -0.179030 0.001267 -0.102111 -0.105800 -0.075676 -0.088883 0.005307 0.117803 -0.006092 0.033179 0.196205 0.035547 0.115870 0.183869 -0.090960 -0.047646 -0.126237 0.041667 0.086454 -0.127462 -0.021843 -0.165969 -0.050916 0.001957 -0.054395 -0.024586 -0.087355 0.048089 -0.029916 0.150015 0.064842 0.011796 -0.073013 -0.129539
wonderful 0.022482 -0.088173 0.049371 0.020467 0.137196 0.046335 0.169117 -0.105420 0.033072 0.037708 0.133219 0.119783 -0.082639 0.183688 0.049803 0.036203 0.048357 0.210115 -0.022791 -0.007719 -0.100757 -0.190970 0.057688 -0.203256 0.010319 -0.075644 0.022330 -0.078249 0.079806 0.017587 -0.012581 -0.019111 -0.037350 0.164268 0.120442 -0.223996 -0.068455 -0.067015 -0.098796 0.146133 -0.172790 0.054794 0.098844 0.055404 -0.010555 0.052851 0.001522 -0.109432 -0.050028 0.096064 -0.072050 -0.023127 -0.067999 0.092556 -0.037564 -0.051764 0.193715 -0.061424 -0.027662 -0.105673 -0.004803 0.086605 -0.049232 0.099658 -0.160026 0.042438 -0.108644 0.055485 0.032244 -0.229365 0.112601 -0.023817 0.075592 0.091694 0.024563 -0.022777 0.082068 -0.108067 0.054330 0.160689 -0.125811 -0.156742 -0.138480 0.093612 0.221971 -0.096568 -0.051069 -0.113456 -0.042777 -0.008395 0.010817 0.070414 -0.206952 -0.038195 -0.073514 0.020926 -0.112923 -0.031805 -0.057900 0.034597
wo -0.141845 0.013204 -0.082814 -0.016529 0.066962 0.095993 0.170039 -0.060010 -0.090523 0.062165 0.230260 0.009566 -0.181296 0.069399 -0.107284 0.149259 -0.134740 0.170791 -0.036282 -0.020457 -0.138971 -0.195209 0.073880 -0.142912 0.013924 0.056286 -0.028302 -0.077078 0.222906 -0.049572 0.069836 -0.013419 0.027030 0.197991 0.203481 -0.120942 -0.051405 -0.052383 0.008172 0.084177 -0.174144 -0.000484 -0.045800 0.066134 0.141088 0.030933 -0.013124 -0.034412 -0.018101 0.065497 -0.037442 0.011203 0.037015 -0.001857 0.080682 0.046979 0.061893 -0.119483 0.071011 0.038456 0.097039 0.067236 -0.009017 0.134320 0.008592 0.075730 -0.072911 -0.038679 -0.063038 -0.068948 -0.022773 -0.157131 0.060511 -0.097635 0.005870 0.051897 0.193385 0.052094 0.079905 0.028127 -0.174698 -0.000545 -0.167933 0.001621 0.100497 -0.235021 0.042569 -0.172888 -0.013937 0.065854 -0.056065 0.097118 -0.119665 -0.044883 -0.040143 0.015335 0.009695 -0.009263 -0.180395 -0.126782
ca -0.114808 -0.094260 0.019651 0.120408 0.070373 0.050787 0.093768 -0.007216 -0.079044 -0.012629 0.051319 0.147996 -0.078954 0.160532 -0.084232 0.166705 0.004091 0.058874 0.125960 0.026140 0.073664 -0.156218 0.154770 0.037867 -0.029952 0.045757 -0.070992 -0.159894 0.059523 0.067468 -0.119540 0.004848 0.034560 -0.049130 0.227797 -0.042205 -0.101279 0.057735 -0.108971 0.113414 -0.173140 0.082764 -0.007324 -0.135719 0.136371 0.011560 0.046582 0.046554 -0.114318 0.173535 -0.009322 0.099480 -0.059581 0.097271 -0.026860 -0.088492 0.156623 0.110119 0.022115 -0.113686 0.000243 0.135536 0.138762 0.100378 -0.105597 -0.057045 -0.028404 0.106442 -0.017536 -0.097860 -0.005451 -0.149346 -0.035246 -0.063250 -0.035430 -0.033846 0.211655 -0.071167 -0.108963 0.112969 -0.108505 -0.146035 0.018488 -0.093168 0.185881 -0.125445 0.034326 0.026255 0.014085 -0.127010 0.144231 -0.075388 -0.206549 -0.053816 -0.089773 0.114793 -0.075937 0.024397 -0.122092 0.071051
should 0.032176 0.074256 0.040515 -0.009218 0.155668 -0.078271 0.076614 -0.143883 -0.109732 -0.000833 0.198448 0.017974 -0.073226 0.054662 0.039139 0.147269 -0.122119 0.191955 0.076561 -0.017261 -0.005124 -0.205883 0.154558 -0.036754 0.056163 0.064340 -0.006079 -0.096010 0.093017 -0.055092 -0.064163 -0.062090 0.050818 0.017580 0.143302 -0.162551 -0.054793 -0.083572 0.071424 0.068816 -0.070440 -0.049875 0.111927 0.072438 0.117012 -0.110005 -0.086327 -0.096535 -0.166074 0.087125 -0.019825 0.056385 -0.000830 0.086073 -0.065978 -0.051842 0.202381 0.074064 0.054676 -0.021522 0.078423 0.113609 0.106659 0.093756 -0.072427 0.072540 -0.194370 0.092403 0.033442 -0.195835 0.063765 0.011304 -0.090252 0.004765 -0.062224 0.144256 0.160411 -0.054552 -0.016495 0.084065 -0.121171 -0.145005 -0.056967 -0.058217 0.180992 -0.160957 -0.079351 -0.084990 -0.038242 0.001192 -0.008377 0.001471 -0.227338 0.046470 0.105697 -0.030338 0.053853 -0.138559 -0.176185 0.073454
easy -0.035353 -0.021347 0.028288 0.145793 0.084693 -0.037000 -0.027985 -0.068193 -0.085486 0.160797 0.124719 -0.078519 -0.034761 0.128812 -0.085224 0.131819 -0.003960 0.106296 0.181962 -0.149319 -0.002018 -0.021986 0.095048 -0.052489 -0.001550 -0.086853 -0.068809 -0.100437 0.076318 -0.042654 -0.035038 -0.154190 -0.044674 0.140296 0.123656 -0.135080 0.017454 -0.049722 -0.025158 0.192276 -0.035442 0.109017 0.032799 -0.023544 -0.072816 0.054621 0.039171 -0.130077 -0.099854 -0.024412 0.084178 0.073745 -0.036592 0.107246 0.116842 0.119163 0.134611 -0.024308 0.057077 0.014731 -0.019074 -0.068905 0.030911 0.184710 -0.067115 0.037857 -0.103024 0.053788 0.113421 -0.274040 0.049032 0.020447 0.116071 0.079503 0.036522 0.119634 0.245004 -0.014715 0.000263 0.074092 -0.189245 -0.019658 -0.036943 0.080185 0.168997 -0.011265 0.080729 0.031188 -0.181703 -0.068310 0.011239 0.028502 -0.141858 0.017274 0.059436 0.164192 0.068952 -0.159503 -0.234786 -0.035215
absolutely -0.072717 -0.090151 0.105558 0.051165 0.086106 -0.038613 -0.024299 -0.028401 0.099899 0.128298 0.166079 0.047996 0.055982 0.186183 -0.085456 0.047971 0.062312 -0.018198 0.146743 -0.099183 0.021023 -0.141298 0.142863 -0.128185 0.028027 -0.056532 0.048625 -0.212994 0.015683 0.104264 -0.114896 -0.080374 -0.050862 -0.029078 0.141642 -0.038785 -0.110507 -0.092257 -0.154807 0.207731 -0.005873 0.122639 0.119867 -0.148627 -0.068579 -0.093222 -0.113081 -0.006197 -0.122216 0.125657 -0.085790 -0.113099 0.022721 0.034938 0.083213 0.009288 0.158945 -0.114634 -0.076347 0.031093 -0.134777 -0.023399 0.138489 0.102647 -0.190888 -0.058893 -0.147779 -0.094486 0.050145 -0.195235 0.006815 -0.105109 -0.021903 -0.124684 0.126433 0.019722 -0.001495 -0.026892 -0.037245 0.134757 -0.015482 0.015665 -0.005425 0.116507 0.165240 -0.094771 0.068965 -0.168715 -0.027172 0.047834 0.080284 0.125759 -0.110469 -0.129464 -0.022844 0.078515 0.085584 -0.061763 -0.089368 0.029950
funny -0.095512 0.080779 0.037549 -0.041777 0.048882 0.120169 -0.034570 -0.017567 -0.096734 -0.000719 0.086225 0.167924 0.002205 0.139407 0.032873 -0.060600 -0.015601 0.118138 0.172890 -0.141065 -0.036661 0.002296 -0.076002 -0.052551 0.066290 0.002202 -0.056755 -0.092799 0.199169 -0.009995 -0.021172 0.005708 -0.071949 0.155385 0.161176 -0.089265 0.001502 -0.018436 -0.006800 0.053134 0.062597 -0.096137 -0.052974 0.102455 0.026408 0.107640 -0.069445 0.044409 0.039528 0.170055 0.017153 -0.093526 0.093733 0.106724 0.042927 -0.084959 0.238200 0.085580 -0.124254 0.046971 -0.061033 -0.024584 0.066871 0.215557 -0.120618 0.093569 -0.189345 0.031895 0.113366 -0.277181 -0.078057 0.018041 -0.077018 0.097414 0.126491 0.160353 0.109121 -0.006429 -0.132480 0.051667 -0.057004 -0.018525 0.094581 0.051616 0.093805 -0.146589 0.011291 -0.052566 -0.221945 0.027946 0.058098 -0.124157 -0.148807 -0.003182 0.115807 -0.017053 0.098448 0.019922 -0.191775 -0.007600
probably 0.033252 0.065978 -0.001255 0.091528 0.070440 -0.004551 0.046436 -0.090858 -0.075838 0.128512 0.183208 0.022357 -0.160121 0.134258 0.008037 0.162113 -0.102148 0.115072 0.043625 -0.046954 -0.028105 -0.114126 0.063796 -0.082221 -0.050219 -0.072920 -0.026776 -0.227811 0.193521 0.144334 -0.064791 0.026551 -0.009801 0.044057 0.148435 -0.236054 0.067738 -0.094302 -0.006589 0.056133 -0.095946 0.076061 -0.000914 -0.029267 0.105562 -0.026071 -0.036597 -0.176743 -0.027917 0.083883 -0.032161 -0.022705 -0.050205 -0.013357 -0.015135 -0.074753 0.160383 -0.049075 0.034674 -0.105228 -0.019380 0.060270 -0.024749 0.081249 -0.007441 0.069529 -0.139998 0.088626 -0.037435 -0.342919 0.076350 -0.117109 0.098751 -0.025163 -0.011267 0.042255 0.208108 -0.088159 0.024596 0.025856 -0.121479 -0.124941 -0.014591 -0.021360 0.187596 -0.199413 0.029780 -0.006138 -0.073817 -0.023770 0.006712 -0.009118 -0.173969 0.031854 0.104049 0.134970 -0.078742 -0.051858 -0.149993 0.042746
always -0.022599 0.046583 0.013918 -0.040791 0.139041 0.064083 0.107328 -0.128185 -0.104622 0.150510 0.165236 0.024941 -0.179605 0.076996 0.061897 -0.020230 -0.121668 0.063064 -0.011628 -0.006383 -0.034822 -0.081546 0.017230 -0.080271 -0.093034 0.093818 -0.138515 -0.093518 0.202516 0.122600 0.033633 -0.029569 0.007480 0.108336 0.121925 -0.136546 -0.077116 0.088497 0.048004 0.085614 -0.008173 0.124864 -0.002370 0.056517 0.104149 -0.084551 -0.104591 0.020278 -0.178744 0.184725 -0.039030 -0.062785 0.135663 0.012237 0.081638 -0.106769 0.037460 -0.122135 -0.080766 -0.149880 -0.059432 0.016364 0.116767 0.032211 -0.143435 0.036649 -0.041423 0.104863 0.101238 -0.211502 0.087454 -0.005573 -0.033334 0.005691 -0.050850 0.022998 0.139442 -0.088173 0.098000 -0.018524 -0.131374 -0.207442 0.040700 0.115939 0.133701 -0.250458 0.081028 -0.061812 -0.021175 0.071350 -0.032589 -0.084246 -0.195207 -0.036587 0.088349 0.130042 -0.117953 -0.108515 -0.029184 -0.069093
comfortable -0.141554 0.069148 -0.017875 -0.015607 -0.010626 -0.073133 0.120062 -0.073076 0.013048 -0.014110 0.219429 -0.002527 -0.016537 0.155125 0.090746 0.169404 0.001601 0.079795 -0.044087 0.011979 -0.147805 -0.047731 -0.002755 -0.091105 0.052517 -0.116445 -0.166688 -0.127139 0.243897 0.082820 -0.081104 -0.052342 0.099163 0.034878 0.071773 0.007286 -0.000602 -0.054102 -0.144894 0.192743 0.022268 0.113477 -0.057017 0.085712 0.060120 0.056981 -0.065783 -0.100202 0.034941 0.024144 -0.150446 0.015292 0.094437 0.036658 -0.083448 -0.093545 0.038251 0.034773 0.060960 -0.166287 -0.106800 0.153758 0.110331 0.139419 -0.012747 0.034035 -0.034067 0.000447 0.029400 -0.295555 0.062955 -0.108355 -0.104580 0.030589 -0.121244 0.114507 0.110459 -0.054385 0.018005 0.016340 -0.137700 0.015633 -0.068938 -0.017419 0.012112 -0.077624 0.056935 0.016191 -0.144088 -0.036669 0.122434 0.117740 -0.289122 -0.022665 -0.064139 0.056075 -0.009919 -0.172854 -0.139352 -0.037749
fine -0.060353 0.016026 -0.053999 0.007600 -0.038165 0.115733 -0.044876 0.003927 -0.107231 -0.007051 0.090206 0.051401 -0.066556 0.024235 -0.033729 0.115242 0.017305 0.158294 0.158501 -0.101832 -0.000667 -0.220456 0.145229 -0.182648 -0.033450 -0.118055 -0.049630 -0.080247 0.124487 0.045314 -0.179317 0.041810 -0.056193 0.013407 0.270878 -0.134784 -0.012558 0.001385 -0.111602 0.176661 -0.003091 0.075983 0.104759 -0.131604 0.054544 -0.008161 -0.079842 -0.173260 -0.155761 0.027980 -0.015786 0.025166 0.138925 0.036771 -0.125410 -0.074963 0.140314 -0.065519 -0.009420 -0.104597 -0.101157 0.104730 0.046797 0.054059 0.056304 -0.085016 -0.062430 0.115648 -0.076057 -0.253417 0.085656 0.004199 0.082474 -0.000215 -0.028890 0.159401 0.168474 -0.026536 -0.029819 0.039509 0.006683 -0.020074 -0.148816 0.078693 0.010136 -0.020759 -0.003542 -0.138768 -0.166532 0.012038 0.060333 0.076171 -0.268295 -0.117968 -0.060351 0.030994 -0.040090 -0.071146 -0.005520 -0.031368
big 0.062041 -0.058261 -0.062577 0.079569 0.151738 0.033417 -0.023965 -0.107055 0.065023 0.035097 0.035569 0.121715 -0.121897 -0.033643 -0.096892 -0.038513 0.051844 0.249700 -0.065036 -0.027319 0.005676 -0.186586 -0.066181 0.014710 -0.061975 -0.169915 -0.047296 -0.087123 0.022496 -0.064471 -0.175429 -0.194497 0.094012 0.005046 0.240244 -0.064785 -0.007729 -0.054140 0.020127 0.006942 -0.126120 0.088999 0.057531 0.120635 0.131389 -0.156358 -0.172621 0.029971 0.063652 -0.003478 -0.142962 -0.044742 -0.130652 0.115753 -0.065843 0.013251 0.051214 0.044878 -0.126866 -0.020712 0.071611 0.052814 0.151971 -0.075327 0.073676 -0.033012 -0.091112 0.109253 -0.068028 -0.053779 -0.060542 -0.028252 0.059517 -0.126569 0.128634 0.088226 -0.020973 -0.087167 0.073254 -0.098937 0.048851 -0.196245 -0.040963 -0.005909 0.127010 -0.006771 0.080523 0.017156 -0.050675 0.023853 0.146899 0.120048 -0.194718 0.100567 -0.028419 -0.033076 -0.116850 0.042682 -0.276421 -0.112629
poor 0.082927 -0.087516 0.087997 0.037932 0.171040 -0.002937 -0.031563 0.091734 -0.051499 0.048966 0.053161 0.048215 0.072752 0.198464 0.031417 0.072411 -0.058027 0.005571 -0.054769 0.018190 0.076552 -0.155610 0.035147 -0.086467 0.050938 -0.009727 -0.083492 -0.042142 -0.052592 0.086586 -0.114620 0.109578 0.128016 0.041077 0.167705 -0.174019 0.067486 0.018610 0.050178 0.193957 -0.074936 -0.092213 0.069177 -0.117098 0.001218 -0.090353 -0.013399 0.060251 -0.119300 0.165476 -0.138268 -0.121673 0.042317 0.153066 0.101012 -0.132104 0.167255 -0.076808 -0.118790 0.015956 0.126659 0.063562 -0.094713 0.044192 0.074536 0.070363 -0.100403 -0.051936 -0.087109 -0.192487 -0.028932 -0.119198 0.069097 0.127826 -0.145183 0.056406 0.219082 0.067170 -0.055519 0.050636 -0.187764 -0.059686 -0.034333 -0.113381 0.039901 -0.038042 0.037305 -0.110713 -0.168399 0.047345 -0.117004 0.007520 -0.203454 0.081552 0.108243 0.115392 -0.047314 -0.061984 -0.147015 0.095976
highly 0.137189 0.040651 0.002960 -0.082948 -0.001789 -0.020291 0.036804 -0.101990 -0.061036 -0.145758 -0.007492 0.187413 -0.074585 0.166533 -0.114847 0.092476 0.079774 0.150373 -0.072046 0.145479 0.046921 0.008364 -0.070369 -0.182858 0.041722 0.090550 0.045242 0.118921 0.015969 -0.000301 -0.029150 -0.164620 0.022268 0.131378 0.004084 -0.119358 -0.052825 0.162373 0.003424 0.184386 0.043734 -0.020179 -0.032149 -0.123228 0.169312 0.131013 0.111938 -0.059030 -0.066630 -0.040125 -0.089328 0.105905 0.096783 -0.092223 -0.056797 -0.133120 -0.036321 0.161198 0.074691 0.009263 -0.130606 0.003988 0.094898 -0.138347 0.022514 0.015455 -0.185081 -0.067148 -0.029061 -0.050844 -0.042381 0.020517 -0.137664 0.098874 -0.127141 -0.019278 -0.014154 -0.023020 0.159307 0.000763 -0.140988 -0.115950 0.095547 -0.117478 0.175258 -0.142011 0.015354 -0.096495 -0.196346 0.047373 -0.116058 -0.057049 -0.145278 0.088339 0.086350 -0.022755 -0.170168 0.079628 -0.068545 0.097576
horrible -0.168528 0.104722 -0.084390 -0.060963 0.124032 0.028452 0.129803 0.098280 -0.080396 0.171388 -0.014618 0.033278 -0.009909 0.100253 0.025485 0.139163 0.053277 -0.011308 0.162809 -0.086867 -0.062959 -0.127502 0.125269 -0.075835 -0.046974 0.057330 0.065305 -0.043239 -0.079339 -0.072294 -0.169326 -0.103373 0.048679 0.179181 0.049679 -0.028457 -0.110511 0.036981 -0.034926 0.164119 0.022179 0.109513 -0.052133 -0.113437 0.126135 -0.120975 -0.019413 -0.015586 0.095656 -0.015220 0.126620 0.039413 0.037802 0.143376 0.138043 -0.060515 0.122188 0.038921 -0.111597 -0.073398 -0.131528 0.109066 0.134273 -0.009285 -0.077717 0.010934 -0.073949 -0.044641 0.015582 -0.250799 0.070816 0.078962 0.111443 0.127523 -0.099417 0.134516 0.046122 0.028520 -0.009980 0.178460 0.033053 -0.151658 -0.039722 -0.042081 0.206187 -0.020411 -0.111386 -0.137662 -0.153875 -0.004431 -0.010292 -0.056856 -0.207848 -0.003840 -0.051253 0.009303 -0.053845 0.070248 -0.209143 0.027545
however 0.024808 0.085179 0.085580 0.084210 -0.014726 -0.054435 0.159247 -0.023631 -0.063937 0.047896 0.212335 0.022356 -0.065743 0.109342 -0.064263 0.023959 -0.015460 0.068045 -0.023303 -0.131185 0.006369 -0.205844 0.022191 -0.005243 -0.113309 0.021807 -0.138920 -0.045239 0.141753 0.067787 -0.062555 0.064845 0.039709 0.154952 0.278702 -0.061491 0.062636 -0.123115 -0.074069 0.158819 -0.074462 0.011301 -0.000775 -0.107374 0.059634 -0.081458 -0.078082 -0.102067 -0.090443 0.071846 -0.100363 -0.061124 0.062289 0.138416 0.090330 0.051680 0.145046 -0.108403 0.016217 -0.196382 -0.056781 0.128580 0.113371 0.153226 -0.106348 0.113465 -0.161622 0.072738 -0.086038 -0.174034 0.138344 -0.000278 0.094596 -0.077478 0.005927 -0.032826 0.063630 -0.119267 0.024983 -0.010996 -0.186505 -0.184142 0.035350 -0.048542 0.159488 -0.078911 -0.070156 0.034838 -0.122409 -0.097527 0.002938 0.094129 -0.117113 -0.062414 0.028572 0.105624 -0.001588 -0.093059 -0.154385 -0.011203
amazing 0.040009 -0.091170 0.083922 0.090279 0.117877 0.085708 0.062897 -0.095566 -0.098617 0.019467 0.067079 -0.031617 -0.137672 0.027874 0.052768 0.070115 0.036598 0.028012 0.065203 -0.013574 0.001874 -0.150794 0.096167 -0.041534 0.061883 0.008813 0.034089 -0.220871 0.190625 0.121611 -0.116730 -0.118365 0.014977 0.182013 0.176704 -0.046371 0.028662 -0.068493 -0.130517 0.094145 -0.052900 0.016092 0.025678 0.055737 0.080008 -0.020828 0.057905 -0.101849 -0.053781 0.075004 -0.077121 -0.097854 -0.002930 -0.064077 0.079724 0.048632 0.063124 -0.003471 0.026012 -0.084681 -0.040689 -0.046977 0.066427 0.146930 -0.096776 0.124275 -0.184754 0.121482 -0.009532 -0.198324 0.141909 -0.032133 -0.076905 -0.038552 -0.011261 0.024787 0.191444 -0.019557 0.009883 0.149440 -0.174581 -0.139045 -0.107840 -0.042133 0.157437 -0.199882 -0.060074 -0.141916 -0.142185 -0.061959 -0.035999 -0.046588 -0.274422 0.040373 -0.044743 0.159950 -0.010380 0.002703 -0.167595 -0.081712
delicious -0.059891 0.064082 0.133222 -0.061841 0.021200 -0.073757 0.138065 -0.134520 0.094042 -0.013878 0.161528 0.045213 -0.171610 0.104244 -0.103186 0.041967 -0.033607 0.008983 -0.013424 -0.165538 -0.108745 -0.098300 0.102525 0.056361 0.041921 0.096868 -0.171614 -0.200201 0.087648 0.029269 -0.106521 -0.091642 -0.003526 0.165245 0.117824 -0.090133 -0.111943 -0.059848 -0.067210 -0.034093 -0.151461 0.072629 0.133158 -0.097885 0.075876 -0.094218 0.047646 -0.146115 -0.129060 -0.053596 0.097500 -0.001800 -0.032078 -0.082631 -0.099632 -0.114043 0.055623 -0.081635 -0.020620 -0.090831 -0.025822 -0.051826 0.018817 -0.025666 -0.030361 0.153622 -0.058079 0.063852 -0.109746 -0.138272 -0.006375 -0.095576 0.124413 -0.050629 0.122487 0.041360 0.023608 -0.128889 0.018387 0.138557 -0.095067 -0.067055 -0.121490 -0.009452 0.147879 0.017568 -0.001489 0.067371 -0.113967 0.110868 0.141046 0.026660 -0.256987 0.052301 0.021876 0.170242 0.113887 -0.167262 -0.156458 0.094416
small -0.028826 -0.107038 0.048274 0.088134 0.139709 -0.092772 -0.011582 0.015364 0.028415 0.046046 0.070244 -0.078101 0.080287 0.010407 0.078098 0.004779 -0.009875 -0.008559 0.089054 -0.071511 0.086266 -0.135471 0.083903 -0.039800 -0.185206 -0.142668 -0.020320 -0.081582 0.087992 -0.068718 0.071216 0.039990 -0.040917 0.148050 0.139359 -0.139086 0.005801 -0.076393 0.121572 -0.017732 -0.166234 0.071737 0.070689 -0.084039 -0.075368 0.065576 0.081579 -0.214111 -0.230354 0.111354 -0.054715 0.040130 -0.123401 -0.048206 -0.071522 -0.023413 0.068826 -0.099597 0.053800 -0.132614 -0.167129 0.005097 0.055624 0.060097 -0.030818 -0.013852 -0.019197 0.010148 -0.062632 -0.109388 -0.040145 -0.208075 -0.059725 -0.088325 -0.142795 -0.092799 -0.015838 0.072774 0.049512 0.169587 -0.029927 -0.125155 -0.180810 0.007287 0.012939 -0.086590 -0.144521 -0.009278 -0.160584 -0.164995 0.002093 -0.128409 -0.271127 0.120046 0.026785 -0.058440 0.102581 0.010866 -0.198346 -0.106037
same -0.003147 -0.078299 -0.076889 -0.024938 0.117162 0.059813 0.146731 -0.116104 -0.110689 0.090692 0.119931 -0.003384 -0.009997 0.197897 -0.017412 0.130136 0.051162 0.163419 0.029848 -0.032189 -0.098000 -0.086145 0.037796 -0.149061 -0.020943 0.027869 -0.103952 -0.062533 0.063704 0.058320 -0.136690 -0.046157 0.081105 0.131269 0.290171 -0.221552 0.082001 -0.092841 -0.084443 0.122946 -0.076260 -0.042150 0.082415 -0.008595 0.052979 0.021548 -0.057843 -0.068882 -0.022296 0.157884 0.010871 -0.074344 0.115649 -0.007123 0.031845 -0.040840 0.200132 -0.065876 -0.045207 -0.020446 -0.089119 -0.002822 0.022227 0.081475 -0.024808 -0.026487 -0.168196 0.057752 -0.025587 -0.275346 0.091290 -0.022141 0.081339 0.086265 -0.008443 0.121712 0.129328 -0.018666 -0.036125 0.147221 -0.151027 -0.157563 -0.041696 -0.057690 0.150321 -0.065848 0.061651 0.007048 -0.037521 -0.122491 0.073802 -0.004804 -0.251598 0.057401 -0.007890 0.088397 -0.045589 -0.069545 -0.154604 0.001444
totally -0.165361 0.071525 0.064569 0.050715 0.151458 0.110791 -0.005227 0.007969 -0.143760 0.022762 -0.012244 0.137072 -0.094977 0.062441 -0.052356 0.160899 0.000333 0.151101 0.070156 -0.098502 0.050167 -0.177183 0.106229 0.031616 -0.079508 -0.044206 -0.155765 -0.116426 0.135003 0.000381 -0.102762 -0.033258 -0.019561 0.123820 0.108253 0.040259 0.126164 -0.137935 -0.084221 0.003821 -0.048186 -0.060747 0.009539 0.031279 0.111119 -0.068642 -0.071651 0.018638 -0.201955 0.124015 -0.031396 0.044850 0.001556 0.076145 -0.122597 0.060004 0.203246 -0.132380 0.059404 0.060428 -0.148683 0.015487 0.141760 0.166854 -0.006485 -0.063382 -0.139842 -0.011554 -0.004801 -0.241177 0.051042 -0.053555 -0.117324 0.064141 0.037688 0.142273 0.232918 0.018311 -0.094908 0.122755 -0.002943 -0.021397 -0.081624 -0.080271 0.007243 -0.131505 0.042113 -0.145875 -0.194594 0.046449 0.144820 0.116065 -0.031977 -0.097854 -0.095144 0.039968 0.014049 0.069241 0.009727 -0.056380
last -0.073934 0.051673 0.074251 0.029440 0.019482 -0.058480 0.160634 -0.093228 -0.074170 0.132939 0.039285 0.096251 -0.135438 0.023758 0.008459 0.175419 0.035706 0.040103 0.121435 -0.163507 -0.125567 -0.064697 0.096054 -0.083332 -0.081657 0.005264 -0.079140 -0.180122 0.039004 -0.049681 -0.099608 -0.137847 0.115982 0.004043 0.265134 -0.062679 0.057003 -0.079728 0.038763 0.189085 -0.191145 0.030673 0.075833 -0.136277 0.022319 0.072414 -0.022900 -0.021722 -0.029074 0.070635 -0.070192 0.069840 0.147895 -0.021565 0.058448 0.005274 0.127610 -0.042973 -0.073455 -0.089840 0.073375 0.009430 0.073134 0.181231 -0.113978 0.065407 -0.128251 0.036619 -0.030003 -0.201908 0.033101 -0.161819 0.125691 0.086366 -0.042297 0.079886 0.207922 0.009562 0.087276 0.063047 -0.040213 -0.125008 0.017132 0.027989 0.025600 -0.232884 -0.074245 -0.163947 -0.061169 -0.118929 -0.068228 -0.032693 -0.177929 0.092559 0.089921 0.005531 0.078675 0.005844 -0.103473 0.006497
old -0.154770 0.076507 -0.094623 -0.012807 0.082597 -0.049554 0.042831 -0.016695 -0.001594 0.103216 0.068486 -0.065591 -0.026440 0.066721 -0.031388 0.057369 -0.066349 0.109714 -0.021905 -0.001966 -0.040928 -0.123676 0.147247 0.001104 -0.037243 -0.075913 -0.033766 -0.088597 0.173710 0.093455 -0.143577 -0.142866 -0.011919 -0.030121 0.210065 -0.046091 0.110449 -0.072935 0.066553 0.059648 -0.184889 0.028878 -0.050738 -0.085857 0.145963 -0.041886 0.028408 -0.026394 0.001567 0.074252 0.011824 -0.016360 0.050328 0.097831 0.100464 -0.112437 0.097561 0.060694 -0.102471 -0.008343 -0.008501 -0.002354 0.125337 0.108931 -0.035904 -0.038368 -0.138887 -0.077980 -0.020159 -0.332591 0.123595 -0.144929 -0.023288 0.038158 0.026532 0.024179 0.207176 -0.170870 0.066857 0.178658 -0.222351 -0.201146 0.033893 0.034098 0.147183 -0.120630 -0.099727 -0.002328 -0.163434 0.036174 -0.018784 0.028344 -0.210876 0.041546 0.081307 0.122342 0.045518 -0.023873 -0.025653 0.092649
cheap 0.049956 -0.058242 0.084213 -0.048191 0.022076 0.077857 0.124170 0.030288 -0.049211 0.181306 0.147006 0.104717 0.016993 -0.005299 0.019532 0.058792 0.075919 0.195272 0.129003 0.013994 -0.021546 -0.216063 0.111920 0.029554 -0.037551 0.077452 0.050376 -0.080859 0.160881 -0.053887 0.042561 -0.067273 -0.049068 -0.005296 0.125080 -0.192159 0.080400 -0.127229 -0.089442 0.169734 -0.019303 -0.076634 -0.020769 -0.128671 0.094929 0.093306 0.014643 -0.166557 -0.163546 0.021925 -0.109051 -0.083504 -0.059431 0.050770 -0.035379 0.058653 0.185136 0.091377 0.078808 -0.125341 0.087372 0.012658 -0.011167 0.047703 -0.128044 0.022594 -0.179080 0.053941 0.032879 -0.088766 0.140703 -0.001114 -0.055466 0.031760 0.006944 0.147097 0.097986 0.020984 0.061181 0.037554 -0.127931 -0.181935 -0.016388 -0.061922 0.120681 -0.124187 -0.013667 -0.122307 -0.187303 -0.116079 0.140560 0.008981 -0.203173 -0.073509 0.101430 0.042431 -0.007706 -0.048806 -0.218494 0.065074
stupid -0.033210 0.097384 0.080306 0.169388 0.173890 0.139949 0.179237 -0.004201 -0.120793 0.005571 -0.003869 -0.040443 0.022544 0.215906 0.023970 0.129906 -0.119601 0.053123 0.152300 -0.180990 0.052375 -0.208368 -0.028986 -0.069989 0.052048 0.002533 0.010558 -0.182503 0.126659 0.054966 -0.076110 -0.024402 0.125987 0.178242 0.187343 0.041009 -0.065374 0.026059 0.066371 -0.054945 -0.041453 0.074146 -0.069441 -0.126609 0.138589 -0.073207 0.068822 -0.001955 -0.148489 -0.056486 0.106649 0.122278 -0.025279 -0.105263 -0.071897 0.121825 0.071392 -0.070359 -0.065547 -0.099702 0.101122 0.095101 -0.083010 0.049199 -0.171502 -0.083980 -0.130854 0.110640 0.008535 0.028048 -0.014225 -0.113214 -0.033276 -0.091747 0.046582 0.041022 0.211617 -0.090799 0.141859 0.028116 0.004270 -0.032238 0.062488 -0.048885 0.083600 -0.077613 -0.025647 0.038347 0.057630 0.013481 -0.003760 -0.045612 -0.214728 -0.053415 0.102748 0.014540 -0.126874 -0.126222 -0.143503 0.084211
actually -0.031206 -0.095258 0.108402 -0.019878 0.086903 0.050639 0.009325 -0.149622 0.046461 0.096043 0.134102 0.006293 0.021968 0.147674 0.014407 0.045865 0.072923 0.132762 0.107919 -0.058719 -0.107151 -0.086389 0.063222 -0.056803 0.035571 -0.091069 -0.132276 -0.190623 0.106372 0.066259 -0.051760 -0.132455 0.040386 0.096984 0.250472 -0.217908 0.034812 0.043124 -0.023149 0.176103 -0.051105 0.036619 0.040211 0.018030 -0.047872 -0.039006 -0.028932 -0.107343 -0.191719 0.127909 0.021289 -0.113523 0.051006 0.002362 0.083740 -0.000229 0.138026 -0.030141 -0.081039 -0.008231 0.071106 0.155958 0.088314 0.099497 0.030751 -0.022877 -0.092113 -0.023668 0.017474 -0.309178 0.053198 -0.155244 -0.036043 -0.056402 0.037125 0.056694 0.235912 -0.041142 0.086934 0.055404 -0.173013 -0.029438 -0.037986 -0.070619 0.079457 -0.047723 0.097211 -0.085214 -0.191722 -0.126750 0.041690 -0.051538 -0.250229 0.041279 0.062899 -0.007110 0.000299 0.024303 -0.030504 -0.001778
such -0.014426 -0.060013 0.061259 0.052352 0.162722 0.099735 0.122149 -0.010372 -0.108122 -0.001209 0.032417 -0.057161 -0.055959 0.225055 0.012756 -0.050449 0.096445 0.073098 0.084963 -0.148112 -0.139651 -0.119841 0.096692 -0.199960 0.018637 -0.119468 -0.023496 -0.053429 0.124929 0.149616 -0.175525 0.055915 0.094719 0.083243 0.183242 -0.039723 0.035735 -0.077752 0.046675 0.000586 -0.003100 -0.046480 0.141684 -0.011416 -0.044296 0.018495 -0.047243 -0.110244 -0.189581 0.146731 0.022442 -0.029472 0.142390 -0.024115 0.015918 -0.026357 0.134629 -0.064101 0.019820 -0.145242 -0.048203 0.022451 0.075255 0.098478 -0.073896 0.040435 -0.068796 0.080906 -0.008993 -0.101476 0.047954 -0.135266 -0.079974 0.024658 -0.101945 -0.054354 0.022344 -0.170015 0.096315 0.156835 -0.192369 -0.097874 -0.151059 -0.067326 0.215863 -0.056824 0.028462 -0.124711 -0.145197 -0.055753 0.133732 0.057089 -0.198257 0.009736 -0.002922 0.186170 -0.018690 -0.104149 -0.009291 -0.053120
fantastic 0.000602 -0.063062 -0.041788 0.118683 0.194402 -0.056692 -0.121262 0.097635 -0.154842 0.003170 -0.060212 0.032843 -0.143739 -0.028034 -0.046936 0.022096 0.022964 -0.056685 0.199795 0.104701 -0.069100 -0.119510 0.061965 0.009594 0.072944 -0.087841 -0.087373 -0.000008 0.145648 0.132572 -0.142439 -0.036342 -0.074000 -0.119544 0.054781 -0.140601 0.029877 -0.080076 0.082243 0.021101 -0.209929 0.136754 -0.003670 0.116251 0.101133 0.124579 0.054173 -0.107982 -0.169148 -0.089391 -0.163582 -0.001935 -0.091469 -0.058341 -0.127211 -0.073010 -0.074197 -0.110299 0.123016 0.062140 0.012161 -0.001896 -0.120733 -0.053881 -0.167015 -0.124948 -0.010883 0.015192 -0.157479 0.014900 0.126892 -0.213385 -0.023360 0.144697 0.039706 -0.021381 0.107465 -0.004931 0.097534 -0.090166 -0.099113 -0.157679 0.031850 -0.039159 -0.029217 -0.079370 -0.023051 -0.092023 0.098857 0.022129 0.159490 0.029260 -0.089592 -0.002626 -0.107463 -0.122792 -0.192555 0.039281 -0.027420 -0.177719
awesome -0.118571 0.045364 -0.055416 -0.084290 0.009531 -0.104254 0.114885 -0.114367 -0.030277 0.189961 0.201672 0.097372 -0.085089 -0.015038 0.098954 0.149567 -0.059089 -0.008994 0.032400 -0.100941 -0.051101 0.034472 -0.056969 -0.002276 0.016569 -0.077984 0.005787 -0.047924 0.103259 0.158797 -0.182398 -0.038542 0.166629 0.160285 0.146094 -0.159805 -0.022609 0.056182 0.127231 -0.067007 0.002366 0.105187 0.162920 0.112135 -0.106674 -0.005854 0.017036 0.029327 -0.043837 0.083002 -0.127965 -0.155298 -0.029888 -0.113482 -0.122763 -0.005127 0.170563 0.060633 -0.058801 0.016341 0.096253 -0.062949 0.095900 0.000536 -0.163633 -0.101853 -0.012025 0.142986 -0.092396 -0.025104 0.130280 -0.157665 -0.065669 -0.125848 -0.154267 0.004247 0.074109 0.028063 0.054038 -0.056820 -0.010794 0.015094 -0.081936 -0.143289 0.130054 -0.149877 -0.101231 0.053114 -0.199857 -0.066435 0.125852 0.146809 -0.075821 0.004545 -0.106242 -0.001211 -0.095333 -0.047938 -0.162526 -0.046966
worth -0.058231 0.001368 -0.091501 0.020269 -0.042680 -0.098649 0.048859 0.021888 -0.067456 0.178374 0.021263 0.148728 0.028599 0.201562 -0.051535 -0.033541 0.007986 -0.015898 0.152143 -0.092681 0.052273 -0.188366 0.145152 0.019061 0.056384 -0.080059 -0.036849 -0.021409 0.192647 0.061027 0.065107 -0.075980 0.138622 0.034082 0.030674 0.017396 -0.086066 -0.061824 -0.093793 0.142641 -0.082552 -0.041483 0.128670 -0.097638 0.064356 -0.013918 -0.068001 -0.104927 -0.183939 0.072005 0.048562 -0.082822 0.040248 0.057461 -0.121848 -0.009238 0.178631 0.079548 -0.089117 -0.021371 0.029212 0.134459 0.015730 0.196307 -0.043119 0.030897 -0.122990 0.018966 0.097353 -0.249557 0.060264 0.072917 0.118316 -0.068098 -0.056927 0.061776 0.217103 0.069704 0.118450 -0.060629 -0.164197 -0.028590 -0.023306 -0.031192 0.213204 -0.209018 0.040233 0.089749 0.031891 -0.026668 -0.004448 -0.097495 -0.125280 -0.103026 -0.031602 0.171745 -0.055655 0.027968 -0.175687 0.030688
slow -0.128438 0.102124 0.054341 0.040939 -0.004699 0.024709 0.002199 -0.046227 -0.081129 0.033554 0.109359 0.064436 -0.109230 0.190221 0.063885 0.169075 0.081656 0.203215 -0.032729 -0.102910 -0.029317 -0.050715 0.158557 -0.177432 0.068639 -0.080536 0.005040 -0.034764 0.040562 0.148308 -0.158132 -0.093005 -0.033071 0.017344 0.240859 -0.096453 0.043756 0.071195 -0.077009 0.017254 -0.140550 0.039546 0.077172 -0.065920 -0.000414 -0.024917 0.029888 -0.118695 0.008852 0.197787 -0.010755 0.026220 0.053252 0.087759 -0.056297 0.096882 0.076041 -0.064958 -0.076641 -0.103209 -0.070480 -0.039431 0.006190 0.002175 -0.131271 -0.051099 -0.127731 0.060583 -0.024277 -0.279095 0.029518 -0.026933 -0.041826 0.102487 -0.093014 0.086887 0.100784 -0.125158 -0.009806 -0.035484 -0.226194 -0.137600 -0.030604 0.083590 0.224037 -0.071292 0.029679 -0.119691 -0.148814 0.064323 0.078431 -0.025775 -0.181966 0.039827 0.072347 0.117751 -0.003120 -0.157845 -0.101185 0.015064
especially -0.059210 0.071880 -0.093787 0.147379 0.107496 -0.065855 0.098580 -0.146418 -0.081394 0.036012 0.029936 0.094114 -0.150396 0.147554 -0.086478 0.077814 0.080170 0.164360 0.126075 -0.068015 -0.080508 -0.237842 0.169743 -0.045685 -0.057370 0.018698 -0.129253 -0.089254 0.142437 0.136848 0.008002 0.050877 -0.047035 0.163854 0.146509 -0.192589 0.020865 0.022967 -0.002341 0.056469 -0.014869 -0.083965 0.115463 -0.021415 -0.053256 -0.003805 0.016938 -0.024731 -0.111720 0.194948 0.074587 -0.062450 0.106049 -0.039301 0.084340 0.039473 0.160704 -0.024544 -0.090938 -0.050639 -0.106033 0.111100 -0.001791 0.138248 -0.098956 0.130673 -0.186419 -0.020084 0.039459 -0.139985 0.105522 -0.148362 0.110702 -0.073494 -0.105822 -0.018302 0.076905 -0.088791 0.053256 -0.006077 -0.099698 -0.155025 -0.127552 0.023414 0.078257 -0.113174 0.071672 0.044532 -0.048107 -0.110352 0.075584 0.023995 -0.174729 -0.017081 0.009642 0.089075 0.015073 0.020429 -0.206363 -0.020569
overall 0.019691 0.009445 -0.073120 0.138957 0.060015 0.032901 0.150954 -0.102526 0.055573 0.131792 0.080512 -0.002885 -0.133195 0.167224 -0.035764 -0.011973 -0.052889 0.096423 -0.052188 -0.141661 -0.008812 -0.203478 0.082494 0.004573 -0.037593 -0.037360 -0.121086 -0.141443 0.180072 0.089090 -0.066609 0.016838 -0.079493 0.145726 0.195204 -0.162733 0.043280 -0.062041 -0.019976 0.175057 -0.148719 -0.012244 0.025076 0.027257 -0.015431 0.087304 0.000920 -0.151896 0.017083 0.069351 -0.099953 -0.077956 0.128261 0.040192 0.094281 0.098620 0.183753 -0.009782 -0.012659 -0.072431 -0.124888 -0.030732 0.037965 0.008077 -0.004910 0.102103 -0.051876 0.122862 0.020375 -0.254093 0.026108 -0.163468 -0.022563 0.001095 0.091088 -0.041228 0.041224 -0.150845 0.077594 0.162055 -0.110711 -0.158000 -0.127193 -0.091647 0.069821 -0.155088 -0.043122 -0.028840 -0.058021 0.041890 0.086755 0.104176 -0.265455 -0.011876 0.047852 -0.020559 -0.092980 0.031275 -0.003414 -0.103332
fresh 0.019917 -0.091052 -0.008123 0.025414 -0.058802 -0.089449 -0.032280 0.092676 0.106153 -0.053873 0.097944 0.067191 -0.094346 0.160632 -0.040722 0.119644 -0.148043 0.132568 0.139745 0.039213 -0.093991 -0.203386 0.024595 0.042870 0.011784 0.094999 0.047631 -0.075819 0.114245 -0.087277 -0.164774 -0.154886 0.162925 0.096363 0.165563 -0.076455 0.108272 0.002119 -0.056058 0.059681 -0.143610 0.115410 0.109362 -0.107387 -0.065422 0.088083 0.069060 0.029880 -0.129616 0.065935 -0.024662 -0.059439 0.072711 -0.085356 -0.090698 0.041272 0.222072 0.123024 -0.098064 -0.058511 -0.016138 0.122371 0.163653 0.159689 -0.100739 0.023876 0.049672 -0.079385 0.003770 -0.233177 -0.006444 -0.183177 -0.111672 0.114238 0.033809 -0.076797 0.083962 -0.044646 0.154296 -0.049307 -0.017456 -0.042955 0.049510 -0.015717 0.095644 -0.112512 -0.037171 -0.019947 -0.033117 -0.062072 0.087525 0.087420 -0.217438 0.119090 0.057781 0.163865 0.096218 -0.074997 -0.047847 -0.009439
sure -0.139222 -0.107020 -0.074257 0.059224 -0.039344 -0.047396 0.212242 0.018959 0.078684 0.191788 0.053359 0.152948 -0.043653 0.149859 0.041125 -0.045022 -0.076339 0.097800 0.159716 -0.142090 -0.083229 -0.081778 0.126989 -0.004151 0.021301 -0.007702 -0.161760 -0.184354 0.049451 -0.038578 0.034543 0.024188 0.089784 0.151628 0.151104 -0.164340 -0.015218 0.045040 -0.061341 0.097689 -0.052969 0.088985 0.133893 -0.034746 -0.017404 -0.064454 0.070165 -0.143483 -0.005688 0.151438 -0.118505 -0.129050 0.058677 0.077130 -0.096848 0.102258 0.116475 -0.006860 -0.076544 -0.050831 -0.124935 -0.014446 0.019346 0.111232 -0.002964 0.118000 -0.057818 -0.061573 -0.000250 -0.118774 0.148561 -0.166536 -0.038499 0.087813 -0.081673 0.097958 0.057124 -0.128243 0.040406 0.024665 -0.207589 -0.110236 -0.128905 -0.078770 0.053769 -0.032600 0.037996 -0.164482 -0.104856 0.008860 -0.022997 0.091811 -0.130092 -0.094852 -0.033132 0.144797 0.029657 -0.070437 -0.212623 0.068185
least -0.028189 0.080624 -0.111009 0.078731 0.157866 -0.066462 0.105294 0.034622 0.015933 0.019102 0.234226 -0.060304 0.063444 0.147093 -0.139422 -0.012410 0.067281 0.125462 0.089488 -0.074714 -0.010670 -0.013076 0.129966 -0.167799 0.045255 -0.009531 -0.072461 -0.102669 0.121868 0.131088 0.019507 -0.058410 0.109023 -0.029487 0.286716 -0.020771 0.078236 0.080059 0.025748 0.030853 -0.088920 0.035556 0.094813 0.093287 0.085673 0.044740 -0.068289 0.023983 -0.140985 0.141845 -0.069394 -0.108658 0.037803 0.000948 -0.118347 0.118144 0.043709 -0.029304 -0.072141 -0.013925 0.040286 0.098472 -0.009853 0.191569 -0.097555 0.111016 -0.157957 -0.090163 0.084495 -0.238375 0.044627 -0.132971 -0.107790 -0.110924 -0.093050 0.030068 0.129975 -0.177866 -0.110145 0.163864 -0.012055 -0.062011 -0.060693 -0.117978 0.111240 -0.111289 -0.024398 -0.096896 -0.126514 0.068561 -0.088135 0.055497 -0.160339 -0.092188 0.021199 0.069269 -0.084104 0.068638 -0.043510 0.037203
beautiful -0.138959 0.051875 0.026480 0.047676 0.008143 0.021105 0.215934 0.034453 -0.002545 0.132049 0.094476 0.190904 0.019387 0.030782 0.087360 -0.009785 0.051179 -0.007576 -0.099167 0.087663 0.020537 0.000121 0.061948 -0.218100 -0.030714 0.101432 -0.107338 -0.017841 0.097654 -0.021316 -0.092453 -0.006268 -0.116403 0.173199 0.263908 0.011412 0.118499 -0.113410 -0.146586 0.031480 -0.021400 -0.091413 0.007682 -0.173705 -0.035124 0.119986 0.012239 -0.121550 -0.002995 0.105972 -0.022081 -0.000137 0.096374 0.180044 0.070082 -0.007503 -0.027319 0.055277 -0.009629 -0.146339 -0.065763 -0.013948 0.067513 0.202032 0.021847 -0.089144 -0.061490 0.016969 0.138374 -0.099465 0.150199 -0.135054 -0.041417 -0.081126 -0.144351 0.195819 0.061830 0.013116 -0.126010 0.090172 -0.180523 -0.108941 -0.056257 -0.105374 -0.024857 -0.171444 -0.050539 0.086486 -0.092456 -0.065077 -0.081406 -0.092383 -0.056142 -0.167332 0.013625 0.098516 0.105713 -0.014599 -0.036150 0.130322
awful 0.077872 0.017259 -0.069631 0.020493 0.025983 0.118034 0.149445 -0.120288 0.101149 0.084499 0.174274 0.149563 -0.163905 0.166062 -0.091722 0.110735 -0.067765 0.166218 0.144450 -0.176834 0.049557 -0.086999 -0.020644 -0.161900 0.022279 0.111446 0.052631 -0.106973 0.033952 0.145169 0.074290 -0.029334 -0.070563 0.013871 0.171990 -0.000750 -0.110778 0.100409 -0.054102 -0.045294 -0.186475 0.135029 -0.037538 -0.067863 0.077549 0.068963 0.121982 -0.063731 -0.103675 -0.036388 0.113049 0.086127 -0.024821 0.086886 0.019583 0.080624 0.199624 0.031725 -0.040332 -0.004313 -0.031275 0.148307 0.034005 -0.064386 -0.153213 0.060307 -0.056758 0.127485 -0.137532 -0.094275 0.143393 0.048572 0.061008 -0.069188 -0.135255 0.149730 0.006322 -0.009750 -0.122048 0.105598 -0.195821 0.000859 -0.067843 0.096318 0.073910 -0.032906 -0.019467 -0.032521 -0.023747 -0.037153 0.089976 0.138806 -0.144762 -0.120248 0.011924 0.113702 -0.077578 -0.130284 -0.107139 -0.029641
next 0.040107 0.106992 0.016437 0.002858 0.111141 -0.063157 0.072508 -0.100980 -0.119425 0.075949 0.073427 -0.034636 0.064239 0.065961 0.084301 0.012849 -0.007700 0.169948 -0.050999 -0.051249 -0.116053 -0.208357 -0.032740 -0.070405 -0.021383 -0.083752 0.039386 0.001180 0.230186 0.098946 -0.018035 -0.163079 0.098689 0.135888 0.224949 -0.172615 0.064409 -0.092226 -0.046971 -0.002949 -0.174593 0.061651 0.010749 0.084318 0.058909 -0.021953 -0.064921 -0.021859 -0.183172 0.189403 0.028941 -0.061824 0.056854 0.032257 -0.007075 0.060053 0.091702 -0.054113 -0.075141 -0.064457 0.098513 0.046776 -0.078797 0.129929 -0.021023 -0.011608 0.022625 0.055256 -0.067281 -0.111803 0.148413 -0.031333 0.019258 -0.017325 0.070693 0.062000 0.146411 -0.072474 0.090700 0.073363 -0.220370 -0.010246 -0.147433 -0.003700 0.080359 -0.180128 -0.079127 -0.096781 -0.184316 0.064717 -0.056399 -0.074527 -0.158065 -0.039556 0.085077 0.190531 -0.134552 -0.125842 -0.131549 -0.133314
special -0.142066 -0.045912 -0.045618 0.027153 0.093206 -0.002873 0.145890 -0.047440 -0.058947 0.074438 0.037758 -0.037439 -0.061377 0.199411 0.059447 -0.048916 -0.052262 0.093680 -0.047936 -0.103526 -0.107936 -0.012792 0.174189 -0.029506 -0.040048 0.073097 -0.055357 -0.088246 0.011215 0.015980 -0.080601 -0.058617 0.004317 0.104468 0.138699 -0.153984 0.073159 0.060739 -0.062453 0.044751 -0.131021 0.064626 0.073167 -0.136304 0.007682 -0.098814 0.047512 -0.171699 -0.140371 0.193774 0.052247 -0.058526 -0.054099 0.036431 -0.014123 -0.080934 0.197305 0.062937 0.025864 -0.170691 0.059425 -0.028476 0.127701 0.026296 -0.169841 -0.026372 -0.013226 0.125434 0.030830 -0.193314 0.142900 0.032058 0.123766 -0.020677 0.016713 0.000941 0.046455 -0.062764 0.035144 -0.026364 -0.102464 -0.113699 0.021940 0.065090 0.129333 -0.179925 0.049480 -0.135454 -0.165409 -0.117861 -0.026069 0.054964 -0.261607 -0.097381 0.058823 0.187384 0.076680 -0.149030 -0.207812 -0.039440
must 0.089570 0.013643 0.064244 0.010728 0.114630 -0.029383 0.037460 -0.050762 -0.110139 -0.009018 0.039136 0.047961 -0.096116 0.114818 -0.081348 0.146091 0.120323 -0.014613 0.027871 -0.132453 -0.011436 -0.048892 0.173266 -0.095537 -0.110497 0.034944 0.017692 -0.054705 0.028890 0.020226 -0.067167 -0.154496 -0.091600 0.153854 0.297735 -0.007644 0.113024 0.007330 0.032009 0.145698 -0.024631 -0.119776 -0.103184 -0.128683 -0.071818 0.050072 0.005530 -0.087882 -0.009659 0.206459 0.047124 0.090931 -0.001936 0.019283 0.127877 0.113185 0.035653 -0.056080 0.072146 -0.184841 -0.083082 0.098054 0.065130 0.168132 -0.019941 -0.058029 0.005990 0.051257 0.058409 -0.129448 -0.032471 -0.022258 -0.036174 0.019260 0.102166 -0.066296 0.120778 -0.057531 0.027172 0.120807 -0.041363 -0.074685 -0.143017 0.062824 0.133743 -0.015614 0.009076 -0.172216 -0.080308 0.028330 0.056127 -0.088354 -0.310087 0.015993 -0.076269 0.197640 -0.146647 0.081650 -0.216515 -0.033377
impressed -0.003524 0.032784 0.153736 0.103383 0.017272 0.080699 -0.077969 -0.183835 0.049142 -0.073400 0.122613 0.004074 -0.096723 -0.058812 0.022113 -0.114704 -0.078423 -0.042527 -0.058653 -0.089139 0.072736 -0.145478 -0.062473 -0.180339 0.037883 0.137960 0.037973 -0.130588 -0.007679 0.143134 -0.032134 0.084084 0.021952 0.036146 -0.005384 -0.046425 -0.053576 -0.103016 0.106667 -0.111371 0.086084 0.001823 -0.091899 0.061892 -0.103228 -0.078157 0.008372 -0.145545 -0.069864 0.126533 -0.168319 -0.069229 -0.141053 -0.107174 -0.094434 -0.151557 0.054612 -0.097405 0.152231 -0.189265 0.122373 0.126382 0.012898 0.031599 -0.114333 -0.133966 -0.052852 0.045856 -0.135860 -0.209739 0.083096 0.126975 -0.110267 -0.042997 0.116769 0.161021 0.136772 0.053455 -0.025699 0.175474 -0.191918 -0.188724 0.010023 0.070095 0.206758 -0.035287 -0.076109 -0.061974 -0.055735 0.113811 -0.010926 0.012992 -0.080594 0.029386 0.039217 0.070056 0.084692 -0.004208 -0.011968 -0.048931
cool 0.026448 0.100160 0.014283 0.051269 0.156246 0.010970 -0.010190 -0.135827 -0.094414 0.148045 0.164125 0.120592 -0.030830 0.013594 -0.119632 -0.021894 0.058428 0.008915 0.118646 -0.156563 -0.068907 -0.156200 0.082534 0.017796 -0.089260 0.076466 0.041084 -0.183990 0.181603 -0.009476 -0.111880 0.011327 0.013211 0.163418 0.186809 -0.178104 -0.079437 -0.052276 -0.123043 0.099974 -0.041976 0.079429 -0.013711 -0.051915 -0.042911 -0.038900 0.018221 -0.133356 -0.108156 0.015218 0.054909 -0.093344 0.024228 -0.063876 0.074616 0.089728 0.042046 -0.031925 0.084697 -0.177097 -0.075029 0.062452 0.097591 0.180295 -0.116147 -0.023270 -0.109540 0.096745 0.089410 -0.260608 0.111790 -0.023921 0.061642 -0.017652 0.012474 0.074115 0.153513 0.013837 0.064258 0.081555 -0.149511 -0.176112 -0.046665 0.043802 0.119236 -0.057631 -0.065796 -0.125122 -0.091614 -0.004185 -0.057423 0.100372 -0.243897 -0.100621 0.035736 0.078128 0.029051 -0.062801 -0.125340 0.061882
black -0.080565 -0.065846 -0.087205 -0.041634 0.146339 -0.058176 0.024429 -0.112768 0.078829 0.110767 0.106725 0.069568 0.031056 0.071170 -0.120038 0.165448 -0.051563 0.160162 0.033760 0.032681 -0.043337 -0.184007 -0.002355 -0.129047 0.026179 -0.078355 -0.098558 -0.120217 0.147908 0.126962 -0.083214 -0.098618 -0.011262 -0.000666 0.195358 -0.032710 0.099350 -0.003038 0.040773 0.023848 -0.189735 -0.066641 -0.000317 -0.062285 0.082201 -0.064805 0.071721 -0.154076 -0.191073 0.037798 -0.118388 0.044397 0.050873 0.094946 0.026482 -0.070757 0.123092 0.066383 0.051385 -0.044416 0.039139 0.033539 -0.046961 0.189370 -0.103527 0.116809 -0.062211 0.123125 -0.023892 -0.192012 0.091456 -0.093013 0.074432 -0.041381 -0.050862 0.042719 0.163669 -0.148620 0.019501 0.159688 -0.206485 -0.088630 0.004975 -0.087431 0.172013 -0.167562 -0.072879 -0.051230 -0.124143 0.060419 0.117338 -0.029504 -0.083074 -0.097874 0.123824 0.151993 0.027821 -0.123334 -0.045940 -0.064375
ear -0.083214 0.109789 0.090873 0.055529 0.144192 0.038782 0.075448 -0.140775 -0.106975 -0.001765 0.142410 0.038690 -0.028855 0.079817 0.080876 0.044522 -0.071656 0.071797 -0.019175 -0.086264 -0.123995 -0.108825 -0.000286 -0.090729 -0.060059 -0.098603 0.048610 -0.114489 0.051663 0.003487 -0.060912 -0.100378 -0.037984 0.076382 0.243910 -0.168149 0.079244 -0.054743 -0.072176 0.143608 -0.124141 -0.045331 0.116198 0.082587 -0.022550 -0.077005 0.027347 0.035225 -0.152877 0.100477 -0.087557 0.034563 0.131131 -0.074421 -0.092932 -0.104932 0.155014 0.001358 0.021821 -0.119008 0.038847 -0.000989 0.042800 0.189121 -0.015466 -0.014593 0.010351 -0.055543 0.056228 -0.273322 0.060200 -0.153918 0.047937 0.081794 -0.064699 0.116215 0.166843 -0.027487 0.108581 -0.031628 -0.132392 -0.043341 -0.068940 0.087931 0.175821 -0.165688 0.030120 -0.146206 -0.100237 -0.002644 -0.014535 -0.020354 -0.247745 -0.106252 -0.043761 0.161301 -0.091637 -0.048072 -0.153817 -0.013395
completely 0.066635 0.070326 -0.114733 -0.041176 0.012058 0.104890 0.099045 -0.119251 -0.131597 0.098050 0.063517 -0.087621 -0.086432 0.061143 0.103768 0.121009 0.105860 -0.016194 0.097901 -0.042834 -0.030787 -0.095504 0.005087 -0.066459 -0.005561 -0.034195 -0.086547 -0.196809 0.195896 0.114495 -0.166170 0.050731 -0.084486 0.152034 0.048488 -0.007080 0.136190 -0.018363 -0.138999 0.170398 -0.148156 -0.015643 0.010356 -0.057455 0.013776 -0.130205 0.018376 -0.051957 -0.124232 0.061276 -0.143985 -0.088217 0.120361 0.035318 0.026003 0.069991 0.148924 -0.112672 0.038842 -0.012429 0.023226 0.141329 0.067749 0.058665 -0.016984 -0.022201 -0.027566 -0.094964 -0.065850 -0.159008 -0.083953 -0.069834 -0.089623 -0.124077 0.007729 0.023899 0.092105 -0.162684 -0.102504 0.053007 -0.182600 -0.183438 -0.112825 0.011601 -0.007909 -0.193303 -0.052124 -0.144316 -0.156166 0.087987 0.148223 0.054690 -0.135865 -0.061911 -0.032825 0.173139 -0.032461 -0.121666 -0.165818 -0.001650
almost -0.089270 -0.020549 -0.096211 -0.071641 0.044375 -0.075458 0.103949 -0.018195 -0.030494 0.107642 0.193121 0.032749 -0.159915 0.222046 -0.034419 0.001978 0.043623 0.209889 -0.037786 -0.109694 0.005141 -0.189141 0.102264 -0.199260 0.040993 -0.091667 -0.046420 -0.192918 0.168430 0.036782 -0.108363 -0.026982 0.096741 0.008639 0.207674 -0.042135 -0.096790 0.074661 0.000061 0.039979 -0.084682 -0.021753 0.010034 -0.014947 0.044663 0.085468 -0.067894 -0.068453 -0.039559 0.088545 -0.139642 0.065308 0.001627 0.093654 -0.023996 -0.078507 0.161828 -0.053128 0.118888 -0.201670 -0.004509 0.162806 0.020657 0.118729 0.063833 -0.076259 -0.151290 0.121168 -0.044193 -0.217934 0.009872 -0.072218 -0.095360 -0.125191 0.111365 -0.011097 0.090970 0.009989 0.119046 0.089020 -0.140553 -0.200576 0.072086 -0.010645 0.022579 -0.079523 -0.127556 0.063871 0.000818 -0.056949 0.128990 -0.110369 -0.111278 0.049303 0.029631 0.038176 -0.027363 -0.104810 0.006358 0.000218
simply 0.094222 -0.093691 -0.056191 -0.020326 0.118467 0.068305 -0.044403 -0.067422 0.003565 0.108999 0.038612 0.035419 0.077121 0.246081 0.011171 -0.005287 -0.100261 0.230484 -0.018220 -0.179759 -0.156971 -0.087496 0.013587 -0.048166 0.020188 0.030016 0.005351 -0.245867 0.021402 -0.074429 -0.069538 -0.161355 0.091133 -0.054922 0.303533 -0.086797 0.132688 0.040281 0.014939 0.049189 -0.054147 -0.074599 -0.027089 -0.001926 -0.018211 -0.122388 0.020571 0.033464 -0.086126 0.108487 0.032374 0.007927 -0.012887 0.029706 0.008828 -0.057870 0.077978 -0.065710 0.068390 -0.110343 -0.044255 0.041618 -0.005440 0.080951 -0.050199 -0.077187 -0.150403 -0.073121 -0.117238 -0.199733 -0.044390 -0.196954 0.034608 -0.035082 0.054737 0.173357 0.076117 -0.040939 -0.110348 0.055794 -0.152544 -0.035269 -0.077026 -0.067926 0.229045 -0.133853 -0.073949 0.045731 -0.085133 -0.123012 -0.076222 0.053282 -0.213656 -0.096000 -0.004302 0.111971 -0.066521 -0.092497 -0.081892 0.039024
low -0.039324 0.013877 0.118935 0.135403 -0.049108 0.011835 0.133116 -0.087658 0.045584 -0.011324 0.219778 0.117439 0.022404 0.101880 -0.123271 -0.059327 -0.050906 0.052987 0.025495 -0.150429 -0.087986 -0.084042 0.057625 -0.176697 -0.013773 -0.025860 -0.162652 0.011768 0.222969 0.150622 -0.042180 -0.063323 0.023125 -0.057425 0.076632 -0.110390 -0.095504 -0.043101 -0.127192 0.086708 -0.105929 -0.055237 -0.030679 -0.087274 -0.033133 0.074997 -0.108955 -0.126190 -0.180066 0.049341 0.071632 -0.053476 -0.027865 -0.060847 0.001815 -0.006753 0.174333 -0.128580 0.089126 -0.078794 -0.075927 0.010646 -0.091367 0.018647 -0.146474 0.139192 -0.016457 0.064548 -0.106525 -0.263651 -0.011419 -0.138188 0.057830 -0.119800 -0.015085 -0.062567 0.190640 -0.146757 -0.045466 0.132360 -0.038095 0.002584 0.023186 0.051666 0.177131 -0.026422 -0.074517 -0.103341 -0.099775 -0.126493 -0.021156 0.134137 -0.171207 0.016397 -0.073408 0.077519 -0.009535 -0.030049 -0.156897 -0.121268
hard -0.106678 -0.063787 0.025548 -0.079345 -0.048085 0.023110 0.051521 -0.145058 -0.043133 0.119570 0.204891 0.154374 0.038300 0.210372 0.014930 -0.027190 -0.085606 0.029611 -0.004405 0.049343 0.063899 -0.056589 -0.010713 -0.044722 0.014137 -0.025351 -0.063820 0.006985 0.192093 0.058347 -0.015074 0.065310 0.123950 0.034969 0.194262 -0.206865 0.007122 0.045558 -0.074146 0.045010 -0.162112 -0.050847 0.039139 0.063246 0.069336 0.109920 0.015144 -0.112888 -0.065330 0.140982 -0.087530 0.023637 -0.042249 -0.038087 -0.086925 -0.038179 0.074487 0.102369 -0.103616 -0.093013 -0.131959 -0.008347 0.127222 0.112442 -0.016646 0.024450 -0.202312 0.010991 -0.085911 -0.264876 -0.005791 -0.064313 0.019731 0.084303 -0.068782 -0.047960 0.206029 -0.086807 -0.030117 -0.036025 -0.110889 -0.170748 -0.144603 -0.112736 0.091471 -0.183996 0.053128 0.036086 -0.051071 -0.103853 -0.032609 0.104209 -0.268448 0.093437 -0.090876 0.121255 -0.070363 -0.004148 -0.003157 -0.096947
short -0.112115 0.030992 -0.006189 0.127090 0.018637 0.058466 0.003122 -0.167028 0.084667 0.149064 0.136205 -0.016466 0.023921 0.040192 -0.082884 0.034295 0.084602 0.045116 0.132442 -0.075568 -0.070491 0.008434 0.119705 -0.093718 0.087803 -0.054521 -0.005263 -0.119166 0.206269 0.031808 -0.071868 0.081692 0.091654 0.054435 0.058434 -0.091142 0.114417 -0.016412 -0.062854 0.213592 -0.107337 0.059211 0.069291 0.037585 0.076616 -0.112505 0.115232 -0.034066 -0.006591 -0.022005 -0.084129 -0.002604 -0.082741 0.065155 0.045783 -0.083086 0.171061 0.031102 0.049115 -0.205534 0.023149 0.088813 0.037211 0.018192 -0.023031 0.016326 -0.075929 -0.017005 -0.053840 -0.293412 -0.058847 -0.052656 0.033937 0.043961 -0.000899 0.030850 0.198394 -0.182239 0.011569 -0.028576 -0.105958 -0.194843 0.013779 -0.117718 0.185515 -0.225186 -0.075205 -0.166482 -0.011258 0.067039 -0.095729 -0.017472 -0.142455 0.059794 0.110466 0.058419 -0.145499 0.033866 -0.189049 0.115341
seriously -0.022630 -0.117875 0.015054 0.035615 0.000316 0.122443 0.199871 -0.178104 -0.020026 -0.045068 0.155144 0.130237 0.023963 0.113912 0.028818 0.160674 -0.084953 0.051524 0.050485 0.015260 -0.011400 -0.175323 0.087596 -0.148266 -0.072903 -0.073734 -0.138243 -0.176718 -0.028139 0.015494 0.004901 -0.129377 -0.030390 0.092134 0.073040 -0.037899 0.098584 0.004029 0.046306 0.079221 -0.050939 0.048953 -0.006919 -0.020333 0.020851 -0.088314 -0.056307 -0.029370 -0.081516 -0.042534 0.111211 -0.102797 0.098078 0.120941 -0.133064 -0.118960 0.044964 0.035099 -0.026571 -0.147057 -0.000202 0.043374 -0.033169 0.201090 -0.120768 0.009650 -0.090308 0.128228 -0.035172 -0.099124 -0.025566 -0.082639 -0.120676 -0.050819 -0.078373 0.125948 0.012594 -0.165402 0.133953 -0.067018 -0.204852 -0.135504 -0.029542 0.123954 0.167088 -0.107232 -0.097505 -0.160221 -0.004154 -0.155250 0.087863 0.142855 -0.270570 0.086699 0.093392 -0.014487 -0.004273 -0.072009 -0.075852 -0.047058
